3.169579293643294549e-02,-9.784395848994296291e-03,1.480773872407407932e-02,-3.785971862326764636e-04,-1.897769798017777745e-02,2.632429395905434150e-02,-2.472107662467165623e-02,-3.531700248954941501e-02,8.778182751433730169e-03,-3.005051832895395264e-02
-1.949326405699111989e-02,-2.800929557209844503e-02,-1.105679243457620420e-03,4.124085771728625005e-03,-6.632168385643004427e-03,-1.393711502547927486e-02,-3.980760114153492069e-03,-1.682691237866144537e-02,-3.271006186837913804e-02,4.689668658196748108e-03
1.104803664620949977e-02,3.442711939662634890e-02,2.922373875498313067e-02,-1.572421490758903195e-03,-5.207144671357830795e-03,-7.818763856705299858e-03,1.028061055298128135e-02,2.576813014339853630e-02,2.444085897847184108e-03,-1.476076282069982426e-02
-2.868888506155767640e-02,-3.520044911834153273e-02,-2.976147151157846130e-02,5.166170726493744814e-03,-1.737863865334093871e-02,-1.117730317761519640e-02,-9.793595667831937746e-03,2.671792060968798677e-02,-4.348313145794278911e-03,-1.880264143293224055e-03
-1.178641283655862404e-02,-9.861962792107728526e-03,4.236676067413638891e-03,3.356275560892123255e-02,1.876112286909250443e-02,-4.152145278712764120e-03,1.598334528634270252e-02,4.516000457760682707e-03,1.964729917929852049e-02,2.278486500006149384e-02
-4.314602110274110003e-03,2.254150116137158821e-03,8.888166402399477750e-03,-1.720048022459157513e-02,3.028777550537525842e-02,-2.132655206986217716e-02,1.949282489187045136e-02,1.919991117439864836e-02,-3.484893463405950437e-02,-1.620347080045554666e-02
2.137256929055743326e-02,2.548828820066651596e-02,-6.232548498647197399e-03,-7.944715000067145705e-04,1.090924700759163257e-02,1.143209541823355518e-02,2.400239371021019308e-02,1.645862123260788401e-02,2.997080483908212689e-02,3.264958108064076880e-03
-2.910322330487929987e-02,1.901990263260343317e-03,-2.673374810865498941e-03,7.374763573898893143e-04,8.867310879159144565e-03,3.389231759251841447e-02,-3.210321079252312360e-02,-3.488802870752663599e-02,2.479951258321760887e-02,-1.818669836888819891e-02
-1.332996280824483987e-02,3.509134306947810089e-02,3.130616303177034820e-02,6.586038701056909361e-03,3.351794192382684390e-02,2.341881438503064933e-02,1.764757037445584958e-02,1.938515062635744191e-02,-2.535154784212129836e-02,1.911191267676579097e-02
-1.026875582593940461e-02,1.769319111590074434e-02,1.175935075897908966e-03,2.591183932634097409e-02,6.949932186027130143e-03,-2.130890432007268367e-02,-2.426260199712998444e-02,1.357090652195595826e-02,2.576898022440128611e-02,7.145604463421738328e-03
-3.470981807334490993e-02,6.290525022749689221e-03,3.457134886289506270e-02,-2.172392295018045483e-02,-2.794980696295057410e-02,2.481586006690511548e-02,3.249386583146868235e-02,-2.180746900049413545e-02,-1.919196209839450426e-02,3.270666194270292759e-03
-2.358429190589752394e-02,1.171472565768678920e-02,-2.926404306277896605e-02,-2.269088919724911863e-02,1.585835466451684245e-02,-1.827483615059764810e-03,-8.256151974808730032e-03,1.168842985209528340e-03,-1.715527368377964615e-02,-2.711693068670413542e-02
9.918349184896875503e-03,5.359905923374430614e-05,-9.320241852954911504e-03,1.204662256976825330e-02,-1.676831044435875273e-04,1.409781720008697337e-03,2.682301425584059096e-02,1.029318215274206694e-02,-3.149964615153798969e-02,1.154828766849604060e-02
4.520132262689199876e-03,1.990389332038012410e-02,-2.848819423029404913e-02,-2.320747874573866193e-02,3.519659701278865516e-02,8.459022945651796521e-03,7.753826734763921702e-03,-1.379194685304455451e-02,2.787015631819671213e-02,-2.706656073656450723e-02
-3.006679436447146081e-02,-2.472533794456382300e-02,-2.958669512689649644e-02,2.256432167769772956e-02,3.227038087530552379e-02,-1.064469552433561922e-02,-2.979382865404928832e-02,-2.948423404415723842e-02,-4.847607527751880696e-03,-1.456679668163107788e-02
-3.422913394474594306e-02,-2.126342351207571868e-02,-1.212105981043156908e-02,-1.737629908866329675e-02,-2.041827272380849351e-02,1.545162750220235859e-02,-3.378434713773048603e-02,-2.154712409314573501e-02,1.253922024035376837e-02,-3.668988572681081139e-04
1.509895431735531340e-02,-3.931842967713039538e-03,-2.768975552863059408e-02,1.175287494985213788e-02,-3.242067072867335642e-02,-8.175515612760475559e-03,5.081316496826908391e-03,-1.316206327634523998e-02,-1.078436302280947126e-02,6.611468741645157299e-03
-4.826969066002620434e-03,-3.559582471721658287e-02,-1.697477625298341938e-02,-4.363621615430413048e-03,-4.686534500861275210e-04,-1.938747189812777341e-02,1.111175693196920361e-02,5.459784180862750635e-03,3.163035718496085003e-02,2.610964824938970946e-02
9.427075069615931113e-03,1.954814531570328584e-03,-2.160143629300617998e-02,2.984210087024904978e-02,3.086132843885536214e-02,2.226594511203880411e-02,-9.138620112987008715e-03,7.055170995610773876e-04,8.423893361202014485e-03,8.179030425487475442e-03
-3.257864364157388865e-02,-1.989791764080378611e-02,1.984620240534780422e-02,-5.954178452534011207e-03,-3.744577876465225719e-03,-5.055266554325723444e-03,-2.852526244561449237e-02,3.068931723563983471e-02,6.403854309483168750e-03,-2.509567440496886237e-02
-3.384812756950827950e-02,1.134923936715911963e-02,3.057340112782676311e-02,-2.819456242606843688e-02,-1.400945165075345722e-02,-2.047965891180082015e-02,-5.673210919674525482e-03,5.487951493441632633e-03,-3.538412395607706817e-02,-1.808765123410309775e-02
-2.073897463721399714e-04,4.149240286767656716e-03,1.851142352738276847e-02,2.873330787337266545e-02,3.822430748171248838e-03,2.933812727936822851e-02,1.451829394993991995e-02,-1.530893171154181984e-02,2.750619204877095825e-02,-2.692375159200424001e-02
-6.314854223597801686e-03,1.445310350720675763e-02,2.986054002668978025e-03,7.387023067881019756e-03,2.044433803768749836e-02,-1.828655470606194156e-02,2.244340301050263414e-02,3.232124670893044005e-02,-3.021767479712340887e-02,1.038453742679611852e-02
-1.606781848280577560e-02,-1.219630457033189092e-02,5.346288061490477028e-03,1.263066186575392824e-02,2.237068669725104930e-02,2.577054117571954406e-02,1.701491182514842937e-03,1.501950678270425749e-02,1.275850718072079476e-02,2.389250946120477503e-02
1.629572719424444288e-02,-2.880087276474121299e-02,1.053354539765198605e-02,-1.814349502574177583e-02,3.069244920054008119e-02,3.292588786983001448e-02,-1.423269860599491593e-02,1.296378742265880124e-02,-3.308159223354340678e-02,1.975595507255114430e-02
2.574665733548708174e-02,5.504471947070176119e-03,3.410723598764453524e-02,-6.448850888021398498e-03,1.233616662227383920e-03,-2.765652359735283616e-02,2.327026596725919466e-02,2.267634043843891334e-03,1.358560955264768999e-02,2.450675342241877969e-02
-1.252527629148797450e-02,2.096593212408029427e-03,-1.374917561366483312e-02,2.762064705209901772e-02,-2.256378251024040299e-02,4.875936036508439486e-03,-3.480759295984504204e-02,-3.251914732172440925e-02,-1.753843279104951025e-02,3.105241138015855940e-02
-1.229766506342303348e-02,1.762552325260086095e-02,-2.016127069461483984e-02,-1.178382436336842046e-02,2.997903666985372861e-02,1.144647140568872540e-02,-1.872587859793364493e-02,3.135136226923218583e-02,2.202589200763577920e-02,5.135707585551582688e-03
-3.464788120935002880e-02,3.055240226073005494e-02,-4.780898434141891279e-03,-3.013838820164999738e-02,-1.605706442567149048e-02,-1.329404572167525167e-02,-2.733883423014087793e-02,8.775444288895699330e-03,-1.230955147444054779e-02,-3.058995886419456009e-02
-1.022871285969654750e-02,9.560460013053044548e-03,-3.028470619873646630e-02,1.061537958609398008e-02,-1.664996506480418206e-02,-1.672976152131334243e-02,-6.389076806208680154e-03,1.126025826892237958e-02,-3.022111917028988751e-02,-1.014142820251036359e-02
1.203846876478869427e-02,-1.115661927578555368e-02,-3.212523272017916987e-03,1.858029840943225403e-02,-1.379489670518370403e-02,-3.522994365843859499e-02,8.653974057121600894e-03,-8.807724295996712666e-03,-2.329041523587190715e-02,2.723911566421621799e-02
3.350382370602757176e-02,2.364408325525828997e-02,-2.911242366544760513e-02,7.283132352511094421e-03,1.550724983786053168e-02,-1.183561727974258987e-02,1.346950701403101802e-02,3.447401237708341837e-02,2.632899202133169581e-02,8.695816039200089664e-03
-8.223557852630718895e-03,6.653061454524829277e-03,-1.207251328709972246e-02,1.821323376297655228e-02,-2.380484974354141192e-02,5.409155978402531428e-03,1.976331175941358625e-02,2.038906032080523706e-02,-2.680705078631596960e-02,1.484344262906516637e-02
-1.124599523007377422e-03,-5.470001138095814675e-03,3.716894278978088995e-05,-3.543122366367654902e-02,4.403386992775717990e-04,-2.559694565732289345e-02,3.354207246661905506e-02,1.418843164987217825e-02,-2.623919695714791930e-02,3.398238947101743512e-02
-3.431771019439256581e-02,2.074001127924648968e-03,1.117364578354206744e-02,-1.621128213835076881e-02,-2.019955281811006489e-02,-2.922604417602832350e-02,3.098856535318186833e-02,-1.621963928821953602e-02,-1.143286985085504789e-02,-4.003159202238724956e-03
6.289405372427891994e-03,-1.670266384841824492e-02,-6.091465856953161978e-03,1.802483119689238245e-03,7.241976755227100271e-03,-2.288789207149220448e-02,3.178324155019700281e-02,-9.447222379778241752e-03,-1.346189939248165768e-02,1.973034034820350668e-02
6.612116987274964386e-03,-4.682903097938173609e-03,2.745886221764283486e-02,-3.516323471647598425e-02,1.244977363719594610e-02,3.499685206878022647e-02,2.616383310797700673e-02,2.117008225789085429e-02,6.676720857161040634e-03,-2.164589560600051893e-02
-2.852520318448589082e-02,-2.000358062418459634e-02,-2.081205475574696498e-02,-3.308354211094370612e-03,2.533948043675817580e-02,2.302601754815860463e-02,2.953782344813801752e-02,-1.180631390332162120e-02,-5.325596150940407891e-03,-3.044892317070050855e-02
-6.880410970588106412e-03,-3.137903612637633899e-02,-1.215298309848354338e-02,-8.233818031676696375e-03,2.057270508301606987e-02,-1.025125579732465847e-02,-2.844879824120558412e-02,-1.089684955947246153e-02,2.554583314812377409e-02,9.694189712602406528e-03
-7.911083711836588983e-03,3.428404766057288611e-02,2.806564624131140107e-02,3.479777316139896770e-02,-1.494832154721480524e-02,-1.591675933674843377e-02,8.109060413060788230e-03,-1.123211948450296080e-02,-2.126911061444143602e-03,2.459471925178489948e-02
-3.057555689384650055e-02,-4.981708585012192825e-03,2.533388512637999024e-02,-1.066527584762295283e-02,1.398901517303274833e-02,1.076604939687788448e-02,1.455276495487566046e-03,2.076204128275526556e-02,-1.582508882597563962e-02,9.966663095642910863e-03
-9.075130192248297839e-03,-3.340149825437274678e-03,3.338749018539401148e-03,1.867891700770828167e-02,9.908820742674018245e-03,-2.770498727383654408e-02,-3.448176898388211065e-02,1.835030219678893126e-02,1.567403164180634911e-02,1.366482966296048152e-02
2.262461622054273702e-02,4.885747118846428538e-03,-7.332994287551866663e-03,2.689551295357350824e-02,-5.060701193055211489e-04,6.741446456375851937e-03,-2.496098994819985484e-03,-1.737143154590348876e-02,-3.290866128155141984e-02,3.124444579946319966e-02
-9.208530258003815722e-03,2.530604645525041940e-02,-1.422581756939772513e-02,-7.913594820569396643e-03,2.344648132887115766e-02,1.653883966026557795e-02,3.822762305264730542e-03,-3.243984214041469721e-02,1.692042679499299734e-02,1.249612309544720357e-02
3.430342248703130426e-02,2.974464283979953716e-03,2.264502619276187456e-03,-8.533176679101941303e-03,1.466998070821851768e-02,-1.032313322467002040e-02,-2.739337609157213582e-02,9.214608050586513277e-03,6.252299033452202170e-03,-2.813053009037475016e-02
-2.796852867573099491e-02,9.418601645183218019e-03,3.339897719505960372e-02,2.374238671896047870e-02,-1.955175278986177878e-02,-2.755961817740737452e-02,-3.569504329164618212e-02,2.048469864346007946e-02,7.865247382527258690e-03,-2.639819395683445924e-02
2.396943634827414932e-02,3.330699147037363694e-02,-8.136200174719623868e-03,2.546650562253997829e-02,5.056724468196154010e-03,-1.119464661120094656e-02,-1.793029533939879960e-04,-2.844976791741288952e-02,1.381016083641177505e-02,3.126177586993056368e-02
2.895795458559889679e-02,3.264990607426164482e-02,-6.347750415872131097e-03,1.061632600322338915e-02,-5.314335963372805033e-03,-2.678171413441696180e-02,2.855838254165733725e-02,3.555856369353588287e-02,2.890592989598908535e-02,2.174351842633162613e-02
-2.053551610130509991e-02,-3.073965520691715816e-02,1.155094611627455886e-02,1.781824071413164179e-02,-8.840518207613397295e-03,8.567103668998501953e-03,2.830429426637096069e-02,2.547297336573405013e-02,4.393358802203775615e-03,2.449958170834201643e-02
8.575296133755169747e-03,-3.089513052780462621e-02,-2.936118204182744731e-02,3.457110899947025973e-03,-3.229406641905985947e-02,2.379588413343564773e-02,6.340274120597129415e-03,2.346681217844699685e-02,-2.121404824182818519e-02,1.575142352922827282e-02
-3.186597271517578600e-03,-1.818477802915447611e-02,2.591601967962166991e-02,3.342031096108641353e-02,2.266112626236201077e-02,-3.013531255446820142e-02,5.308451449258677624e-03,1.566371715697549571e-02,-6.768919690434804792e-03,2.144995930266980350e-02
-3.056438320763451427e-02,-2.447122702848304049e-02,3.184631506137289292e-02,3.244492187691516705e-02,2.032062879348945500e-02,-2.687066133707494836e-02,2.121762002876011188e-03,7.225002428262600196e-04,1.181012432693737124e-03,-1.013928439841709633e-02
-2.904259551458441072e-02,-8.885808102598105607e-03,-9.137256112076799081e-03,1.102141524652763827e-02,-1.035051988184855498e-03,3.049029323300217476e-02,1.078749795873944900e-02,-1.946721698846945806e-02,-3.536100041822229367e-02,-2.423349729639791977e-02
1.005939974964309425e-02,1.593069544460568726e-02,-7.569369060834590240e-03,2.761848301462137278e-02,-9.270670129152211447e-04,1.491750224672212799e-02,-9.018883400215796375e-03,3.313023729837480391e-03,2.869795982544036395e-02,2.721411808155375922e-02
3.327695999269743299e-02,2.693545289141424659e-02,2.991667437259946938e-03,-1.406637660237949547e-02,2.898831354998561427e-02,-1.324054750568048194e-02,-1.380564928805894098e-02,-1.084056159415478296e-02,-2.374878681603814767e-02,-1.368991485058021138e-02
2.558687888693345069e-02,1.854202293267078611e-02,1.198146105903403341e-02,1.103973211271272459e-03,-2.462586291810618319e-02,-1.932083262084439979e-02,-3.416792699619537743e-03,1.305261155648703569e-02,-2.628347542764407005e-02,-2.691826860981315003e-02
4.465945204636181942e-03,-2.728976619274007739e-02,-2.974747700238739023e-02,1.480231969852623813e-02,-2.836045962985856567e-02,-1.824838174175544628e-02,-2.449412071298868315e-02,-3.555876779194819259e-02,2.671572010571931360e-02,-1.114489915789398933e-03
2.432425197063194794e-02,3.189379462770805529e-02,3.393085718729257905e-02,-2.191267799546030293e-03,-2.109315364120079028e-02,2.952015469361471411e-02,-1.055668470889134167e-02,-1.687019634436847174e-02,-1.499946372949712003e-02,-6.948569612970918741e-03
1.423488199029629420e-02,-7.573278359083428918e-03,4.169057971654809014e-03,-5.653050809008457189e-03,1.296033478544031392e-02,6.743310347702410890e-03,-3.120090206845664224e-02,3.559175217571249050e-02,3.164015869520253599e-02,-2.473482224648988065e-02
-3.082168205400441161e-02,1.897191692957763548e-02,3.490559816216454170e-02,-3.429503224859286464e-02,-1.703416855460417045e-02,-2.553675318263400745e-02,3.199051941232604335e-02,-2.153428421672917703e-03,2.281887384088485127e-02,5.493394285200917104e-03
2.650732031228075769e-02,-2.616458305787391914e-02,-8.650952973325725520e-03,3.334402437085497162e-02,-1.988694515980458932e-03,7.775258870813275824e-03,-1.867395085985307929e-02,-2.100753541790752188e-02,2.532789399719584389e-03,2.140821480998111176e-02
1.487941576906796903e-02,-3.311277027774659626e-02,-2.296074227054933914e-02,-2.002988809257991512e-02,-1.561771103176145051e-02,-2.549537276108228279e-02,8.895092498524687086e-04,2.557783155556707377e-02,1.350609943905671517e-02,-3.280820906700609302e-02
3.194073109489160844e-02,-3.478755295234529227e-02,1.295195718511671368e-02,3.232498231712503667e-02,3.038869327122167840e-02,-1.350865469836144694e-02,1.535325663372950900e-02,-1.123276136368244610e-02,-2.258689469804684227e-02,-1.877890152467859980e-02
-7.542860373629167725e-03,2.113065322224889214e-02,-1.021342777503959215e-02,-3.314565106000075950e-02,-2.959177110437597250e-02,-2.083879838816002708e-02,-3.534728765871635731e-02,2.891035135192440708e-02,2.231368469558378531e-02,-2.497753363230430929e-02
2.190442610063192408e-02,-1.030559206019079563e-02,1.375608708653512646e-02,2.954600598251214127e-02,2.399171488616647779e-02,-8.249922917316243609e-03,-3.064512904537540147e-02,1.693389479885289844e-02,6.443020270258968674e-03,3.505635812622760750e-03
-1.818163162664683530e-02,1.345121754195732072e-02,1.996877009118862289e-02,5.700820213380364265e-03,-3.041319871546557807e-04,-3.069957835401545404e-02,-5.517142462514928319e-03,-2.696078127921128220e-02,-3.426825786956762265e-02,3.315461930785708333e-02
3.292431731362344127e-02,1.592079145134685930e-02,9.427598753264695985e-03,1.201860768306502181e-02,3.314219767004353279e-02,-1.225174760261728280e-02,-3.265420935190790908e-03,1.825610882756574516e-03,2.132771548735429290e-02,-6.374091645443970972e-03
-5.317915320541408836e-03,-3.041518969779750947e-02,1.038065104207748501e-02,1.123081807189975356e-02,-3.154641824647053117e-02,7.738293454069004873e-03,-1.474120114133363815e-02,-7.940513005332366231e-03,-2.669022470422677262e-02,-1.290977986440602562e-02
-1.284334531254528039e-02,-3.147958986243949014e-02,-1.777354509814611794e-02,-6.474778233643424530e-04,-2.865376889608738445e-02,-5.010462106655923925e-03,2.314910684434352828e-03,2.619397605732563805e-03,-2.060858173866088328e-02,1.073692631848899987e-02
1.381239674207153378e-02,2.597373863306257774e-02,-6.260253025138075994e-03,2.210966846466169006e-02,2.132400033086897378e-02,1.226860161029404150e-02,2.904255954450299382e-02,2.836872566024938036e-02,-3.559102384113933121e-02,3.188303825163962824e-02
2.214441685373503416e-02,-7.802444401819479125e-03,2.701290270785891567e-02,1.152289836665019995e-02,-9.380678650846421829e-03,3.012349793398172437e-02,3.910574249939187397e-03,3.111875701388355786e-02,1.370258688733407698e-02,-2.847005732731978933e-02
-1.784078940961186799e-02,-2.566013334375387422e-03,3.895194343561773909e-03,1.594137320624938042e-02,-1.068485544406700544e-02,1.828499537333394542e-02,1.621442005924123020e-03,2.815374600990636078e-02,-1.104277443002828207e-02,1.869161362244026875e-02
3.174121069709653908e-02,1.952388779500665444e-02,6.630504738204999471e-03,-1.871466983122163988e-02,-1.453209201286817520e-03,3.428266035342980578e-02,-3.242811290110130668e-02,2.487675549744601533e-02,-3.137006479869669517e-02,2.694056281320592050e-02
2.814454345187174245e-02,-2.207224845711767622e-02,1.221841911899192862e-02,-3.010052074090703578e-02,-8.539534886953414894e-03,1.663683054839536907e-02,-9.919557505429991984e-03,-2.209514151026296599e-02,-2.967661041334264393e-02,2.938099342609823417e-02
-1.281751371300752021e-02,1.525572832055311495e-02,-1.960257290015822440e-02,1.440807560673179610e-02,-4.589302466011024872e-03,1.246418931801203389e-02,3.472398951591203209e-02,1.688511424900990265e-02,1.878091236172589606e-02,-2.417172854178914823e-02
-2.055955890700747815e-02,-7.154866308799950197e-03,-9.488807923519224780e-03,2.077985881166395654e-02,-1.639153805924854074e-02,3.220655639990566144e-02,-1.286701513699296806e-02,-1.501585011290814883e-02,4.954380124090884685e-03,8.548661007808953938e-03
-2.557305715624590831e-02,-3.048205397969015393e-02,3.291277126616412585e-02,3.104526122270610811e-02,-1.116038528298858579e-02,-7.399682738448407765e-03,-2.928999038205746738e-02,-6.653595060084185886e-03,6.868347166196699105e-03,-1.521226457512979760e-02
3.064337281843555749e-02,-1.713144425231996268e-02,9.146735451660732708e-03,2.490458377130328610e-02,1.638793130411973775e-02,-1.661840259551379539e-02,8.281514989451684017e-03,1.053115107124433236e-02,4.795116941358708307e-03,1.900195510315630387e-03
3.335940859170404005e-03,-1.305337409214062105e-03,-2.160717864801309229e-02,-9.753800645466062513e-03,-1.553180430596921499e-02,2.742061380455174113e-02,-2.250267392434164571e-02,2.386761711277272935e-02,-3.670966349615459312e-04,-2.418701679588814574e-02
2.791227060091279466e-02,1.750760883027459303e-02,2.586787658814831276e-02,2.905318026699368894e-03,1.704045907125024961e-02,6.426907811230980760e-04,2.250646221753421772e-02,-2.627458954922585327e-02,1.605690723935036812e-02,-1.664938314261970101e-02
3.558839125158844152e-02,1.041947126470428586e-02,-8.697478078861689554e-03,1.940734862311128961e-02,1.841958969604972490e-02,-2.529136063190810454e-02,1.784082099780702479e-02,-3.495793627161811884e-02,2.381466799052068400e-02,-2.683168712786494076e-02
-2.541969014216371309e-02,-2.375412297152799598e-02,-3.011580676689456018e-02,-1.023463944530796088e-02,2.735480960680153339e-02,6.427238656079477253e-03,7.277949324125405905e-03,2.093164878903330806e-02,-1.068348398889165315e-02,2.872085412288703787e-02
-3.459511292097811747e-02,2.031493109935383207e-02,-3.958750127873861269e-04,-2.329361372459433366e-03,-3.438581855481412375e-02,5.779963599600659863e-03,-2.782111589755803527e-02,2.591544744635688319e-02,1.617013865942564660e-02,3.195616111499682832e-02
1.269504312954269215e-02,-3.421386690197008446e-02,1.364109711503441735e-04,-1.719486524004061601e-02,-1.101066291909125194e-02,1.271190551786205436e-03,-2.380445801731252697e-02,-3.158596171869135216e-02,1.270199747160367237e-02,-1.959161600419466118e-02
-2.632326478983060963e-02,-2.899552347144537107e-02,-2.416720595373718361e-02,2.513523559873053620e-02,3.116984677985258634e-02,5.133795485774451939e-03,7.096203744135443081e-03,1.267360797773815079e-02,-3.276413454435845446e-02,-1.236103334881184790e-02
4.827962272864284865e-03,-1.391299531917283838e-02,-1.419377349751705514e-02,-1.617680269982602059e-02,-7.709177132970812529e-03,2.709749651172602136e-02,2.298008437611860633e-02,5.324598374496627984e-03,2.735362293845933213e-02,-1.072809240607465464e-02
-1.653840500044456707e-02,-9.627428460934037840e-03,-1.390558550019562953e-02,-3.566889708921718721e-02,-1.018117778913506938e-02,-1.695393250821851036e-02,-2.563147032167877731e-02,-3.081947380523431673e-02,1.492173771161669354e-02,1.583399862218719950e-02
3.413691219072610694e-03,3.042887266104007948e-02,2.713994993163884595e-02,-1.082196414413567204e-02,-3.493654282680035833e-02,8.103785919176542674e-05,-8.562266918859782333e-03,-7.936787639066893857e-03,-2.979909144860966308e-02,7.505517764021973903e-03
-1.712132232067319418e-02,-5.172935920211951810e-03,2.419197926904876478e-02,2.141301125790523452e-02,-8.598527270667628841e-03,2.530792416355689967e-02,-1.760289144345692988e-02,2.382410782239489933e-03,4.766470296243503768e-03,1.448835878568143637e-02
3.156733167086689384e-02,3.107507996909841808e-02,-2.955544577231017378e-03,2.591206478831045018e-02,1.974113128796452232e-03,3.517063298284556216e-02,1.833708642355414559e-02,2.937248761652146156e-02,1.177247717318832820e-02,-5.451646909594494439e-03
-2.837218406728429440e-02,-3.147267332289006847e-02,-2.559497874461967235e-02,7.821282545925130336e-03,2.219724198125665876e-02,3.109307554501443416e-02,2.730193409608147603e-02,-3.499766544315442707e-02,2.588063050468845938e-03,2.604263610056568867e-02
1.155734486156456686e-02,2.087106386052467455e-02,3.213983233874086187e-02,1.165713675658566068e-02,-1.061101595074034551e-02,4.034975517525671296e-03,-2.010869063180074565e-02,-8.843606283404643886e-03,9.166428340538906872e-04,2.198433666714232765e-02
-1.868110530331670502e-02,9.030837262406388177e-03,-2.922375701753989613e-02,-2.058481282409093532e-02,2.663728687461341949e-02,2.945733736900894850e-02,1.834632834875644242e-02,-1.603403945697221347e-02,1.797769786109909562e-02,-2.688023637562624718e-02
2.790274547360167834e-02,4.466189507967337213e-03,2.557767448526271359e-02,3.389907973999239932e-02,-3.809445522703021336e-03,-7.585368640143710928e-04,6.460934926193200034e-03,-1.496743782653575661e-03,-1.174895270361447919e-02,3.152629510227811238e-02
-4.884730371406902083e-03,-2.663426076133016893e-02,7.353186639362130350e-03,3.119922528573383647e-03,1.669201798391597297e-02,-5.155105416122445633e-03,3.485173493707306724e-02,-1.737353249819708831e-02,3.126973124918845659e-02,-2.621917922841507376e-02
6.886143066071236107e-03,-1.959974562383440602e-02,2.692287178878045861e-02,3.252185374311648836e-02,-2.445233347670432850e-02,2.284964360230207214e-02,-3.029572174670609741e-02,1.872141473728401728e-02,-1.744224227690585258e-02,2.746150715450206004e-02
2.992860471691498325e-03,1.632746969472398391e-02,2.260365778325779118e-03,7.369610012809557631e-04,-3.651273546746762466e-03,-1.791438988687941644e-02,3.409111665894735965e-02,-1.041428283168447169e-02,2.790838352160421310e-02,1.414153653347405282e-03
1.221136072936522543e-03,-1.762988391056537207e-02,-2.175066818348225794e-03,7.972539442993344105e-03,2.314886929257149034e-02,3.253731027812262200e-02,3.521276142350436567e-02,3.330123989236286053e-02,-2.476187188361830133e-02,3.505439423363684859e-02
1.556218095734945850e-02,-2.414204502865337221e-02,3.251986069477311170e-02,1.972002158764908641e-02,-9.770895515645298957e-03,-1.016705527168010326e-04,-3.418817015871770254e-02,-1.655237105630669864e-02,1.624303159020297482e-03,2.159210211672309837e-02
2.415799643532363233e-02,-7.027050430611588017e-03,2.670155440497382071e-02,1.105846999021541099e-02,-2.791380793404816749e-02,-2.156538281197031143e-02,-2.803692926608515601e-03,1.859419342204920306e-02,-2.872318389368376176e-02,-1.755484563551085175e-02
2.899313889784690956e-03,-3.134022550088405579e-02,1.775475114778622687e-02,2.162263245759659530e-02,2.463604455195525511e-02,-7.940226823013103730e-03,3.366407040895161296e-02,-3.413893151926786218e-02,-3.536459146550696014e-02,2.130230546802457797e-02
2.606771160487529604e-02,3.206567600295549825e-02,7.295336735123003624e-03,3.228841113460219348e-02,2.061599512328046724e-02,-1.564955873016646640e-02,-3.359292112491382709e-02,-2.382374227930972310e-02,1.686925942710255921e-03,2.291640012731672310e-02
2.979568834447748893e-02,-1.541138145430958131e-02,-3.046826430752792858e-02,3.465586178713717103e-02,1.552393286450438198e-02,1.888977293716759265e-02,4.333563545506673165e-03,-2.998826406876340181e-02,-8.573102174410429654e-03,2.842080631910007260e-02
-1.367410121038121346e-02,-2.196733207211346364e-02,3.065107480428122533e-02,2.999111045858041114e-02,2.179256153900989423e-02,-6.269735799049134389e-03,2.784436306474878664e-02,-2.340250082643678328e-02,-1.644779874957943630e-02,1.351764628335840740e-02
1.300103890793574690e-02,-3.045802072788608705e-03,1.593899445949654992e-03,-6.450216196419167325e-04,-1.796054969745042307e-02,7.744466223605431243e-03,3.436471502410785861e-02,2.975415038554940494e-02,-3.021383197857039141e-02,-3.036022111943629045e-02
2.519882500868759340e-02,-2.938481599994836185e-02,-1.521712369906509654e-02,1.622029915936189226e-02,-5.922411157686626598e-03,1.901659728028207152e-02,-2.718862312719307062e-02,2.190078175401787702e-02,-1.260360918212470246e-02,2.519359671899479985e-02
2.771463954820731213e-03,-2.914776876978966008e-02,8.128322860365480573e-03,6.898738463894313333e-03,-3.429159056579517834e-02,-3.086995542095450490e-02,-1.493293547099328739e-02,-9.066532790263204244e-03,-1.807003199474204250e-02,-2.602093666894892895e-02
8.764749587091606731e-03,-1.360600541911308539e-02,1.866292443695796027e-02,-1.294597016646062068e-02,1.743442741465306423e-02,3.114463037689127467e-03,-1.765405521124443697e-02,-1.093998096660324035e-02,-1.727907798199039904e-02,-9.828547132513139328e-03
1.797348386415646704e-02,-7.606477024434350753e-03,-1.669026965278137126e-02,1.407462207754871936e-02,-1.700983674796663347e-02,-2.704851547666576456e-02,1.411780602142514995e-02,-2.131897329550554859e-02,-3.564214752835138250e-02,-3.030338042047186001e-02
8.876354171932776538e-03,9.420084206194341558e-03,-3.215754098886405843e-02,1.990498552552930067e-02,1.158658045946768522e-02,-2.711612119111127955e-02,-1.031126493317619658e-02,2.304493419735689774e-02,2.363437099734522207e-03,2.391167038494790287e-02
2.444750998975903089e-02,3.108395837492342051e-02,-5.197757392479809835e-03,1.655992312479308975e-02,-2.898925747396014635e-02,-2.018550710063893999e-02,1.897740342805256247e-02,1.643944094387456145e-02,3.525049648003254765e-02,2.418537816851425853e-02
3.162638996099177702e-03,2.106489110378971519e-02,-8.799313824118040750e-04,1.701258536612294120e-02,-3.042912040800094253e-03,3.097826654750705788e-02,5.275406419438036232e-04,-2.601314367483417711e-02,-1.227541822238131103e-02,8.976768390792665142e-03
-3.354921070026239266e-02,2.233401442445363816e-02,1.379069251012989689e-02,3.855093895782243929e-03,1.146105328331128992e-02,-1.813705343114970989e-02,-9.413180671703422209e-04,3.308043070381308515e-03,-3.420281581637292512e-02,-3.150236540618425729e-02
1.300192784525623646e-03,2.417222597831396314e-02,-5.686908861647670815e-03,8.242961143185283113e-03,-9.290984975673401841e-03,5.545808261636843428e-03,-2.613550362049433390e-02,-3.569236568013128136e-02,-7.330807572714537201e-03,-1.480575352395884295e-02
-2.793504014721187589e-02,-1.324856852096848239e-02,-3.427073855456102408e-02,-1.884736941889820355e-02,1.979878526079691115e-03,-2.573238665680696591e-03,-2.531893443558491663e-02,-2.458131257287354821e-02,-1.061266819865732888e-02,-1.345557393485955280e-02
1.687117304331575002e-02,-1.131959465495343750e-02,-9.828112954347392738e-03,2.412682704960868868e-02,-4.200384444525771810e-03,-7.603537069085168631e-03,6.525834520048255649e-03,7.550359691774893856e-04,-2.328285815602759018e-02,-3.131603866426727056e-02
3.472511222386581720e-02,-2.434833950121875062e-02,-2.341321390021610521e-02,-2.115010172380524592e-02,1.750140954437514468e-02,1.785589051639548813e-02,2.280272661726615024e-02,5.961250414329620495e-03,-6.931848648654488632e-03,-2.250469516215200527e-03
2.201559839722234957e-02,1.425788430628349007e-02,-1.131112536796266901e-02,1.172428184010397556e-02,3.363621047865891778e-02,-5.900273879396962518e-03,1.904499847828174802e-02,2.348888614577660655e-02,6.490527061453164881e-03,2.063682186882360992e-02
1.875835612025847365e-02,-6.614571453003894458e-03,1.717972107548254579e-02,3.452641071123263572e-02,-2.930949243212553276e-02,2.402438537595538715e-02,-1.733925542817862583e-02,2.999277882188662592e-02,2.099473514714080696e-02,-1.273564631939424693e-02
1.708197286534557380e-02,1.883558571247778007e-02,9.211538331406136926e-03,2.419638488039074775e-02,3.507597620626738688e-02,-2.156898089686450082e-03,9.817208496289933639e-03,1.740467283852048519e-02,-2.012291664837397714e-02,-1.282270985801972282e-02
-2.084949038722615916e-02,-6.686160427658065231e-03,-2.232000586363675626e-02,1.273990894461778101e-02,-6.286375552043199644e-03,1.325091194332475575e-02,-1.643937072400347699e-03,-2.858938166849495088e-02,-2.341806800261183458e-02,-1.201772640521796970e-02
-2.969551230113623430e-03,5.783289305874669828e-03,3.016825224693273078e-02,-5.813695532154647405e-04,1.085787323885994970e-02,-2.538360263285056873e-02,-7.314345414862408190e-04,-3.449833847986388813e-02,1.368435442690137116e-02,2.768984367900031995e-02
1.066990545644173893e-02,2.293017771326298637e-02,2.951362105851351725e-02,-1.991033908709192654e-02,2.401684615032669695e-02,2.660100539041770212e-02,2.615642629652738943e-02,-8.718631738982476898e-03,-1.889633971646332428e-02,1.694106029902125304e-02
-1.924975033692042162e-02,2.937127198304331777e-02,-2.607748442156700847e-02,1.803672079885364904e-02,1.313398476720766678e-02,-1.808318949057398373e-03,2.957798379997474136e-02,1.914471692219192611e-02,-1.823845408540674187e-02,-1.577281897967101540e-02
-1.077385803916508511e-02,-1.082442318975304976e-02,-1.756316083077690340e-02,-2.251283281262521016e-02,2.214183176028357986e-02,-1.218263789059030253e-02,4.435025478281208466e-03,8.084496135873621425e-03,2.198136166036129824e-02,1.653499696391479146e-02
-1.487353886623014529e-02,3.172471975959087476e-02,-4.813825862546361467e-03,1.399620574394638828e-02,3.320695429108250218e-02,-3.146998014924417414e-02,6.614492355008091962e-03,2.939608751926717223e-02,-8.769219717059611313e-03,2.696429452363863222e-02
3.101253721655682083e-02,8.529907394775805562e-03,-2.482555183394556317e-02,3.479304934314314535e-02,1.079921539572245570e-02,-3.398424965059371888e-02,2.749089134380769406e-02,-1.582637564122470197e-02,-9.209742544129189551e-03,-2.287325293017941977e-02
2.906924306719890772e-02,-1.217942587794792683e-02,-1.358695976429903640e-02,2.091437096071022128e-02,3.304368644265316679e-02,3.366101125037207487e-02,-1.639903090665485036e-02,-9.471276857344428785e-03,2.070853554128390672e-02,2.439980595874573222e-02
3.277008471449949223e-02,-7.861686626807258549e-03,-3.326010564577312062e-02,-4.860705778910630326e-03,1.094798304285709428e-02,3.030030069031501572e-02,2.309274320402641967e-02,2.649935747582787132e-02,2.302773342327504857e-02,3.928926093634751981e-04
4.883164835072992260e-04,-1.211072139544511900e-02,2.935730583244143543e-02,-2.483495408690213763e-02,3.204721990413561539e-02,-9.819080565838942537e-03,2.467000243177031038e-04,-2.294015574969451160e-02,2.596850326109614859e-02,5.667444650118154403e-03
1.361668133102192368e-03,-2.844326717886295000e-02,2.370976586450672385e-02,-1.404756253362729121e-02,-7.263683072616870795e-03,-2.423775143704868032e-02,-1.451803613229052381e-02,1.808129851911715463e-02,-2.207159100691461970e-02,-1.272315327953897277e-02
3.158442343506531746e-02,1.401869285009434835e-02,-8.604165474030416039e-03,-1.860604839595104976e-02,2.427092828657236023e-02,-6.735207192311416791e-03,-2.143537254193153899e-02,2.914040573665017952e-03,-9.334792253428481068e-03,-2.665929317683695537e-02
4.458166945780293877e-03,-2.511725860052326648e-02,1.942635960485761260e-02,-2.636936952942825485e-02,-1.586833246487280580e-02,4.224223904160405441e-03,-3.051659326158363827e-02,-3.394361106307746540e-02,-1.705032400109744370e-02,1.018552909871088541e-02
-8.959264695653716692e-03,-2.215087665986617896e-02,-1.729001487226800027e-02,-7.532417788523426694e-03,1.153235944591523426e-02,-3.339475643332822513e-02,7.911956190011920631e-04,7.764561833106815858e-03,1.015597077185088210e-02,-2.006574235315005186e-02
-3.526200842226615007e-02,-3.769369804341879404e-03,1.158088854992989775e-02,2.235242785443071478e-02,-2.978488053787463688e-02,2.500021428274611796e-02,1.544289337365251785e-02,2.359658340331657889e-02,-9.253781484866788198e-04,-1.949947946600068260e-02
-2.442249839846505344e-02,-2.822330020669831449e-02,-1.741553421571775603e-02,-2.275197437198643244e-02,1.415888703994411940e-02,3.805153035143157836e-03,-1.825729417109224484e-02,-4.021595166691434298e-03,-1.959514028616921727e-02,3.310087208426380767e-02
2.980870909826016657e-02,9.348653032268491869e-03,9.799175304115337326e-03,8.801332972769859708e-03,2.394178428088815369e-02,-3.257576558425697572e-02,-2.780043018984013764e-02,4.175565907586983871e-03,-2.020366757189567125e-02,-2.685092330824077542e-02
7.465108032153701390e-03,-1.837886780974771692e-02,-2.961835251616344936e-02,-2.951328765291134221e-02,-2.287127250674099443e-02,-1.742450060282563912e-02,-3.353409352369463026e-02,2.035162039142735663e-02,5.390354762922502929e-03,2.255252708879905421e-02
4.420961620368243916e-04,3.323859834176295935e-05,1.196617001628585975e-02,-2.211578218954403374e-02,3.446919532266938535e-02,3.414452924606670159e-02,-2.141114998819191109e-02,1.638215969876600370e-02,-3.218815449928121020e-02,1.580029657549421318e-03
-1.701576265818076014e-02,1.202142554977678190e-03,-2.264042924731809320e-02,-5.106008877547037195e-03,-1.079566191753649623e-02,3.428866717905368344e-02,1.117929517133123274e-02,-2.247466267230324721e-02,8.441158281876651182e-03,-2.753757009794213784e-02
2.509751982710569512e-02,3.239299070340373454e-02,-2.449421770719857616e-02,-3.024723348812409507e-03,3.398485368121867412e-02,-1.751449027558454885e-02,1.309827258572356101e-02,2.944128487040260922e-02,-1.876653574332575250e-02,3.348381507271801227e-02
-1.753342754060963418e-02,-2.621772111767933094e-02,-2.851643447772250761e-04,-4.184386350201282911e-03,-1.829956956750103045e-02,-1.155020856178044786e-03,1.672915336643397699e-03,-2.221923227694444503e-02,1.375206666600942845e-02,1.686477284152307354e-02
-1.510836019768543523e-02,-3.267108942354784301e-02,2.982243646113752478e-02,-3.224461215406906889e-02,9.839337974164530376e-03,1.622482428981324165e-02,-1.040701404998970250e-02,5.136942042097913941e-03,2.209556349694453969e-02,-1.955084278243736373e-02
8.167634696295986152e-03,1.628532888631938069e-02,2.587699386182558403e-02,-1.172884008300045106e-02,-1.310706876652109956e-02,3.143104915441533032e-02,-2.839186713289056085e-02,-7.143326609927294624e-03,3.056988603431748386e-02,-1.195147178788492220e-02
3.496071396594897795e-02,2.417868728191607114e-02,7.510877710969594834e-03,9.612133511914311423e-03,-5.218257543034097307e-03,-2.377079095911081505e-02,2.038997856970726358e-02,-1.879534562987195123e-02,1.164120403892079936e-02,4.366325231968212761e-03
-1.023907858449332395e-02,-2.365500141162045142e-02,-1.123692422662367005e-02,2.982876739974218983e-02,3.238112736333684238e-02,1.414834116387187618e-02,7.306783496013977142e-03,3.056810994104197654e-02,-2.564383449717186347e-02,-2.900959013968254854e-02
7.342096897575693670e-03,-3.692024659464124281e-04,-2.813925600699873630e-03,-1.936521294331419382e-02,-1.104857918225663274e-02,-3.441654129257083750e-02,-3.316034583565240917e-02,4.967905537558978124e-03,-2.914284192117379269e-02,2.178366619752125644e-03
-6.909328719385012668e-03,-5.942606577407916202e-03,-3.496598816384054176e-03,-1.144538889103319246e-03,2.441427184673895107e-02,-4.518966931832409106e-03,1.896532321153100720e-02,2.093938271580728094e-02,-3.310785934827394777e-02,-1.733206071275830359e-02
-1.413626794608422235e-02,-1.322592777482246851e-02,-1.374240415153125602e-02,4.164158150212295129e-03,3.311046260487499060e-02,1.000293728871626958e-02,-1.689928568085148630e-02,1.846755631042293344e-02,-3.402994547869308412e-02,-2.651489465507315610e-02
-2.161190929012781620e-02,1.337759779855923065e-02,2.408258983480420640e-02,9.831912151887292617e-04,2.066337915786528590e-02,3.422560812632649552e-02,2.436597696863956192e-02,-1.801190608306184326e-03,1.115417081624212048e-02,3.442006081371028203e-02
-2.068863728652670098e-02,3.229927921418682124e-02,5.161396197843094724e-03,2.381434848121324888e-03,2.014741809714460513e-02,2.850772707328363964e-02,6.404975855650155148e-03,-1.511361186958567679e-02,-1.937756432259189407e-02,6.615526964068273175e-03
-2.759176853908083468e-02,2.101039311934548709e-02,3.506847845232100025e-02,4.470491677082827353e-04,-3.098372623962090608e-02,-7.397617879193969792e-03,-6.933748418281204806e-03,-3.493428079513392209e-02,2.407072528528104299e-02,2.302331706462344696e-02
5.023599870551363755e-03,9.704856344331679041e-03,-1.902500736948062668e-02,2.682915129079899152e-02,8.901455287039582165e-03,2.416965378740445342e-02,2.849207918822045660e-03,-1.435127447874798637e-02,3.480534023897867424e-02,1.019066135183731292e-03
-3.127942874732628220e-02,-3.018036104789240809e-02,3.115504726844392502e-02,-5.995569639523350147e-03,-1.175132500748644199e-02,4.054858444322115285e-03,-2.637591208083967659e-02,-1.841302341358045866e-02,1.446847951555363387e-02,-2.155448856101561256e-02
-2.374127105830655532e-02,-3.560920240757034505e-03,3.495839625528854300e-02,-3.431958835121470125e-02,-1.075994631495059972e-02,1.506557121143076161e-02,-1.448850256925412680e-02,-2.118804706056092585e-02,3.006219159579073819e-02,-3.485921804666475277e-02
1.116335687447208430e-02,-3.086107522368250825e-02,2.321376039986027678e-02,2.809930966257183360e-02,-7.526213752898844311e-04,-1.891493828819998044e-02,-5.426829905436594825e-03,-3.370683336134591701e-03,2.446259667119855818e-02,-2.625938175229048516e-02
-2.616897790399658891e-02,2.467001396445900330e-03,-2.795489552911629982e-02,-2.334366260503441953e-02,4.484376361776322428e-03,-3.092531565423266640e-02,2.375414582932312141e-02,1.251869079285395508e-02,-1.300888604688768893e-02,1.635302308216093903e-02
-3.087616532316441592e-02,2.993607009085397230e-02,3.038156327073331109e-02,-7.620603267947317211e-03,8.562826490900531107e-03,1.107022241806395607e-02,2.934120278299542917e-02,-3.003127973724218497e-02,3.528679392556408057e-02,-3.425260993959719502e-03
3.167942360281214564e-02,-1.090049553352263195e-02,-2.457613035059796891e-02,1.447739136584148822e-02,-3.427719957448081139e-02,-2.191977420241970897e-03,-3.167419818665170861e-02,2.185986957398626529e-03,-1.235897684391411983e-02,-3.445242463137756367e-02
-1.551434479522144014e-02,-1.021215368991531744e-02,7.796590997889159269e-03,1.082402766212538225e-02,-1.095907336724301351e-03,2.196008968669848488e-02,2.244993835626907935e-02,9.658923652805476157e-03,-1.131950476740787095e-02,2.983811937257348224e-02
-1.271496277721971199e-02,-2.846183328712379931e-02,-3.260656827748783376e-02,-2.596763114114262680e-02,2.634623972689671689e-02,1.223094602070420867e-02,-3.408770052076177254e-02,7.163544368779736771e-03,2.647110930461004513e-02,6.470364246041235279e-03
1.906734076329973104e-02,-3.041930325545255664e-02,2.193137026439989645e-02,-9.396458997623931275e-03,1.934052400272874561e-02,-7.506774576043866165e-03,-2.944282028748963775e-02,1.881261698865781262e-02,3.151921212917895010e-02,-1.196896134138770995e-02
3.132605615124939291e-02,-4.694305696944938572e-03,4.049570022607321129e-03,-2.908437338178788273e-02,3.461923423179782966e-02,-3.462119918060801299e-02,1.528829835553954797e-03,1.856412832222170683e-02,-2.361907476169796544e-02,8.135094508504900346e-03
2.746281020922264338e-02,1.231304465440447721e-02,2.451130987002676787e-02,-1.152789279987305460e-02,2.299519993565175141e-02,2.622767688642081707e-02,1.829086118738553618e-02,-3.174720715959253314e-02,-3.261790893339441832e-02,-4.355522116035896729e-03
-3.516555475557416044e-02,1.323506222918012509e-03,-4.044253475777213891e-03,-1.856947230726893258e-02,-6.942548083195901332e-03,3.181305355121301359e-02,-1.358621035239461483e-03,-1.850635231111047441e-02,-1.367084269988686970e-02,1.577340206791918997e-02
-2.709329306524922709e-02,1.600452676737369739e-03,-3.019283944028120989e-02,-1.363822011788956567e-02,2.090075435033860590e-02,9.758911085238075600e-03,-1.869641338853753401e-02,-1.502246844051663421e-02,2.186865099825101993e-02,-2.741317107279155757e-02
-2.587247987166908098e-02,2.257217537820378067e-02,-9.298996348110225019e-03,-2.729534950807989413e-02,2.546201465461960661e-02,2.111659779810710902e-03,-8.724768219898211552e-03,2.504005975447627652e-02,3.142867320445871804e-02,-3.314851364230356895e-02
3.455845900315704378e-02,2.571615279228322420e-02,-1.653896860342246589e-02,-7.556069643477984765e-03,-3.076448126193790170e-02,-1.392049226366927350e-02,-2.932068168647465264e-02,3.123930496911746235e-02,-3.489918135583443271e-02,-2.568266564434459887e-02
1.457004911929790647e-02,-1.091806057036307301e-02,2.123052616159047667e-03,-3.157610113765448728e-02,2.964998856835614205e-02,2.181266232574281816e-02,-1.179755453259484499e-02,2.704544988817184081e-03,1.197469526107392684e-02,7.029907689039924246e-03
-1.188518343337088487e-02,1.869907204291580693e-02,-8.560685322957777010e-03,2.809478283352995209e-02,-1.194844826651567105e-03,3.430576571509047490e-02,-4.540191193129539116e-03,3.553341610155570651e-02,-3.075781451706812580e-02,1.647072841760995748e-02
1.052330197035961090e-02,-1.264979626503130380e-02,2.570610656999884613e-02,3.070552290455867694e-02,3.381565141097368776e-02,-3.494424010609926273e-02,1.851198788518666066e-02,1.360655034984938755e-02,1.278210773648908588e-02,-3.267228397889083286e-02
3.150840146549441223e-02,-9.528245008747802253e-03,-1.016683428589463742e-02,-3.018837144252026553e-02,2.262006317221787466e-03,-9.253762685031117347e-03,-3.394877218450594036e-02,-9.230416737415862716e-03,-2.601006193588706328e-02,1.317636412270983132e-02
1.620381696695372131e-03,-1.488403569468288445e-02,2.190445723242261805e-02,2.737791542732784245e-02,-7.494990496640461380e-03,3.300632218513267768e-02,-1.635765773725019953e-02,-1.152355432065294005e-02,2.304710727679709636e-02,2.519002812981398221e-02
2.671261058707288805e-02,-2.291117643693472636e-02,2.724909530840900762e-02,-9.412106024520052600e-03,2.400184407420991040e-02,-3.370116017760362015e-03,-1.953347755166079391e-02,1.457660099473962606e-02,-1.476414930692171446e-02,2.221942608819155868e-02
6.252082061105099231e-03,2.641122524560794715e-02,1.732728605859370358e-02,3.029568331379765833e-02,1.859878813148577170e-02,-5.012677068650463891e-03,1.947399921366572972e-02,1.253457648130580637e-02,3.127771545927053587e-02,1.357246700022400610e-03
2.891709367224579164e-02,-3.176003598801083183e-02,4.261372334704485731e-03,5.174942591230982658e-03,-2.636645365299127713e-02,3.875866404937880483e-03,-8.391341901395541619e-03,3.138848394035080591e-02,-1.540756996342208113e-02,2.253840212948553245e-02
2.803771087493560354e-02,-3.520268840187072007e-02,1.557864170892871158e-02,2.581791034544712177e-02,2.054628765603883078e-02,3.540415790413302399e-02,2.272207522203264357e-02,2.886746822435212745e-02,-2.682596380110349732e-02,4.606376013318855267e-03
3.514234430289003841e-02,-2.008614772826475270e-03,2.651185693155012901e-03,-7.993705091535772272e-03,4.182078832335074658e-03,-3.202876180524018290e-02,-2.595212204292051544e-02,1.753115360985726262e-02,2.273461352584223855e-02,-4.519237035411658582e-03
5.183731026415998311e-03,6.754334063019694356e-03,6.430246831776273431e-03,-3.075589729288766630e-02,1.030928827284487842e-02,1.305420619112235975e-02,-1.387365994354692114e-02,1.449991035285189134e-04,3.877393721857524955e-03,-3.159533437199315425e-02
9.392739396833459098e-03,3.106796680798235011e-02,-3.463730779129099713e-02,3.507242375580398031e-02,1.903764280637134515e-02,-3.293701263344945424e-02,3.398268654312974757e-03,-8.226523253819808396e-03,2.797778475238421603e-02,1.996943224194188543e-02
1.105383656520338154e-02,-1.167647863810455933e-02,-1.283343658432875914e-02,-1.660542212093283829e-02,-2.974268166808561112e-02,-2.297598302407773824e-02,-8.565801437525302070e-03,-1.545266494847910219e-02,3.182709070899515658e-02,-2.960331798592411370e-02
-2.574659782547689124e-02,1.008210665380449012e-02,-9.089698458394326192e-03,6.574968862523143665e-03,-1.684823458412200436e-02,-5.203825215478012634e-03,-1.984855852249928221e-02,-2.670039744336170570e-02,2.973301915072124046e-02,-1.710286787517547799e-02
-3.390552245728502972e-02,1.717201218150188335e-02,9.467189595232475274e-03,-4.575244526959891533e-03,8.532519727237355966e-03,-1.731236240753490294e-02,3.495266346042563699e-02,7.688799292752603043e-03,2.321611283744416665e-02,-1.497687371053470218e-02
-9.568842798600159238e-03,3.067688228985214483e-02,-2.865030772329125314e-02,-2.358146680670633946e-02,-2.016888144574368463e-02,-1.502562047874866913e-02,-3.531370177310417385e-02,1.139071560911163877e-02,-9.215602769707946507e-03,-2.715262672652209164e-02
9.814314388142758583e-03,1.817508902845876850e-03,-3.005954477095596628e-02,1.188152732076148965e-02,2.322884703565329667e-02,-2.650504513867460443e-02,2.521354617448724744e-02,-2.682438831482984384e-02,-2.272571345492810715e-02,6.025350421451948491e-03
4.157736638656706063e-03,1.924072709386726032e-02,6.540145144897077656e-03,1.178298651000012076e-02,-2.826585753437013682e-03,-3.327116920950624196e-02,1.708993870586418551e-02,3.172707675859097465e-02,2.421479429547737650e-02,-2.700675192734239283e-02
-6.351669403835573380e-03,3.516295506705466312e-02,1.818566389453974558e-02,2.690134260381116249e-02,1.313683951099911540e-02,-9.989223126802806302e-03,1.913125124017731049e-02,2.835011253535513198e-02,3.665210643180309702e-03,2.877875244951627609e-02
6.350903605103597194e-03,2.909622843160085404e-02,1.716192417546841958e-02,2.349476182145161102e-02,-3.261061701773217830e-02,-9.884191964963498500e-03,-1.978722093676096513e-02,2.662882422908219304e-02,-5.986830571310355203e-03,-1.432690504517372676e-03
-2.961276118245473668e-02,1.444900766442808182e-02,-3.106955829684552792e-02,2.275615831049473958e-04,2.045209543869945523e-02,2.449257966398404179e-02,1.621027878473679795e-03,-5.391590800040882425e-03,1.970766872669250241e-02,-1.441258555423803600e-02
-2.444487884983138903e-02,1.221450038535870641e-02,-2.908743289903568605e-02,-1.109381636177588989e-02,-3.964598335241278915e-03,4.342586574165134550e-03,-1.835545419366483785e-02,-1.342247564453729128e-02,9.244050753847779522e-03,4.018842524077109735e-04
-3.500407996612671380e-02,2.923129956938325114e-02,2.414255222149482710e-02,3.069821551922984060e-02,-9.899473477332425969e-03,-1.444203212894748165e-02,-1.541972836943658262e-02,-2.846763337045616488e-02,-1.246393138930549163e-02,9.660846942850298547e-03
1.821728922663817113e-02,-3.409238598809560122e-02,-3.738894639756462634e-03,-2.454987531256653394e-02,2.213361779608091079e-02,-2.039176944297835595e-02,-2.989663560004813397e-02,-1.993878774190376360e-02,-2.912142263607125914e-02,-3.420561081549408633e-03
4.239348316676508355e-03,3.693489005001500403e-03,-1.999421566430026331e-02,-1.698402345850306625e-02,4.573653778651785851e-03,8.424253090343211681e-03,2.055384986075513287e-02,-2.099310038512197663e-02,2.402144347090327814e-02,3.414892193704648082e-02
-2.201550905887806470e-02,2.492819577735297387e-03,-1.757174079723972104e-02,1.327758681168174359e-02,2.720293703714324329e-02,-1.419974491210103384e-02,4.892099071825341261e-03,-2.126164175399571088e-02,-1.632635593622456388e-02,2.060640659792407903e-02
-2.362662499377986974e-02,-1.396361392715661509e-02,2.245755163246380970e-02,-2.283492674527112104e-02,-1.785882834831708024e-02,2.261779747502563193e-02,2.041051049587166294e-02,-1.777928798398005494e-02,1.623537381475970154e-03,-2.050814259462833619e-02
-8.311883161986624580e-03,-1.933004073406855219e-02,-9.860378112373890946e-03,-2.943976782721742513e-03,1.725215189113497860e-02,2.450136824787120526e-02,1.512330875121883911e-03,-3.165194200197502666e-02,3.288661881593110681e-02,3.153541156024625147e-02
2.115268759887257988e-02,2.374161865738568661e-02,2.451727503162693528e-02,-3.241145502469618134e-02,-1.138813826448433972e-02,1.418341267027107416e-02,6.163162711640086944e-03,-9.697091282220713510e-03,-2.058113376647963122e-02,-2.219063542370967868e-03
-5.067905887148949073e-03,6.436577734050853705e-03,2.272215890454105935e-02,-6.233384580556704940e-03,8.094041386279615669e-03,1.063721090419107729e-02,-2.656851367025267474e-02,-2.616328078953962522e-02,-2.026602518213706239e-02,1.787308779317342555e-02
-1.989594689189716492e-05,-2.504680242311167412e-02,2.382557525874409721e-02,1.720996704813076289e-02,-2.464196915433594648e-02,-7.519470268317150069e-03,-2.642225210720756945e-02,8.798882699472279634e-03,-2.265708827442411769e-02,-1.452703157675365453e-03
-3.341163647884404925e-02,-1.529314095114740410e-02,-8.692488705915983604e-03,2.863563417788661525e-02,3.489528284301864069e-02,-1.550656090761590167e-03,-7.970919626416352738e-03,-2.627246856617338616e-02,2.595876010433120079e-02,-1.249629798299266986e-02
3.213225054962194627e-03,-9.851605910232961311e-03,4.379327270717117693e-03,-2.570569904597375110e-02,1.542607515932982454e-02,-1.458635516043841826e-02,2.680017823953721734e-02,3.392458097971870479e-02,2.351510053208182016e-03,-3.246940488289407067e-02
-3.000183180892071824e-02,-3.453716170878307068e-03,2.170698973261428466e-02,-6.842272730521022084e-03,-1.157512906500160130e-02,-2.434498302004856063e-02,3.504809388062063435e-02,1.431340734312575025e-02,1.822754500366898650e-02,2.268280303716198321e-02
-2.540318671861540450e-02,-7.476964049613912811e-03,-2.502447957254686980e-02,1.203879267363237859e-02,4.807062731030188607e-03,-1.597748181613426258e-02,1.967183554074138085e-02,2.275135197131284565e-02,2.064507692295832614e-02,-3.017431428054069553e-02
9.252868078260298446e-03,-5.527350038814007882e-04,2.978429671972729342e-02,-1.696988692629808337e-02,8.755509919124097873e-03,-4.814047061032809133e-03,-3.197235543058408319e-02,-2.846448884970007379e-02,5.781467471030740657e-03,-8.827421913596089631e-03
-2.489741040272939673e-02,1.462794123134632251e-02,1.557549494755195579e-02,1.985953209201589409e-02,-3.379345429426069275e-02,9.026259204509050338e-03,1.111400498193626518e-02,-3.494021474539489580e-02,-1.372134825996550525e-02,2.832642574733407193e-02
1.361333967535982570e-02,2.960248406024858225e-02,-1.244459458945683036e-02,2.511715492802546468e-03,3.269217598145995884e-02,1.175442935470918937e-02,2.797417896820600380e-02,1.553744148446460638e-02,-1.384122722378281281e-02,-2.664433106668758627e-02
-2.145489504899982663e-02,3.479154710485647672e-02,1.475210688054746921e-02,-2.412933510574272883e-02,-1.880789179481911003e-02,1.764196488783266459e-02,3.346275795784849072e-02,1.945294324582408363e-02,-9.856452542343081824e-03,-1.902215964146073898e-02
-3.390562819327530564e-02,1.850478114341004565e-02,1.972244727639219097e-02,3.100252031710055978e-03,-2.079580428514813881e-02,-2.955047972180869370e-02,-2.960840832024562788e-02,3.731090633570126325e-03,2.524481123494404927e-02,3.562225262306949192e-03
1.699713538295782866e-02,1.885366064696421262e-03,-3.467186688013219886e-02,1.405502846284377438e-02,-3.521181195704180256e-03,-3.381037973083558107e-02,3.360129696913327635e-02,1.572237511166204443e-02,-1.252474175291787631e-02,2.892376121180716131e-02
-1.306432997662077683e-02,-3.202883744879702482e-02,7.802005282946319897e-03,1.296078548551991838e-02,6.009120472027021376e-03,-3.046762202385136856e-02,-2.688290963771527986e-02,1.053917388084469470e-02,1.966847713836351874e-03,3.362710635909746393e-02
8.245080851245520370e-03,-1.682607113554682177e-03,6.723439635610492515e-04,-5.556862814412508872e-03,1.300273779238968891e-02,2.013495827607592742e-02,2.858617410484175225e-03,-2.790637936098749883e-02,-2.741291689190221079e-02,-1.487106872689548942e-02
-1.522474783519553801e-02,2.146145684310551277e-02,-2.525392931251678116e-02,5.504201199015970603e-03,-3.220610000217286051e-02,2.863525151560178394e-02,-2.023811698592059560e-03,5.178773809951173202e-04,-2.378768837163054706e-02,8.363984565922973069e-03
-9.303776050370169554e-03,-3.530004609280121275e-02,-6.449474520608382971e-03,-1.621918425128126076e-02,-2.376834642863260780e-02,1.517434023867748893e-02,-1.921897500992628127e-04,3.027334479758163333e-02,-1.106394711407828954e-02,-1.375198995219204315e-02
3.295726400864898431e-02,1.402671015735093563e-02,4.821383280289671946e-03,-3.195832666445342501e-02,-7.946007564102797183e-03,2.427859123048483475e-02,1.748285078714601620e-02,2.025434761283772395e-02,2.119758618719498611e-02,2.323687013482467895e-02
-1.547422575449909632e-02,2.928952313308340327e-02,1.456069317359497128e-02,1.691667804602272479e-02,2.323275743160304468e-02,1.972665871493498035e-02,2.313922174673668092e-02,1.509293401588354677e-03,-6.490322908376280203e-03,1.001365665774969077e-02
1.635553944764310541e-02,4.879595508392585435e-03,8.749048234194464757e-04,-1.581449194172067016e-02,-1.648719741867900324e-02,-2.818261329288062125e-02,6.046744252959299071e-04,1.741601198062737998e-02,5.319545827436898688e-03,-1.059806714138064251e-02
2.027566679589321713e-02,-1.800315347035956123e-02,-5.115947644891108426e-03,6.691342408064758496e-03,-2.654624330648186481e-02,-3.518586220821057903e-02,1.455504003437187860e-02,5.162590138229027070e-03,-3.873117039244415583e-03,-1.984409686976297549e-02
-3.548760579083251598e-02,1.602799210096580995e-03,2.823156501537710250e-02,-6.078980528831656738e-03,-1.420128839650014463e-02,-1.404422714675303274e-02,-2.816262526492608470e-02,3.466492900733064708e-02,2.546172265949326469e-02,-4.910991413884166490e-04
3.360896643895276703e-02,-2.032530549644566073e-02,2.263743206826648868e-02,2.208106259559888818e-02,2.107162005240141578e-02,-3.534073956738253280e-02,-2.342145925963529801e-02,-2.795588106185666055e-02,-1.484446926712811032e-03,-1.885583673250129655e-02
-3.014681144594754184e-02,-3.182154225191448360e-02,-2.815406604265156473e-02,7.430795444520736648e-03,2.398165711769184583e-02,-3.480920324966996215e-03,3.243715089643178784e-02,3.125123936816624759e-03,2.032714053347590283e-02,-9.551210778572509497e-03
6.610013318942210836e-03,-1.901210623804484856e-02,4.065367170856745704e-03,2.055495458110766227e-02,-1.854908248175215699e-02,-2.221402433748224589e-02,2.118261947035053605e-02,-1.010230751225546855e-02,-1.402351849021554742e-02,3.331280734959983503e-02
-1.107790459313624798e-02,-3.089519833780741270e-02,-2.677919678747766458e-02,3.393271046893256426e-02,-1.751929145874148858e-02,-2.211486719315211916e-02,2.683624513197141459e-02,-5.911685491907230083e-03,3.140080902495138993e-02,1.706782603573215457e-02
-2.166477309570885579e-02,-2.410405673469378368e-02,-2.758082433581069901e-02,4.322320109599667171e-03,1.428879996803274904e-02,-4.264603610660180899e-03,-2.565415415215853076e-02,8.733522706005122926e-03,-7.445037288064264985e-03,-1.579212591474114455e-02
3.031890029057020264e-02,-3.065644714411972296e-02,-7.971603483594838502e-03,7.901117266037038789e-03,-2.511096007314735090e-02,2.480299270305047488e-02,-1.147822220352555378e-03,-1.554325389550810510e-03,-8.132581170090316669e-04,1.650309169334279735e-02
2.240879662657015853e-02,2.504748535197072468e-02,3.143095150477195898e-02,-2.574446013682947509e-02,2.304345303632383130e-02,1.031315171908889217e-02,-6.211848581756947152e-03,-3.483431016934887547e-02,-2.962069577005679161e-02,1.600804671816470626e-02
1.723240800881908896e-02,-1.627260589845042765e-02,-1.498469291316029128e-02,2.034505387666058623e-02,7.013540316319698265e-03,-7.210219868009151017e-03,3.464494412869338624e-02,1.482588082113327904e-02,-2.202180199950394546e-02,-1.800598236476559644e-02
-9.354032835267946794e-03,-2.886538065923417024e-02,-6.841409866833014775e-03,-3.039305725013214526e-02,3.414458593828749444e-02,-7.803616150517292405e-03,-8.503950734460585803e-03,1.318548874569055313e-02,-1.063496231527093910e-02,9.709617071285356338e-03
-2.159895869721650818e-03,1.995796651905756142e-02,-1.156586441166338255e-02,2.055668211362827319e-02,-1.884279701558403894e-02,-3.369090208428775907e-02,3.174043121267899892e-02,-2.080801030040511576e-02,2.830059643394389202e-03,2.019666099858205555e-02
2.411315036435643377e-03,-2.445070995260098870e-02,-3.433170249626452813e-02,-1.276976058176513759e-02,8.189836087801397047e-04,3.941895600454284332e-03,-7.622695356303593045e-03,5.014731586120153850e-03,-1.053344753247955831e-02,2.057234047167740693e-02
-3.443476678747098285e-02,2.062496576195715220e-02,-2.990923173375210214e-02,-2.184079365773831591e-02,3.024540306020885583e-02,2.096425024392448155e-02,2.579135919034170055e-02,-1.764880351735651984e-02,-2.402932599616812090e-02,-1.826574153981505577e-03
2.901597297542898857e-03,-2.591408060136714958e-02,-8.009117033882358350e-03,-6.031155913831458271e-03,1.881504314195521499e-02,1.229434314019052510e-02,-1.418757013764526675e-02,2.221164912834739519e-02,3.758627882240926643e-03,1.644205391723134457e-02
3.478053415864876263e-02,-2.377243172599061496e-02,-3.916121231111069356e-03,2.325341531511555815e-02,3.230259017326896076e-03,7.412768036350561585e-03,2.023636473891361753e-02,1.594723907912411198e-02,-8.511616107709334134e-03,-9.345741387193476357e-03
-5.185009284679464869e-03,2.475315633456320885e-03,-9.685572814303083228e-03,2.296249301655468866e-02,-3.266234402032204553e-02,6.213154020097907959e-03,1.129730104058816742e-02,3.487566235056763220e-02,1.146915591357700048e-02,5.208186024518078605e-03
2.757582657287513395e-02,1.474482399497725055e-02,-2.654612188775735959e-02,-2.444794510114735309e-03,-1.268994122238252184e-02,1.052888852077762949e-02,1.947026023605945289e-02,-2.040657818499757442e-02,3.568604104355992124e-02,-2.557859578936700490e-02
-7.580506479920336854e-03,1.751119399009570116e-02,-3.917958332865199844e-03,2.264732115147445601e-03,1.051692922687407633e-02,4.528455439035961039e-05,-6.986884847477184413e-03,1.005103657572190001e-02,-2.674914840346631628e-02,-2.550589161605001237e-02
1.578167456200641611e-02,2.216746798741810881e-02,-3.440232107616139623e-03,-2.000372048965767466e-02,3.263184649290087891e-02,3.447223274741399723e-02,2.513844092957985554e-02,2.416586545532078967e-02,3.207860234556744738e-02,-2.578910752668936435e-02
2.521675568772860365e-02,3.560457197968060206e-02,-2.994829413654589295e-02,-9.136273247642576895e-03,-2.397261943032136244e-02,2.490469714839473048e-02,2.692130527530506301e-02,2.633908141411707426e-02,1.341400854383088814e-02,-8.681147740576211635e-03
-1.378814348879568372e-02,-1.173070125311980599e-02,1.569893114752957120e-02,4.728904951653498112e-04,-1.750273239925484101e-02,2.693974609961427569e-02,-7.170866445230586472e-03,2.525528391129523709e-03,-4.124552305973007427e-03,1.070276492342960711e-02
7.530037463728579683e-03,3.146616757076690918e-02,2.676955291764401140e-02,-4.201552070115355253e-03,1.547683814274496833e-02,2.432950434030231590e-03,-1.959996283534036141e-02,-2.705856568743719714e-02,-1.397365619573590415e-02,1.792636246845292353e-02
-9.876618160080112563e-03,8.685835708902113483e-03,-1.324559834409740067e-02,-2.494878336465149865e-02,1.847556987284798558e-02,1.342528288692922123e-02,-1.515055849585259309e-02,-6.595103555496480141e-03,1.450272640994139384e-02,-2.767639343091422149e-02
2.184508924046514589e-03,-2.074839020166821535e-03,3.271541491896222398e-02,1.838065964060966312e-02,-2.207335236593332972e-02,1.789045391985668448e-02,3.047843296316175843e-02,-1.369797923833566272e-02,-3.344029566691999328e-02,-1.219950002345239481e-02
-3.461065013954811587e-02,3.000792968172397157e-02,2.981108386392664067e-04,-2.710602752841434482e-02,3.563478151460970633e-02,5.011635825164770242e-03,-1.131883268490348204e-02,-1.034357314227331293e-02,-3.514968624535005914e-02,-3.275253544541269213e-02
-1.999376702782489426e-02,1.406387082824125251e-02,-1.026566493389072590e-02,8.066778568278601402e-03,7.485403653753670838e-03,9.424986742420947416e-03,1.986488492556844759e-02,-2.643948466443923895e-02,-2.043968654778386893e-02,5.472535576766211773e-03
2.451331331276542652e-02,2.942908633457784473e-02,-3.311249062268922794e-02,3.174910445911086065e-02,-7.313507118816602731e-03,-3.250656523630079953e-02,3.465551539422137561e-02,2.166682554277259143e-02,1.312409567896234003e-02,-3.543850452574921067e-02
-2.691969605166689983e-03,-8.324343290100035681e-03,-1.554049739198866409e-02,2.576364104193167720e-02,-2.782461964304877577e-02,-2.397974834059058563e-02,3.300382189158401758e-03,8.306607314051903113e-04,-1.402466305702870786e-04,-2.239125388943925821e-02
-3.237191986812145567e-02,-1.861540868882241226e-02,-7.084905984377436183e-03,-1.011983150814584065e-02,-2.309095560805463077e-02,-2.146373002269810065e-02,1.232844472858123791e-02,3.420729447552020575e-02,-1.354796263096850681e-02,-9.675818559532270435e-03
1.815639545877580086e-02,9.327274849957767344e-03,1.067033306731282605e-02,-2.206968078743591286e-02,2.120383595342278937e-03,-4.209244894179862972e-03,-1.466136015207633592e-03,-1.780440627864146239e-02,-6.897845408537772727e-03,-1.556476391473684759e-02
1.117197688633916886e-02,1.036967260407583441e-02,1.976205459811649495e-02,-2.077866699387824131e-02,-4.959334296476616832e-04,-3.162184276589205534e-02,-2.191366402159550947e-02,-1.258952774418552883e-02,3.307436010600861565e-02,3.365109575542740705e-02
3.335093611774417321e-02,2.957632000291748886e-02,-3.518339227360314792e-02,-2.088694674791902878e-02,-3.450917603633996134e-02,2.065477585966515872e-02,2.469640340450359600e-02,5.783130059698375625e-03,3.367038163613500501e-02,-1.851106762893027849e-02
2.892204487713062599e-02,-3.391934768860625088e-02,-1.843550759354602164e-02,6.989628086746454971e-04,2.090902711133423714e-02,-2.157459712080957853e-02,-2.953903883344743964e-02,1.411396609475290553e-02,1.810958696751143598e-02,-3.111504569137563819e-02
4.016730257114319025e-03,-2.082555262110841882e-02,-1.812567498347513947e-02,-1.616577719676090541e-03,-2.086256352600509428e-02,-2.994071153134083424e-02,-1.041264403341855480e-02,3.214218338711472001e-02,6.867552714007039982e-03,3.457307653764724042e-02
5.969775408747268752e-03,-1.804635271239022828e-02,-2.930008992380373628e-02,4.089848979802246376e-03,-7.707836060799746342e-03,-2.748644624758594945e-02,-2.262582169556041911e-03,1.296919720102168716e-02,-2.862019899099517428e-03,1.362001059117951690e-02
2.004890206206543651e-02,-8.536574759281101432e-03,6.143452104101013167e-04,-2.300757245410221460e-02,-2.085512421475571587e-02,-3.153914684920877676e-03,-2.989886784940739423e-02,-2.563965335224483583e-02,-3.101485432190376201e-02,1.114080343064415696e-02
3.221669939177773667e-02,-7.764798180746830536e-03,3.309785413467954129e-02,3.062972862434888699e-02,2.109206775525569039e-02,-3.045590252398439057e-02,-3.162556003014078965e-03,-2.654260404752685487e-02,2.476241576872128397e-02,2.913467784173287556e-02
1.106840104280969878e-02,1.431569594952122187e-02,1.608258286804325338e-02,-2.665711931824614120e-02,-2.488443235327564285e-02,1.032660432664922467e-05,-3.430302977714586032e-03,3.551815931174942542e-02,-8.785078370984071572e-03,-3.263594095733828720e-02
1.530157899340371663e-02,-3.563680137309094970e-02,-2.630901717707699247e-02,1.623234432725092352e-02,-1.954632232046536397e-02,3.258171058264891506e-02,-6.846933797533118898e-03,9.675534010947964281e-03,-2.234410182891362340e-02,-3.288651427503271052e-02
5.066239858735485657e-03,-2.826167135084254114e-02,-2.986313760996085753e-02,-1.239051858280384652e-02,2.395806772429431852e-02,-1.583633000994937381e-02,-3.341377970743459463e-02,2.570725224787233365e-03,-4.087429430854772061e-03,-4.446079788319810822e-03
-3.479676447267148615e-02,-1.768895229675051736e-02,-1.380097921394685817e-02,1.631740915926344765e-02,4.879500669916908562e-04,-2.288437144773620979e-03,-3.170772868054219651e-02,-1.679966482818632048e-02,1.711211895572390534e-02,2.499772064870299515e-02
-8.137736988324682091e-03,1.652497595499524685e-02,5.979836687357041602e-03,1.011647371257641537e-02,-2.667066103442597425e-03,2.480298531106674836e-02,-2.433122997374224591e-02,-1.526068793910092744e-02,3.415900573545109509e-02,2.756780545652462444e-02
1.055633443304533625e-02,-1.522424145764415468e-02,-2.614448878185823139e-02,1.624619729645231797e-02,1.544770775369324473e-02,2.796446870966798337e-02,-2.563616289419280020e-02,-1.501426934248357298e-02,-1.911878321024976582e-02,-3.296779601064540183e-02
-3.525753002256172552e-02,-1.009747110638278475e-02,1.496246965380897825e-02,-8.412753660064213601e-03,3.142545754755388110e-02,-1.629809996032975314e-02,-3.434521601185860223e-02,8.377819970221779544e-03,1.093699358036660102e-02,-2.547290538969458271e-02
-2.301622933486047878e-02,2.549498779779479918e-02,1.664558763042944117e-02,2.190334361529763796e-02,2.658392602873193428e-02,1.375558577452785231e-02,-2.710407134280309882e-02,-2.852948810443531671e-02,1.067414523833760953e-02,-2.788665923859953016e-02
-1.968164615852025651e-02,-1.758865084089657194e-02,-3.197151063768521873e-02,1.191489732576902355e-02,-4.505188162064743818e-03,-1.120550690857300205e-02,-1.718816198361915182e-03,-3.569802871560116136e-02,-1.985470136538050948e-02,-2.778110853083887166e-02
-2.783008070630001163e-02,2.818277264371253643e-02,1.126865921285738481e-02,8.328111390335658781e-03,-2.382600628581327956e-02,-2.838491640092866142e-03,-6.709028728565560873e-03,-2.318083579810072126e-02,-8.255146122718284851e-03,5.381076182812895292e-03
-2.796618390632663390e-02,3.132761854324528361e-02,1.879785314575149052e-02,-1.789159257160963593e-02,2.978233752062331430e-02,-2.599122753396251179e-02,7.508005697458408623e-03,2.593296378693998178e-02,-4.469287210395276461e-03,1.921976801079754854e-02
2.287465221738484156e-02,-5.619399299223004629e-03,-3.378662907347397548e-02,1.320808084012021349e-02,2.885999342486865460e-02,6.176175433167327422e-03,2.920108455946703041e-02,5.752682874358053255e-03,1.798604890648879823e-02,5.237853836715711253e-03
-1.665555618034983074e-02,-3.518739277098819479e-02,-2.937154628858898789e-02,-1.554295436348974296e-02,1.778705735889903744e-02,-3.143749892363185278e-02,2.890441998293846737e-02,7.759332069120224162e-03,7.609172094296220989e-03,-2.091724292802018409e-02
1.231759095417041261e-03,9.095439700157532947e-03,2.700663190896147869e-02,-1.341637539083466793e-02,2.071270952937390164e-02,3.514004313685047121e-02,1.092631555642708391e-02,-7.572793866763079251e-03,3.101624270906273850e-03,-3.434773149503485973e-02
4.192443318201691249e-03,-1.662281082191524595e-02,2.679061677456481827e-02,2.991914214793277293e-02,1.869071901505481303e-02,-3.083729293861501783e-02,1.432123484267423807e-02,2.024703237618460938e-02,-2.409706233199013573e-02,1.522016490261203503e-02
2.063511317827439184e-02,-3.543975255465661028e-02,2.803174698384328090e-03,-2.488975632398202076e-02,3.313926739943504063e-03,-1.437924622005382763e-02,8.599329287995616244e-03,-2.275508922724054153e-02,-5.900988706647465609e-03,-2.487597182815212693e-02
2.320432684733681611e-02,-3.535276506470080154e-02,2.076035150742812363e-02,-3.119872323488341245e-02,2.274025415174343173e-02,-2.291796617420916587e-02,-1.530806599969726511e-02,1.808827644455208994e-02,2.332940295658302021e-02,-2.491593244319064565e-02
-1.533155751700214162e-02,2.740786370228739943e-02,8.884216408066025750e-04,-1.142586078987775644e-03,7.965978631024155099e-03,1.900606718883011970e-02,1.971081619602346041e-02,-8.113046610089096056e-03,-2.704246616819476132e-02,1.342393112577584813e-02
-4.483856665661485608e-03,-5.234252025182833251e-03,1.238853628473914753e-02,2.231173071730070678e-02,-1.386187904620614711e-02,9.910550081129974875e-03,-5.072522309884489045e-03,2.080519595993474830e-02,-2.280749009960580248e-02,2.113680289055287764e-02
4.545299233456159826e-03,3.144456982279895951e-02,-3.225608145204964666e-02,2.474397128708540061e-02,-1.294072877220562093e-02,-2.525559801026894258e-02,3.530826118865480756e-02,-1.656362503673326075e-02,1.214373091927085924e-02,4.503723636855097578e-03
2.377048660814104486e-03,3.148987088472410267e-02,-2.977127665312175042e-02,2.514252784214689868e-02,-4.141525715689028941e-03,-2.112231325978360108e-02,-5.887782074016419120e-03,1.915738937448987350e-02,4.843355503481375224e-04,2.622611433825506461e-02
-2.587854315288009438e-02,-3.086587231367019304e-02,2.830393978486105133e-02,-4.782934897516823852e-03,3.469440827788509984e-02,-3.359107794849464784e-02,1.060556492482481183e-02,-7.319157167786773804e-03,-2.895658338805233781e-02,-3.511818793767520347e-02
4.565594173631004615e-03,1.139465073841846449e-02,-2.388822073734290716e-02,-1.506884466199184466e-02,-5.875902601675950937e-03,2.951743250885734138e-02,1.293448567245485820e-02,-2.375639559649218857e-02,3.075402433078582021e-02,2.477737371410915213e-02
-1.145544256232029073e-02,4.932187632202919558e-03,-1.482206902864515938e-02,-2.689256081993094891e-02,-1.393684130938114760e-02,-4.240289861855824072e-03,-3.263037896674744059e-02,-2.627912268060950129e-02,2.478700139749762804e-02,-2.829515948782147794e-03
-3.649019306112576133e-03,2.884888847414367186e-02,-3.550459903529079586e-02,-5.751288534091798799e-03,3.312339719206575106e-02,9.593438143776410187e-03,2.605474498056172677e-02,-1.766065109455754525e-02,-2.714933519065315659e-02,2.808358305861639870e-02
-9.032378149087787883e-03,1.859459626608037097e-03,-1.407736522523302114e-03,-3.202299997774709500e-02,-1.493847791888518531e-02,-9.179887787746348476e-03,-2.573632909270553992e-02,-2.067281959575018035e-02,-4.053821396257636933e-03,-5.713928075944348095e-03
-1.241935168299159939e-02,-7.221411968436983880e-03,6.475887846116065716e-03,8.863687447301461797e-03,1.077599073814142216e-02,-1.156543252474895311e-02,-8.818283246107696399e-03,3.256104237970200432e-02,2.341390805064058611e-02,2.007620112743874197e-02
-3.227796224509330014e-02,2.404519031020324604e-02,1.786318874430543879e-03,-9.471411381765628551e-03,5.439889924699799206e-03,3.401451080651422820e-02,-1.543307391722717470e-03,-3.457558915999196097e-02,-4.786096725354356540e-03,-3.813475796041687627e-03
-3.050546970030051236e-02,-9.587555929142448086e-03,-1.412385159887495981e-02,-3.747102925688076958e-03,-2.571290092968091939e-02,1.023369418647479545e-02,3.483103794864829406e-02,-2.865515157341088498e-02,1.642256900807352593e-02,1.866519167074461721e-02
-8.414067716072250874e-03,-2.749871191897215045e-02,1.068414613575618261e-02,-5.910597059880087073e-03,8.131688839760134457e-03,3.437162771571633524e-03,2.188669428017653296e-02,3.348407233210344558e-02,2.648757407976336242e-02,-3.268046814602593858e-02
3.321094804199313522e-02,2.303134937374645697e-02,1.627976074176307186e-03,-3.663822991718225508e-03,2.541317968358349638e-02,-5.342497599769995692e-03,-3.144581727908634522e-02,1.879225329872814820e-02,-2.908075687262100598e-02,2.278532642236441585e-02
3.342087793609165025e-03,1.435640345079246261e-02,-2.296982022322403838e-02,-2.027586251360713465e-02,8.255735165765110128e-03,-2.741248408388674562e-02,5.052355784798685800e-03,8.926395850954602085e-03,7.274022776422764403e-03,5.374055931502599859e-03
1.116854689869024864e-02,1.984307686774064439e-02,1.510363576774065991e-02,-1.166402546518462841e-02,-3.038655797250557067e-02,-1.315085553509670602e-02,1.236037221052414814e-02,-1.450301222434042386e-02,2.106774530107265175e-02,2.367557902928495162e-03
-2.352854099532654397e-02,1.697472080129214939e-02,-1.592772401403958621e-02,5.688266426489597960e-03,-2.661042519659412298e-02,1.502140270812982181e-04,-2.271166922903605084e-02,-2.659244516154497806e-02,-8.412489295711970960e-03,2.029726176769400259e-04
-2.758493774279163757e-02,2.241056240764296298e-02,2.284067792684543741e-02,3.211826603633986810e-02,1.197015968514902190e-02,-2.602666471290711325e-03,8.884444120235097941e-03,1.871610282872269992e-03,1.742063989701072430e-02,-3.434988496578172262e-02
1.234278106382314527e-02,-2.710284482930962885e-02,4.881892427172539184e-03,7.529084804322530577e-03,-2.346591604020017291e-02,3.529674074223605740e-02,-3.103363805066414183e-03,3.326554671646259065e-02,-1.467060434017440976e-02,1.580217756205499341e-02
-1.784431745998461827e-02,3.560532892763858259e-02,-2.171654319317774945e-02,4.719557946068334009e-03,1.839504233628068419e-02,-3.364911343638846836e-02,-1.129099763298029718e-02,1.612475777632151747e-02,-1.354354226320642757e-02,-1.593071685816682681e-03
1.622902830893113713e-06,8.831022647968984896e-03,-5.879124484919704546e-03,-6.617305469322501410e-03,-2.333464891167624095e-02,-2.356145807122941166e-02,1.681944980775815224e-02,3.565627248140090799e-02,9.702908120675299286e-04,-3.489150757546334580e-02
2.024866228999751966e-02,-1.579113683418392755e-02,7.952927025469784528e-03,-1.613961396639487442e-02,1.682453638823104558e-02,2.783046604020492087e-02,2.559145898869775310e-02,3.416271500875610323e-02,1.647897517814482515e-02,3.119616155956170256e-02
1.834884201167974460e-02,-1.895886281973513388e-03,2.873191949048573002e-02,-2.874773406404379505e-02,2.131786535145278882e-03,-2.990874812371828798e-02,5.948667574438529226e-03,3.225408244169079841e-02,-2.944247574019406150e-02,2.105065324300888635e-02
-1.089005044611568440e-03,1.163560280324798385e-02,3.017611032101463753e-02,-2.342457047378031232e-03,-6.627324549580895091e-03,7.039270226559445065e-03,1.706752039704138857e-02,-3.141228943500373738e-02,2.348742500034029651e-02,2.879631339528510026e-03
-3.416189614311901379e-02,-2.498406610618437995e-02,5.976587002767583257e-03,2.336711506186817805e-02,-2.882739673386195203e-02,-2.394167544873763639e-02,-3.505052107822864693e-02,1.479408020374613913e-02,-1.781065583988350465e-02,-2.605750987571237715e-02
6.821551196215615287e-03,-2.601529811183889151e-03,1.133396506926433872e-02,4.638979027381327780e-03,-1.301825906655880438e-02,-1.300646967177280719e-02,-5.135254132881857114e-03,-2.130415541068543528e-02,-1.836902382873860026e-02,-2.902624962800123831e-03
-2.976186812393303779e-02,1.039143927352599583e-02,-3.534382717374610211e-02,2.006360106886947992e-02,-1.414093374153344365e-02,-1.092264473242528233e-02,3.711641708545536378e-03,-1.111393565188006916e-02,9.401603339593833653e-04,-1.636981696974890502e-02
2.649254711014732699e-02,3.544572652971055005e-02,2.916213572370138229e-03,-8.427909253372278808e-03,-1.376519388502766075e-02,2.472063132309509220e-02,-2.050133701497875577e-02,-2.026922270716866037e-03,7.355183595398225027e-03,-2.858633380772093724e-04
2.071025996555840576e-02,-1.042554422572802494e-02,2.573376212491264997e-02,7.447303777602332087e-03,1.586431025073302414e-02,-2.945203336121047719e-02,4.846276026328880104e-03,-1.204811605091031176e-02,3.063478073555830905e-02,-1.461436413236142859e-02
4.415365133179006973e-03,3.342920837072120566e-02,3.569221582716154695e-02,1.605974870173657032e-02,1.719059913279438745e-02,-3.512705142770120026e-03,-9.745281940456523156e-03,2.079981870362623136e-02,2.186358846155064817e-02,-2.248182887350600942e-02
-1.813114087009748410e-02,7.860742742387696880e-03,-8.855169981606084151e-03,-2.966096387632296411e-02,2.786088976886547108e-02,4.748191765507892015e-05,-2.465858621592494776e-02,2.058541520763836757e-02,1.679244431214383521e-02,5.592194778875091143e-03
2.891220480800520132e-02,-2.810818299488971467e-02,1.645134874833234506e-02,1.078741143999742413e-02,-1.822595504919115664e-02,2.828902151171212853e-02,1.994569691908789494e-02,1.234570689109171920e-02,-3.547135447758770904e-02,2.619110137164520208e-02
-3.527741467691689753e-02,-2.188067576266232092e-02,-6.822306750312683715e-03,1.416993161612879054e-02,-1.068819821326390251e-02,-1.550122862101751750e-02,2.480770413445886058e-02,1.604216470971565889e-03,2.938464110484340086e-02,9.289974490533821350e-03
-2.828431722685459393e-02,1.111721397561778180e-03,-2.909956739202050960e-02,-6.443599504719892124e-03,2.847327105401813163e-02,2.564681895634454700e-03,-3.063711137142157565e-02,-2.746475636639406082e-02,9.152353134860888306e-03,3.004069970103645515e-02
-1.500386281956152257e-03,-9.314947867821530419e-03,-2.410552833818247614e-02,-2.094955982025501970e-02,-2.178161597634920010e-02,2.946480731591716307e-02,-2.423888324641600145e-02,-6.995669807963449116e-03,-3.089814216099377731e-03,-6.345297331254884377e-03
2.471965950931236111e-02,2.699498097291237741e-02,1.219759392272009441e-02,-5.918749111753600356e-03,-5.897579945677369762e-03,2.097767538896167655e-02,7.184679989073620987e-03,-2.966729179525703225e-02,-1.480627953089153070e-02,2.824580082520725122e-02
9.228033797032103580e-03,-1.356873455102609871e-03,-1.131627031210401951e-02,1.200355729551149525e-02,-2.174671203704250239e-02,4.494329760274182184e-03,1.750721570275824701e-02,-3.238924521269782170e-02,2.181884263528655055e-02,-1.340180657451786259e-02
-5.373735746494825299e-03,7.659968683905761522e-03,3.306091458587753773e-02,-2.883653600712913698e-02,-3.198020423586236255e-02,3.568806872815927234e-02,-2.638304811332255195e-02,2.372213394046876478e-04,-5.706768800132974717e-04,1.893538129123480129e-02
2.906611497982532211e-02,-2.991710066962280715e-02,3.040289295096962330e-04,-6.501830170352766725e-03,-1.825236470794052920e-02,2.114087513464352891e-02,-1.393823800088438494e-02,3.046634932896442882e-02,1.528625013667722632e-02,2.624497448606482458e-02
8.288550250309396905e-03,-1.966454719678151913e-02,4.025918710059271655e-03,-5.641585745635724347e-03,-3.051426994472798346e-02,-2.089519240418014762e-02,1.392298765019386181e-02,-2.487282087530844760e-02,-6.690410143345662530e-03,-1.748348106858557335e-02
-2.422034504821798939e-03,2.338120100450799543e-02,6.544918996937536260e-03,1.557414944293816078e-02,-2.392395972768251305e-02,1.255506988047466743e-02,-3.191342536265921043e-02,-2.203943314909125734e-02,3.506382576124822403e-02,-1.862211129169697235e-02
-4.623206481916972838e-03,1.238843668153111893e-02,-2.623159978755467553e-02,8.877902961035452623e-03,-6.533222004907062591e-03,3.442021668989260486e-02,-4.319799935977822192e-03,2.580923123938316799e-03,3.196150732579368381e-02,-2.703076303951498782e-02
4.801738572307104325e-04,-1.156536069895400601e-02,1.636178397329753759e-02,2.622195733511552274e-02,-2.517441335590279647e-02,1.915117478450779204e-02,-2.169441795539651247e-02,2.774967414029148871e-02,2.450688612194475841e-02,-2.029727053498616568e-02
2.963249594992981018e-02,-1.194454115801811198e-02,1.613143708433527335e-02,-5.215268222600068920e-03,2.449414631483362581e-02,1.890019830165783760e-02,1.181113785070261879e-02,-1.249681359072716755e-02,1.400834932089019269e-02,1.537183294788881105e-02
-4.222891306744122608e-03,8.302401214921303896e-03,-1.223367765321780459e-02,-2.810824053546327403e-02,-1.719972163306615620e-02,3.248497653081396097e-02,3.310329065518340108e-02,1.236907610972892702e-02,-1.732674946944721614e-02,-2.605098161048453875e-02
1.541072375821170293e-02,3.106947409751759093e-02,4.624448664777736084e-03,3.546167223358354104e-02,-2.731326205412409197e-02,-2.642621298686058037e-02,-2.208785424577432849e-02,-7.883841734995050005e-03,-3.171699661327211789e-02,2.453563091252469741e-02
-1.505630809701084816e-03,-6.312152005419204709e-03,1.825286753477150387e-02,1.395115571282579126e-03,2.564066012431603925e-02,-2.535907833928757044e-02,-1.224967165753831910e-02,-3.036354903616721515e-02,-1.654985049691217944e-02,-2.639665840403274122e-04
2.911096254550676887e-02,-2.288361939171014436e-02,-1.582611782534608033e-02,2.420745334145728983e-02,7.311475305078876663e-03,1.157547969134851973e-02,-8.176456860388339049e-03,1.579652835093222490e-02,3.247226812382413008e-02,-2.140840559548512489e-02
-3.292949951529140773e-02,2.942656503451193672e-02,1.622153144612700076e-02,-1.971832532232836721e-02,-1.989383682787946098e-02,3.394064727067172549e-03,-1.118766972569504303e-04,-2.329594638788612393e-02,-1.652188339316025545e-03,-2.792663797552386029e-03
2.635397237547798532e-02,7.829501372166938755e-03,5.410600493359112029e-03,-2.334602788035494703e-02,-1.957397154131601535e-02,-1.211980280526285189e-02,-1.081484468925006728e-02,-3.055843972335615250e-02,-2.036882479487027095e-02,4.165734171628229787e-03
-9.492790215955986682e-03,1.382345775545801986e-02,-1.934285812722114778e-02,9.958356864074945081e-03,-2.657467927561676935e-02,-3.087989131243671151e-02,7.533950162689054264e-03,-4.056079956294561528e-04,-2.365523068978790319e-02,3.127016029705767530e-02
-2.904617306257909967e-02,-2.764102744024911351e-02,-2.558040942624560318e-02,-1.366477112138424557e-02,-3.416067979306228186e-02,7.672824559471998207e-03,-1.325845705064111757e-02,3.000718201429225518e-02,-7.175609799138948919e-03,1.414828221547926451e-02
2.648636515385872220e-02,3.335716560519050300e-04,-2.366699691886346366e-02,2.455546502397448760e-02,3.506420981650773538e-02,2.069463431422173538e-02,3.232697673919358861e-02,2.072037981785342098e-02,1.146335859143614994e-02,-1.406242254711650638e-02
6.831453714874272110e-04,-3.279853189900778371e-02,5.696679936747668649e-03,-1.306511582073115879e-02,-1.625682611855663526e-02,5.713221795301856587e-03,-7.406965534518614863e-03,2.063702531994347777e-02,3.193958550375677885e-02,1.850514625759081683e-02
2.299346556853294754e-02,-2.854479956440475474e-04,1.726305970060286465e-03,-6.194780822473447413e-03,1.302456194418163266e-02,-8.009050952403957979e-03,-2.842946921933294652e-02,-3.157727340759838158e-02,2.435430193073609417e-02,2.785974570859994781e-02
-3.776435337392906877e-03,6.842009618210839750e-04,-1.656168507923570440e-02,2.512802977783603481e-02,1.623805241219810486e-02,-1.402261675024265783e-02,-3.274236705843766582e-02,-7.109453266658943144e-03,-2.083992793900490970e-02,2.363591720124459672e-02
1.373851381021667928e-02,-3.278138560297529092e-02,-2.856838699412751065e-02,-3.120000156357237431e-03,3.301276773098153761e-02,-1.234131842092756060e-02,-3.004828876277200467e-02,1.027518967456721860e-02,2.922674005543995923e-02,2.276604027506305694e-02
3.061225380653902206e-02,3.016578688931469132e-02,2.946518233222981953e-02,-1.111494127539982765e-02,-1.323732569934060743e-02,-4.791978503469858375e-03,1.489408124421782997e-03,-3.194546656542748136e-02,-3.895811400239715394e-04,-3.138158892632357533e-02
-7.783241885220171241e-03,2.018202264724297534e-02,1.641635324813588148e-02,-2.421917476444932285e-02,2.180166539072708742e-02,3.996876167998340834e-03,3.308991210274883632e-02,-2.027174327539744969e-02,-3.441825466620942325e-02,-2.292908788848240648e-02
-1.559303825458235870e-02,6.866530449606257636e-03,-1.495294107824448812e-02,-1.766953369418316003e-02,2.753708441145484576e-02,-3.091099596526363305e-02,-3.349038538468397663e-02,-1.462364313392668091e-02,4.933206085316381440e-03,6.667729699805113874e-03
3.069284831195047414e-02,1.171112190707343514e-02,1.245074246270048979e-02,-1.374162298957242248e-02,-7.094077040100048998e-03,-2.179331891593644377e-02,1.531160124597437389e-02,2.765402213300074963e-02,-2.192703547563379374e-02,-7.720428097897136244e-03
-3.533493880943140708e-02,2.799786891348933493e-02,2.680241325374894956e-02,-1.442827191778828927e-02,2.242908918643083532e-02,-1.885066253675754533e-02,2.005042733001106969e-02,-1.603183096123712847e-02,-1.304502478606035798e-03,4.742632519069478469e-03
1.166066063249719675e-02,-3.018662113749856837e-02,3.378192901567195205e-02,1.106065683833008101e-02,-3.136617627634724625e-02,-4.728507346646673021e-03,-1.039787865484037566e-02,-2.218991390975245254e-02,8.075232966056715422e-03,-3.425350334116776529e-03
-6.074371211280911453e-03,-2.265363808153116054e-02,-2.828125612417713500e-02,6.841796108499553775e-03,1.363143913392043938e-02,-2.836839066359879771e-02,-2.934000181480717062e-02,-1.889406312229031243e-02,-1.559831132276793056e-02,3.054914212350691438e-02
-3.445239759012064945e-02,-1.566374188612522020e-02,-2.531210810604565473e-02,1.378021240071486408e-02,2.801692028835257864e-02,-1.497368559168411883e-02,1.684230443927871301e-02,-1.537076713179958559e-02,2.718998003442291145e-02,-1.912772361577818117e-02
-2.344718989478168647e-02,2.543769547511921109e-02,-2.091955284705088874e-02,3.041737731027774339e-02,3.013360001474910121e-02,-2.676532238822652496e-02,-9.697639862327103039e-03,2.135782744898531704e-02,3.133546645702015021e-02,-1.734226290877733528e-02
1.719719140064900759e-02,1.187857336262565511e-02,-1.837790053696004844e-03,-2.009668492192038039e-02,2.627006521255932647e-02,3.570921285912882770e-02,3.008847993470396831e-02,1.461938279659262541e-02,1.717592062917300960e-02,-2.294440878939704026e-02
-3.310865088438701836e-02,-1.689776395683554797e-02,5.208076345505782689e-03,-3.507316404743765492e-02,-1.611467722694375285e-02,4.847143126319619633e-03,2.067859160284900299e-02,-2.397927490622411839e-03,-1.045891360137818360e-02,1.687995286615367324e-02
-3.193793884544341571e-02,-1.951904613856372817e-03,1.819520359922999209e-03,4.497052870404763536e-03,-2.007204763893701005e-02,2.043399084976110086e-02,-5.560375135216764214e-03,3.202334972016163128e-04,-2.028115562647918313e-03,9.078828895617362116e-03
-2.252822132619215073e-02,1.404949346585217945e-02,-3.350418183788888421e-02,-3.075716475927339072e-02,3.170154793331675380e-02,-2.942580940708455772e-02,1.462954766686987151e-02,1.637351096618932383e-02,3.063101366255208124e-02,-1.887523039615630199e-02
-1.382060456083704716e-02,-2.302612769970985990e-02,5.184393823444440053e-03,2.093980476343539066e-02,-2.313658242193157577e-02,2.027238441909540168e-02,-1.733339735862184094e-02,-2.781221003023495730e-02,-2.047156672004497163e-02,8.403164719986935816e-03
-2.691881737628815802e-02,3.530622703394332984e-02,-8.180137508551114933e-03,5.864728802200035174e-03,-3.311743136029804413e-04,7.805760258185752420e-03,2.353402680827021420e-02,1.765468497926497848e-02,1.461513324381095991e-03,-2.972973507940813304e-02
3.169465403227625377e-02,-2.186493785203053042e-02,-2.691547545054157053e-02,1.908385875784170821e-02,1.584302403510844809e-02,-2.145582602391660904e-02,1.623034847131013536e-02,5.174015010338588183e-03,-8.097581649270848420e-03,2.763769934333901168e-02
1.904176344937608123e-02,-2.672323994595605240e-02,5.702168847834809817e-04,2.884206548029948081e-02,8.273699393851037531e-03,1.494111588105946631e-02,3.413678583147169987e-02,1.966690539925882580e-02,-2.749612979783735284e-02,-2.489021643939980794e-02
2.747707601238714992e-02,3.005097817754842637e-02,-2.243245865202215389e-02,-2.506906454147669883e-02,2.765329371594887897e-02,2.542963768261827240e-02,2.340891894728207301e-02,2.314698270313116785e-02,2.318216000707907370e-02,2.733621450859818891e-02
2.766074113760853825e-02,-3.464920107089511370e-02,-2.968738382459402969e-03,2.493000182200950238e-02,-4.873299008663161541e-03,1.790918686238288093e-02,-1.640922662945612162e-02,2.336328190875655575e-02,2.167413237789723307e-02,6.304210974136248424e-04
1.320308689732560548e-02,1.205676114954645772e-03,-2.490225915731607287e-03,9.226583778652312773e-03,-2.205448471817495620e-02,2.303443953608679678e-02,1.661920124241440117e-02,-1.270532242012366309e-03,9.915763595509559380e-03,3.105982348390039227e-02
-2.691813584800324677e-02,-3.954909154705581187e-03,1.307803244715283891e-02,-1.270563303575855674e-02,2.808984197762159907e-02,3.370536737361649882e-02,3.176240417699519036e-02,3.513849826560350165e-02,2.992583708583439195e-02,2.190814803456521409e-02
-9.063026629832507397e-03,1.953403935290400073e-03,1.624174111975831142e-02,-9.872201153436881843e-03,-7.611382503885402023e-03,-1.894286085323021451e-02,1.291225926958330245e-02,1.715146579864106069e-02,2.265653600099003934e-02,3.324713881274761473e-03
-2.638493283061568717e-02,-1.060285734899317142e-02,1.012166884595882416e-02,-2.091065627023689852e-02,-1.259773790546171029e-02,-2.535075038536796499e-02,-1.568935408689750219e-02,2.527685116151139055e-03,-2.328918426256505747e-02,-1.524196682306780057e-02
2.370186935239560616e-02,-1.865921762243312465e-02,4.725399077860258090e-03,7.969614902824558034e-03,-6.339578800247189921e-03,-3.823312875640104413e-03,-2.553076141325810733e-02,-3.051623075201966712e-02,2.882730367008409789e-02,5.577277256986645781e-03
-3.418938873062341011e-03,3.492054085254148177e-02,-2.764217136085179993e-02,1.400650086691050678e-02,2.621419416009307390e-02,1.297735761827545353e-02,1.857486864717761144e-03,-2.206287856652282969e-02,-2.821831451377709854e-02,-8.961267441772096526e-03
9.264693658998943149e-03,8.558911111179234865e-03,6.178053113878735625e-03,2.556998448460461038e-03,-1.957518810131404774e-02,-2.702716047008776185e-02,2.880070460331866922e-02,-2.579944270333669326e-02,-3.225113226282885770e-02,-2.307398617877026714e-02
1.996347646011646659e-02,-1.121086947206085399e-02,-2.674105915530691074e-02,-9.286516787574299048e-03,-3.122058325039782020e-02,2.673871073081930672e-02,-6.087962399876394731e-03,2.895137606445882805e-02,-2.296595017449400838e-02,2.123654352341747265e-02
3.445400014309649150e-02,3.034736968315979166e-03,1.149086177465246522e-02,1.033598169207991524e-03,-2.962807642479183684e-02,1.111985272003586378e-02,1.463903053601771365e-02,-1.495179007058465223e-02,-2.619271222546235012e-02,-9.800664115387238556e-03
2.872540436134227160e-02,-1.395119416775434870e-02,6.550084421495815101e-03,-2.916251220638382824e-02,1.726227471730361340e-02,-2.630468868052499021e-02,-1.808049193654357942e-02,2.889999205086345169e-02,1.260807698347429090e-02,3.368298456790595752e-02
-1.660507116194098742e-02,7.369299926671242507e-03,-2.785318914865844708e-03,-1.698523449087687917e-02,-3.004782108217006129e-02,3.487168482261458757e-03,-2.823054016226460641e-02,-1.792913257192650309e-02,2.955325051344728782e-03,8.320827426023143236e-03
-2.282718841224889300e-02,2.337869581063558438e-02,-2.301758961455559194e-02,3.032830692037762066e-02,1.078601219424513841e-02,-2.734605095250702139e-02,2.977702120952259446e-02,-2.462061844783602904e-02,8.308149815076659728e-04,-2.034519952607394960e-02
1.113630236743602675e-02,-2.090745862203708533e-02,-2.084422609551107169e-02,1.806833212134095062e-02,4.067793410303013890e-03,2.140570000220473612e-02,-1.823318600375948770e-02,2.973072981758891065e-02,-1.571244770059074605e-02,-2.494616705222532649e-02
-2.298704263519954494e-04,-3.140862676306470369e-03,3.198348959784658163e-02,-2.175174584533526648e-02,-2.360033769706985571e-02,2.782250592824352109e-02,1.233238091250805218e-02,3.403401699116781476e-02,3.844675311070668011e-03,-1.470412816021174005e-02
2.835734746465354283e-03,-3.017072752081836201e-02,-9.849145965698524741e-04,3.651300566263664116e-03,-1.002032191838769098e-02,1.193833657164965201e-02,-2.077511883974299256e-02,-6.757561995757482148e-03,2.515741244773510299e-02,-2.400964788565934649e-02
1.034943708664669976e-02,-1.535201338632035187e-02,-3.082095365155353844e-02,1.877582248267832543e-02,-3.090642634223271165e-02,-2.587639114608311641e-03,-5.749708959948845316e-03,-3.555779541124123866e-02,3.002218182107962985e-02,-2.673367366037522619e-03
3.482597053284450239e-02,2.426678931452541654e-04,-2.308677478077719031e-02,-7.819602232281348819e-03,8.657698458269039166e-04,-2.254033936600963878e-02,2.974668670421719285e-02,1.650364608683784623e-02,2.081345297553645335e-02,3.416669439990233093e-02
-3.045299389607451779e-03,8.986040915996737488e-03,2.943696407496713963e-02,2.311641117962362491e-02,1.267219883277201364e-03,-1.228157191657200734e-02,1.790970972742068207e-02,-2.604753706024249410e-02,9.115620156943386732e-03,3.354675639094101269e-02
1.433203690401747138e-02,2.427687266701135382e-02,1.181393734702391313e-02,-3.422887584824520907e-02,-1.756258506210215883e-02,6.756680853249333318e-03,-1.866242150558699089e-02,2.197960228461628973e-02,2.728829901653942458e-02,-1.677626451718305933e-02
1.240417574639397780e-02,-4.044571536558176639e-03,-1.182084880025416687e-02,-2.909433007616502725e-02,7.733414663747828488e-03,-3.080513152937513002e-02,-6.808418089285419444e-03,-3.071344663804144448e-02,3.269840659805026140e-02,3.285625484287463260e-02
3.166182407222090101e-02,2.309896343784973577e-02,-1.124776199374708310e-02,1.101211184856333569e-02,2.587961283653213151e-02,-1.144142247330021817e-02,2.286709631754892114e-02,2.998852973713886372e-02,-3.373600288819742637e-02,6.065072467524426636e-03
-1.584702200204400960e-02,2.846010518480340812e-02,-3.306611963975504553e-02,3.424427455863923719e-02,-2.804665780434399333e-02,-3.216821938375945961e-02,1.481080174237904556e-03,1.636900477523320352e-02,7.619860472872816426e-03,-3.460360784860114225e-02
9.602390389196628628e-03,-2.075661392963736029e-02,2.314718053080933730e-02,1.057072977471140707e-02,-8.917353542599648630e-03,-3.471194098569108794e-02,-2.851450303518743290e-02,1.224921060155331060e-02,1.651092399869334704e-02,1.469611989269937330e-02
-2.248123512022251816e-02,-1.439927200663095042e-02,-3.262689993592637200e-02,-1.063512805369596845e-02,-3.150381866029735439e-02,1.415198075334849620e-02,-3.272930326025053072e-02,-1.228411222455495777e-02,-1.673898794151182021e-02,-2.844935392218382944e-02
1.355746031309437022e-02,2.473923797406382685e-02,-1.080217318043328809e-02,-1.853277663217567373e-02,-3.336882835777763706e-02,-3.010548005281389605e-02,1.760650289264767410e-03,1.923791992260628914e-03,3.081480822566051714e-02,-2.516827816833831430e-02
-2.282787865616196440e-02,2.453273186764597102e-02,-7.947696619035684445e-03,-2.104011371034153477e-02,-1.727855427380396366e-02,6.093753761176552708e-03,-2.485711990154908929e-02,3.205660378894412132e-02,2.273834102491363585e-02,-3.394147699305689880e-03
7.329223128556425215e-03,-2.826582527668321937e-02,-1.314388736169494129e-02,-1.868344187778365334e-02,-3.232812852114094748e-02,2.803107332929619111e-02,-1.878576872470000270e-02,2.544674511829422836e-03,1.784977824646404726e-02,-2.320235677383153394e-03
2.100434423590466504e-02,1.565610520795724520e-02,-2.255054222178102738e-02,-2.101081372152716065e-03,-1.539830592478716106e-02,-6.717935550953305079e-03,3.086636063937897578e-02,4.142564046504648712e-03,2.956365218965831265e-02,1.525057336233266031e-02
-3.526891006663118722e-02,-1.321912823896745012e-02,-1.819946336054533223e-02,2.488599277354014427e-02,3.500271470112691075e-02,-1.660615426965027577e-02,-2.483447489605314362e-03,-1.546738617494651524e-03,2.017410905279037187e-02,3.488423002679125196e-02
-3.266129872920265492e-02,6.958642280274256187e-03,-6.934107585270458951e-03,-6.039109635184083252e-03,-3.182489465535987688e-02,3.338693199737841066e-02,-8.574476876125336489e-03,-2.411437441421172140e-02,-1.647574136062237779e-02,-1.878736665499511002e-02
1.863141512816404721e-02,2.498805094369067892e-03,-1.384054960647251864e-03,-9.387305491407101077e-03,-2.925546938443213119e-02,3.612185011438250049e-03,-2.780232734716985704e-02,-1.354860685204567483e-02,-2.878733911403467613e-02,4.996656129577330130e-03
2.956851011409232510e-02,2.866636279919054786e-02,3.189108953183319994e-04,-2.274877226690071724e-02,-1.950623584215003745e-02,3.130022810558212576e-02,-1.900721791235515656e-02,3.447514571264778671e-02,-2.736636199672641198e-02,2.646466247266576755e-02
2.279044148927308888e-02,-2.305775859303149655e-02,1.626782173001656284e-02,-1.246212570171164810e-02,-2.361485652622185433e-02,1.183585359038497042e-02,3.519139823168919434e-03,-2.360421979111356622e-02,2.028160929523144945e-02,2.294941745496487107e-02
-2.508825597561352080e-02,-1.925929454585148179e-02,-1.363331203042791526e-02,2.616660186382296915e-02,1.643547582586043360e-02,1.940781986298120015e-02,1.680835038621687066e-02,-2.219827523685491411e-02,5.852000883457067482e-03,1.018627860741573576e-02
-7.883676889065032584e-03,3.562538406313653372e-02,-2.001803731878823087e-02,-2.881542284460112888e-02,2.658617918403695379e-02,-2.875383087527250831e-02,2.084117135674042054e-02,2.356733204522448027e-02,-1.449412860912126233e-02,2.837828942325884563e-02
-2.730773997289898808e-02,1.913309163523747164e-02,-4.434306137294882766e-03,-1.470506281070135465e-02,-6.878375665364391128e-03,1.399137414492780673e-02,1.532127616842925838e-02,-1.589754244361933286e-02,-2.224835989713944140e-03,2.882458759889475197e-02
-7.596307000981239455e-03,-1.153488814294864259e-02,2.599700394210405219e-02,-5.311993443909788365e-03,-2.758084531886256102e-02,2.421120776621029508e-02,2.878951883731754868e-02,-2.192184387823132435e-02,1.329583720553838277e-02,-6.070435176915252307e-03
-2.279490910911974311e-02,-1.246226847530027340e-02,9.390323121315574673e-03,1.777299460628684741e-02,2.853401999473388628e-02,2.421695426233039933e-02,3.440951526156521556e-02,1.495218504167558637e-02,-2.087587850127316236e-02,-5.791083890142625229e-03
3.020595875531410790e-02,2.956917878393053312e-02,2.268567496523443694e-02,1.491427803151714609e-02,2.670524045359275872e-02,-2.965488241265584746e-02,-2.094454730951204879e-03,-1.194409821412298692e-02,-2.446709737804037693e-02,-3.037741042701045877e-02
-1.175883086209413009e-02,3.962796431380651019e-03,-2.137287513014059920e-02,1.839341281698066155e-02,3.316504619511988217e-03,2.742969174533879673e-02,-9.076972558950562042e-03,-2.596314185726391471e-02,2.726864047988374062e-02,3.084899321368465841e-02
2.135969168016021991e-02,-7.221805820097126904e-03,5.300299634212302102e-03,-2.414759781958174256e-03,-1.868810889955524468e-02,-1.804594861269514031e-02,-9.889621353790560565e-03,-4.103731302278167126e-03,2.598709218017627304e-02,-7.871277659508655461e-03
-2.559692755527240293e-03,1.313584443162112841e-02,4.201461818388388392e-03,2.419829169474271152e-02,2.652245402011751269e-02,7.734227605281120133e-03,-1.554326936022123670e-02,3.200718070385716318e-02,-1.219034256580562789e-02,2.217195382918064200e-02
3.514087498182344449e-02,-3.169983933198734782e-02,-1.000760843055329904e-02,5.492434777872819140e-03,2.398930399152933435e-03,1.748323370007677513e-02,3.782719886179453095e-03,3.206471112470589413e-02,-3.469832889811679671e-02,2.229732928934385905e-02
-7.592696175046240864e-03,-1.518206293465930445e-02,2.454724619526551382e-02,2.552885401068293730e-02,-4.198161642774742019e-03,-2.250962896831081722e-02,6.911740963843733543e-03,-3.391190620728415372e-02,1.294255865778467379e-02,8.469925439939796075e-05
-5.476414647226115345e-03,2.434267332707154563e-02,9.816188023700093968e-03,-2.526155671466582750e-02,2.474483712881740682e-02,2.829945272431295955e-02,-3.120535598886768278e-02,-7.837845517159811037e-04,1.011414874067410874e-02,-2.836815062643897531e-02
