-2.088684746252436608e-02,-1.126396931815714930e-01,-1.173471616176052085e-01,-5.477345278056267031e-04,1.070866768585427564e-01,-2.250973757580468360e-02,-4.030143061308534558e-02,-2.926359665883893069e-03,1.116498789211650411e-01,1.148004636206118034e-02,2.900833573450239955e-02,8.438301226970523761e-02,-1.461239112121007211e-01,-1.473986380550069419e-01,-1.258706471117267967e-01,-4.397183528074173620e-02,1.025075927621596217e-01,-3.481601127295730347e-03,2.880582936795050841e-04,3.264605375228449291e-02,-1.379416948000947163e-01,-7.573662025656106855e-02,-1.174580627653659393e-01,-4.009897234508691399e-02,1.175270515475945743e-03,7.230290599621874703e-02,1.167413176271009378e-02,-3.195700553228225660e-02,8.052411353941452132e-02,-4.283943355197851466e-02,1.484401077364497501e-01,1.453862615706154882e-01,1.325481041431952056e-01,-1.434327355518830727e-01,6.159718275061221160e-02,1.936620619137863208e-02,-1.393779977498750267e-01,1.545941540204268105e-02,-1.444084474551213526e-01,6.172641949763024716e-03,-1.041170449573919354e-01,1.489619504352495960e-01,9.694286025213863511e-02,6.370795908111664962e-02,-9.964185511531920003e-02,-3.298251368606719414e-02,1.135512760196811521e-01,-8.967832726851199254e-03,5.802926285994394751e-02,-4.507395645706273324e-02
-2.330159455246796907e-02,1.393227363559304821e-01,9.063505527271156770e-02,-1.068877869765689492e-01,8.226821813301757325e-02,-5.232769819681133694e-02,-7.834291139902722911e-02,-6.715708266114313318e-02,6.950688438043486905e-02,-1.495021015415421428e-01,5.960048940688547625e-02,5.929455821457391140e-02,3.375604452511993259e-02,-2.666496518670977145e-02,-1.031328844205220419e-02,-4.534913045992196301e-02,-1.063881661693281966e-01,-7.492879022749493467e-02,1.467650620517044480e-01,-3.744502953208854457e-02,-2.621484486405072090e-02,-2.475937204717482132e-02,-1.928765474912116917e-02,2.625498423274866266e-02,-1.933581048424029558e-02,-8.670022581828480679e-02,-1.016315722480664041e-01,-1.060697767550018433e-01,6.610179265871257703e-02,7.047837788834293571e-02,-3.327313885540289506e-02,2.081117385136199704e-02,-1.361076395428849894e-01,6.937248181135946545e-03,7.769279365376277613e-02,9.548348602719664013e-03,-1.416621325643303009e-01,-2.976930148768791584e-03,-1.084052742663871860e-01,1.017424946236528960e-01,1.125664037046939236e-01,-1.146757954011697889e-01,1.377869231855587684e-01,5.150137136320587228e-02,-2.373221604929878770e-02,-1.467892691325348997e-01,6.234040051965117346e-02,1.016854896358901639e-01,9.246796050803285372e-02,1.024482881329290274e-01
-7.950967554250445990e-02,-9.766248285461537337e-02,1.374473456547045391e-01,-3.354398521412929601e-02,-2.760159475893653180e-02,4.622669712214200199e-02,-6.507296450641031349e-02,2.299149992540483467e-02,-7.994195459902792011e-02,-8.580542517616913945e-02,8.788160027318248080e-02,3.973943172102170629e-02,2.740086031609170747e-02,-9.911760589518661679e-02,1.000176991679333216e-01,3.875688354217454723e-02,3.937092705234485068e-02,-2.923888227123076777e-02,-7.362230710261037647e-02,-1.441193901003399447e-01,3.502124150003915748e-02,-9.376521351993888365e-02,-1.340299612974799881e-01,7.486246292434611815e-02,-1.457723468464768579e-01,-2.999039890390327312e-02,-1.440823285069953441e-01,1.124059700788211658e-01,6.901126831074799739e-02,-3.083397969993909027e-02,-6.157749288047532910e-02,4.805233846991185942e-02,2.716217475174204088e-02,1.062518312070862281e-01,4.745656739108855549e-02,1.164438643770571435e-01,-1.052686758081855245e-01,-3.722221809217229893e-02,1.257539903145470650e-01,-1.377929057915480981e-01,1.312929317802791207e-02,4.505990887857019844e-02,1.480966674771562464e-01,-8.016757598891537107e-02,1.469397629099352953e-01,-1.498802510474289140e-01,1.240496107014213145e-01,9.871858010248402149e-02,-1.255178475568106689e-01,1.105262106207881845e-01
9.842320256555234237e-02,2.780231648237183051e-02,-7.164128566127091202e-02,5.001997605944380476e-02,1.840558008310833049e-02,-8.009968937850747706e-02,-5.717963286112205668e-02,1.419345887041378595e-01,1.324149403048052454e-01,-3.224568521986437286e-03,-4.931341291855635689e-02,1.053010394474031830e-01,1.077619262250232579e-01,-4.380685218019682303e-02,1.341039522890180580e-02,-9.475872845600691319e-02,-1.103975534468079334e-01,7.029437812660893625e-02,-6.429539637770853577e-02,-9.830998477189861751e-02,1.095004932419930965e-01,3.430867256550618194e-02,7.752609526569312348e-02,2.573328505510527608e-02,-1.295723998158565538e-01,-1.422811790506680885e-01,1.622617353224739545e-02,6.992270697380667532e-02,-7.398876710189800088e-02,-2.409957497312728569e-02,1.209757620050014026e-01,7.352816481308716012e-02,6.913684859043389697e-02,1.517286595837680219e-02,5.638627067661527992e-02,5.133512885607177667e-03,4.519129965385326742e-02,1.254246804112215397e-01,-1.087259134261306104e-01,1.458979877026601313e-01,-5.947486399662850476e-02,-7.587000730799590975e-02,7.653157755980721788e-02,-1.026494023337190253e-01,1.326543002521268499e-01,7.173081937080810766e-02,6.828895581057983777e-02,8.475307198101406092e-02,-3.763217268489117695e-02,9.222746758605582240e-02
-6.735192187296284994e-02,2.329418170152089407e-02,-2.733473736063986304e-02,-6.226906919065502977e-02,1.060911081248373800e-01,-1.200442425632664289e-01,-8.155841713758629763e-02,9.277082254043889087e-02,3.115977181704671084e-02,-5.813370297150950716e-02,4.226179759832238148e-02,9.932007789948874010e-02,-1.227782481268599457e-01,-9.095165023773948976e-02,1.461943917145215599e-01,-1.768721224291050498e-02,6.471167249904219432e-02,-9.983082458353800814e-02,-8.314469625775697259e-02,-1.449673032585704069e-01,1.331581135166789165e-01,-1.423869523970746342e-01,1.022835531037269152e-01,1.365107510773298782e-01,-1.337216568887193147e-01,8.550041995060098099e-03,-4.665625966784361922e-02,4.771511115404675207e-02,-8.140942399911196836e-02,-9.988840998595011067e-03,-1.478326333456849162e-01,1.372195477126289809e-01,-7.764844206979969188e-02,-1.352310621433967519e-01,-3.861376753176280763e-02,5.824323710820139555e-02,-1.160115075572059895e-01,-4.981788741069755055e-02,2.870776843381278587e-02,1.459367350545659747e-01,4.332663357634614076e-02,3.848950448097487875e-02,-1.287944226647688428e-01,6.717701215169941120e-02,7.838743134669914903e-02,1.240846694646979831e-02,3.752734067433916021e-02,1.451406391675342522e-01,-4.378664380478482221e-02,6.398416201640855228e-02
-3.595773985917280480e-02,5.469021865859058362e-02,1.961977663803624039e-02,5.865094367065581960e-02,6.368612913133211983e-02,1.222924708195768095e-01,-1.187187880762591574e-01,1.044673988567166589e-01,-4.231840169206325941e-02,-3.771708826661181180e-02,-5.661838991187073677e-02,-8.123629035759605266e-02,4.205729920085524154e-02,9.844762108662699629e-02,1.117390602341707673e-01,1.302615706086208414e-01,2.210554987857282772e-02,3.587154522555352498e-02,1.367627788875577510e-01,-8.682635341916405958e-03,-8.016333259748256723e-02,9.100873483099206074e-02,1.257448794253221425e-02,7.103633842299902912e-02,4.636712389364910925e-02,-2.902572311135462324e-02,1.455357523692100419e-01,1.675129392194737998e-02,1.683066161413321327e-02,-1.420631262915905968e-01,1.472599652333394238e-01,1.469726159104245145e-01,1.249278876192290444e-01,1.653042845857305432e-02,1.018672114301250042e-02,-8.430784689765564999e-02,-1.105676217482810531e-01,9.969604353658845231e-03,1.369849963396032322e-01,7.459288305639535932e-02,2.403354654560294068e-02,1.175166529290667949e-01,-1.148137671327359444e-02,-6.356530546010373539e-02,-9.677180664435358626e-02,-1.329567962031001083e-01,-6.027655184402742894e-02,-5.926619888659392932e-02,1.453859720098376329e-01,-7.221454772458787974e-02
8.408121946859542506e-02,9.201876126138683332e-02,7.249897372839886334e-02,5.473549862442764202e-02,-4.013756146502252264e-02,1.207274029438384078e-01,6.195725172441990392e-02,7.639701723077152451e-03,-3.216963586211514514e-02,-3.844934936447609586e-02,1.362319372470805756e-01,4.566775569924683142e-02,1.299865511569048560e-01,-9.530055676624463179e-02,3.203510187916766561e-02,-1.497660068729715632e-01,1.019262033989958016e-01,1.460996869244280127e-01,-1.115995869246089733e-01,-8.223059932539535100e-02,9.891951670095575078e-02,3.142290872332675900e-02,-1.248721159071560505e-01,8.312226470454076033e-02,1.327753460192215573e-01,-1.398955354481938307e-01,-1.292578573609937387e-01,-1.199091469536606447e-01,-3.641633697311923157e-02,-6.016587303196421765e-02,-1.126921917130089545e-01,-1.115507552782697975e-01,4.498625141377526893e-02,-1.313916508565038388e-02,1.250634067196171040e-01,-1.028587077148743756e-01,-1.026424922015891500e-01,-4.880983812260865362e-02,-4.674229512342670256e-03,1.260359720122981309e-01,-1.183939985544982254e-01,6.696569961451898090e-02,-3.790536906342345524e-03,-1.081306169942786721e-01,1.799173464377429310e-02,2.963625090314467303e-02,6.469616924471785491e-02,-1.334909915599797603e-01,1.319303646290032328e-01,5.203319748288015578e-02
3.942715521811512858e-02,-1.291638538288890359e-01,-6.301297538556331623e-02,7.426435167200989840e-02,-7.378801436441634332e-02,-3.509667777672065281e-02,-3.280155842101514785e-02,-3.229672421278911854e-02,-3.917902752558134749e-02,-1.198889231546305389e-01,4.671224816403429791e-02,5.601224907880120174e-02,-1.236441500966725116e-01,1.480030608079528631e-01,-9.150103932438456711e-02,-8.117747805377550918e-03,7.416996105717832410e-03,-1.308454638055929764e-01,-9.671876874342963393e-02,-7.055462317527795568e-02,-1.259645240004073075e-01,-1.867469763082602041e-02,1.215293322074944282e-01,-6.090460518475111773e-02,-6.118923821339912472e-02,4.224215279432072534e-02,8.954569976647422380e-02,-7.802589584067987083e-03,-3.779477364817178386e-02,6.384354221060972723e-02,1.297253213467562671e-01,-3.205308262940434472e-02,4.160564717742890051e-02,1.486992510940081391e-01,-2.995760664372053295e-02,-1.235703675459955408e-01,1.254406127899458656e-01,-1.174299030807281763e-01,-1.839159871189641193e-02,-4.774357291868903952e-02,-6.613772780519056038e-03,1.526312142609614897e-02,1.397856053402488918e-01,-1.115436405377447371e-01,7.222794548608063581e-02,1.395053795693939336e-01,2.639141202467942815e-02,-6.812082504896500856e-02,-2.676997753519380630e-02,-1.022069507186941090e-01
5.517920399490808259e-02,-1.204521958244647584e-02,-3.648194378174733632e-02,2.233812267678614294e-02,1.300970254577948626e-01,9.073698985297551367e-02,-1.158242920720947700e-02,-6.880975564925051469e-02,7.111363697717715260e-02,-9.097272512234308439e-02,9.787716312921834749e-02,-2.161542471775523833e-04,-1.020592927640094072e-01,1.472708265054728793e-01,-9.045998107804315014e-02,4.638067967961836957e-02,-1.253753840068598802e-01,-1.366718830817374164e-01,5.410814551666789929e-02,-9.171445038191394783e-02,-3.843168898632799702e-02,-1.057565133542371916e-01,-3.719590303150774324e-02,-8.293524178717213979e-02,-2.206334661939593489e-02,1.251825316730796611e-01,-4.287991892486563150e-02,1.412016044647383672e-01,-1.214782691955378496e-01,-1.063152264495949573e-01,5.732119455364254046e-02,2.488323999061312075e-02,-7.275447828744692480e-02,1.397033283968484862e-01,-5.392415751743744046e-02,-9.729508239298315098e-02,-4.095518063235771555e-02,-7.914494462702949262e-02,9.481458225678304763e-02,-8.805579499795990195e-04,-1.471488806906237345e-01,1.296514412104554925e-01,1.055290491677074172e-01,5.497395069305580084e-02,-3.402602062814805151e-02,-5.281989414216983758e-02,1.054815538754826643e-01,-1.278786099919992647e-01,9.977242822720652771e-02,9.364221452562690451e-02
-1.339827773801365585e-01,-3.687498171523266588e-02,-2.738228876287680802e-02,1.086757813024392394e-01,-4.975423579179778788e-02,4.884743660038157187e-02,1.433515175341070480e-01,3.237121411207000143e-02,-1.066000534801650190e-01,-8.105180366108731549e-02,6.282235679430120401e-03,-9.355258337550180492e-02,1.281758075353885695e-01,1.290129190549985372e-01,-6.794279153576211761e-02,-7.701256201010307778e-02,4.762675453539352843e-02,-9.732619069088371822e-02,-8.505607361152857371e-02,-9.998627597491024921e-02,-1.125808905818276029e-01,-1.216476736279333282e-01,-6.528166142383204362e-02,-3.877959561794104559e-02,9.177823486799144281e-02,-8.680002292259209051e-02,-5.111671329140550502e-02,2.022032832196857255e-02,-5.934515250494466765e-02,-9.236460232549631444e-02,2.472661171833209770e-02,-4.803705343588750287e-02,-4.185566835381293593e-04,-5.026504210323198829e-02,1.251405721831948259e-01,-1.034681810049111750e-01,-5.195140197997408227e-02,7.755915015401568247e-02,8.358895043607292297e-02,-1.016538606290252333e-01,-8.637653774556955377e-02,-1.031826675283072370e-01,-1.088439544660843583e-01,7.930796894679362219e-02,-5.036915538019610949e-02,1.258198494638283205e-01,-1.492731135848778257e-01,-3.430129048985455786e-02,7.633753050795652473e-02,1.287383937444175341e-02
5.890021555363678107e-02,-2.678060624500258613e-02,7.174630042312712952e-02,-5.948797098216072887e-02,-9.576058941921454515e-02,9.918280065349791008e-02,-1.060253339492668589e-01,-1.337577387478549595e-01,-5.382132048238619237e-03,-1.908746584843343252e-02,7.285864613372092236e-02,-1.908790806974580700e-02,-6.979980592760559599e-03,-8.071222057852382725e-02,5.587169177118747609e-02,-3.310210405196926942e-02,1.680354750544788001e-02,1.177834945525615684e-01,-6.297904422426715831e-02,-1.508450692812912663e-02,1.308314598862534706e-01,8.577394106516200711e-03,-7.567714400464421731e-02,9.407018193160260333e-02,1.086439270886745689e-01,-1.413172200975656434e-01,-4.205732520628441273e-02,1.109215364606054022e-01,-3.451692811454322440e-02,1.226358351234069499e-01,-1.102345649148005480e-01,9.638676417017968956e-02,1.384392895854597016e-03,-2.747935817904255396e-02,5.018373330990838488e-02,8.822777027686951046e-02,9.640459527836403586e-02,-3.874533725622231195e-02,-1.185174167862229622e-02,-7.556645258842271951e-02,-1.302346961312465801e-01,1.409023428753306828e-01,9.844684658018112988e-02,1.336074397166558125e-01,1.426008314247770026e-01,-8.774703313213530476e-02,-4.824079190054428312e-02,5.517951506118082272e-02,1.628359258328787584e-02,-8.487744705600050454e-02
4.271857788959371183e-02,8.137594958274263490e-02,6.622693551066405337e-02,-3.950601357362061583e-02,-1.171467383097133247e-01,-3.179607568872902523e-02,6.500069349018133824e-02,6.301254403977965546e-02,1.367693819033528324e-01,1.474910303994591276e-01,-7.437410201180022495e-03,1.380382788193140753e-02,-5.909633369278778636e-02,7.163375702035743031e-02,4.994669444665161828e-02,-1.793712295224236808e-02,1.074047688182128979e-01,1.091334033738279585e-01,1.198275583744522199e-01,-1.031156961034118691e-04,8.351556025104878156e-02,-4.191565707847483280e-03,-2.541996388420064701e-02,5.985802819738983427e-02,-5.150859320503520244e-02,-6.137240249361099187e-02,-8.584671141435143427e-02,-7.580221355167027220e-02,5.089982149649988075e-02,9.417631578188706554e-02,1.510809256654366273e-03,-9.204249457897020759e-02,-6.171521142475050459e-02,-1.339866274896618914e-01,-2.114407569682197341e-02,7.908694243973127258e-02,-8.909430677546996413e-02,2.184125614814863559e-02,4.891626375284155448e-02,4.210873621817901036e-02,1.299505488488599536e-01,-1.984368759352111988e-02,9.084950439096739494e-03,-8.012665897556421613e-02,4.756066214716928031e-02,-1.478029306184823199e-01,-4.773874321950785649e-02,-8.879216417406995965e-02,-1.444366512309635808e-01,1.034707803708230511e-01
2.035984928029907493e-02,3.898235908439712238e-02,-1.795455023607855916e-02,-7.314503614169237666e-02,9.436691745890798955e-02,-6.691728497162041656e-03,1.004124493995158518e-01,-6.962276252867703741e-02,1.178968884817708507e-01,1.303356278844725047e-02,2.125022599617776287e-04,-8.258382376629531951e-02,-5.232561200176445715e-02,-1.247284448092489395e-01,-4.553486850141096054e-02,1.229082097376617277e-01,-3.441231432650124211e-02,-1.137032100076615371e-01,-3.306784255141403950e-02,7.659516403050875555e-03,9.911002635555746232e-02,-6.133151408951580119e-02,1.360448939785851297e-01,4.671066575536228505e-02,-6.843425456095982018e-02,-1.385634152154745224e-01,-7.588575656987464613e-02,1.239191503456085475e-01,1.287273287822528756e-01,7.080940534089283367e-02,8.259615462729122393e-02,-1.258907038334477757e-01,6.237588017981993138e-02,-1.174484284570932735e-01,7.074642471756531492e-02,-3.112290239971191030e-02,1.641482674908995021e-02,-1.064221624040701808e-01,-2.896368505760124612e-02,9.500527758425217351e-02,4.236979980152649761e-02,-1.002086307942982035e-01,1.132300927507573773e-01,-7.768104921386242978e-03,1.098892974976917458e-01,9.337199297845738544e-03,-1.196618167033622476e-01,1.151160680537477443e-02,3.081765996038959843e-02,5.698363348485926960e-02
3.803804984874956108e-02,1.050886370348130538e-01,-7.692090212618124534e-02,-3.809762358053868370e-02,-1.449103412771939603e-01,-4.216453198364047972e-02,8.480221825071929120e-02,-8.541775961448672128e-04,7.167631991305806194e-02,-5.719128768011533248e-02,-8.925202662773862317e-02,8.300037051253872367e-03,4.283628810505157869e-02,-1.141198982238004200e-01,-1.475280004131727940e-01,4.529272826586233647e-02,5.514347132007560437e-02,-2.589508559459045844e-02,8.870538930211044337e-02,9.669944777090505594e-02,-9.950068136118231377e-02,1.019848911463954455e-01,6.524045105480663631e-02,6.687087565718213833e-02,1.061125263531796648e-01,-1.256309006228604475e-01,-2.188664917538962751e-02,1.235370780241870359e-01,-5.197808610713923472e-02,8.890291213513029644e-02,-1.125620793812509429e-01,5.523600573940151692e-02,-9.519771613938735055e-02,-3.635399078183970678e-03,-9.696705596131237337e-02,2.973024792930251126e-02,-1.409476935370262418e-01,1.272477379034178402e-01,7.822747190155415753e-02,1.492068193610497640e-01,-1.248824628143717086e-01,3.136078004260545171e-02,-1.474981565358329250e-01,1.438379825973722659e-01,7.036358079941085197e-02,-9.220946276001949771e-02,-1.232345737167517274e-02,-1.080583481390392786e-01,-9.916103478911675317e-02,1.427923480858911132e-01
-3.014255869460140402e-02,-8.555284850756272874e-02,4.641545970137497812e-02,4.186402211499778980e-02,-8.252445550073699010e-02,1.098338592116499257e-01,-1.633905372202570927e-02,-1.209805165235091906e-01,-1.495122378101000071e-01,1.790029987423547020e-02,7.926380521901685294e-02,1.167686294399244984e-02,-2.707216744342855197e-02,2.878192566081935744e-02,-1.134253976494634109e-01,1.230276650966601049e-01,-1.332064670176483223e-02,-1.159504389573468297e-01,1.406634897700265174e-02,7.424603210291769173e-02,1.005542739467776003e-01,-1.156150299659572112e-01,-2.758068805011804070e-02,-3.334467314310000929e-02,-5.920245549487193615e-02,-6.670009227674922325e-02,1.343174563897059637e-01,8.852456876983591516e-02,8.991668169249361631e-02,-1.949993854898945944e-02,3.100426366444256066e-02,9.079850184452681328e-02,1.447960312194811749e-01,-1.318387306495806544e-01,-4.669008569031166123e-02,1.304105370158803734e-01,3.384307165845948373e-02,5.364896998159451869e-03,-1.320987787736111196e-01,8.479715783477445590e-02,3.234547534635856536e-02,-2.518371726943059719e-02,6.356684361447706433e-03,4.727070778262007500e-02,5.377937446585140391e-02,1.072243158224472914e-02,4.910843257852284816e-02,-1.197838800039820323e-01,1.063434662916250828e-01,-3.078167264362272060e-02
-1.354117699676223030e-01,-9.851812392271727670e-02,-1.249827039497503900e-01,7.958605292767401140e-02,1.282614634612096183e-01,1.474936023492550430e-01,-8.471803400601142509e-02,3.993763295175312145e-02,-5.131389148311316095e-02,-6.049486455960879916e-02,1.877539361753463587e-02,-6.774694631832919867e-02,2.907191801574504630e-02,-1.291690244661546638e-01,-8.492116895736813442e-02,9.186571836074491904e-03,-5.536296498088690010e-02,4.017528229559694242e-02,-1.050274363617759166e-02,-7.448554621876990467e-02,1.453078897621453980e-01,7.281735703122349523e-02,1.456642053812849669e-01,-1.130445504731665135e-01,-5.462401930503553438e-02,2.591750017564173336e-02,7.766540972155261402e-02,1.245978556410334837e-02,-1.286647012040223470e-02,-4.951681355890281966e-02,-1.438129621143899028e-01,-2.070537272262695794e-03,-1.357948630523884981e-01,2.444834301807516375e-02,-1.327207250023644536e-01,7.949080586215881428e-02,-6.877648765477824278e-02,-5.439266948037388416e-02,-1.378773851513570847e-01,2.723248498490490888e-02,1.351246472357350015e-01,-5.472961841129829474e-02,1.092381644980883193e-02,1.287647689890256963e-01,1.029130011693430713e-01,-1.124970092357188978e-01,8.391124402395216952e-02,1.359490451757144058e-01,2.015157737397724191e-02,1.412115850702040654e-01
4.411264939883915992e-02,-2.505483871063231283e-02,-2.407187933219073761e-02,8.505119319428958158e-02,-8.776886323867741369e-02,-7.998689065717726199e-02,-8.927821912765286638e-02,5.900644667046980874e-02,-2.492585664200519524e-04,-1.175661762231656055e-01,8.930972775137405173e-02,5.795512160387727985e-02,1.188544745980417427e-01,9.262871184298415717e-02,-3.937324191362760739e-02,1.109735197442058008e-01,-8.025120411876787707e-02,-3.961074240668378821e-02,1.412766397626837034e-01,-5.928612820786789694e-02,-2.950436521620934671e-02,-7.592752361815258144e-02,-1.490174913851140537e-01,7.824599145858798788e-02,1.443514769766577610e-01,1.007789026963121226e-02,-1.388253267808025049e-01,-2.916352881927554430e-02,-1.386012806638859673e-01,1.357782505720781796e-01,8.686897251274719456e-02,1.997558573045910002e-02,3.151487937307081988e-02,-4.406988724743972352e-02,1.040459304186698020e-01,7.936745491436514310e-02,-4.752147471843046200e-02,1.376553416538842389e-01,-2.277339487811647079e-02,-1.310470417983799485e-01,7.756214072862638309e-02,-6.866239646883882941e-02,7.759005675196412044e-03,-2.047513849667415009e-02,8.598314390166747478e-02,5.507148438735345874e-02,1.558222556109387091e-02,-5.248117261223422814e-02,-3.819333661203039298e-02,3.707935286223401627e-02
-6.130113160007705231e-02,-1.008294733285140243e-01,-5.077227322712776769e-02,1.414728316617559212e-01,6.558644068474428490e-02,3.724663707557468451e-02,5.750545494671516211e-02,-7.629936660814115590e-02,-6.363457090348369205e-02,5.363075366267056054e-02,-8.648350336026482121e-02,-1.470533613904291825e-01,4.006073637655510611e-03,-5.713180282801430532e-02,-4.564283561277392154e-02,1.381895471182477964e-01,7.086253795263397492e-02,4.513629061995996783e-02,4.342389193057377694e-02,-1.400497364341404538e-01,-1.093009075729351187e-01,-5.263190131981822228e-02,2.242021842088906536e-02,1.374591389084537651e-01,-2.925854629737711932e-03,1.406417662669567081e-01,-1.171811040063844012e-01,7.479332387172901719e-02,3.262911340309038177e-02,-8.413673129806223394e-02,2.111454554422831364e-02,-4.881458738377249251e-02,-3.076209097665869030e-02,1.167502724882382992e-01,-2.801599101038096395e-02,1.424609010150087729e-01,-2.392577649868840584e-02,-8.513376643118744647e-02,2.098617535211649843e-02,-9.407236592184967106e-02,6.023045772538684894e-02,-5.792146150008889438e-02,1.394067305803296797e-01,3.041622353826339831e-02,-9.147879159264969695e-02,1.413120024506470951e-01,4.493245835973075364e-03,9.417472394480772002e-02,-1.337377258219930865e-01,6.001334328277263541e-03
-1.390790988225354408e-02,-2.119103494287935541e-02,1.185621367207257693e-01,6.453067261312098180e-02,4.267925761679736141e-02,8.023312920606076593e-02,-3.084399258060319116e-02,4.091493710596208477e-02,1.438044546034588367e-01,8.548097553730724107e-02,-6.500407512407514743e-02,4.753823917824973044e-02,-6.559219493379786492e-03,-6.399263370876555335e-02,-6.117210542126827466e-03,3.302280147592309700e-02,-4.249234943618247773e-02,6.060479996428366767e-02,-1.122430607894810695e-01,3.597881749401507512e-02,6.042436854299243487e-02,1.420415853657094607e-01,-1.199645438067985515e-01,9.878205767125503023e-03,2.172239864844860424e-02,-3.172966233898615040e-02,1.178921995687554070e-02,-9.467406574137249287e-02,-5.733056298701914855e-02,2.983910320934096694e-02,8.781119537061707336e-02,3.341411739251798352e-02,5.939782529433812464e-02,4.836526065303897726e-02,-1.432272560443853537e-02,7.891964687601171757e-03,-3.961910204036038496e-02,1.244921861854565714e-01,-9.655275675277411040e-02,-1.060720795342498801e-01,1.130865463401501680e-01,8.980430762241511933e-02,4.938284257936076393e-03,-7.795482265800302013e-02,-1.286602689977821845e-01,-1.091585024178736568e-01,-1.266987736230788808e-01,1.412584488528026150e-01,1.179482540676259072e-01,2.157031862769553943e-02
8.788273016952652394e-02,-1.376430857060519375e-01,-1.102928683688070288e-02,-5.693909958222148626e-02,-6.650014699630170389e-02,1.494300259825034893e-02,-1.416605472632776197e-01,1.203968038342912161e-01,-3.910205665662955243e-02,7.439192633506108709e-02,-1.462377830311251126e-02,-2.841414755801320580e-02,-1.154374077507660384e-01,5.709203415495764378e-02,9.178510863033773060e-02,-9.565795701446141996e-02,-2.313353580638397022e-02,-2.850336434794399632e-02,5.726005294915642585e-02,-5.999648801934866216e-02,4.664446777912811815e-02,7.470221894538989216e-02,1.124814288053821165e-01,1.060169479655832248e-01,-1.399807113261606062e-01,-1.085320035111695391e-01,-8.086326515067618348e-02,-1.421853653186807565e-01,-1.153145885001092830e-01,1.443624644726181072e-01,1.319788297054263759e-01,-2.726531443465007865e-02,1.336613338147830954e-01,-6.616479595722099538e-02,9.637584486998196365e-03,-1.301172902130451892e-01,-3.016420452382891082e-02,-9.692714945559580131e-02,-6.765168133620906576e-02,1.004460100776299047e-01,-1.363983911276210603e-01,7.756824907446141504e-02,6.511574365658784336e-02,9.340031294636635950e-02,6.074863051010326309e-02,4.911277010930764630e-02,-1.115129102867746802e-01,1.449804472158891799e-01,2.274536487094611092e-02,-1.093501765002363735e-01
8.551326995883132276e-02,1.222716603163504223e-01,5.276782456970663393e-03,-3.094444086309461328e-02,8.117412291010686620e-02,2.483619965342823144e-02,-2.331732246659862229e-02,-8.969702544167006131e-02,-4.078096321217013209e-02,-2.149968022283199609e-02,5.106792934769066594e-03,-9.562593542159150695e-02,-7.003810547081161519e-02,5.337748764222396969e-02,8.128548866185789090e-02,-2.002436861257184120e-02,3.573035015965519978e-02,1.016504611932725066e-01,-9.939930017622164438e-02,8.504695201067752341e-02,9.667835097180338400e-02,8.550185075003852164e-02,-1.587388685864504767e-02,-1.056928929264220052e-01,1.447593841718807506e-01,1.364341319667382868e-01,-4.416508203216336359e-02,-2.485667312056025202e-02,5.658713099175485817e-02,-1.434470067571543550e-01,3.574659909550748083e-03,-5.253049930270455026e-02,3.823032592812999897e-02,9.563549349572958436e-03,1.148637672251992814e-01,6.167588741011689746e-02,-6.480133511924004996e-02,4.922665663632019850e-02,2.468221743540011115e-02,-5.051939206441664887e-02,1.481375892801071459e-01,-8.004655628692726455e-02,1.260210893308575109e-01,-1.397415020200132585e-01,-6.164285908937408576e-02,-2.139484776720446124e-02,4.897858356629647414e-03,5.284217521124121020e-02,8.718872142894498745e-02,1.229227833477287424e-01
7.803932229102072959e-02,1.007697038289117886e-01,4.360773183430016742e-02,-3.659037335313754247e-02,-1.096179168795279324e-01,-1.455601419809778030e-01,6.328812259916771765e-03,2.341935680392867591e-02,2.616035648829170834e-02,1.154046259671603070e-01,-8.204429487448497427e-02,-1.150797181430256166e-01,-1.274255261122575478e-02,6.611995175296192517e-02,1.396224161826628840e-01,-8.535917098303187622e-02,6.873039264785657521e-02,-4.835136076971414953e-02,-8.694210303774908832e-02,-1.000803094309460350e-02,7.962134781651911131e-02,1.370164038298769815e-01,-1.411583730040794349e-01,-9.607633554554723121e-02,6.466050136208245647e-02,8.163369678350171355e-02,-1.186361170459206416e-01,1.330305077706987193e-01,-8.791212174630008702e-02,4.392797058132646981e-02,-6.329871348248633511e-02,1.034426637189167497e-02,1.830092655044662786e-03,-6.312710195538145941e-02,-5.968253659585358306e-02,-1.088694329632595992e-01,1.414368310326167555e-01,1.060509376246368540e-02,-5.323725326122159818e-02,8.455224011082210223e-02,8.468630614538677492e-02,-1.464420823743284583e-01,1.450352195695292501e-02,-4.425018992061380274e-04,6.780892951016909143e-02,-2.290433648952430734e-02,1.167529120743890092e-01,5.782898419627491293e-02,3.810553453827961179e-02,-7.337961871993135821e-02
1.225154447336770924e-02,-8.466923643089281637e-02,5.565033614404746309e-02,7.655140411096419961e-02,1.457453973864628882e-01,-1.262790876506227067e-01,-5.444473977210116666e-02,-3.297861264468786302e-02,-5.895955011760542486e-02,-1.419919378586035064e-01,-1.073533466245494838e-01,2.852090991591862967e-02,7.325419696286850080e-02,-1.187558758063279041e-01,5.486323568395698458e-02,-1.379531664135515423e-01,-2.624075033956795033e-02,-9.356662141021597490e-02,-8.202899019207457454e-02,6.293972924995611118e-02,8.872446073932060973e-03,-8.141022099428672776e-02,1.163697968971589003e-01,1.624806718199461875e-02,1.053996917929237165e-01,2.109476596493367606e-02,4.719608980601125436e-02,3.373038548105522505e-02,1.404713474459048095e-01,-1.309766319426912962e-01,1.325358394298392362e-01,9.910101986622638082e-02,-1.393509033961373711e-01,1.143858230887042360e-01,-5.208728102393395121e-03,3.288468624139478935e-02,-3.225991320252021011e-02,-1.119945105942019292e-01,9.985698337721937712e-02,-7.602113372527657953e-02,1.811595514131617013e-02,-7.645373716284388499e-02,-9.064753172629225197e-02,4.358670725791080613e-02,-8.311392929926941786e-03,1.993687436282812198e-02,-1.650270838554088182e-02,-1.485002448236217021e-01,3.521610241452532986e-03,8.041607333197769991e-02
5.538473714867275799e-02,1.270360561932210863e-01,2.916064698599379890e-02,1.378879906733321004e-01,5.346112650236894970e-02,1.087844273767693271e-01,1.437054000063464898e-01,4.411726942624785708e-02,-1.387104784222690512e-01,2.360712575511386691e-02,-6.488911384432113905e-02,-3.881581248369410375e-02,-4.107411032309066234e-02,6.069053578618852085e-02,3.471183433392643902e-03,1.448458597304069506e-01,-1.195674796909475257e-01,2.338261604879157685e-02,-8.947606190565540740e-02,-1.267211211120905512e-01,2.761340995852501479e-02,9.350902340966180115e-02,-2.023089506104686075e-02,-3.909104065980362197e-02,-9.218034093755106406e-02,-2.732471564535189634e-02,-1.470320118954596966e-01,1.953125444372164066e-02,-2.097640980766751762e-02,8.792932797273528278e-03,1.048565745515283865e-01,1.228111409279578903e-01,-9.788003743042236748e-02,6.274175913972976359e-02,8.735171143495631951e-02,8.035696528386335191e-02,-9.351905317479822233e-02,4.377738454148524805e-02,6.503032148181084326e-02,-1.088221337979242975e-01,7.821508971788049269e-02,-1.113908110226700388e-01,1.072529520004345260e-01,3.884440716752646239e-04,9.638178285852888605e-02,-1.225528878432386309e-01,-9.032107389960951360e-02,5.318284009256157852e-03,1.138516836599746396e-01,3.210960696502826450e-02
-1.112212448651547225e-01,-2.543283721941208553e-03,-9.080718831966536064e-02,1.192581059134311949e-01,1.484804459084493322e-02,-1.087761381293294582e-01,-9.423511424381575408e-02,-8.429831156872417963e-02,5.591240431840449610e-02,-7.790143839350331667e-02,-1.161983041816901374e-01,1.033018341372428373e-01,-4.875045937227308335e-02,-6.546461313639373447e-02,-3.129669338939006229e-02,1.467629123657323842e-01,3.011563229670161101e-02,9.054145165172317045e-02,-8.344559374899077064e-02,1.332850471756931443e-01,9.939543765804584319e-02,3.195401159205513153e-02,1.280647401539911356e-01,-2.019045666996643895e-02,-8.907976346684762237e-02,6.578361283673084259e-02,6.146453511095192890e-02,-6.115203751123525489e-02,-1.162794997802699126e-01,1.073315286942241598e-01,-6.206612468989504416e-02,9.621931789999058071e-02,-2.147347963159934592e-03,-1.649053760600432961e-02,-6.201336439172618065e-02,2.287442540776898903e-02,-3.735740771129286708e-03,1.390781791855699723e-04,-9.060812401086054679e-02,5.919069516065197933e-02,8.734119837048984203e-02,-5.313753745854042643e-02,1.539329018765378532e-02,-1.455964903340479233e-01,-1.031917171070995953e-01,-1.036828551464167303e-01,-7.490079801901644574e-02,-5.765271480504334523e-02,-8.933827980457895168e-02,-1.069133538996945160e-01
2.676140669420828955e-02,-8.060894578480740091e-02,3.097838889558612863e-02,7.356774657101058934e-02,-4.258312453256618557e-02,5.853405891084961787e-02,7.428382881311434982e-02,-1.822949797981940345e-02,-3.710279308329922365e-02,5.955240244215653789e-02,-1.256505437925944380e-01,-1.293536436981025106e-01,1.044221036728328056e-01,5.323977735314613935e-02,-9.670453851517685218e-02,-1.409460537702510730e-01,1.437388909178825835e-01,1.206758128538732155e-01,1.605034875926192317e-02,1.329711088848334610e-01,7.140575569857357530e-02,1.230932010327658033e-01,2.679326126261660779e-02,-6.120662696930449787e-02,2.639080338104199397e-02,4.196772278662125322e-02,1.538837425365585654e-02,1.412925679151971758e-02,-4.913737806952545029e-02,3.067819279404945809e-02,-1.053543820206483267e-01,-9.830156793996366882e-02,-1.131218249163328526e-01,-6.668314134746919364e-02,-1.987204831831662633e-02,-3.223311134160494751e-03,-1.082650062014898495e-01,-1.066031923279564531e-02,-1.302133710775864317e-01,1.411362001004294597e-01,-1.461422383411067893e-01,7.927104165502732447e-02,-1.794948803227783274e-02,-1.044241740184985168e-01,-6.101379599305492563e-02,1.128841882799680729e-01,-3.175669426124543004e-02,-1.293699936873371481e-02,4.366500749713106422e-02,1.690159330667526105e-02
1.476102059636220376e-01,-1.095557854786655128e-02,1.250662922874488381e-01,-7.646318904923311843e-02,-4.837958224427292564e-02,1.091999826904024862e-02,1.482242072724893889e-01,9.910957132286032922e-02,-9.776146076168371057e-02,-7.190547944344805043e-02,1.347838223283852888e-01,-8.562924341770999925e-03,7.483065572852692915e-02,3.699784214908813373e-02,2.120613185128608635e-02,1.189338107470964412e-01,-9.801076799530866746e-02,4.416088427104022940e-02,3.227446514658172116e-02,4.397591845062900906e-02,2.605542289024465052e-02,2.327219327637342072e-02,8.027230600699672425e-02,1.219290859891948575e-01,1.355269881891467409e-01,3.112791126356648230e-02,1.002883725128304315e-01,1.330886293437827661e-01,1.440478361083318559e-01,5.940371690714529862e-02,1.246809554685714694e-01,-1.048254483989351921e-01,2.736284524893781156e-02,-1.220052855600601838e-01,-1.344153210878631655e-01,4.790612609535394029e-02,4.496008542202917235e-02,5.921087945742303793e-02,5.553064140420005401e-02,-1.355256340704495965e-01,1.463623380574461674e-01,1.204283198416279121e-01,-1.470523755306601399e-01,-7.957596917814280246e-02,-6.109892674313614769e-02,-7.546576320438350138e-02,-1.389077707058334610e-01,1.428800999495966340e-01,-1.369599073722468918e-01,1.060906475589021292e-02
2.520405498182434756e-02,1.108956885785078450e-02,1.173255109041506927e-01,3.505562277329499210e-02,-2.058702685492536100e-02,-7.131251505437373461e-02,1.085542029390930974e-01,-1.401188561831183677e-01,8.611482210715187824e-02,-7.318925030916129115e-02,7.281916390728332411e-02,-6.122807810148485352e-02,-5.201849638126644637e-02,-1.515064406755384230e-02,2.224840503013758575e-02,3.693315657726917167e-02,1.204332885327477898e-01,-1.486982880947023966e-01,7.416281421797318862e-02,-1.453704436813860745e-01,-1.283903214599334819e-01,-9.794602904863727866e-02,-3.097640071583390720e-02,1.253788982300013954e-01,-6.267737993667728269e-02,1.333698628888611293e-01,1.097651120446092310e-01,8.426624266958293585e-02,1.082185686105167910e-01,4.412829719760957836e-02,1.206561001836254088e-01,-1.448469641000313668e-01,1.777153663250347071e-03,9.403839985866155327e-02,1.371610820916846218e-01,8.546624104511532649e-02,1.006811770162463759e-01,-4.425967975980910074e-03,-1.627251250783498526e-02,-8.450429243685321501e-02,-2.737702780677547798e-02,1.620675670710022831e-02,3.690960137731116864e-02,-7.355729075001489481e-02,2.823271700976159870e-02,5.931317445370382080e-02,-1.360242715751043274e-01,7.556732758328130184e-02,-7.062681289105611493e-02,1.049222487963316630e-02
1.498567707404335758e-02,-9.981134677345412931e-02,1.191810687435010674e-01,2.467475246171293990e-02,1.258979841214739326e-01,6.012782213904366291e-02,-1.042586270816528299e-01,1.256305879023526251e-01,-1.397899985717529492e-02,-1.240899766326955533e-02,2.242826881331652644e-02,-2.586270690805489436e-02,-9.653203805801741089e-02,-2.481125710251175231e-02,-1.478671727629047306e-01,-3.980984350590240084e-02,1.500222252418603741e-02,7.022858943695411971e-02,-2.143397601426894061e-02,4.608498010734149442e-02,1.486106437386280066e-01,-1.128235722082646109e-02,-1.207765405730201053e-01,1.325127631008422291e-01,-9.752516056394099075e-02,-6.250078178209307611e-02,-1.174646770644773019e-01,-4.412321461104502796e-02,-2.458296494206288485e-02,7.865104121306501495e-02,-1.426314291721064720e-02,1.049777655340006499e-01,-1.292775785691435142e-01,-1.431026592666778674e-02,9.218517188260577644e-02,5.201944867241747872e-02,-4.625155219262985784e-02,7.817557689051152225e-03,3.806780817452851129e-02,-1.431685623470707602e-03,1.463642795240592542e-01,8.674069257400635058e-02,-1.277008345446859483e-01,1.144401662700464395e-02,-9.802236989392074107e-02,-1.314768872524453291e-01,-6.774841996243237408e-02,1.114578486764476184e-01,3.109411745302514962e-02,-9.547446931740724563e-02
-3.496498101107557710e-02,2.062002293493009342e-02,1.272902800893343789e-01,1.281307857716568188e-02,-4.075103501721070998e-02,-2.915182813914199422e-02,-1.233128763218902663e-01,-1.487358893681568761e-01,1.449068597825410587e-01,-4.768188369105336166e-03,-7.312754004596659640e-02,1.043393913254616334e-01,-5.272244582796764556e-02,1.448988720348904635e-01,9.097899081062446602e-02,4.502574962900454669e-02,-1.373871643501439199e-01,9.560720646481377094e-02,-1.161357753241619994e-01,-1.011994060840168824e-01,7.159683985289561070e-02,1.435876493979390545e-02,-2.462805491407113467e-02,8.771570040967208159e-03,2.476580935724137511e-02,-3.187784770102616849e-02,-2.689372766409989235e-02,1.243410704153174728e-01,-3.898958599154207783e-02,2.434311673319497493e-02,-6.095285953843961047e-02,2.891172440238576336e-02,1.403457839277246488e-01,5.501572848971170160e-02,7.689153289068464958e-02,8.258915849345921378e-02,1.439056234125039857e-01,1.117059012050164168e-01,-1.153385449047325539e-02,-2.268578649846741957e-02,-9.609698168280475516e-02,2.064032004730970149e-02,-1.376864513350315455e-01,2.848905197858409011e-03,-6.161884892438967976e-02,1.108217705040814016e-01,-1.300102467422292185e-01,5.375820910190010071e-02,3.771469609079217133e-02,-8.437167114714143323e-02
-9.849779724813487181e-02,6.082331953047107054e-02,7.257484905871050551e-02,3.039112356944251303e-02,2.459941318261657517e-02,1.284179768512601905e-01,1.180806046917215746e-01,1.380246739422966995e-01,-1.368993394711605083e-01,1.457670570731171844e-01,-8.712139876300840913e-02,6.204550506492745310e-02,-1.295212743404824951e-01,1.306292475841220047e-01,1.380429550885644840e-01,9.363202766563002988e-02,-1.078400347384929625e-01,1.192134991826263313e-01,9.735750837468035157e-02,-7.317378815606243037e-02,-1.277101276308912070e-01,8.679016988355284234e-02,6.933707935343891293e-02,4.810239137273916721e-02,-4.618186384380656984e-02,-6.594460214451107472e-02,-3.264594089861957982e-02,1.413916236623614930e-01,-8.117446095057036237e-02,-1.195013685414526156e-01,-1.240469958849075016e-01,-1.112883643946679935e-01,7.343622179135866901e-03,4.367614186249146879e-02,-6.328414666858346582e-02,-9.997688253231061528e-02,-1.192960054116476154e-01,-1.129388155169328556e-01,-1.029977936512815190e-01,-5.760506469643089655e-02,-1.225307950984504679e-01,2.773276348754208365e-02,-2.160814989723072732e-02,-2.429771644053649315e-02,-4.884926445798622174e-02,-1.426593459727065749e-02,-1.361434341536096881e-02,-8.329683771019021077e-02,3.586129999191139950e-02,4.140722685157582905e-02
7.041358556386709266e-02,-1.169299101493301296e-01,9.215924460123461892e-02,-1.133170523918383965e-01,3.773439402788955621e-02,-1.315864625875903249e-01,1.263576611639059266e-01,-5.270869788617506269e-02,-7.395510938070330720e-02,1.311669597609528559e-01,9.591101535054386007e-02,-2.038310143214275283e-02,5.151584068695383434e-02,-1.213168090646690733e-02,-5.370295410109601764e-02,8.008450665877073216e-02,4.761515255453832585e-02,2.846353947656990457e-02,5.932517183906407809e-02,-1.428108887209265099e-01,-6.613613466990098111e-02,-2.269258851074437700e-02,1.149141986046237351e-01,2.290788344830357870e-02,-2.059079923735329665e-02,-8.890425298952908673e-02,-7.920947218060493678e-02,-1.118491598576943080e-01,8.976214568043539010e-02,1.392758993610504203e-01,4.835657505674439971e-03,1.672326692717307495e-02,7.285058841109218197e-02,1.238963034488122228e-01,1.416383145056989423e-01,-5.672172905607798798e-02,-1.013525871625436670e-01,1.438631073352890366e-01,2.911012026826081955e-02,4.166361253479983207e-02,7.204739012932753761e-02,1.327481319283879413e-01,1.177118778115902320e-01,-4.213328586005810061e-02,1.410327877588904710e-01,-1.309716980184512658e-01,5.175518710895005148e-02,7.992750744507090555e-02,1.208979820166686259e-02,-8.427877285518631245e-02
1.205675337845114881e-01,-4.537163184283982131e-02,-1.497327310213217022e-01,1.457510970615953083e-01,-8.704732048950934720e-02,4.348322841840046582e-02,-1.045253966964008741e-01,-5.585007454336375632e-02,-7.104081326346640968e-02,-5.347025499619735556e-02,3.799876510434585519e-02,1.009621120689467022e-01,-5.691378959778989333e-02,3.010820033582445321e-02,1.304982763637184962e-01,7.986021805692966602e-02,-1.123437347399991737e-01,-4.321934792162393513e-02,1.192314306836942672e-01,-1.465365132971623852e-01,-6.823709718034186300e-02,-4.428516836473957163e-02,-6.391950017476018264e-02,1.127613829820336699e-01,-9.774631706159331301e-03,7.213828332391236664e-02,-4.674215976277013018e-03,-1.404239404195865293e-01,-1.482866399933890911e-03,-7.502318148556998134e-02,-2.721456419551486483e-02,-1.487449359993908982e-01,-6.095354634459648757e-03,4.366876288532631212e-02,-5.682287450422644770e-02,6.092815322189804039e-02,-1.007791606172164789e-01,7.954697336622046366e-02,7.952208796515980449e-03,1.036328142851486167e-01,-8.324034073230415776e-02,-1.278531050272999070e-01,1.300047956803885574e-01,-1.445021172505195350e-01,1.103405919231037480e-02,1.365077237833004220e-01,-1.279745816729138119e-01,-2.036665557295258555e-03,-9.935856379225918578e-02,3.462930787843368496e-02
-1.368220437697842129e-01,-1.102822883663421849e-01,1.445830608428777808e-01,9.025716041339240658e-02,-1.368252258503941943e-01,5.977617833713305684e-02,-3.623713059189551111e-02,-8.988999512255912983e-02,1.466194487825828174e-02,6.407377844676556689e-02,-1.486942537400471331e-01,8.969445703730985486e-02,-5.204068312389401041e-02,-8.507098253296208057e-02,7.149645120939310261e-02,1.285797909160303065e-01,4.779530944047691299e-02,5.852496190461209391e-02,-2.895038592475315808e-02,-9.119354219984288079e-02,-2.291014685497827497e-02,3.498322848517598782e-02,3.017116051148460709e-02,1.016798647798816679e-02,-1.125474565479505085e-01,-8.758882570065820716e-02,1.183633681622100753e-01,-6.815073174257421651e-02,-2.980241043773536325e-02,-1.051945619528801834e-02,1.357833762206628048e-01,2.566032968409814874e-02,1.016817957210111867e-01,-7.789559244714625019e-02,2.782684071874691467e-02,-1.770841067019190973e-04,3.059915640589574992e-02,8.131715513158105368e-02,1.457032274856503162e-01,-1.145343705884893371e-01,-1.160070780482632125e-01,-2.995905373675666894e-03,-1.158461906383389250e-01,-1.379325706810128060e-01,-2.928215948358416088e-02,-8.503187798101626005e-02,-2.755487994662605966e-02,1.453411446396236373e-01,-2.293342273122908614e-02,-1.170680946013744894e-01
1.253713096257101089e-01,5.000243229595480177e-02,-4.795878232952262288e-02,6.176768393511988808e-02,8.579867891829109916e-02,1.060261266603416408e-01,8.518967975906530099e-02,-7.928522256226634701e-02,-1.985010473544712717e-04,1.225297641904951884e-01,3.646833263837165329e-02,1.137618206241284013e-01,-4.505586982690699960e-02,-6.745549529754248097e-02,3.408530568318243748e-02,-9.167203755690905842e-02,-1.111600565244725558e-01,-7.137189281116133877e-02,-2.540402125088214724e-03,-9.492208169770693926e-02,8.012229041204096958e-02,-1.317124461557948323e-01,1.019142552297447324e-02,5.007542707117063063e-02,1.007713341842568500e-01,-4.478509821242682154e-02,-6.435627703273577582e-03,9.519570256901516148e-02,-4.712399891848488565e-02,-4.718837126404562543e-02,3.967236743019492140e-03,-9.667217307914591218e-02,3.261830736701193389e-02,9.829523903633313742e-03,8.727902414794561081e-02,3.618048210794946873e-02,-1.428282024450967802e-01,5.812399451727945365e-02,3.254455456795993240e-02,3.690353951531805121e-02,-8.616814132748513988e-02,1.230926326010051974e-01,-9.763165734398082662e-02,9.222935390943209910e-03,-7.101132864255321753e-02,1.045445683035001461e-01,2.552409026842800133e-02,1.340530920028437933e-01,1.361898096229733068e-01,-2.037357712058057713e-02
-9.997944071387263043e-02,-5.362817831108150635e-02,-1.428217532903586218e-02,6.833194094446881639e-03,-1.524392560620280168e-02,1.391708180381104609e-01,1.237245674657894978e-01,6.581943077959276356e-02,1.252081764773713968e-01,7.918416078935391900e-02,1.645286259834760623e-02,3.785305798143440148e-02,1.397709136688545517e-01,5.300941039575102209e-02,-6.824372108001082460e-02,-8.184160930551795388e-02,-5.742145193510547752e-02,-6.809704783805775596e-02,1.077496082124957677e-01,-1.447035933717800149e-01,-6.517117828301037530e-02,2.205970977264987143e-02,1.285190982225602185e-01,-5.347437339708864534e-02,9.570870809803130874e-02,4.173992503894774497e-03,-1.248929031194453698e-01,-2.796589684092763706e-02,-1.446899237978241104e-01,4.408515979474336710e-03,1.334873472884971768e-01,1.373404239178979414e-01,6.908841292596648587e-02,-1.067717255852533853e-01,1.373007577786869160e-01,1.340467034630099252e-01,8.089275664513104203e-02,-9.591543963782676874e-02,4.838371799175986143e-02,-4.993914544147441681e-02,-5.642600568707975550e-02,-1.716792105449993500e-02,1.037585712518462600e-01,-3.966951158010413592e-02,5.289658846889166988e-02,-7.897729407307463312e-02,4.980179234548320899e-02,-1.064316612990556798e-02,-1.420518750336225711e-01,7.797769185028324834e-02
8.004552436914175173e-02,-1.107379119730071831e-01,-5.862261335431331877e-02,1.219212979911949157e-01,-3.185063172888595584e-02,9.476267421013984116e-02,1.298794307505157786e-01,1.396608280975186467e-01,2.810467769260145687e-02,1.117648204606377094e-01,8.457434223084087099e-02,-6.440888613865916601e-02,3.836334588411324797e-02,5.411357526206519303e-02,1.442965513036581493e-02,4.307122679320665032e-02,2.219200352326400338e-02,5.461151309871566800e-02,1.355010578548882239e-01,-5.951733078582367720e-02,1.393241313518584282e-02,-7.690687697771436855e-03,1.034201481507670828e-01,-1.609758454434651043e-02,4.235087063412695807e-02,-6.339218427893268670e-02,-1.133067417284435718e-01,-3.042998251451873096e-02,-1.221075868845175327e-01,8.118568603183562438e-02,1.000442042900753781e-02,-1.683679766117694362e-02,-6.519036889377219368e-02,1.338130266972246685e-01,1.425717400399188206e-01,-6.143894398265947049e-02,-1.379284519486902519e-02,-5.660951753382659213e-03,7.048956635482736544e-02,-1.243892531861140599e-01,4.311204815495382758e-02,-3.018542000790072621e-02,-1.482733912191284420e-01,-1.198338669259533668e-01,3.525119799966922041e-02,1.428930634564512525e-02,-7.650220711666443074e-02,1.497493921636136073e-02,8.055505976185262096e-02,-3.376006636715797593e-02
-4.375089270527297847e-02,1.386283063761496737e-01,-7.536802005154837059e-02,-5.781350701957410632e-02,5.274933620846583571e-02,-9.186334912837666733e-02,8.885236889118910963e-02,9.265701052573308005e-02,-3.714245901062248473e-02,4.104403025198488653e-02,1.329659475064034297e-03,-1.116091789168716653e-01,8.045620599719419119e-02,6.385020348412086266e-02,-1.099293700334741386e-01,5.080815973856000339e-02,7.966350463733459786e-02,7.524572091182259170e-02,-5.928909485404620927e-02,1.249198147246346861e-02,1.991258384341368023e-02,1.324230426070582278e-01,-1.348133668372973881e-01,9.571896460982856625e-02,1.183620186118840845e-01,-6.664324477970189065e-02,-6.369528312922506652e-03,7.667392550342215507e-02,1.127604604349679851e-01,1.409088911430371183e-01,1.423623744717259221e-01,-1.210808232609933421e-01,-9.473107790071512435e-02,1.288149895545221968e-01,-1.459972256734650975e-01,-1.338097444952918991e-01,6.872356098428583637e-02,-3.748695783420592786e-02,-7.539625014946402942e-03,-4.809087833055680945e-03,6.959986565790436674e-02,-2.498042592976791598e-02,8.167306144034283677e-02,-1.291673047882041792e-01,1.426100814007020823e-01,1.476322500765264445e-01,-1.174629892791811681e-01,1.385128120269223384e-01,-6.988371949816273021e-02,1.057207651101404744e-01
6.888217611832439524e-02,5.908545054942221375e-02,1.159006770179751566e-01,4.419928344967125056e-02,-1.663386804304059496e-02,3.472440906742740863e-02,-4.880800654720536536e-02,1.286066507031243533e-01,8.000414956387860363e-03,7.686637499589613065e-02,-4.562645474415159830e-02,5.679032800961865413e-02,-3.297388708024337478e-02,-5.889613800481838940e-02,6.174123805435071527e-02,-1.423776749768641825e-01,-1.108790738357480488e-01,-6.098168306055767873e-02,5.679632388257829789e-02,-1.304283214109912825e-01,-1.118162936453850898e-01,4.553951105204515071e-02,-1.043406209328643641e-01,-8.239893482301456629e-02,1.191425048580352086e-01,-5.262050434679906713e-02,1.146259262434541071e-01,2.155143962969614108e-02,-3.694659331979556482e-02,-4.704050343238390386e-03,-1.434287333926596852e-01,-8.274555673166967759e-03,9.089661018389905145e-02,-1.366795613557972577e-01,-4.640353759106996545e-02,-5.393510264956363764e-02,-1.365060030621652321e-01,-1.561320737965310457e-02,-8.878361222498276639e-02,1.487937535764111696e-01,-1.003210537815019988e-02,9.364759469324139551e-02,-1.007078675144360697e-01,-1.035456735809758694e-01,1.311003032709235350e-01,-1.381351426493233336e-01,8.577502228610695001e-02,1.638861422909652921e-02,-2.696544383413743140e-02,-3.882208289508712329e-02
4.878231844892100266e-02,1.152901566637569986e-01,-2.111026097747084607e-02,5.717406140727857022e-02,3.143874698536986562e-02,-6.833974725443416054e-02,-3.093315831727940640e-02,1.341168883912254306e-01,1.241504489301301500e-01,-1.171954924991430724e-02,-4.874648927287371369e-02,-1.354615992851362360e-01,-1.169233150148860090e-01,3.719300359464990796e-02,1.172371636518792504e-01,-4.096486810258748862e-02,-9.836643414885157255e-02,8.405772162263321079e-02,7.030202689880156453e-02,-1.058728100302448460e-01,2.570213522148888374e-02,1.316395779862081401e-02,2.145968379995075170e-02,6.476397110265008639e-02,1.267896673131599095e-01,-1.074623930155586271e-01,1.227350281045328784e-01,-1.301774103613183575e-01,1.887853277826016460e-02,1.251241088820492509e-01,-1.200624419363679751e-01,-1.029468534917366701e-01,-4.575735338430400589e-02,-1.210017926930925386e-01,1.399980869052566967e-01,-9.460434869347106659e-03,1.099598432023328465e-01,-8.674101006628913424e-02,1.386139161212787407e-01,-6.039122177174300471e-02,7.387060561870451014e-02,-9.442934479279359306e-02,2.358165965379772216e-02,1.295339510685868389e-01,-7.256250893198336327e-02,1.485460112891229534e-01,-9.837715015283471365e-02,-1.130577490060209606e-01,4.000059825565538407e-02,-1.075554386445596276e-02
-1.496354532451053543e-01,-4.409834798861839156e-03,-5.423302160489817947e-02,6.801308258511121196e-02,-2.351004991303974265e-02,-5.906598397416366886e-02,-2.389212980421525495e-02,3.969605213101195379e-02,-1.571782663816392173e-02,1.449775493647668945e-01,-5.756552480902474289e-02,-1.350312662646336592e-01,5.231294875499253871e-03,-5.986093479051537297e-02,-4.241279093739668687e-02,1.290816230783164709e-01,-6.575112989963156906e-02,-1.153066976755794670e-01,8.452030130483925707e-02,8.204181544678247617e-02,-3.609789325467499532e-02,-3.464734763839101561e-02,-3.465761534138164790e-02,-8.992038166671345589e-02,-2.338976984971590997e-02,6.365329179429977946e-02,-5.268525327945789566e-02,-5.930030175218641703e-02,-6.145627207710743778e-02,1.174248197960262724e-02,-1.443630060408992444e-01,8.567080401275166401e-02,-2.899936249369549496e-02,-9.439527777021573807e-02,-1.049288789389246634e-01,-1.402112310007240341e-02,7.655441377170055239e-02,-1.416761554936168954e-01,-3.430640408188824486e-02,-7.006270486308328882e-02,1.393353410503312961e-01,-1.249678238810549014e-01,-9.777223299996500028e-02,1.017396598015215120e-01,9.099095643775229059e-02,-4.167257544486260845e-02,1.248768066736353211e-01,-1.114988623824859915e-02,3.154351615956360599e-02,1.105225277777211468e-01
5.607617868804162797e-02,5.354966887418421972e-02,-1.019429450300435858e-01,-3.874136660800775456e-02,-6.029822959926132986e-02,9.253642673603276747e-02,-1.158364389485269236e-01,-1.250454333037067378e-01,-1.028847587558263110e-01,5.997672350858770929e-02,-1.251459915125257283e-01,1.043381686622122523e-01,-6.469842946114875981e-02,-1.005079994591918241e-01,-5.435268192982586552e-03,9.026728996733104915e-02,-1.045990722028739411e-01,8.527406915653686081e-02,-7.746304097808799638e-02,1.028661036376771615e-01,-7.120737166762827752e-02,-1.445632639735322522e-01,-6.836633977931093342e-02,-1.113664652935097976e-02,7.716150631683084404e-02,-2.250118712206276156e-02,-6.908931455302882996e-02,-2.835705676220896809e-02,1.098915768176943752e-01,2.330377178061001503e-02,-6.006721638842818511e-02,3.067662388867331558e-02,6.688505245946463340e-02,-9.851411342349841727e-02,-1.191752823273811990e-01,4.131369361139312218e-02,6.311687611800337327e-02,-1.072015926587305268e-01,3.915950726051761061e-02,-7.479793885499817774e-02,-5.685288720624940423e-02,1.371954378307204681e-01,-8.660111524830345353e-02,1.065374393888641469e-01,-9.114504687062902066e-02,-1.436488185780367688e-01,4.401985316678649895e-02,-7.508785711445085942e-02,4.566787303654604169e-02,-4.310203618647573398e-02
-1.457367318741381312e-01,-1.577892280723757965e-02,1.448028864915495983e-01,7.009650333445133219e-02,9.919572796120817992e-02,8.479030942345450184e-02,-3.645070290380227171e-04,-1.479310156536672027e-01,-8.240399374203652427e-02,-1.009836225666723153e-01,-1.005526151518228856e-01,-9.336112783509986635e-03,-3.890064903736360075e-02,-9.225419870458598237e-02,1.193030823139498153e-01,9.852553844375187830e-02,-3.768419539111934891e-02,-1.130549906435677696e-02,-1.090361517115172041e-01,-1.699133660286471920e-02,-8.651982526010190688e-02,-1.266155158027844896e-01,8.436989125443467019e-02,1.206268985948364125e-01,1.063977149832990993e-01,7.128751756373789827e-02,6.554622470289256375e-02,-5.312815798810065215e-02,-1.357839415460169452e-01,1.224826524919865461e-01,1.310431994878908657e-01,-9.468229255454002624e-02,4.597572702718601828e-02,-1.158810688263309657e-01,1.330053984545281065e-01,1.359326158227434633e-01,7.246393266421524704e-02,-1.444994038366316236e-01,9.535462439285595504e-03,9.094729219587593949e-02,1.491067573578271910e-01,1.013966706829342590e-01,-7.817742054616245995e-02,1.237723022024062869e-01,6.934062910271759916e-02,-1.299210341492861853e-01,1.601310801551758534e-02,-9.131555461656301609e-02,-1.500118662648076973e-02,-7.703644280739159467e-02
4.086048558407370801e-03,-8.515691693106404447e-02,-3.484754844961174269e-02,3.964747926493120828e-02,1.226019152956638048e-01,3.222915157566247357e-02,-1.424787604970278732e-01,1.392041388514387024e-01,-1.343707459868647980e-01,6.243542354117404165e-03,-2.058104731536159263e-02,-1.128765255324757494e-01,6.293004491556498242e-03,-7.132179487337082791e-02,4.808957193077188080e-02,-1.272185067692744587e-01,1.247342660719836030e-02,-4.640365352668533033e-02,1.159364608904472904e-01,9.043523961307779746e-02,2.539046605216975852e-02,-1.028495152905949395e-01,-5.913358987050623683e-02,-3.626714027352248571e-02,9.296153117249594811e-02,7.076045455225468683e-02,-5.213125067117710398e-02,-1.471674214812496717e-01,-9.983428860831189411e-02,-1.242413137722463840e-01,-7.321697336430572911e-02,-8.994159206798694323e-03,-1.388791925583325038e-01,7.228890319104100404e-02,6.794581070455949293e-03,1.606786883034360541e-02,-2.235963289563207626e-02,-1.139794363165412411e-01,-4.833718475861168568e-02,7.335982728902272487e-02,-1.195942569206490808e-01,-1.017377916697929374e-01,7.340588137674924907e-02,7.107488574091255784e-02,1.383776294200816936e-01,-1.011140949186560972e-01,1.140417024840639781e-01,1.454520025360700186e-01,-8.094143734848643912e-02,-9.262243495300417906e-02
1.142459274412215148e-01,-1.287568390498986526e-01,6.465729587857972638e-02,-1.086763044368893455e-01,5.193607047692963552e-02,-9.286765696796678293e-03,-1.094089108964624996e-01,1.431719604781212657e-02,-1.001195774748747658e-01,8.663727749386911092e-02,2.324778396213864409e-02,-2.565859607589023039e-02,1.325687307765859024e-01,-1.560430596545791214e-02,-8.609024457391942220e-02,6.815338218195066133e-02,-3.704175964467881776e-02,3.232413052244711288e-02,6.702454090013225396e-02,1.379648411028734922e-01,6.239641850184143163e-02,2.483278168875493325e-02,-3.307070463083161549e-02,-7.652071156086316661e-02,1.524671498858874985e-01,-1.031050089253878060e-01,-4.111746738167162268e-02,-1.046568171929615661e-02,-1.406891219502829082e-01,9.882983842270738964e-03,4.971391244370906848e-02,9.134312619330711702e-02,-1.036652630272681397e-01,-1.002566002487043084e-02,2.380928979639135995e-02,-1.229836541659330151e-01,-1.054115446174837961e-01,3.194584131223635742e-02,1.236168394870612725e-01,8.445490145043194063e-02,-1.355199194131014029e-01,7.815530824992228398e-02,1.357312899382597145e-02,8.728124473010979989e-02,1.031519766379147690e-01,3.681230005527325738e-02,9.307909227170817201e-02,4.267444338807134530e-02,-1.268982650854370564e-01,-1.311918971191234073e-01
-1.463002127455836077e-01,-6.981920616086791098e-02,6.452249067868426335e-02,9.171674292770462533e-02,1.298389906844820418e-01,5.402684833540044584e-02,1.008204622522812094e-01,-6.669642730805491748e-02,-1.050347315325329406e-01,-9.010009779420244391e-02,3.606071287423432900e-03,-8.851152333600563124e-03,-9.936028950537102722e-02,-8.928543121303193775e-02,-1.686225507977454074e-02,1.134097177553479857e-01,6.829735635093184265e-02,-4.628381603304994318e-02,5.677454769412879076e-02,1.517643965134041206e-01,-5.450863972698481719e-02,-7.883688162053466286e-02,-7.575807001624682013e-02,3.939332337519163563e-02,5.822957425763500283e-02,3.880740305650570016e-02,-5.281616345318943667e-02,-9.264720433868740834e-02,9.295935073230510159e-02,4.843129271582748835e-02,9.335679663401486028e-03,8.775354578522719107e-02,-7.276631815838268021e-03,-5.656062448825276145e-02,1.414057818634343600e-01,-1.230624645892290647e-01,1.418387655504421418e-01,1.037242778764017360e-02,6.773212847634373091e-02,-1.505327062043759941e-02,4.522730568857662170e-02,5.249152912624417688e-02,7.231978961314242116e-02,1.046502796232568200e-01,1.403904208021800604e-01,1.445841341346709996e-01,-5.011175989156808896e-02,-9.329194103824516027e-02,-4.109629663954769696e-02,1.253505260453449122e-01
-3.045342023873190418e-02,1.202130972560683797e-01,-1.390061598646608887e-01,-1.041068956262505840e-01,1.470958444624834993e-01,6.696537772699559521e-02,-8.788431671618843199e-03,-9.569942728921770891e-02,1.269246861827103279e-01,-1.455817329951252515e-01,9.234292953782595459e-02,-5.828782840904961349e-02,-4.759493351771308667e-02,9.140809351049752896e-02,-1.078544878106227900e-01,4.390294873536324666e-02,-6.184069488951726701e-03,8.268129203197034649e-02,6.230897113018726147e-02,1.138794326300441168e-01,9.690606744681416751e-02,-1.284064107955373568e-01,2.656152073523973187e-02,-3.146081108773171597e-02,6.981257973793882077e-02,-4.826839521309517211e-02,3.829052291950285625e-02,1.381270309591719481e-01,1.499307080061907660e-01,1.673761914407383491e-02,9.620104180561858676e-02,5.879219132333128595e-02,1.281278966424558852e-01,1.453944579886976562e-01,2.466911321047424860e-02,5.239319802273589843e-02,-1.057306799963162319e-01,-7.708934553337604134e-02,-1.211707482646932066e-01,1.375225160110639111e-01,-1.065633933432395819e-01,2.656802178216787283e-02,-9.829582637646940013e-02,-1.185778050636587810e-02,-5.600782224309273916e-02,1.086112254096935348e-02,-2.768612157178163696e-02,-9.437911758491221437e-02,1.828347142347352614e-02,-8.323853863195328218e-02
-8.573278114528888605e-02,2.472265669862683257e-02,3.641944174157557557e-02,-7.702548166991872447e-02,-5.328973858981508882e-02,1.289693929742144751e-01,1.352323570356580851e-01,-1.218917333289741417e-01,1.258092230892087493e-01,1.085105525533215237e-01,1.281736252976579393e-01,1.232060215234596218e-01,-8.897527323033541102e-02,1.407660805303634910e-01,7.319131683145224665e-02,4.278311485366649569e-02,7.261554893163588154e-02,1.461204517673943548e-01,2.249107208737499697e-03,1.382004727540808164e-01,9.255168463273634460e-02,5.778386076536437543e-02,-6.382797388538434535e-02,-3.673179674769014302e-02,-1.312355634884867506e-01,9.300191109644424803e-02,3.632383407645103229e-02,-1.095713137264502091e-01,4.162892025894837644e-02,1.088073306724993833e-01,-4.590572538799075897e-03,4.880928077585606865e-03,3.388453255204053240e-03,2.533956492483002698e-02,4.773071988195554116e-02,7.708813871290538799e-02,-9.896883194128550110e-02,-1.469509194884257297e-01,1.680549673280042761e-02,-1.406201640729875246e-01,-4.077324023269655873e-02,-1.146471123181358048e-01,4.139419604844611633e-02,1.486721847801432406e-02,-7.970060481883450842e-03,-5.343771228419118280e-02,-7.376743071144080399e-02,2.946174497865993586e-02,-1.340154664910774285e-01,1.232720445566416745e-01
1.451194092360960294e-02,-7.530053300543272654e-02,-1.328990438452093414e-02,-7.528007093677920210e-03,8.217204193015553715e-02,7.669754677941784116e-02,9.387304208976210429e-02,-8.722653087036427721e-02,1.444956445871371786e-01,1.125581903216691937e-01,-3.097318578734949146e-02,-2.359136600553171648e-02,-1.453839820638765379e-01,4.107844985842601382e-02,5.329739334675210076e-04,-1.234044231055668461e-01,-2.858570330775991875e-02,-1.183701516030280371e-01,1.376349756099977950e-01,-1.327609639343588777e-01,-3.595370072807881762e-02,-1.456038432822175099e-01,-9.041140569769939850e-02,3.430516877614150917e-02,-1.020196626122745753e-01,5.914959796916050699e-02,1.070496642341944998e-01,1.217350292990307115e-01,-1.519812427890981921e-03,-9.201207046645899779e-02,8.313161658893158945e-02,-1.276719531354713992e-02,-3.782807477598967155e-02,-1.121792032710670628e-01,2.029062162681421339e-02,3.684961105583339086e-02,9.611521721155955045e-02,-7.113959601982045022e-02,1.003357615847101647e-01,-1.127766440643659801e-01,-2.294880315970035389e-02,1.377822032934982732e-01,-1.088196498824093722e-01,1.173242671302724416e-01,-1.285798969566863958e-01,3.991989313375224335e-02,-9.833051800153708166e-02,-6.183305732744478339e-02,-2.737080082365424272e-02,-6.540021183844728359e-02
7.352268365120800953e-02,9.114732129765065749e-02,1.131399960160986706e-01,2.141875517691577135e-02,1.449317176172912613e-01,-6.543453463794356162e-02,7.194885274216124282e-02,6.627942669792286079e-02,-4.968563540021231351e-03,9.733239399028080496e-02,1.027324579399308407e-01,1.439256833518572642e-01,-1.382246872719732067e-01,1.364556975475674505e-01,-1.172846586621132114e-01,9.430312432558206337e-02,-8.191975898662114119e-02,-1.098265353690764667e-01,3.916179575832942628e-02,3.039692131661766300e-02,-1.059997524744737407e-01,1.614010297927098714e-03,-4.750558646002300822e-02,-1.460245063463967430e-01,1.218435741706741376e-01,-6.558236802213894545e-02,1.323127595071205143e-02,-6.021886221297487185e-02,2.148579902927013133e-02,8.929873699315898916e-02,2.950219252250851909e-02,-3.108273607508538205e-03,8.391164093538644453e-02,-5.097240199730447563e-02,-4.312340376293568797e-03,-7.404883104226470461e-03,1.219855220940521401e-01,7.125247724534514160e-02,-3.161118144618003944e-02,-2.073670541932082223e-03,-3.206310363890586910e-03,-8.968022303287820352e-02,3.723507385212392745e-02,4.243062693868251967e-02,-1.415699228491157646e-01,-7.378393948453068618e-02,-1.131896573859216548e-01,9.931118371555983093e-03,7.070564563543846326e-02,-1.832811755866617029e-02
1.305925460281591732e-01,-3.933171077152350370e-02,-1.554343082105158480e-02,-1.151993089491041566e-01,1.124281610216957550e-01,-2.444199704028526821e-02,-1.465733909894285092e-01,6.059840005229173016e-02,-9.271270530787818764e-02,-1.201919593832532912e-01,8.476025920500267208e-02,-5.884870046706605975e-03,1.683036152479641667e-02,-5.413581225269920028e-02,4.771059388599840911e-02,-4.766798698537924595e-02,8.534711644713616208e-03,1.278647115855353900e-01,2.087647249770202551e-02,-2.422336272982381772e-02,-1.352522216132736321e-01,-1.168359457300757742e-01,8.113272691814238380e-02,3.819525830656034671e-03,6.345968720080209444e-03,4.484761268244039090e-02,1.445816607133913745e-01,-1.425519739673958633e-02,-5.193645142944215698e-02,-1.849081934337415759e-02,-1.068908029373640961e-01,9.157396910143314472e-02,-1.115003650629040471e-01,-9.091805676596997898e-02,-1.302455807778272190e-01,8.229581029467598853e-04,-5.864692061964375813e-02,-1.071789422862107072e-01,1.142901535933027735e-01,-9.360157187652365374e-02,-7.952013594160049770e-02,1.279006063900642309e-01,9.904656083043648918e-02,4.595155962547933792e-02,3.023947010195334600e-02,-4.832913486007396620e-02,4.766001345095532971e-02,3.437689901912432955e-02,-5.919118352766734870e-02,-1.255454794760550441e-01
9.780070243891897386e-02,1.314492501734447205e-01,-9.950263664416938991e-02,5.671253918426469309e-02,1.473468845958821605e-01,1.458605486415554819e-01,-8.926170985098073885e-02,8.303880140311775682e-02,1.619082780347864958e-02,-2.577178003708519016e-02,-8.059909601569080484e-02,-1.464621006674889647e-01,-4.974314499829857183e-02,-1.927879464727866310e-02,1.124090835472002226e-01,-1.095789231225661742e-01,-1.255308735844168355e-01,1.242346053363005964e-01,1.047633742025137205e-01,7.073109563990986892e-02,6.127646976515105370e-02,-3.189569713213127877e-02,-2.826682201772789949e-04,-9.728795273927365317e-03,1.077360762514019410e-01,5.341944517649591107e-02,1.259649025295122848e-01,1.420809178777753257e-01,-8.819977969573850052e-02,-1.388023747692450627e-01,7.747603347126756634e-02,1.418425016770711033e-01,-1.200427238814049669e-01,-8.601050725264076935e-02,1.496519607492015902e-01,5.201558870101418569e-02,-1.428007454017715394e-01,-1.466657036939479353e-01,-1.221951843130308912e-01,3.098962439275114097e-02,-3.134782848579530795e-02,1.433034691362139734e-01,7.818830361533524176e-02,-1.368856204328477988e-01,2.515740777788654653e-02,-1.393631799232485924e-01,2.929508799168695221e-02,-1.224353202576092953e-01,-2.980316145764448643e-02,8.859133607573757563e-02
-8.594016070764468052e-02,1.087882759413876521e-01,1.197984116425860057e-01,8.003877025281341817e-02,-1.049877941430982231e-01,-1.265299607282479588e-01,-1.121246804376601902e-01,4.855773120537248966e-02,-6.812200250817899982e-02,-1.053533251127560799e-01,-3.719911705627132470e-03,9.501803377948606077e-02,8.452964046839556156e-02,1.465761266303617083e-01,5.062636318386976031e-02,-8.440479619091172114e-02,1.275662803700910730e-01,-8.126457906474889026e-02,1.382195348698163906e-01,1.128549646849436316e-01,9.590701715563251795e-02,-6.842658139381914417e-02,-8.198403646888732799e-02,-8.072059384592933373e-03,-2.480105928954723371e-02,8.360409615755984292e-02,-6.616198244566742770e-02,1.265001911468491558e-01,4.757083595540578802e-02,-1.044615756094814940e-01,1.464075202021963840e-02,-2.825837527875788013e-02,-9.524067352874726611e-02,-9.214113219659647580e-04,1.524676773542538166e-02,1.072434394491357523e-01,-6.665594104465588643e-02,-1.125535411588610146e-02,-3.634256160042943773e-02,-1.351825457480793913e-01,1.853600626513843275e-02,-1.119263856244088057e-01,-1.112042557739556237e-01,1.086265382994217321e-01,6.167408504344984443e-02,-2.178795473686148676e-02,1.279070777891579136e-01,2.796652746562389158e-02,8.024240121188128128e-02,-1.240766773309599086e-01
9.832026800427126623e-02,2.956586595247454041e-02,-9.246185406782270189e-02,-9.282147075949975790e-02,4.935813712340697545e-02,-7.968332420645778125e-02,1.284713046760814492e-01,5.632107785946671719e-02,4.070205836279766620e-02,-3.767090021360117169e-02,2.551222088248561448e-02,-1.384109663398178924e-01,-9.166022370555863830e-02,8.516105563119411026e-02,1.457043523994020207e-01,1.306937374508589655e-01,1.460492353264798704e-01,-1.250800150834706914e-01,1.336754643182579694e-01,2.241633147191954278e-02,-7.041209936581133144e-02,-7.303622781376153950e-02,2.723251689241504292e-02,-6.521350281316407038e-02,2.049317719977128416e-02,-9.105901623443644899e-02,-1.172359289875135324e-01,1.300857921136078510e-01,-1.009221278164893210e-01,-1.410409442016979098e-01,-1.480856446755106082e-01,1.124982071193452449e-01,1.079553338323873402e-01,7.126131529315621327e-02,-1.388284317335139462e-02,-1.670617907461730001e-02,-5.031841922546441415e-02,1.002019508967214034e-02,-8.623533337887009931e-02,-3.176923231993863950e-02,1.119263385265831523e-01,1.435251710240700029e-01,-9.795924299123069667e-02,7.971630591350148398e-02,5.961524312426411121e-02,-1.406161856722362713e-02,9.288868173057623912e-02,4.034949991056405172e-02,-3.242989772199852960e-02,-2.150362422840582100e-02
-9.701004554257069978e-03,4.024582887946487331e-02,9.069346486685614384e-03,6.686951275935973382e-02,6.280396180151881502e-02,-5.006305000870167610e-02,4.202610838698628282e-02,-7.429928788809719853e-02,1.335900275218682431e-01,-8.327310748563662712e-02,-1.339514335710928483e-02,-1.153043966818437793e-01,8.416958832414833669e-04,-5.938752555330836791e-02,1.346537302500334377e-01,-7.149286667077450752e-02,1.454355677407070113e-01,-6.412660284420636236e-02,5.231984874114031792e-02,4.170026490906722505e-02,9.449602481143024035e-02,4.323759382547409658e-02,3.090594756615763772e-02,4.187044979997892047e-02,1.404939617138890873e-01,4.508523747890186284e-02,-5.643732981205099031e-02,3.193863463666238300e-02,1.228336700768511980e-02,8.160794623867842490e-02,2.097040722802184787e-02,1.168243602487004928e-01,1.049706842427300113e-01,1.240040052491797329e-01,4.426407146524016789e-02,-1.323304505257164865e-01,-1.198186774491589723e-01,-1.127917140282513331e-01,-8.990771662836685718e-02,-2.110470260894337091e-03,-1.260260668302489173e-01,-8.587939313429240884e-02,-2.770917754907838149e-02,1.326935299331953588e-01,8.522091655505417696e-02,-1.162937954207127200e-02,3.564302626042342714e-02,1.646503592270859295e-02,-5.469146997961332746e-03,-2.053784288829918481e-02
-1.192900172314358548e-01,-1.158031818903897114e-01,1.286151301570864769e-03,8.150619507260964403e-02,-1.460833828985419747e-01,-1.315114162592172786e-01,-1.225541507076893383e-01,2.301270975333377655e-02,-1.185286047288995059e-01,1.162012864665236955e-01,-3.376690123255979281e-02,1.445799700792085585e-01,-2.230117635508355178e-02,-5.666202278084483956e-02,1.489229516349460936e-01,-7.341818362618963978e-02,1.931365471736132267e-02,1.352224674822511685e-01,9.408117714557756583e-02,-1.376697010427831436e-01,-1.244995837453723025e-01,-1.194669872129874855e-02,5.142470518022410064e-02,8.563242751565280919e-02,8.591248478215346429e-02,-1.419494958495950143e-01,-1.035855573466193391e-01,3.064306226443755388e-02,-6.385629667456411973e-02,1.449738375311399041e-02,-2.410942968407897569e-02,-1.062750597813757331e-01,-1.138346314316302926e-01,2.002057455290065513e-02,1.433898766911692602e-02,-2.518699361848035501e-02,1.112821357983173887e-01,-1.384202591817890737e-01,1.304694366151535057e-01,-1.042856414545311194e-01,-9.763902206482213963e-02,-7.146416688351678315e-02,1.043285160558624081e-02,8.205761415422227478e-02,-1.467338424715998457e-01,5.897460139525240175e-02,1.013096446875445256e-01,-1.225679277610176449e-01,-2.537664064938838226e-02,9.723028316770687685e-03
-8.706929315757454269e-02,6.683932031182548972e-02,-1.317544671253839395e-01,-1.434603592494349544e-01,-1.079151516619660245e-01,-1.449249561476535220e-01,-6.154015329224978015e-02,-1.216887098368148595e-01,4.358049613110887011e-02,-1.474040815359201617e-01,1.165893266048557420e-01,-8.815825086658134191e-02,1.183320911335050685e-03,-1.526581418648531585e-03,5.663660622985955406e-03,1.119108302961425438e-01,-1.466462794985071150e-01,-7.130269185203544358e-02,9.140166156410642340e-02,-5.273596394411045329e-02,-1.213816172473603794e-01,1.052495258722642990e-01,8.125217611775961690e-02,1.210784239913290372e-01,1.208929627580304367e-01,9.184023555646522730e-02,-6.534376894893907661e-02,-1.348512040723026661e-02,-1.143866562918743057e-01,8.376160449176597855e-02,-1.066151391140487265e-01,-5.072885743584581997e-02,-1.435294987498583474e-01,2.575254251589775834e-02,1.449502767892321409e-01,5.802816697488075159e-02,1.319002158983487438e-01,8.284271800447914891e-02,6.589426536132481083e-02,-1.375164102247363462e-01,6.983524269878738089e-02,-5.171516179819853065e-02,3.872325630539452668e-02,-1.496315182182902104e-01,-6.973857147809367496e-02,2.480401353246600160e-02,-3.018376890206367347e-02,-1.194146294360900751e-01,8.592187747099069850e-02,9.056901638307648938e-02
-7.389549985093891993e-02,-1.160487867681331275e-01,1.941011697735919861e-02,4.496967199187856812e-02,3.105475716040972944e-03,-1.311338975452436550e-01,1.212962174070672250e-01,-1.410284805901542982e-01,-2.555120708621960723e-03,2.401081542393207480e-02,-5.491068003887832061e-02,-3.412351659283989480e-02,1.158389900962031316e-02,-1.123668856107704617e-01,9.768746097371067139e-02,1.263057440761715944e-01,-1.164071289956125355e-01,1.894501735546857968e-02,1.002635699728704477e-02,-1.345964983214532895e-01,-5.726408674272367993e-02,1.176381778199169503e-01,1.392770214252711247e-01,3.695245001723104772e-02,1.412483598081393232e-02,1.062833337815119739e-01,-3.139249119833162349e-02,5.741324997435207078e-02,1.388192761384625940e-01,8.055264626082467294e-02,-1.810822566661562938e-02,-2.443681367225702949e-02,-1.869632550973987506e-02,5.352418839555950214e-04,-1.444719453133471165e-01,1.346531679352321598e-01,9.501938678535168381e-02,-7.785944650152866464e-02,-4.833910317117452726e-02,4.637260739038676083e-02,-1.142500277477414838e-01,3.161316850628120845e-03,1.498132609880374055e-01,9.765486053874944394e-02,1.276133989455754125e-01,-1.082640516917910967e-01,-1.162869630997222237e-01,6.827670247063694076e-02,-1.173164457764269697e-02,1.094461604744974836e-01
8.893601281017299298e-02,8.572820061663960489e-02,7.109772124881094668e-02,-2.695934027095396590e-02,2.679481615436632436e-02,6.722926635368986492e-02,1.048774866115693427e-01,-2.018436675826865145e-02,1.007022788868526531e-01,1.368137346873136984e-01,-7.194923246698382846e-02,-1.760142276751142099e-02,-6.864648883722183903e-02,7.733123423770968397e-02,-1.242448642942520221e-02,-7.842474835044438430e-03,8.741801339687366168e-02,6.941113619049399386e-02,-1.151179703766771756e-01,-5.101293378749371943e-02,4.388413763656104360e-02,3.139113190148348775e-02,3.358534024898518489e-02,1.283065055109131047e-02,-3.175238627365545296e-03,1.498551069917474499e-01,-6.495427144643013684e-02,7.450043196945194124e-02,-1.353972284893469602e-01,2.584090422900398032e-02,5.980488257310620503e-02,-1.359883965679614670e-02,2.083361985591813959e-02,-7.935135837822772376e-02,1.494372224167758445e-01,7.006214541417046804e-02,1.413568107668350671e-01,-5.478015685025285075e-02,1.478384082054529369e-01,-8.340818954408588115e-02,-4.861033876038801937e-02,2.905702676941784857e-02,9.180568773847799791e-02,8.860000219993718895e-02,8.404754031091185573e-02,5.900183569827494034e-02,1.343675877168757082e-01,1.040479498146925919e-01,-3.813279507917340105e-02,1.141945260269144891e-03
5.181624367424991773e-02,-1.356201362681257183e-01,9.291939524584982846e-02,-1.380064860465855803e-01,-9.850194217831034771e-02,-1.226693438215745724e-01,-1.367821202286020055e-01,-1.037967277389747200e-01,7.781114261284557965e-02,-5.394684691853465774e-02,-1.429722345348480306e-01,-1.560545419347253437e-02,6.516290186178097521e-02,-1.167843019615676936e-01,2.791374673956409369e-02,-8.355671132606046214e-04,8.559099217186580399e-02,5.233268356481973749e-02,1.888656824127932232e-02,5.829787572021011277e-02,1.228303573389672165e-01,1.410469921198925503e-01,5.643262090138392861e-02,8.088093536138116213e-02,-8.345662019555265265e-02,1.435487308925544048e-01,5.904814515531345287e-02,1.451225190930278408e-01,-1.062924762257324851e-01,1.353864626741207722e-01,9.572199624301733212e-02,3.631986528472100351e-02,1.280616911156297888e-01,-1.206579462766510513e-01,5.425450217546162746e-02,-1.193388192668199121e-01,-1.436182883201784222e-01,-1.440953540839605418e-01,4.786158823437108856e-03,9.264483286519606398e-02,-6.908934916416099858e-02,1.009375269703719769e-01,-5.184017116171205086e-02,7.776225957076302042e-02,-4.927941559593938814e-02,-1.333462742668398981e-01,4.647100616135724227e-02,1.276959597734235452e-01,-8.666531961292307795e-02,-3.953909682817211002e-02
-1.390015648059862163e-01,-6.303696037724318413e-02,-1.276536193030487210e-01,-2.998395443507326230e-02,-1.131746034513009813e-01,8.231612494278348069e-02,6.287804378255612558e-02,-6.304220859986564562e-02,-8.486665301699443387e-02,-3.977697371841085183e-02,1.040661206040277842e-01,-1.319974416093411262e-01,-1.390077728314681182e-01,2.038771244558273965e-02,1.272594831589065889e-01,-1.094683919952267048e-01,4.918216338762476658e-02,6.691456470805784429e-02,7.382292442415963607e-02,-1.444874664748042881e-01,9.991824343072433501e-02,-1.387815495158378765e-01,1.495561784765087332e-01,-6.538617059368978524e-03,-7.397494791374130407e-02,-8.703777355293872142e-02,2.189202190053907149e-02,8.587819159687506976e-02,-9.235363270619315057e-02,6.590097563343441656e-02,-6.082891080843395859e-02,2.562225806243470516e-02,-1.394957758823135163e-01,1.220174456825035003e-02,-4.366876608875354393e-02,-1.229646062485997837e-01,-3.558076690351852367e-03,-1.454601295924448645e-02,-8.103941108779628977e-02,-5.060946223918080800e-02,2.967716390419949946e-02,4.299226592412985770e-02,-1.374228269276879522e-01,1.011394526817696871e-01,-1.063148584552371656e-01,-2.469814483991575327e-02,1.309997646181643161e-02,-8.945049633691290469e-02,1.437431712739379586e-01,2.371468783149957571e-02
-4.239296229249991943e-02,-3.091879173473541242e-02,-1.366557871556587089e-01,-1.278548370810466683e-01,4.832258924021776147e-02,5.242435004561024625e-02,3.974933752493137185e-03,3.470366941341579414e-02,-7.983027475258891448e-02,1.445733969994389134e-01,-5.541414090036998752e-02,-2.172564633048407190e-02,4.935852087918463083e-02,9.388947390101454182e-02,9.301190743037668351e-02,5.424314577842126450e-02,-1.093697450785080516e-02,1.219732267340602194e-01,-7.407181374596388812e-02,-3.196795233266627734e-02,-1.014573301003508510e-01,2.680184358912346410e-03,-1.462806367324520074e-01,-2.804551374685759768e-02,-1.454365950656068829e-01,-3.890882095359919635e-02,1.121028303872985410e-01,4.008887045579445640e-03,-8.427932147932745699e-02,-3.722620653254349321e-03,4.355091051981654915e-02,1.107930539843730855e-01,-4.535425057036009122e-02,3.944534550044284660e-02,-2.294419289199545187e-02,-7.954282528474525271e-02,6.227632170067504136e-02,1.170215037892893828e-02,1.061451490506681028e-01,3.452802609092731068e-02,-1.621182067926832393e-02,9.835818698541073934e-02,-5.940543795386402093e-02,5.590781853956611203e-02,1.259314658934712339e-01,-7.427034378845048801e-02,-8.630011369368108254e-02,8.065444899405666002e-03,-6.363360667395644155e-02,6.740922829327081200e-02
-1.183570740265257049e-01,-3.476187271945310742e-02,5.833989998195812654e-02,-4.866018264946175842e-02,8.596676829204275005e-02,1.226344832648939842e-01,1.014554868880905014e-01,8.317019372107770092e-02,-5.548004274716684947e-02,-1.180346021950484658e-01,-1.389025766368215120e-01,-7.709765204669997984e-02,-8.182112936155042093e-02,-9.183546242866606757e-02,9.022920839952663918e-02,-6.449995970148197921e-03,-1.380401629633127847e-01,2.457587036666822322e-02,-1.344218540980109677e-01,-9.224037134791038262e-02,-4.012674077698520636e-02,5.258635426786217870e-02,-1.403042664029768849e-02,1.182811011944691348e-01,-8.709406313309936420e-03,-1.576559122435217120e-02,3.091238160101419941e-02,1.175950245701865293e-01,-5.475618364475066946e-02,-7.625567958839458982e-02,-1.056153232518508844e-01,8.840779388747851963e-02,-4.702083675882308411e-02,-3.653893790513951245e-04,1.507513721856496014e-02,-8.887368407431150974e-02,-1.248482574479653634e-01,5.995898034363938978e-02,-6.844514475620651350e-02,1.507891752624704318e-02,-2.360637081605540533e-02,5.925203091858821658e-02,1.486717295428695851e-01,-1.188386946035352998e-01,5.138156983975919467e-02,-7.992874867036953157e-03,-1.411974505127516766e-02,-8.240719787284120357e-02,-7.798193065295121185e-02,-9.284220207590343499e-03
-3.637041056197939937e-02,-6.556898938589493520e-02,-4.965335969673753680e-02,1.493140883327242208e-01,-1.460009589000635100e-01,-6.771810081757836941e-02,-8.647478773348146741e-02,4.606083191168314217e-02,1.319389528305686676e-02,1.010888930470914271e-01,-1.034100773284710173e-01,3.687869223761930382e-02,-1.880126352085120800e-04,4.808370106968634650e-03,-1.258309671663510321e-01,1.330846732459195214e-01,-7.656462936207970860e-02,-4.414307498013637920e-02,-3.697844213203506369e-02,-1.059415373495096457e-01,-8.577926802246652049e-02,7.978579543923616790e-02,-1.003199355000742726e-01,-1.114437674698536274e-01,1.253456880795804362e-01,1.848093010047857643e-02,-1.257906885567773303e-01,-6.648641577441938288e-04,-2.187902160858809508e-02,-4.696513776334398926e-04,1.094141399960546213e-01,2.526551093221982014e-02,-8.233413906912734337e-03,9.820491573059525470e-02,2.512997361181212863e-03,9.948265889892840552e-02,4.383679067234202975e-02,-6.239356730541188722e-02,3.941083525367955476e-03,8.531816328077343470e-02,1.122075747341930441e-01,1.335901700291884653e-01,4.712222182062625331e-02,-1.257986574025328486e-01,-6.422406655340230641e-02,-6.100763833034900108e-02,-1.079810172929185352e-02,9.324178167720159616e-02,4.464364322365008131e-02,-1.044545590106070454e-01
3.470435435272171618e-03,1.404209454311582395e-01,1.311833637984625989e-01,-7.805563303387594298e-02,2.731424885321957416e-02,-1.364234026509935360e-01,1.266327426185750449e-01,1.013147522443750004e-01,-2.355092588991620703e-02,-1.382723936550592780e-01,-3.961345211519873982e-02,1.066114989106470567e-01,3.137108438232427687e-02,-4.865768422284837830e-02,1.377872549415968817e-01,1.447046343058706885e-01,3.486610257398699286e-02,7.157748572623773287e-02,-7.222277485240331807e-02,-3.325061423424462148e-02,8.839104212298624919e-02,1.157397347914362606e-01,-1.811143640978758393e-02,-1.104980322482937150e-01,1.494892450119414407e-01,-1.461757932682512251e-01,7.695058470610777190e-03,-3.715599333763570933e-02,4.556915712502113136e-02,-5.436940863742561331e-02,3.271929275803239778e-02,4.285383124342959787e-02,-3.191632460008992506e-02,2.000349073977808131e-02,3.672932728210244469e-02,-1.288318668362660180e-01,7.854257748549475782e-02,6.450670688649440265e-02,1.107167765470295079e-01,-3.939891435009588300e-02,1.221176852295524085e-01,-7.263415483972587849e-02,-2.298150020017879908e-02,1.024415269020225172e-01,1.418353381794740520e-01,6.707943015643655360e-02,-1.375600458685850846e-01,-2.843868961198083023e-02,3.456487758975718139e-02,-1.382381417649821420e-01
4.924269698705840276e-02,-1.155754079511894378e-01,1.006678718195681277e-01,1.375048426200179974e-01,5.023597842969441257e-02,-3.854108587631195626e-02,8.769167978962157106e-02,-1.072601833334407284e-01,5.706884498888695201e-02,1.032121481710620951e-02,8.571577896878679326e-02,-1.130790129865165972e-01,-1.443499296965980172e-01,9.451210688283359640e-02,-1.163326438633823512e-01,3.255336253296603477e-03,-2.049004997568214595e-02,5.551497619293140756e-02,1.313612611140340530e-02,-8.148993676488082427e-02,-5.951202504217835421e-02,5.865828257954881081e-02,-1.757683592768924451e-04,9.870494909101795722e-02,6.524311125289090907e-02,8.865779582000250791e-02,6.905309057736452871e-03,-5.309046820717872733e-02,1.350080046201170003e-01,-8.374357542392937837e-02,4.523236021453214128e-02,1.167766795736218527e-01,2.742808559883716871e-02,-3.648316566201409428e-02,-5.560693019624642075e-02,5.824857183180352088e-02,-1.085022905531363019e-01,-1.480574019653941586e-01,3.197621829413369726e-02,-6.223778507841339069e-02,-7.950617470109995477e-02,-1.380211382031387157e-01,-1.368054419895966822e-01,6.125523299679632577e-02,1.514230105506335963e-03,1.018136203107943144e-01,6.200029286201346607e-03,-1.016845336381407283e-01,4.019322961756957580e-02,2.271805209173555218e-02
3.053721040220851515e-02,-1.181874735274400651e-01,4.403013478962458649e-02,-9.151993762204510552e-02,-6.622012334411125564e-03,8.240700239867329580e-02,-3.168936304200416394e-03,1.145240690542722733e-01,1.063834150866895256e-01,-1.019382433273930688e-01,1.066461220544337668e-03,-5.282129594378172366e-02,-1.233308024050686486e-01,7.856555247834356992e-02,9.148444658271041863e-02,1.500427183031997624e-01,1.070961237981610248e-01,1.918738915579704454e-02,-1.430955129775137447e-01,8.949865391687274185e-02,1.120388467487972717e-01,9.243892799264412374e-02,6.449061372016519356e-02,6.358903946295668685e-02,-4.246720436833251872e-02,-7.686696741163427660e-02,6.281130929088514503e-02,1.080958778695824407e-01,-1.285044224533054280e-01,-1.040309917052735372e-01,-1.410503826487922163e-01,1.009675447049107333e-01,-5.577211602759007958e-02,1.184067315256507741e-01,6.321864154529838187e-02,7.593619286286719394e-02,8.702954489504752256e-02,1.207645958244722428e-01,2.476157461763385872e-02,-1.314216465290475588e-01,1.423548875617184073e-01,-4.600981901131807189e-02,1.305240365778451150e-01,1.247111304408606569e-01,-4.826902708013233040e-02,3.756303804529954882e-02,1.697307946137848259e-02,-5.273740121869170683e-02,-1.130839675578329956e-01,-1.087988453162680169e-01
-1.045027089833540923e-01,-4.867527394722447054e-02,-7.964663380176147112e-02,1.099488375707453891e-01,-1.334314282256883200e-01,-1.047820244435937638e-02,8.859774955512199693e-03,9.680298406446305459e-02,-1.064385572923720047e-01,-3.285710732291013958e-02,-6.864829472737600611e-04,-4.992881324590454917e-02,1.093349959273365035e-01,1.294013596033232738e-01,7.522355150729092069e-03,-9.510143416915708969e-02,5.184195563674739299e-02,1.586659748358178190e-01,2.313659942749160883e-02,1.158931324733293577e-01,-5.732723089814968642e-02,7.698273852991165123e-02,-6.990895649512818277e-02,9.221537833471386836e-02,-6.631074186890446864e-02,-1.174576510167615467e-01,-1.870212033606935813e-03,8.211818430313036488e-02,-1.550431085292455075e-02,-7.439820004325788105e-02,-7.952590526724649667e-02,-8.267209274541807013e-03,-2.329681396572748017e-02,1.849673100458630939e-02,9.236342623805268714e-02,4.000560666520431435e-02,3.837262252178947133e-03,2.696364231211616919e-02,1.801863418700528491e-02,-4.507903057679017722e-02,1.368772424591252479e-01,-7.651175832661039067e-02,1.639168889506959284e-03,4.641121238569342194e-02,-1.343342013164915694e-01,-5.330663721230393531e-02,-1.214312066482352293e-01,2.237460434330959536e-02,1.394305110299089434e-01,1.364298337478459799e-01
-1.275412099606971217e-01,-2.200639220258838622e-04,-1.383657711415836322e-01,-8.195607513641796349e-02,-3.636999211195244414e-02,-1.428169384320455704e-01,9.010903437230427526e-02,-1.391120014811839944e-01,4.755538387774528586e-02,1.038639283864770113e-01,-1.051230064074129469e-03,5.274207081897815293e-03,-9.385053131974087359e-02,-1.891910632990997237e-02,2.684657760907821576e-03,1.037557310707449970e-01,-1.760774150214795830e-02,-9.805349232820127769e-02,-3.215306087287289616e-02,2.946994932583834811e-02,1.113951959592309054e-01,7.119610787843938526e-02,-9.386995477049893399e-02,5.680853223439586569e-02,1.371688927135993885e-01,6.637329926190654872e-02,-2.303733395834408736e-03,-7.187310483942313533e-02,1.136324356077692416e-01,9.353291381291509166e-02,-2.392376134705135118e-02,-4.618859046448343941e-02,1.144391843979922219e-01,6.106059453849209395e-02,1.663942727262472535e-03,-8.612404435504980582e-02,-3.073827753076608174e-02,-3.875369571203854391e-02,-1.335561064372396967e-01,-7.969343952165167111e-02,3.388245531513590231e-02,-9.897444418294763790e-02,1.472145108980145445e-01,7.173025701915007601e-02,7.993467052823187424e-02,2.761300234565022479e-02,7.138747855796777342e-02,-1.108910813415295432e-01,1.370729994313836797e-01,-1.054914071546256965e-01
-1.225650267842083585e-01,-1.529314275498262765e-01,-4.716060298971882364e-02,-1.164184792745929647e-01,3.898362709688052517e-03,1.036994747264860933e-01,-7.962271957481915907e-02,1.073873477165463719e-01,9.203841183032641926e-02,-5.078158281130699947e-02,-9.243673063134892620e-02,9.076637962213905675e-02,-5.419281076985146134e-02,-1.330151780189589017e-01,-3.177158377618433116e-02,1.276421450235065425e-01,-8.926187518151561251e-02,-2.776312701312046161e-02,4.812814440862202281e-02,4.427006407457985404e-02,-1.312294189210061295e-02,-1.581779983252926472e-02,-3.331434797201096587e-02,-4.013346651314671221e-02,-3.376126178579725440e-02,-1.133598987667510660e-01,-4.318946449122006148e-02,1.403046601871106025e-01,-1.348181990534710883e-01,8.188297357693850864e-03,1.358120942775389688e-02,-2.446426754229886688e-02,-8.644518091453498587e-02,2.679582847790728389e-02,-2.907328915032318314e-02,-5.894242608538045880e-02,4.297914712050642655e-02,1.242383517490163597e-01,-6.914188308381682968e-02,-1.759603086551777273e-01,-8.841232484434136119e-02,-2.664549628945158538e-02,1.139055243441984555e-01,-1.146728041644861085e-01,-8.902295226162486308e-02,-7.245286675962739342e-02,-5.104351993337042509e-02,2.708231634627159337e-02,-7.369599901093551453e-03,-3.093284485187121693e-02
9.314987249743516065e-03,-2.852776839639816452e-03,-6.535052373409346374e-03,-1.147173723809749024e-01,-5.956957766755145711e-02,-3.680151057680034615e-02,-3.285700589310243391e-02,-6.432374410603558523e-02,-1.296599156794382146e-01,-9.123985898301012476e-02,1.276632797723816215e-01,-3.485634874189751792e-02,-1.007153572491398114e-01,2.914082801489399632e-02,-8.040301954801041748e-03,1.543266997394964479e-01,-1.467228708145331406e-01,1.618231000429975197e-01,-6.728421516766046329e-02,9.759438664323484558e-02,-1.526563520993914902e-01,-1.446299959726846454e-02,1.062998870663424550e-01,-5.839381338674860117e-03,8.313936252616985776e-04,-2.561335444548517443e-03,-3.446761244507064170e-02,-8.370911872020136979e-02,-2.898420928006015251e-02,-4.904843430066190696e-02,-6.319963933394436018e-03,-1.393761101220711562e-01,-1.359240278642907251e-01,-9.504821220695883199e-02,2.572560599417578198e-02,-1.786842889977566587e-02,-1.417612201012118101e-01,-6.569482545440637200e-02,9.729966812215735256e-03,-9.234743747289664295e-02,9.484195450717554376e-02,-9.549645181856425413e-02,-6.533870794368097645e-02,6.996823349031444650e-02,-6.546818456884002241e-03,-1.016405508602636759e-01,1.104038377434186577e-02,7.321454077040764896e-02,1.105871600233097746e-01,2.553761196096425087e-02
1.297589574727750494e-01,-1.688433155186521428e-01,4.552931768731541956e-02,2.415136650639904473e-02,-2.900746855474451227e-02,1.226466401224371172e-01,6.454743513851543546e-02,-1.408599134535440944e-01,8.622381169062924566e-02,-9.238416475586301579e-02,-3.637649144353892472e-02,-8.988275001015878785e-02,6.981554241687074926e-03,-3.350301078380575615e-02,-1.310851453512370535e-01,4.860545458726650558e-02,-4.981463170988272016e-02,1.199967395108372942e-01,-3.864939099430025199e-02,-8.078030047078231524e-02,1.122256639905579688e-02,-1.494841296263471619e-01,-1.214603846907287218e-02,-1.296902497228715201e-01,-5.330945451871579865e-02,8.500175070758690665e-02,2.248137155776133364e-02,1.494145504494580612e-01,-4.172099243046259454e-02,-1.273677727506609958e-01,3.394227819130381935e-02,-1.288891675218558908e-01,1.141352263451256288e-02,-1.133789632369294614e-01,-3.889785938382019082e-02,1.495986775941360036e-01,2.311935070136007103e-02,9.059455231643688544e-02,-1.716730678452856318e-01,-1.658546281237200937e-01,1.329522056767238336e-01,-4.648338560263318847e-02,-7.247300576224011137e-02,-9.261325614798945893e-02,1.104432484059115344e-01,-5.029851159528177934e-02,2.210766925901391441e-02,8.908819103415016247e-03,6.755485369011388075e-02,-2.113290478220839277e-02
-6.987114752177667198e-02,3.784545621729668019e-02,-3.325158114091972261e-02,9.671793305839083976e-02,-5.013631760516613911e-02,-1.015679382207049647e-01,1.194637334893259711e-01,1.598527746470918831e-01,1.106321489610700703e-01,5.941850301605301754e-02,1.554670518641199095e-02,-3.854667127572763280e-02,3.494466478279925972e-03,-6.714851527439066881e-02,1.062715312134216855e-01,7.321205094537018565e-02,-1.125092346724728132e-01,1.662466074087844137e-01,2.225723075366774217e-02,-1.141619731075098759e-01,1.231854300344520647e-01,9.086041201492860153e-02,1.144352508653332344e-02,-8.622844863914637392e-02,5.428290002191262474e-03,4.702897516659104021e-02,5.082655136744779895e-02,3.895939695969794642e-02,1.165647744458304103e-01,-1.427240541727566592e-01,-1.463584965710784391e-01,-1.060081061434495486e-01,6.736445107955252786e-04,1.467947973828281627e-01,-6.162884116247707017e-02,-2.553971539865312196e-02,9.100964830368051678e-03,-1.015989898718330266e-02,-2.458136621936053701e-02,-6.494470543243945071e-02,-8.072176286343887841e-02,-8.950344742876635562e-02,-6.850615888190943192e-02,7.864166541760264639e-02,1.035933705539378996e-01,1.045824243011245040e-02,-7.708137888337632249e-02,3.593589113927296574e-02,-1.214835230777730896e-01,1.549093145888707779e-01
8.663121270802072796e-03,-1.621354531548763467e-01,1.170136932693563447e-01,1.239173027365855634e-01,1.420176891093455351e-01,-7.088904594731207376e-02,1.481097462500632900e-01,-1.219561800697245985e-01,2.869209285265255163e-02,-2.084694091717948644e-02,-7.409649374279923817e-02,-2.733103482201995962e-02,3.009501983195272609e-02,2.336463691891137694e-03,-9.165792566306661671e-02,-4.456619663012965915e-02,6.039859151075693822e-02,1.668888086661826919e-01,7.504902936915085372e-03,1.459851257207731290e-01,1.054845169761388229e-01,7.290130771943668930e-02,1.386425101826234130e-01,-1.035442375597623449e-01,1.212848199022893286e-01,2.664222326485283197e-03,-1.445982036391603096e-02,-5.251331521157938387e-02,9.120152598289711643e-02,-1.094075632499279527e-01,7.929683689261649016e-02,-1.140692566658645241e-01,7.661216966283122820e-02,-1.055974892933390398e-02,1.377104353909059109e-01,-1.011151840108754779e-01,-9.882502275013393955e-02,6.833096671053992543e-02,5.585504588666023035e-02,-1.067733090707683186e-01,6.100213791105930233e-02,1.446089665486522957e-01,1.190915318735808331e-01,1.024024795736792476e-01,-4.959767060307939540e-02,-5.985927876769232825e-02,1.292596655711631959e-01,1.361970722430249359e-01,-2.154640641266366077e-02,-8.484821783308099663e-02
-6.323712286889972278e-02,-7.694174988580967933e-02,-1.107638183287055628e-01,-1.123215940594383400e-01,-7.099015902471321471e-02,6.175531150191321955e-02,1.386658788627083694e-01,-5.810542326790557599e-02,1.010842189461908930e-01,5.143548462806685900e-02,5.289132867665290172e-02,2.526027423317352139e-02,5.128793253300655691e-02,-6.130551660308935363e-02,1.148433701323676448e-01,-2.248388734600020519e-02,3.823862895655227162e-02,1.353948256934261185e-01,-2.940107697140860107e-02,-4.713491666429445170e-02,9.499950828688182372e-03,-8.634763018653576760e-02,-1.180338461328932914e-01,-4.785870195647046882e-02,-1.259077487762831349e-01,-1.745197692441891324e-01,5.500105071760787168e-02,-1.322876641975512801e-01,1.364403175383906430e-01,-9.511403268875305572e-03,-1.463406519804777151e-01,-1.657725298959542848e-01,-5.259823774497481702e-02,9.955764686442825084e-02,4.782763682922722137e-02,2.033133215207165792e-02,-1.017872115534478594e-01,-1.288601272115421636e-01,2.708155859894377862e-02,-5.230387568355934075e-02,-5.003805093354202899e-02,-1.169112435769214947e-01,5.594715296632419253e-03,3.602347514555633706e-02,-2.218038400639212038e-02,-1.420697350674077208e-01,-7.526450350255260713e-02,1.938818069677191447e-01,-1.040609339172345882e-01,-4.460564035095920116e-02
9.207145013183387627e-02,1.288305186235236786e-02,-4.329261760660575720e-02,3.615091063032056101e-02,6.609919077347733984e-02,-1.624986383797532782e-02,-2.782600327814416935e-02,1.380997881187551457e-01,1.387339047893289823e-01,-3.082501126637637520e-02,-6.928916488664406403e-02,3.361156293805182133e-02,7.866036085412637935e-02,-8.528813219090571052e-02,5.779224940158188967e-02,-8.035593331692580943e-02,8.358605081064529596e-02,-1.009763469822569926e-01,-1.311809927585001201e-01,6.588726135615927126e-02,-1.279451582999513171e-01,4.259528412628427879e-02,-3.406288028678386426e-02,5.461212958359513980e-02,-5.822093003571822065e-03,4.679574178425059683e-02,1.400398123754491575e-01,-9.231708617474887468e-02,3.043803244972396668e-02,-1.304015105133489102e-02,-1.176322776690770511e-01,1.051862283872305286e-02,2.860490759603926542e-02,-8.363741763617063563e-02,1.875656683591342758e-02,1.009474619378414734e-01,2.962203468200138093e-02,-7.499865368321693981e-02,4.162572274051788701e-02,1.339736822195918275e-01,6.523701456253863662e-02,2.578656405511765490e-02,1.097365331206737460e-01,-2.629557038329538143e-03,5.247385163962078880e-02,1.158846040804341060e-01,5.414993951415315171e-02,6.269352745443861064e-02,-9.275979320534449846e-02,8.361436769802964297e-02
-1.658183170897446421e-02,1.084640312874941837e-01,6.939012412983641687e-02,-5.668820026246736143e-02,-9.412997535189332465e-02,7.747136598373607907e-02,5.589497298266269537e-02,1.542091697798445016e-02,1.088074440505470142e-01,-2.781538289456477950e-02,6.231787632136529670e-02,8.335987539056943785e-02,-8.416599136238619994e-02,-1.175065563436981653e-01,1.309531609359488868e-01,-6.066936259456830183e-02,6.107045643007240343e-02,-2.913048025304466535e-03,-2.957158773551262637e-02,1.343065328507361544e-01,-1.194872824085310148e-01,-5.277636422312061842e-02,-1.351931386312930361e-01,-1.017356236860890439e-01,3.001196239149968650e-02,-6.963891240137574934e-02,-8.816687560054317641e-02,-1.184686731415746097e-01,-2.184301449358444155e-03,2.074919198216273672e-02,-1.435395237934709578e-01,6.521963925214305235e-02,3.778509810592296791e-02,1.123086987872109477e-01,6.505768064929443040e-02,-4.065628399453927178e-02,-5.658734457868042772e-02,1.475541496724883939e-01,-1.376443489277789090e-01,-1.295271852623879338e-01,8.143420321413814833e-02,-8.874784142395915343e-02,-1.406745921444599833e-02,-8.610711363776578364e-02,-9.255118497726036453e-02,-5.674761646690661826e-02,-1.254110391323101301e-02,-4.912671152042225042e-02,-1.317455138522343749e-01,2.585091429277840136e-02
-8.367804189089644504e-03,-7.723674818479298043e-03,7.683954207128074199e-02,-7.747284839309592774e-02,-4.204596219195777529e-03,9.200354836005453230e-03,2.550571851595941075e-02,3.438429913475565813e-02,-1.131724387698606893e-01,8.783616334679590631e-02,-8.557156721188417803e-02,1.265762950400106668e-01,6.819382857485128957e-02,1.311948525328824056e-01,-1.308580349121327979e-01,-1.460028740469558883e-01,1.524651549461727637e-02,-3.119633403122367907e-02,3.764026934119011486e-02,-4.546928332842318371e-02,-1.347721873842401552e-01,7.965432728074388347e-02,-6.630755191038972818e-02,2.675899175998158047e-02,2.399207266771325245e-02,9.082030897575479877e-02,4.260087078988106235e-02,-4.063938079979992346e-02,-1.160287020639662187e-01,1.223684120737261322e-01,-4.146099906131257840e-02,-1.407312544888772721e-01,-1.478003253870824318e-01,6.602857962835675942e-02,1.257211424342124795e-01,6.578147049915288036e-02,1.450739014131461058e-01,3.507671285455448568e-02,-6.654051220193139826e-02,-1.291305338030242778e-01,1.994586842248252667e-02,-1.214398133643302957e-01,5.896479796417549574e-02,-7.092934552573117862e-03,-6.059618941492293104e-02,-1.079854285177467288e-02,-3.212707713493923728e-02,-2.772024045439951817e-02,-5.694617643163765036e-02,-6.717715942695251519e-02
