-1.376697162132838048e-01,1.120558320121091411e-01,9.783468105886525268e-02,-1.480290783553760980e-01,1.098825522745905392e-02,-7.335168157451607551e-02,-1.390410098296912533e-02,9.577872384695509944e-02,-7.913824545463317428e-02,-7.124361054844625951e-02,-5.676942229652331973e-02,6.703447701366860301e-02,-1.168542358416194693e-01,4.372627332912515374e-02,-1.010074948718285015e-01,1.303188639765705259e-01,-1.445114671177874510e-01,1.348824144698479721e-01,8.623698135393179087e-02,-9.571000878467172956e-02,9.401491599082850703e-03,2.019340311970427293e-02,3.742623089627997168e-02,-1.368364225113888888e-01,8.683472725130386705e-02,9.505863856110546850e-02,-1.273494888215068455e-01,-2.722452936428290671e-02,7.472468307941043664e-03,1.095098672224609215e-02,1.149318506908301452e-01,6.127859428823023702e-02,7.163522770417049546e-02,9.473777659553361818e-02,1.920533508900781894e-02,-1.381474979150040527e-01,-1.250256392947453332e-01,5.023810001968670447e-02,1.321758510384777041e-01,9.827247195789665102e-02,1.037975645754392884e-01,-1.262706709560645901e-01,2.549830999767890849e-02,-7.839542702057405998e-02,1.149425734340017435e-01,-5.658836804575378965e-02,9.791526783426410252e-02,-2.426493894005898877e-02,-1.135275235695244744e-01,2.211812684412944874e-02
-1.364625899362111039e-01,-8.880844844892962775e-02,5.998783148749908811e-02,4.869508481569626013e-02,1.162025991255835333e-01,5.101155057754949707e-02,1.308949135951220366e-01,-1.435165582174350585e-01,-6.836084807674891461e-03,-3.770569988298813624e-02,-1.233155262993168022e-01,-8.179810981674252857e-02,-8.154559014265566619e-03,-1.375895339553066532e-01,-1.355120506614670983e-02,1.124653296757497645e-01,1.174375125909696560e-01,6.516170631740381136e-02,5.381743566862942640e-02,7.021586866542359195e-02,1.038614670767355752e-01,1.040432687619457786e-01,-3.601233052848935856e-02,6.113305922652595426e-02,8.311967943718506779e-02,1.383008568455219300e-01,5.554782098545874014e-02,2.906655499212956739e-03,7.009237689575875674e-02,-1.324829061910691996e-01,1.166159964029633567e-01,1.192220147630117244e-01,6.775968924931902171e-02,1.151064943899749171e-01,1.481330499142349544e-01,-3.605021086651127860e-02,3.676021659287009857e-02,1.375127786152535447e-01,-6.600291714014416833e-02,5.126572617414740241e-02,-3.139237586552195980e-02,-1.469668644739967889e-01,6.319453096149216242e-02,-1.283938403795451266e-01,-1.496549575354371719e-01,-2.239009565862110085e-02,-1.119894139988625303e-02,2.627936868933183900e-02,-1.403132474737937285e-01,9.513049687593114201e-02
-1.113519941484875375e-01,1.291859943537217170e-01,7.058777275664918083e-02,-1.096760826546246265e-01,6.458688116303332172e-02,5.953937949435572641e-02,9.751134853502088640e-02,9.207150495386620670e-02,-1.274948992013569260e-02,1.236683798875727602e-01,-9.943375535090984152e-02,4.304943234552588427e-02,-1.055606787063661789e-01,-1.366513490596047709e-01,1.407742200695450141e-01,-7.341930109338921928e-02,9.145173027425365642e-02,1.436739883425771913e-01,7.390957932021546828e-03,7.643591546822836591e-02,-6.038775157336326305e-02,-3.318899890671690722e-02,-1.057128252078521069e-01,-1.535328248947118168e-02,-3.077713987558976239e-02,1.039122483692151155e-01,-6.695235282058174808e-02,8.357247091561609276e-02,1.334726573429103891e-01,-9.319793587080625608e-02,-7.144895099973010144e-02,7.386712057771666062e-03,-1.248860852228412255e-01,-1.216280657908871965e-02,3.506187514061678834e-02,-8.493171154600798189e-03,-1.166966573324932088e-01,1.467634344230624166e-01,3.458303280898950005e-02,-3.100061412466631472e-03,1.648142037579589103e-02,-5.025135111881824657e-02,3.719423033714647220e-02,-1.894528309300688718e-02,1.402758226081685933e-01,-4.460501736902160175e-02,-1.455578981362562752e-01,-5.028979524029993098e-02,-1.351774949768725920e-01,6.777568993383775720e-02
3.181055355776629678e-02,1.487763998408786204e-01,5.074020596429890118e-03,1.215889947142540228e-01,1.015203249725787626e-01,-1.019067570161267811e-01,7.246930550480129574e-02,1.010965167651505514e-01,1.327335851028577374e-01,-6.128006003216292241e-02,-1.402601978928627591e-01,1.430244522233944660e-01,-4.613990489962653541e-02,-6.863458803203752179e-02,4.749583870013068809e-02,8.639179264710075690e-02,1.242524390384364408e-01,8.050835609810932936e-02,-1.123852313953699056e-01,7.129801921610370852e-02,-1.002020517663249344e-01,3.731969667776202648e-02,-1.305749681222106995e-02,2.846874108235605827e-02,-5.600921348224642549e-02,8.804928417264426543e-02,-1.494149842403882655e-01,-1.942796688276116068e-02,1.008535271208431394e-01,-2.258779755865666927e-02,-2.223358053354121400e-02,-1.346708768836168968e-01,6.874530712545484645e-03,1.106405762469019616e-01,-4.334799216840949654e-02,2.192966188244882542e-03,3.221995052996320941e-02,-5.330350564024151361e-02,-1.256949441665383138e-01,6.605305015989576534e-02,9.874039663284275847e-02,1.192918950512612819e-01,-4.838348499440758843e-03,1.049738981584301956e-01,1.261625213073616913e-01,6.026584117916680694e-02,-6.340491480554467929e-02,4.378563623606737676e-02,6.799094499943114656e-02,1.390196772141123749e-01
7.390635204286710724e-02,1.012541927000677744e-01,-1.423572811343788713e-01,1.019265293622612090e-02,8.575566926985064842e-02,4.881949289028533756e-02,8.290548713367851263e-02,-1.336674820135369535e-01,9.023085444354503326e-02,1.023729533355085264e-01,-4.263986741231580446e-02,1.330717952068427301e-01,8.403765979130786712e-02,1.492828069371075761e-01,-1.344400779324304851e-01,-6.734063631228094648e-02,1.062468825039682707e-01,-1.245302317038668588e-01,4.278155261747071392e-02,-3.713707233706232957e-02,1.386752700880984068e-01,-5.805213803391412464e-03,-1.324246198212216952e-01,1.198790875861655836e-01,1.491319640406226499e-01,-1.454213959626997066e-01,-9.484218771724539643e-02,-5.120660341434361829e-02,-1.135213493779408667e-01,1.309058919617655248e-01,1.245949202390298216e-01,-1.293264044603726626e-01,-6.133508488765194999e-02,1.473017590857560177e-01,-9.291027398080151101e-02,3.219274092101381823e-02,8.116217752202603553e-02,1.797281751796711569e-02,-1.199443783087104226e-01,1.285496334638851768e-01,-5.184051949479680232e-02,5.769488847549311683e-02,-8.438011594710048691e-02,-2.689647442652794151e-02,1.153622253619203952e-01,-1.251816495958951725e-02,1.283570909911135871e-02,1.110031409066763175e-01,-4.927615651130229368e-02,7.053759350230984215e-02
7.877392519204898247e-02,1.125664712625922548e-01,3.741799532756678870e-02,-1.025472039474939340e-01,-9.645497658931670437e-02,-5.407929645977366251e-02,5.484736622496044767e-02,-1.196955435490068415e-01,-1.477405662735908065e-01,-7.471835476887525584e-02,-2.686907089631435097e-02,-7.074273520726971631e-02,-4.248855898493114625e-02,2.109417129748797359e-03,9.355622248716838341e-02,-9.740846262179578274e-02,-6.359224807118341039e-03,2.335836390092910220e-02,-1.126929640962047591e-01,-5.769815342245893097e-02,-6.152312872716310388e-02,-9.346978738290170896e-02,-1.260829023640967494e-01,1.945376530818812566e-02,-1.087748564335405538e-01,1.324956017168514577e-01,-3.988663037928598387e-02,3.368489582347358735e-02,-1.009406407997467947e-01,-1.356658742194649936e-01,2.037404739424666933e-02,-1.308862350296165211e-01,1.264327290827512440e-01,6.147148307777128284e-03,-8.632015931324488189e-02,-9.998408456526952648e-02,-5.903382836560000513e-03,1.424189869169016631e-01,-2.990283732759005386e-02,2.014098232574515479e-02,2.968164427268080163e-02,3.971711290113880133e-02,-9.095636885593672005e-03,1.089639311355782569e-01,-7.139787754946859410e-02,-2.249984614528527382e-02,7.106665982610094190e-02,7.832774929151500864e-02,9.100475638535723832e-02,-7.057326555265797108e-02
-1.053891540283115880e-01,1.150397720623281550e-01,8.724670154849537007e-02,-1.453406933708025484e-01,-1.301905755977956491e-01,2.972678601009534627e-02,-1.449378447520668911e-02,1.240402897513556424e-01,-3.021735744699702297e-02,-9.467469333545594501e-02,-2.212442794398730705e-02,-1.263083126853805915e-01,-5.899685914787773655e-02,8.490443393767707625e-02,1.138634883705082201e-01,-5.366178163486398645e-02,-3.013374914153349460e-03,-1.777113877891184357e-02,1.222792898899710823e-01,8.135214407539101411e-02,-2.939850579196143232e-02,-1.126277807946436671e-01,-1.479728710203265241e-01,-1.140890654470104598e-01,-1.035561876460999453e-01,4.217081186191207198e-02,9.364945943221875124e-03,-6.676711909546746704e-02,-1.179284546430583169e-01,8.568052079395696574e-02,-1.398130366184540951e-01,-2.767405151376896300e-02,1.135396423283081824e-01,-8.278983942348588920e-02,7.102895098458406054e-03,1.097930562501938379e-01,4.912262832713920613e-02,2.893058646300172843e-02,-8.036914022128005541e-02,-5.963414714205408917e-02,-1.202379816820475789e-01,8.178360048348154443e-03,-1.102853120481495919e-01,4.011930791858372980e-02,-3.706122462424056574e-02,-1.188013568703863432e-02,-3.663339589597498780e-02,1.327604896823974812e-01,2.462157667846726072e-02,-1.137202355516842844e-01
-6.039788403491522240e-02,4.289004270085719495e-02,-1.458393644106204812e-01,-4.399281218590801734e-02,-1.426952829628771735e-01,8.203923638682608654e-02,-1.133176124801660301e-02,1.060688000306152790e-01,1.417237539991807738e-01,-2.272879035405814263e-02,9.049520441258041004e-02,1.032116934633753313e-02,1.800130654015019704e-03,7.725565257532568397e-03,4.368334203436616270e-02,1.251052019723656039e-01,-2.007955134159739030e-02,6.352581115820477020e-02,-9.755103069729514909e-02,1.414250895187619539e-01,-4.330796951873856770e-02,-5.125609724363333619e-02,-1.122909540366274495e-01,5.789122219088008170e-02,-1.075386160517111667e-01,-1.373408425372427688e-01,-8.425782145814829371e-02,1.280939405138829812e-01,1.798908581505967441e-02,-1.319427241309544530e-01,-4.904011169349976884e-02,1.469841074482236554e-02,-4.788216854204821460e-02,-7.752812712018211649e-02,-1.214235150018372761e-01,2.274876372104692179e-02,-9.895297258803420481e-03,-1.829526996106811687e-02,1.383221220875392177e-01,-1.277802445352738125e-02,1.495285406923911597e-01,7.545957050601459493e-02,-4.091969253452323874e-02,1.851631036831369315e-02,2.601089906550557718e-03,2.924924366743705817e-02,-6.730672501559001319e-02,6.576085396833422636e-02,-8.193100265669307769e-02,7.433521749364313536e-02
-8.545714854744490552e-02,8.394094275264679661e-02,-3.701857789578709423e-02,-1.115113975090975817e-01,-1.488138434648222097e-01,4.007507551935018952e-02,1.296053760102327257e-01,8.416185691886829412e-02,1.129397319551039003e-01,5.372584039630898256e-02,-1.238569556658970366e-01,-6.609907320357318039e-02,-2.814764513070530660e-02,-9.974638854163619950e-02,2.029034074483640482e-02,-6.361081956025881057e-02,1.343351264986441251e-01,-1.003119632256073979e-01,3.190214667870225340e-02,1.070851962911343602e-01,7.588240894431089179e-02,6.303114259513889484e-02,-7.095688697677154932e-02,1.070064602241518892e-02,-7.857627575696500555e-02,1.037618360413090357e-01,-4.731447209095730744e-02,1.375787437488124043e-02,-5.249826582266217678e-02,-8.988086626631583420e-02,5.681002649213662270e-02,5.145497918708177854e-02,1.944773568979102363e-02,1.725403480464571260e-03,-5.018772788270561835e-02,-2.897553714264207436e-02,1.461440085465559868e-01,-7.271811628890567647e-02,1.301578609082449656e-01,1.467557415331926796e-01,-1.015233188351454124e-01,8.269956828688551642e-02,4.706001978201979075e-02,-6.102752322083464243e-02,-3.159123480160824782e-02,1.879079106041597891e-03,5.133937025669499388e-04,6.693781936782827735e-02,1.158858360361393613e-01,-9.045224414478270081e-02
-8.322457885291931201e-02,1.435576934832104856e-01,-1.353381560562667285e-01,1.152642408552191078e-01,9.524295593297432694e-02,3.605909040651500419e-02,-1.404959301984069764e-01,-1.782913221527834824e-02,3.526904602377167741e-02,-2.029263359565081082e-02,1.471965199388722556e-01,2.158359251999297790e-02,-6.742029932401827352e-02,1.119650962013823137e-01,8.971005818480096150e-02,1.558853068936078001e-03,1.058406982596406809e-01,1.359671718108939331e-01,2.528527052792831076e-02,1.467784297470593746e-01,-6.569742409173556785e-02,1.494436215515656807e-01,3.782650218156477506e-02,9.541618216568828470e-02,-1.429166724108697217e-01,-4.717247061512470918e-02,-2.089733636826407448e-02,1.090778005523101724e-01,1.952942650759958987e-03,1.340575800155603126e-01,-3.678758297454526316e-02,-7.578729455460889164e-02,8.020974959187654463e-02,-7.180411406679405861e-02,6.599266959130356547e-02,-1.896456709392457807e-02,1.264758290458108669e-01,-1.315070918187469795e-01,2.218679965799413845e-03,-3.903502710500950101e-02,-1.391455044225198834e-01,1.244930093907410662e-01,-7.038456815215644868e-02,5.683039319441807180e-03,1.014869851388076893e-01,-8.138393143546114594e-02,1.172315556155531791e-01,-9.204913597877045772e-02,-7.314203773814809129e-03,-9.905612527253553068e-02
2.965875028228953658e-03,-8.414633823322419104e-02,8.111456775979741796e-02,-5.537737412741305931e-02,1.119818436894824132e-01,6.532723240637505757e-02,-2.711941585777091768e-02,-1.303911859429280062e-01,1.321726794278848816e-01,7.366977957549269984e-02,-4.005177300437685883e-02,3.709565543474616089e-02,4.601618895785175578e-02,3.642725770060761814e-02,7.697519939193397942e-02,5.818998945380637888e-02,-4.227674074105630675e-02,-6.233138172217796147e-02,-8.040958772607720295e-02,3.544871551631240125e-02,9.686882607981181503e-02,-7.471759669808121507e-02,6.932557176453910119e-02,-9.961932319167710048e-02,2.430376852921420361e-02,-1.494219485330632868e-01,-1.359126093392221124e-01,-1.476778584715471299e-02,-7.971413511512855099e-02,1.180722888807203275e-01,-7.616005745512319236e-02,2.043703890290193836e-02,4.841739912526921152e-02,-3.000031686281627585e-02,1.820198783436496881e-02,6.504811152688647069e-02,1.140173129265071028e-01,-6.819131972557759824e-02,1.365852777064852364e-01,8.373614033188980788e-02,-9.807891513905944714e-02,1.256327240432708880e-01,-9.848085919788182596e-02,7.623797767474949083e-02,-1.037046273777167682e-01,1.126492284934250410e-01,6.978062665857481806e-02,1.396939459333272071e-01,2.587257403654588672e-02,2.888633029368009586e-02
4.190233651118410729e-02,-8.808724503461373700e-03,1.104486827414080663e-02,1.129390385425592391e-01,-1.198438645223898202e-01,-1.281162598288552168e-01,-7.071222627913598124e-03,9.743537038664923378e-02,1.241494900289159264e-01,-1.485167182641084493e-01,3.027641276455916852e-02,-5.525123518130857503e-02,-1.055673561438320585e-01,-5.029616695761719714e-02,-1.129201403862248598e-01,-6.496883914766050927e-02,8.720682330644649594e-02,-1.439356887192830003e-01,-3.009492227934643105e-02,7.429643253189585628e-02,1.093222456303841461e-01,-7.327740797412971019e-02,2.462576971002650161e-02,1.238584616332873145e-01,-1.133823941305486110e-01,-1.129814516648126599e-01,-9.814225846423217658e-02,-9.589752686969914286e-02,-1.220831890431798294e-01,2.078312005857391176e-02,-8.785161041046429808e-02,-7.739306415060624722e-02,1.008941586482823560e-01,7.248562001959427126e-02,-8.140022645937770862e-02,3.202955175365196361e-02,-6.519386940940430364e-02,-9.509648261973424610e-03,-4.515352368166426766e-02,-5.097061903135312322e-02,-6.749565660768344633e-02,-6.727271765802440850e-02,-8.005853966414933076e-02,3.154968515981254606e-02,8.537316363594751878e-02,-4.965957299141543491e-02,1.278986768561797549e-01,8.256323996197070803e-02,1.579415684746982018e-02,7.191540777709415355e-02
1.032928156961812338e-01,5.347361840943770650e-02,1.138240545157594708e-01,-1.526467260865116415e-02,2.729357260860940104e-02,-4.398357469503882955e-02,-1.161046620826295811e-01,-8.560789885178581027e-02,1.383573421909744805e-01,-1.430601783090926504e-01,-2.222420274917866201e-02,1.960423737825614521e-02,1.181648815975083477e-01,1.119046320543641004e-01,3.331682170414640431e-02,1.310845382529560454e-01,1.248720916844147932e-01,1.316895074670574595e-01,9.818426854507228407e-02,1.696354800770880078e-02,1.196209873402157842e-01,-1.172862286067535842e-02,1.077739344171438629e-01,3.486482491811923601e-02,1.376894207629750233e-02,1.326062902703398494e-01,-1.422920928453753342e-01,7.716033875217009896e-02,9.684411908909748568e-02,-4.129931407101516960e-02,2.870185248449119708e-03,1.437608812115936940e-02,6.103710846374871268e-03,-1.215008751354013511e-01,1.198312495616537798e-01,8.831196201071755958e-04,-1.495756583981736887e-01,1.127336569296721047e-01,8.098631429537650472e-03,-7.228784276640670692e-02,1.054172803004691794e-01,4.081580787143668232e-02,1.060586702612602295e-01,1.453884127789241976e-01,-7.385968438064993702e-02,4.426627466743826567e-02,-5.408362771995667284e-02,1.137362541888294609e-01,5.198995549653676052e-02,-8.201437656979795876e-02
1.037481351384691441e-01,-3.842114756085693306e-02,2.267123710621560262e-02,1.278523938040988794e-01,3.726719060205802014e-02,-3.407745433305210681e-02,1.288623660086639366e-01,1.545647618072827634e-01,-8.127978282328819637e-02,6.030517967790660627e-02,-9.288780044638754452e-02,4.259859761595263480e-04,-3.509897826263978782e-02,1.416933829571827286e-01,6.357580004751023361e-02,1.419979818243140846e-01,-8.232134578594500762e-02,-7.924752492533287951e-02,-1.323313622068826301e-01,-1.043634401586276544e-01,-1.376403274888289563e-02,-3.207005871540170860e-02,-1.386013321334349235e-01,-1.253062896304936169e-01,3.938124451468273668e-02,4.470544281395982811e-03,5.076704421363949227e-02,-1.453717106621074118e-01,-3.408592983048562564e-02,-4.402558327830985441e-03,8.463916798081515258e-02,5.324178638076138004e-02,1.308974053157777873e-01,1.362864615461700235e-01,1.013452910309824984e-01,-1.295242915786254112e-01,-1.000382778526528738e-01,9.612750386734379704e-02,-1.401065936554708735e-01,1.491147373797745701e-01,1.255658130374292906e-02,-2.508635645205482129e-02,-1.384561239926991594e-01,8.750809829833493259e-02,8.338839542817637340e-02,-3.319273028426525385e-02,-8.815063200185677128e-02,1.389628255022795911e-01,1.172327604170993742e-01,-7.538335446473644341e-02
-4.355273577091278714e-02,-2.561130782547216267e-02,5.799982936986172732e-02,-3.810894635034486888e-02,8.827386069019563068e-04,-1.317594655159855521e-01,1.464917628680093842e-01,1.618828297880619826e-01,-9.459012599886194861e-02,-5.770936642399571159e-02,8.268484418548203985e-02,5.023089924854115540e-02,-1.250167313903340349e-01,-9.935986157697790366e-02,5.020377211651560340e-03,1.076934171999248957e-01,-5.416025984723878139e-02,-1.062585070334874648e-01,-8.155743769897243201e-03,-1.077677502168172680e-01,9.023802851731629882e-02,-1.418503040571578444e-01,1.030246462959698468e-02,5.366325188590415074e-02,-1.000687424369016004e-01,-5.742692500236901143e-03,7.296122528974301191e-02,5.114086289460437196e-02,9.384549768067318443e-02,2.195003496841541057e-02,1.373693575234304354e-01,-5.909722404096401371e-02,4.145601703814269512e-02,-1.107737226753556931e-01,8.043609007125980537e-02,-1.344620578882541051e-01,-2.510125846720887011e-02,-1.178939137125882136e-01,1.367449606103499360e-01,-1.237384210551048247e-01,1.066828424867866457e-02,6.942675267776765580e-02,1.386107193166455087e-01,5.894444985270448634e-02,1.359954934515117120e-01,1.331576898812231180e-02,1.026670432059468563e-01,-1.245764677504007656e-03,6.064334906250579138e-02,1.165625179310191550e-01
1.228688907322865453e-01,-4.754238104120456221e-04,5.640567675464344677e-02,-2.571587111599270281e-02,-8.120673711811439432e-02,1.190998627103321550e-01,-8.912200631815525576e-03,8.863076985432072341e-02,-1.240114947687656205e-01,-5.646575954473584402e-02,3.979389086639481543e-02,-1.342663173792066067e-01,-7.080958222123463763e-02,-1.430968066759379098e-01,-6.113135608918614239e-02,1.098417852885275325e-01,1.522744194012931596e-02,8.704930714799691271e-03,-2.909586370095711139e-02,3.715059382442159608e-02,1.310950220657447762e-01,2.217524325769867910e-02,1.322290978134731121e-01,1.127519871993011569e-01,5.773198118437758430e-02,-9.156059725607476607e-02,-7.291114590004388329e-02,1.104457087722235664e-01,1.411323137482830836e-01,1.424780589017832499e-01,-1.081617120801508236e-01,1.045807898852332829e-02,-8.523302096308078835e-02,-5.209015839958620886e-02,2.396669099655504565e-02,-9.465954003689722174e-02,3.688791438147331903e-02,-1.000020459524460364e-01,-1.381832453067805000e-02,-1.020692499305646816e-01,6.570500611079027609e-03,2.359440154481323715e-02,-1.279994602384063596e-01,9.277527245199812533e-03,-8.415347870190338642e-02,-8.427840737726990938e-02,1.494832535166648879e-01,8.275652427097349162e-02,1.425731161234044808e-01,-5.698684589750030449e-02
7.107892257576275963e-02,-3.439013111267076594e-02,7.689532045345501277e-02,-4.501673421712970580e-02,6.782385237929769439e-02,-9.520726958698236264e-02,-5.163258600205300475e-02,-4.002654069516248247e-03,1.065849059702798363e-01,1.094663866679690678e-01,-8.844474115739964226e-03,-6.754901865758891621e-02,-6.150881653594103549e-02,1.243610836211868909e-01,-1.236764697304491428e-01,9.710652011001208450e-02,1.042378610347301227e-01,-9.768943721955788972e-02,-1.756746700693584406e-02,-1.487032801826056738e-01,1.016851041440964554e-01,-2.412710558212610712e-02,-6.616294034317131423e-02,1.844167094947771202e-02,5.587442001550885218e-02,-1.403752763892738287e-01,3.262841609132649534e-03,2.147172273678080168e-02,-1.433694313301464573e-01,-7.763704191892598083e-02,-8.129643640815716055e-02,-4.845910011765097725e-03,3.174348065862236945e-02,-8.531786521698332681e-02,1.329013197628029219e-01,6.832631887881523980e-03,-2.308466705474887526e-02,5.011657831955557141e-02,-3.180807166341667602e-02,-7.643955907283705997e-02,1.134155672137841797e-01,1.407706677578536569e-01,3.981645170324416005e-02,-1.378939304607123828e-01,-7.584912613654344604e-02,-1.240389657827741660e-01,8.472319021606827816e-02,1.829131376574838486e-02,6.947818140187533853e-02,-5.798510099188909639e-02
1.322581938735412355e-01,3.162429194644655883e-02,-6.269385285274953201e-02,-5.370668978103723679e-02,7.526536923626592213e-02,9.079160079287074137e-02,7.317475868013104123e-02,-1.259553514867111090e-01,9.246687862340854935e-02,1.961461982899226353e-02,-1.112964610139570709e-01,-7.720479478304269338e-02,1.319320210452772646e-01,1.055203393215308483e-01,-1.452849544317847408e-01,-6.722569815444945363e-04,-3.042767284132125161e-02,-1.234933670314061344e-01,-1.378810297152662789e-01,-1.100741048554847168e-01,-1.087960566762859738e-01,-6.695434887225609755e-02,1.473726027741645572e-01,-4.275946398576359331e-02,-4.537909691305683224e-02,5.228065315161473103e-02,-1.013996552671031504e-01,-3.477857659240617128e-02,2.912290573985759634e-02,1.036731431158036398e-01,1.257797707135928922e-01,-1.482751022363610061e-01,9.019871947614085950e-02,-4.463844422286275537e-02,-1.271569593051231351e-01,1.305282536670739624e-01,-9.868420526199464526e-02,-4.631990474833047600e-02,1.333100053769353532e-01,4.692247898024970443e-02,-1.452526919738425515e-01,1.195134981501054516e-01,-1.035221768553768462e-01,-7.948634315600501543e-02,-8.076409765710136635e-02,5.927716788014425475e-02,1.657411369925002043e-02,-9.274200630334669682e-02,-1.318147424881000174e-01,-1.046191341847489409e-01
-1.127838162252658288e-01,-1.368521493484718687e-01,9.117870005713626935e-02,-1.083459201691206186e-01,4.326429302972389923e-04,3.021186924514995820e-02,9.408367934168782032e-02,-1.244500821713206556e-01,-9.093163792479014296e-02,8.728944315275263821e-02,7.456503731726993323e-02,6.619479929684729536e-03,4.942121104562333112e-02,1.497445753635935628e-01,-2.911105779738701327e-02,-1.441567330988147988e-01,7.479916342047432387e-02,1.126497786426264580e-01,-7.758022348586805783e-02,1.306653873621403672e-01,1.966830868060265303e-02,1.490948021325211037e-01,9.922405648643367604e-02,1.407294740708342484e-02,-4.773007643335178130e-02,7.632253071522515642e-02,4.824272651784611288e-02,-1.347680993151194606e-01,6.395235531205323287e-02,1.154772242257626202e-02,-4.125078941004781119e-02,-1.039915229178018652e-01,4.292814136342609777e-02,-1.190174017051577882e-01,-6.317891991702254129e-02,-3.653620496598117273e-02,7.818016677184994045e-02,-9.636460806469179796e-02,-1.015770915675821007e-01,3.915772560596780805e-02,1.105117255405208276e-01,1.470649917062346324e-01,-6.870614931207383314e-02,-1.199562757423213166e-01,-3.851107431500001843e-02,-1.321263210360885954e-01,1.291888347008886273e-01,-3.321189049715489450e-02,2.493864944444759701e-02,-6.759147719776262275e-02
5.145535626386243955e-02,4.512817897487922392e-02,1.379015153729104270e-01,-2.063179946801838027e-02,6.939388255542541795e-02,1.662805294125119238e-02,1.479161273433848012e-01,-1.376449217955988957e-01,6.326520086286840927e-03,1.250039987605839065e-01,-7.528587996073128619e-02,1.187331388433774115e-01,-9.883166456355689522e-02,4.431593065621242111e-03,-1.150932236093341471e-01,-9.153373485244140073e-02,-8.734301578999832671e-02,3.800968760975256822e-02,-1.367921943509425031e-01,-1.204029559657738141e-01,-1.486795795394497688e-01,-1.390673009651572090e-01,4.278535332867433594e-02,-1.235200869573742088e-01,-3.573729102353451204e-02,-7.212076775910207516e-02,7.331354355924607491e-02,5.892556154076641906e-02,1.251841305837888829e-01,-1.028214501430314842e-01,-2.504502161262558979e-02,-1.421012329349727321e-02,-1.382651823957306569e-02,6.080487361655034784e-03,-6.640368646285678411e-02,1.195060367073930152e-02,4.633273276366298155e-02,-3.497992076545722306e-02,1.335045977720017152e-01,1.364053838204511704e-01,7.442726864685247912e-02,2.542519590054201362e-02,6.680481830069104343e-02,-1.135468209297126330e-01,-1.256605289191490282e-01,9.881787605873826319e-03,5.986767750245491904e-02,1.467494890632844995e-02,-1.922975488818445822e-02,-4.171420911344231319e-03
2.578579636400418762e-02,-9.115547862296097259e-03,-6.560811249404625844e-02,1.276812750416440323e-01,1.103971392725000833e-01,-2.514334287640887511e-02,1.490053213323045689e-01,9.431935969309890311e-02,1.011974014102870467e-02,2.005641222312287697e-02,-1.031744127976672032e-01,-1.159054027936052000e-01,-7.470838858658655768e-02,5.128687576764184852e-02,-7.036891973967934755e-02,-4.704919739094010067e-02,8.759963041365695369e-02,-2.033722436056595306e-03,4.528972302297434860e-02,-1.228665978810364739e-01,7.110694778491438717e-02,-9.734568677452437591e-02,-1.185828035377531758e-01,1.058703763024278766e-01,7.212633386924346968e-02,-7.103280658793166558e-02,3.607442603541560766e-02,1.323961279684084114e-01,2.947555484737332532e-02,1.200186106987200241e-01,-1.780630107240641080e-02,-8.799852500454874438e-02,-5.910522290493039343e-02,-8.604390975181970547e-02,1.446574161191689079e-01,7.034720226728685688e-02,1.432319654907036888e-01,-4.744315269308180261e-02,1.015985216972441763e-01,1.224432880754090236e-01,-9.336197601763501774e-02,-8.862670771443476037e-02,-5.664682299171691637e-03,2.985742414702288738e-02,-1.122954515762522448e-01,2.155374566035397899e-02,-1.463566295242701154e-01,1.465364331667750319e-01,-4.734614096540543104e-02,7.515061725468533127e-02
8.593678465599471905e-02,7.022261971990723106e-02,-4.510203525720736517e-02,-9.663762878696816050e-02,9.137520202301077643e-02,1.026994092789120516e-01,1.179606725815841306e-01,-2.762006235975095203e-02,-9.730892532066048872e-04,-1.466870470172449148e-01,3.038719800226491463e-02,-5.125714744862924777e-03,-1.256038020761571228e-02,-1.004083815642388133e-01,2.371913167356956564e-02,1.448720449962694612e-01,4.364624387324006483e-02,-1.046227240532185687e-01,-1.386292957894900701e-01,4.285754601703137268e-02,-1.270437225312796570e-01,-2.057835530480112141e-03,-6.326510197050819184e-02,-2.552430304260749905e-03,-8.373014373759736506e-02,-8.747408876040874137e-02,6.600242735583988773e-02,4.704073433151972905e-02,1.202978660243248787e-01,9.602603213455029874e-02,7.325574976877288758e-02,4.748612190418521894e-02,-1.096033906281784071e-01,1.354682221338645298e-01,-8.656228010182466515e-02,-7.168855519720795932e-04,4.921950093299948259e-02,-6.403230241280831458e-02,9.948712118305930163e-02,-1.239804767216816928e-01,-6.733959943170014784e-02,1.131457887236610171e-01,-1.265281929652970760e-01,-1.343412607261619818e-01,-9.165705624855188804e-02,-3.968925549375509898e-02,6.058610573084999285e-02,-1.064715900842172491e-01,-9.198464251551408122e-03,-9.991261889727010015e-02
1.270597852823348306e-01,7.859809208909612765e-02,5.500800947787820583e-03,6.759650498996716550e-02,-1.654909747383886964e-02,1.234424092623291058e-01,1.499903043817456261e-01,-6.076178298781655107e-02,1.382052803465918245e-01,1.226794249079944665e-01,-1.318326700690704290e-01,-1.464094540428245994e-01,2.147091276598786513e-02,-1.289497365089378456e-01,1.063916242995513184e-01,-2.566131339030565395e-02,-2.367150017316405064e-02,1.151811426270227534e-01,-3.672093085040410709e-02,-7.162611094896298436e-03,1.442286631920962903e-01,-7.771862468520385203e-02,-8.975205236146124865e-02,-6.963045063522299571e-03,-1.815668654501595425e-02,1.347480634462287774e-01,4.021798135170687183e-02,1.199417269414135012e-01,-1.693448009708692359e-03,-6.718006302819752584e-02,1.131519558441916595e-01,-5.980399989655157955e-02,1.213331720950478199e-01,-2.535220106487040548e-02,-7.465515745114043034e-02,-1.542907901394080517e-02,-8.003685176222932740e-02,-1.369474853730516251e-01,-1.029914954797828130e-02,2.175801050542769399e-02,-1.403164238498270933e-01,1.846350639285082584e-02,-1.172764249867580544e-02,-4.631383647931303083e-02,-6.404246693181013528e-02,-1.287273390969810583e-01,-3.264411140592168858e-02,-4.532213504549099936e-02,9.118700192890849543e-03,-1.128575682306754840e-01
7.132515980781384268e-02,-9.945197342015305031e-02,6.583991026303032124e-02,-1.083752892550150504e-01,-9.047912663160088964e-02,2.800552525163341189e-02,1.017490513739518765e-01,-1.451878636308303883e-01,-1.600776654009383737e-02,-6.107403371974298723e-02,-2.551067223747810475e-02,1.150926108083860921e-01,-1.208286809542411522e-01,6.084895611359716905e-02,4.034198429331078972e-02,-5.030207575175080215e-02,7.941353080559693245e-02,2.276543796465110847e-02,7.613374360979971445e-02,1.503603521830185197e-02,-5.311152000087411562e-02,-3.237943199083426205e-02,-1.005817989706554172e-01,5.010031408673662479e-02,2.847524903148915265e-02,2.231048577330421723e-02,5.281676775380872435e-02,1.432852458409607788e-01,-4.292911164177251604e-02,-3.883026776285186665e-03,-7.583103048130106216e-02,2.934019937637857844e-02,-1.233303513932385714e-01,9.847721335817558042e-02,1.075371712380440714e-02,1.034798541457349896e-01,-1.155417918580125547e-01,5.583073633758856014e-02,8.555119637064015348e-02,7.166268061250050114e-02,-1.374433326078568218e-01,1.117287972832886889e-01,1.574262329579306785e-02,-4.256458356667754128e-02,1.141755268921242628e-01,-3.361018442742395862e-02,-1.479386308838799013e-01,-5.816511558547034222e-02,1.126832238575218581e-01,-3.481784515199121133e-03
8.960368002549229383e-02,1.093955266443134844e-01,-5.666900138091689187e-02,-1.954876480038081343e-02,2.308144968261097163e-02,-1.297124303044075444e-01,4.853494214155151809e-03,1.158854439148413185e-01,-3.020019322190850564e-02,-3.763332848921370488e-02,-8.830442165543936350e-02,-1.423019824510421139e-01,3.796558263224467100e-02,5.185229675687899609e-02,1.370059092546552504e-01,1.319513641247182234e-01,-1.457081280372225784e-01,-3.402439591566169819e-02,-1.201115176722955952e-01,3.027228171571211268e-02,4.847714989603213454e-02,-1.198503615616891421e-01,4.783699873810851044e-02,-8.027890094993578307e-03,-9.806155516320677612e-02,9.795007800479918481e-02,1.321500553527793498e-02,-9.802506431795204866e-02,-4.284647597532942331e-03,-1.177698745276485326e-01,7.048681667413844720e-02,-1.204844031719005670e-01,1.307234808859874808e-01,-4.164461083073235648e-02,-1.268982962399060332e-01,1.057596057584165583e-01,5.188916547624125575e-02,-7.670637799231146137e-02,6.727764160583882269e-02,-1.308032956623910725e-01,1.215742677561917895e-02,-8.444224297796201761e-02,2.282866561488283708e-02,-1.153200672651132075e-01,-1.064585849266838358e-01,-7.176072151479613581e-02,2.827047771527557707e-02,-7.658901446648405664e-02,8.174928861126823376e-02,-5.705670525114622804e-02
-1.350739285362128339e-01,-1.206883198817341463e-01,5.592866292023401797e-02,-3.036565671725888205e-03,1.370538708861350485e-01,-2.395937299948236454e-02,-1.345210542568120171e-01,-4.626224799934633425e-02,1.141395340822434490e-01,1.067415532618726515e-01,3.017276135013682858e-02,3.074410185910186888e-02,-3.344701846536976553e-02,7.593154643909633128e-02,1.155442169658278673e-01,-1.176175329869030284e-01,-3.577229925851127534e-02,-1.002787190582840882e-01,-5.358509235480896082e-02,8.675878635061143318e-02,-1.129220916950960385e-01,1.069362972711897231e-01,4.041849083963761080e-02,2.887889143905164602e-02,-7.758808054451615810e-03,-1.808196649531362832e-02,-7.849507238353824190e-02,-1.022241339332717047e-01,1.303688419457599001e-01,-5.655083240648427212e-02,-7.450311164877905512e-02,5.407398752400879860e-02,1.337225789897390771e-01,-1.847690254837552892e-03,5.387610770811940286e-02,5.986485405045119390e-02,-6.997281688553541601e-02,1.897930184068780113e-03,-7.198974429297816391e-03,-1.015760454033545479e-01,-1.025072461291166304e-01,-1.224962257586863501e-01,-9.383788687562437392e-02,9.918491043761817894e-02,8.100798719180510310e-02,1.008105943425497697e-01,7.703393867003222040e-02,-2.216872614445877798e-02,-6.159395925758576196e-02,-9.311925462042516810e-02
-8.914491618500719472e-02,-1.017169210858316630e-01,6.480675998432861018e-02,8.092402596675371540e-02,3.333225632425362850e-02,1.130533882355080066e-01,-5.222633895818702687e-02,9.026124751075670360e-03,-1.451683043092132086e-01,1.965972649242350712e-02,-1.463801486721233724e-01,-9.254179945213225622e-02,-4.529423515493515018e-02,-7.300535924797085796e-02,1.367501987798352692e-01,-7.764652371862801328e-03,-3.803647049002698011e-02,-1.358871434499272224e-01,-4.865657888146786292e-02,-3.949946521998454196e-02,-1.366065313239777645e-01,8.260767294640664060e-02,9.771544147005931102e-02,-1.371072747890801913e-01,1.275911965649106916e-02,-1.038458389146614258e-01,-1.307641590971846679e-01,-8.745661943132802818e-02,-4.738622487969318398e-02,6.188667785421769763e-02,-6.446578215212525609e-02,1.428587984671757793e-01,-3.947134184222994557e-02,-1.260852254041582576e-01,3.855994223106931629e-02,-8.635448864786994527e-02,1.267566288498706006e-02,-2.338643678725679798e-02,5.480608211646761929e-02,-3.328214794338418825e-02,-7.550086328847831207e-02,-5.671910029385884844e-04,-3.345086055211884957e-02,-3.297808749458883137e-02,3.745514938092001089e-02,-1.002248800875864820e-01,4.190170112721314233e-02,-1.158462575842766074e-01,6.585790182545755989e-02,1.394340352704679098e-01
-6.780927595334075575e-02,1.014082323079453507e-01,-7.345697175163973247e-02,-5.606437529130474384e-02,-5.524956017247786844e-02,-9.390414527273088785e-02,9.102571463441341826e-02,1.291908103490191639e-01,-7.012013674481883119e-02,8.833959839814162218e-02,-6.588326336829603003e-02,-1.076829338270723774e-01,-9.518120333998825178e-02,1.095051228788314901e-01,1.300281440681676781e-01,7.395683526960752929e-02,-3.261602086132095457e-02,-1.181395698491786161e-01,-4.653998905386259877e-02,-5.114830780299374491e-02,-4.924878140497211676e-02,-1.274710460513560073e-01,8.442053993130185785e-02,4.231066710304481893e-02,2.267449570246454771e-02,1.308176071630422210e-01,-1.396755555126299730e-01,-1.358984117930832070e-01,1.394986330345050207e-01,1.151135592352264814e-02,-8.104303208020897931e-02,-1.458419700014467468e-01,1.362881419230008995e-01,-1.169616905427006692e-01,1.263204065934378784e-01,-9.693775802688335552e-02,1.396922299812794477e-02,-5.936304903491664009e-02,-5.668527714521269523e-02,2.529715119504655219e-02,8.233038940823000917e-03,-7.076648764244569678e-02,-1.775918727034633826e-02,2.410455247518433763e-02,-1.027057408260068916e-01,2.981880974928802219e-02,8.569634907354714559e-02,-1.090496433590049663e-01,1.336656972600175630e-01,2.586001226823381183e-02
-3.802553326689261937e-02,1.314558212580360375e-01,4.636869066567966824e-02,-1.209667111963758923e-01,2.428363162806529418e-02,-6.164702674870643773e-02,1.382765254185693571e-01,1.159544233155162807e-01,-3.932828658666381871e-02,6.968872529896233403e-02,4.625550320849575181e-03,-9.640226876820584545e-02,8.354797808071606768e-03,9.608332415489717615e-02,-5.308185891552169577e-02,2.249649761503066947e-02,1.101826189551847468e-01,-7.877166678228327001e-02,-1.912897683924019709e-02,9.198128079305020743e-02,1.124174933070705984e-01,-1.020342302925607014e-01,-5.059259276934534311e-02,7.555268499381265213e-02,-1.324064128855631517e-01,-3.338964342453012990e-02,-2.059680485278403417e-02,-4.896193615351258910e-02,1.180525615549002094e-01,1.913644328612396084e-02,-1.230484758967480274e-01,6.410004307541738999e-03,-3.912994261776828187e-02,-8.718432078835265664e-02,-3.885326670390200354e-02,9.159630434610130378e-02,-1.393315858002841801e-01,2.042031624634951803e-02,8.039523434742906760e-02,-1.328819100266098174e-01,1.945750667913062615e-02,1.236805110300235599e-01,-1.216247151997876252e-02,-2.999106401103233954e-02,-1.460299361426185827e-01,6.974189999297941700e-02,-2.754448311632304303e-02,1.059360367631377031e-01,-2.418186841278832655e-02,6.591229765052497580e-02
1.237008131620908891e-01,1.358197198004947592e-01,-1.547774662525069900e-02,1.371660384847639691e-01,4.956398196504532838e-02,-6.245458067591265483e-02,-1.204771294994393671e-01,3.986796357223987286e-03,4.626969700746128011e-02,8.845665282982403954e-02,2.900619364422998836e-02,8.836319873116282864e-03,-4.346229794198996910e-02,-1.236262168176825854e-01,1.532888086691097662e-02,-7.536423242910754439e-02,-4.426135197252369091e-02,-5.652547711502868555e-02,5.133995878389141510e-02,-8.619103002676743730e-02,-6.745072247205552429e-03,2.846491325527378269e-02,1.231770915093376162e-01,-5.691186919978247216e-03,-1.456073217465330416e-01,-1.278380808157307258e-01,8.334668063943048710e-02,7.798844779361879809e-03,1.112543965347655706e-01,8.416925691514676178e-02,1.143795550570378405e-02,-1.184801303860498617e-01,-1.423937899238338078e-01,-4.125775156174806002e-02,3.571774675851444036e-02,-1.322576043454321559e-01,-2.432584662178546853e-02,-1.337816963931523218e-01,-2.933919266418733018e-02,-3.509782023332461143e-02,-5.850901610795085361e-02,-4.347421140529240946e-02,-2.052849231256759222e-02,1.473003721933423271e-01,7.818392367279741739e-02,-4.923753980369506567e-02,1.205013815926089804e-02,4.636972479682721637e-02,7.382335026230868458e-03,1.403342261952225944e-01
4.676635231542874971e-02,8.422746438919390122e-02,-2.885811644984637159e-03,9.614535876062466069e-02,8.401576458232917766e-02,-5.521257772992575752e-02,7.974960003557285404e-02,1.226050533826344713e-01,-1.314778727090831767e-02,7.958967148244261436e-03,-1.337230076410974300e-01,1.396394396141731331e-02,-6.550789298096312829e-02,-3.335071947114465196e-02,8.673780745602877040e-03,-7.804065450359948253e-02,-3.565755868861505973e-02,1.169191613041163647e-01,-5.018529237716834457e-02,3.386426545371171160e-02,1.227689891372553965e-01,-5.080505088469135233e-02,2.945834609246070213e-02,1.846799740451701699e-02,-1.345833032512433469e-02,1.239385396052125610e-02,-2.647890254518422970e-02,-1.051711294442433664e-01,-7.866604838650166631e-02,-1.228831301419827243e-01,-8.103933177750599626e-02,-6.885997910135668865e-02,-2.528035724307889365e-02,-5.147182957949429649e-02,7.805347188102690348e-02,-4.618707699647568721e-02,-2.307228746947148634e-02,-1.741809592942181184e-02,-5.502708455331366266e-02,1.899024652466796415e-02,2.773814729361540055e-02,-1.424790671591625590e-01,1.733623561909436450e-02,1.323933713498494369e-01,-5.416243882981146285e-02,7.821953337898804315e-02,-1.218845843768087966e-01,8.401165471028082532e-02,-2.782798532049764184e-02,6.876393880012227067e-02
4.416757714243657595e-02,-1.697018545750128560e-02,-7.666749333572753233e-02,1.594913386349208761e-02,-9.311841770692969034e-02,1.018104168047247737e-01,-1.297707957670053147e-01,-8.422887348885650660e-02,-1.497850159739401443e-01,1.408803824533998161e-01,-6.196226194150424027e-02,-1.306860308187191289e-01,-3.622591675543031242e-02,3.732561244989657245e-02,-8.076069587459988597e-03,9.667850587409668184e-02,7.967739604978152368e-02,-1.083445048655508891e-01,2.413270398274411366e-02,-7.661169809459300595e-03,-1.025441906414063242e-01,-9.789975924026209086e-02,-4.338671520842517226e-02,9.696448920738937050e-02,-1.252124310135742657e-01,4.598691650678157772e-02,-2.583805840296317380e-02,-8.541270084556810971e-02,9.964685168272202631e-02,-1.126708886444777458e-01,1.312827657408558168e-01,-7.441862485086429835e-02,-4.496164169174968195e-02,-2.773126649003092303e-02,6.652338746784874912e-02,2.556849707961228457e-02,-1.404481149700045062e-01,-2.940829113202696188e-02,-6.791234643690595429e-02,-3.172310628115716791e-02,4.315268666554805677e-02,1.356460826546506404e-01,4.745405495729720924e-02,-9.315771300863927296e-02,-4.254670445348938956e-02,7.027916228763964046e-02,-1.862503966427486723e-02,-1.123285298697269952e-01,-1.296734918375890833e-01,-1.021377490136605171e-01
1.383327124547529541e-01,-1.222841429920666634e-01,4.944885396706455438e-02,1.157093571958303646e-02,4.726529112533905952e-02,4.158253038115228284e-02,-1.377499090251809999e-01,-1.451624360856204332e-01,1.477662845937284530e-01,1.497482107455428146e-01,2.269606158737544344e-02,6.968376374568502341e-02,1.910682210326131170e-02,1.765312428206616824e-02,1.374689788532506840e-01,5.545864922657534057e-02,9.573541876239666237e-02,6.493084692937603486e-02,-1.178514408423777249e-01,3.367548873149925348e-02,-5.134210733420115080e-02,-3.328393142386529280e-02,2.965492788111601108e-02,-7.582864122379208427e-02,-1.396405228562520029e-01,-1.830483367680041384e-02,-7.265129844912437962e-02,-7.687866326774840664e-02,-1.284975872580337020e-01,-2.128389928537371967e-02,2.017856041413701451e-02,-1.184587623773485782e-01,5.697079104906108138e-02,-6.548646144912768918e-02,-4.853763703876552704e-02,-7.233866630603895398e-02,2.663855453643534932e-02,1.210741317956473828e-01,1.334980855153485579e-01,-6.358979313693419178e-03,-5.297726620045402346e-02,9.492426217198307592e-02,1.393945985876889615e-01,-1.490226901643920687e-02,7.205142368939998487e-02,-2.484189587481835937e-02,2.821190906940887477e-02,-1.041076837340008943e-01,9.897086215348455118e-02,4.581043434060044772e-02
8.423166796515577093e-02,-7.628659812850509259e-02,-1.115112704585348447e-01,3.902087925043606909e-02,-2.040225726198904854e-02,1.221944004518846216e-02,-5.683883502296625811e-02,-5.415418973616066556e-02,-6.719129486253858086e-02,1.065633890596558719e-01,2.517751367547549357e-02,1.131432587623591723e-01,-1.337460019825996160e-01,4.464367351225340119e-02,-6.487498837133751084e-02,1.197426738416796088e-01,4.429813310024566242e-03,2.853923146206185923e-02,-3.531363491610102490e-02,4.943330183079600038e-02,-8.931568964953062739e-03,-1.115577448497763052e-01,1.296443081356555005e-01,-1.109876890051517406e-01,1.217711692912894772e-01,-7.832750156340329006e-03,1.020863040498093677e-01,-2.324920325522916720e-02,3.912983862410651659e-02,-1.601884141826062646e-02,4.610541040626892073e-02,4.326636482322729349e-02,6.181766656670023563e-02,2.227319997602369983e-02,-2.573518930063239951e-02,-5.641846968492482406e-02,2.860628398451511845e-02,7.936594275648553576e-02,-9.443538370064234744e-02,4.514604213904524488e-02,-1.807698652539185824e-02,-5.444999419599125257e-02,-6.471550057173831860e-02,5.446581772107655928e-02,1.144714879457362222e-01,5.855758647490427737e-02,-4.383405962905408126e-02,-3.414625064838512636e-02,-1.119055327719798709e-01,7.123108119504978353e-02
-4.319564370767831063e-03,2.124462835154466989e-02,1.314337108075423755e-01,-6.200927406563794264e-02,7.038432228075451602e-02,3.609403602813088252e-04,-1.070240730547555724e-01,-1.165049025539030975e-01,-1.332665920750747933e-02,-4.633216431412418013e-02,-1.694657472106770452e-02,1.046766182036283077e-01,-1.195199169528468885e-01,-3.206020587734892402e-04,8.450865993795950160e-02,4.791695628962210768e-02,1.006260097569820489e-01,-4.188176597888032537e-03,9.214357967575025066e-02,1.341086669043098194e-02,-2.636420690004633721e-02,1.129687052156307658e-01,-8.602759078229614553e-02,6.792896576002334375e-02,1.137501656952816520e-01,-1.480491841212789039e-01,1.646365179096975773e-02,1.165644790241355533e-01,-1.124037019158026646e-01,-5.282525813936642112e-02,-2.778759110903769938e-02,-1.425069452411493465e-01,-8.223402284212055768e-02,1.229883862149417084e-01,-1.187773653387476369e-01,-6.026642847113700130e-02,-1.287129701079328115e-01,-1.236846595613899646e-01,1.378521535797097852e-01,-5.420089694414094439e-02,-9.277800634707278338e-02,-8.038745755172715945e-03,4.659320746551470771e-02,1.324048613271766039e-01,4.565794560533367741e-02,-2.324863239734833997e-02,-9.371609995854068842e-04,9.360331535367501232e-02,2.844577175647680645e-02,-1.255613072121342100e-02
-8.636680795623206952e-02,-5.264771987364802452e-03,-1.062969490335824441e-01,-7.467603983471919615e-02,-6.118622831345443651e-04,-4.981900734479073611e-02,4.431419804473182844e-02,1.375912705320986029e-01,-1.411194949056695791e-01,2.913756737322822921e-02,9.943615055284831666e-03,9.883110092682835524e-02,7.110967943164181460e-02,-9.365486684415862129e-02,-6.433370523870174384e-02,3.501802456237153999e-02,6.393173456871836802e-02,-4.253194298343393465e-03,-3.377978322374591662e-03,-3.154571177429642270e-02,1.797692529752694876e-03,4.659767313196300220e-02,1.135882962315735295e-01,2.219762528147323916e-02,-1.337925874072018739e-01,1.123248271007754318e-01,7.739039033928843403e-02,2.288964659387647191e-02,7.474662252814785746e-02,-7.817505193892237969e-03,2.762764126723182140e-02,-2.990954229259359942e-02,-1.171703197408605623e-01,-1.097672803300321076e-01,-6.315471469383461545e-02,1.380293693579753012e-01,-7.935589321511454797e-02,-1.168150230919905441e-01,9.732832965249680821e-03,-5.955111403477848786e-02,-8.262533274903048619e-02,-1.154193789071754211e-01,2.575426001218328320e-02,-1.386347455962116948e-01,-3.285401037996139861e-02,2.647676726233810784e-03,-8.036378133778350474e-02,1.227994909674235274e-01,-3.514804418547497200e-02,-6.191170279623028905e-02
6.317922903362944986e-02,1.194759702295442212e-02,-3.513717852245022699e-02,7.803057518706039974e-02,9.229883069243582927e-02,-3.992091438258300179e-02,2.864732078561588180e-02,-1.217766126487284523e-01,-6.285335885308073779e-03,-7.486465090281799184e-02,-1.406863076043054772e-01,1.237651630803288244e-01,3.258137631407459489e-02,-1.404133933363607423e-01,-3.699734482281964026e-02,-7.792251951342808736e-02,1.167950515715123067e-01,-1.376030206269857059e-01,-8.491258586856324786e-02,-9.146467983306734439e-02,-1.291963184741760362e-01,-9.384116938633019211e-02,1.086512304759365971e-01,-1.988429522562546597e-02,1.355539128857779496e-01,1.282302963461478817e-01,-9.350098337442597218e-02,-2.317283139305171408e-02,1.045558612669774678e-01,-1.371598734929023455e-01,1.450147745542926525e-01,4.818187575568621400e-02,1.482184654079750641e-01,5.643146271820093270e-03,3.093564400983501647e-02,7.557409993478312379e-05,8.513696971654541312e-02,3.060414064975686133e-02,1.140918870439016214e-01,-1.327296853144181166e-01,4.133501018532851484e-02,-2.776578818652386191e-02,-6.819299739562155460e-02,-1.778932275608194682e-02,-7.334565515688026838e-02,-4.117841499340527123e-02,-8.055737061825828105e-02,9.534032902851104219e-04,5.283946835754316229e-02,-2.617743365998792537e-03
4.353327739350373177e-02,-1.093503464754535109e-01,-9.455332560025223043e-02,-1.472842218267547687e-01,9.665729174085523068e-02,-1.205700843958399104e-01,-1.419059358324452902e-01,-1.399201855252593940e-01,-9.294413140239497773e-02,3.044328029831870272e-02,5.475583488741601890e-02,-5.358658994781761303e-02,8.821805702735305288e-02,9.923395326459434618e-02,1.216004812548233081e-02,1.134214692170905370e-01,-2.708882347604911825e-02,1.182890276956089642e-01,-7.110479948977440311e-03,-1.123117838559061082e-01,-7.940461790951762466e-02,-1.458580004548231668e-01,4.974852093014453872e-03,2.733408265950596633e-02,-3.365960934486036948e-02,2.854248739987647054e-02,-1.142860734545302487e-01,1.082968543902136094e-01,-1.512874815272087781e-01,5.399691739450429573e-03,-1.226577765721825058e-01,-5.613358123457793530e-02,1.627702916846920922e-02,-1.711132981784037679e-02,-9.483108647113436263e-02,-5.290715844020739411e-02,4.946566502149194605e-02,-6.390061578064876180e-04,9.689042686394433446e-02,-4.951213106684701319e-03,-1.191215102327500691e-01,8.251057210908079032e-02,7.001951200274381115e-02,2.480638289615498537e-02,9.392372547156761786e-02,1.090374868105881134e-01,-3.171357241350726552e-02,1.260684302827999037e-01,-9.993101082464161955e-02,3.975427993243085822e-02
-8.480096558438002252e-02,9.735545925528471534e-02,-1.070742659366507865e-01,-6.884945372648262896e-02,-1.460615549830268090e-01,3.181032613498495365e-02,-7.985784701317756584e-02,4.068097821744985632e-02,1.866549451511883987e-04,1.469109915127573551e-01,6.498110223238830717e-03,-1.119969812746694215e-01,-2.197850709238866052e-02,-1.100948044287679145e-01,4.115721021928681750e-02,1.081425523621812601e-01,8.323551554589546375e-02,1.198077411839089945e-01,1.150067149468326777e-01,8.922716093573845875e-02,-8.751752434552180493e-03,1.079191874683269325e-01,-2.720391112876710191e-02,6.527040501886671731e-02,-1.317304313497871526e-01,-1.252565291333523345e-01,6.930943137321736447e-02,-2.885889189993998127e-02,-6.528194608133755517e-02,3.883474832564109969e-02,4.387158584703033243e-02,-1.280340116171635803e-02,-8.028244922891830671e-02,-6.327915009417608982e-02,5.330649271349094040e-03,-8.942942761203220847e-02,-1.896479537398782986e-02,1.326219763412520014e-01,-1.163048700502039429e-01,1.262970002104871758e-01,-1.436206580332415571e-02,-1.644120947567496993e-02,-4.275553211692070810e-02,9.814226516806247649e-03,-3.918436673214594282e-03,1.008363952318866996e-01,1.311111863780486664e-01,5.211698325781256164e-02,-1.325630644399337366e-01,8.461938105984753711e-02
-1.333091795758903630e-01,1.443389358062565075e-01,-5.936257687699397767e-03,-7.761963078446543207e-02,-6.512204848989337118e-04,-1.458920803211601058e-01,4.098323045413727189e-02,7.776775534634416259e-03,-1.053798405738052557e-01,-9.036637916506756740e-02,-1.166195931568530519e-01,-1.328095679969051868e-01,1.444717410351942233e-01,1.431954531323353652e-01,8.664262569977347617e-02,4.154357666008320210e-02,-1.377561448968149527e-01,-9.838578654988554273e-02,-2.645979760194041436e-02,-4.436047589759180114e-03,-7.581492395157139741e-02,9.791652514528560725e-02,2.693736463329931066e-02,-3.156494771349356923e-03,2.246822151659365677e-02,1.214311179094512416e-01,9.830217118695762368e-02,1.130319990462937824e-01,-1.554943198483705463e-02,6.141016606092336572e-02,-8.256829881366631319e-02,-2.647050395746012447e-02,3.302292278112410606e-02,-9.169030608716388642e-02,-8.613135139225570891e-02,-1.072334084454957537e-01,-3.842977216139503022e-02,4.760688925299227242e-02,1.368499639020406833e-01,7.178253010041553417e-02,4.696279786217272267e-02,-4.545643427132458995e-03,-1.027939958637748702e-01,7.886495840343832331e-02,1.751442356135962386e-01,2.350387694457177490e-02,-1.155624887695920755e-01,4.284087852134849106e-02,-6.394953087546365045e-02,-3.387867566879083914e-02
1.555532180575695290e-02,-9.882022794528294574e-02,-8.986212724617541336e-02,-1.129188450696596568e-01,-3.897443369989196660e-02,-4.081965412689710082e-02,1.497797519398453257e-02,8.408886498341279492e-02,4.369647821608327320e-02,-5.096266539503662568e-02,6.492229188225609460e-02,-1.264489398568727496e-01,5.048304190917111967e-02,1.269803450171826109e-01,6.795674357998868209e-02,2.672880555564091307e-02,-1.041907845419089707e-01,6.846003299755099025e-03,-1.090564640739255658e-01,-1.514877622137044133e-01,-1.670102649102616840e-02,1.155636713773683238e-01,1.414524312097108771e-01,6.561533060051383259e-02,1.379292310789929088e-01,-5.725792629424573954e-02,-4.284423880968397241e-02,2.688299433348426831e-02,-1.236453301890580031e-01,-8.276340794700066950e-02,-1.345187937240515386e-01,2.560456932217418380e-02,-6.256870782112557150e-02,5.290886151715454289e-02,4.946047590034046565e-02,-6.933106019422607957e-02,-8.530220110855191162e-02,2.682880304372903951e-03,-7.814752107520825386e-02,-5.912753563606196888e-02,1.239803105522561261e-01,4.952005094057927714e-02,-8.115591956369676285e-02,-1.222229110912314010e-01,-3.386386769995081147e-02,1.047654908336465573e-01,9.805609343569367253e-02,5.079834028730912700e-03,1.211306017797570550e-01,-8.060337734222906836e-02
6.427448719135346600e-02,-7.554979791379513865e-02,-5.169497653841002849e-02,3.119238693842829938e-02,6.389791676828421307e-02,1.411627461564218533e-01,8.942271203886936748e-02,1.476709256106277859e-02,3.617061785836710869e-02,6.234016836298122977e-03,7.921596707881116417e-02,3.663648704632208042e-02,-6.067288595961102191e-03,-4.484560166142260995e-02,-1.644865023041274243e-01,-1.155384705464146400e-01,-1.289272742915181513e-01,-7.212511390524835309e-02,-1.132973498980501398e-01,-8.586513847499936680e-02,-9.347491805869387327e-02,-7.278874795584798496e-02,1.382144087640513608e-01,-9.495214971793367043e-02,-7.763546271581786562e-02,-1.232007145192199477e-01,-9.903212890058368800e-02,-1.469877758985055904e-01,-9.686965633956007987e-03,-2.818450428550473008e-03,-1.336559226080119012e-01,1.371121250553390958e-01,1.396771782631978931e-01,1.123515693025993190e-01,-1.761943781914972543e-02,7.142951703448133238e-02,2.957216885651318267e-03,-1.417426803864842433e-01,-1.044581620524531046e-01,1.259017499828490039e-01,1.367539679532234487e-01,-4.302353152231096906e-02,-1.438298856329410791e-01,-9.294967133552199667e-02,4.673365484093386368e-02,-6.932935550587349116e-02,7.545751364758299107e-02,1.239928505146720705e-01,1.103599839055924986e-02,-9.258455536561124855e-02
-6.552998879962604328e-02,-9.701664994815270560e-02,-4.480125322085027478e-02,1.658983323920322772e-01,1.186364943181021786e-01,-3.575217501286643423e-02,1.006107899450552901e-01,1.026386480807804646e-01,-1.695986437506316266e-02,-1.338561472579433698e-01,-3.740761277670125173e-02,-2.120525279992358306e-02,-9.536676394698287429e-02,4.622221654344916414e-02,8.662634320947484867e-02,1.129771453182888685e-01,1.696864487413547382e-02,1.129848851896686490e-01,-4.979749030120484560e-02,6.612180844424861426e-02,-2.286730040594118617e-03,1.314212746561939094e-01,-9.175107382293624936e-02,-1.284006425661914086e-01,-2.433346143378807211e-02,7.909047803710558822e-02,-1.549205310586774520e-01,1.620598649741759184e-02,-1.428319252580686483e-01,9.128442722983276178e-03,-4.041474692237360250e-02,-1.209256613772315830e-01,-1.031156354420535992e-01,2.137334029109433722e-02,-1.124775439630290585e-01,2.209275699950340177e-02,-8.845471232796679739e-02,1.237038873420425039e-01,-9.167435440097693178e-02,-1.985802307481358484e-02,-8.383298027425145627e-02,6.825210908380630048e-02,5.110752099639579576e-02,-7.607224465440289018e-02,1.277740232912821516e-01,-9.540253219052283185e-02,-1.421597453587644388e-01,6.293255855387169806e-02,-1.256160800501358032e-01,-1.158098079802871438e-01
4.865326251579352862e-02,5.290518161282478649e-02,6.193536949655201185e-03,3.495870979460428268e-02,1.847068042383480033e-02,2.363638729241874722e-02,-1.021528503719651565e-01,7.519882010002072736e-02,2.870757185468379366e-02,-1.300327382855890612e-01,8.588369954368474390e-02,-4.774888053247934583e-02,1.309770386636267547e-01,1.099514599631974676e-01,-7.880206720844500079e-02,1.568565335787519555e-01,7.335846829194885531e-03,-2.434568194722943821e-02,-6.928576198922171796e-03,1.515976525359329918e-01,1.003216730033235820e-03,9.567956988755361991e-02,-1.322267972677929337e-01,-4.883915711116320474e-02,-1.213818905634233419e-01,-9.163326731257302737e-02,-1.362287118328624758e-01,1.224217602710265668e-01,1.346948284070043078e-01,1.516907642955467664e-02,-5.395288849873147372e-03,-3.364065906583374455e-02,-1.282285449694911261e-01,-9.237573452413866404e-02,-1.898055399003508725e-01,5.116620231762888243e-02,7.304274599999385775e-02,6.490595919498431954e-02,-5.516686376123365598e-02,-1.061248293811106608e-01,-1.184476344911409434e-01,-6.940143946365193162e-02,1.491074688703555029e-01,-1.416871663979977491e-01,8.878084780628990591e-02,1.317866146564837249e-01,-3.531917388995301638e-02,-9.881817852078512987e-02,1.159975287703979147e-01,6.787594769199084555e-02
-1.219807712530543778e-02,2.432374822699762129e-02,1.165928908599516978e-01,8.625951854508867589e-02,-1.530957559378116339e-01,-1.211893490368549375e-01,1.314395672765782397e-01,8.912610259026806925e-02,-8.395173709082092220e-03,1.547448174595586132e-02,-5.112307087290887675e-02,-4.695204433980876280e-02,-5.128537342236681729e-02,1.285729239431095683e-01,1.164163847392980788e-01,-1.177934749125383457e-01,-1.784872079819202484e-02,6.279464203386025956e-02,-1.479881042951043928e-04,-9.283680617166591154e-02,-4.008357974109817701e-03,-3.831241622713086464e-02,1.257251983447368604e-01,3.144203115663259107e-02,-4.860702028274822839e-02,1.189786669719457984e-02,-8.526609835866388876e-02,-8.134503911654249186e-02,1.846301958222879014e-02,3.883974503027501357e-02,2.681173696340801230e-02,-1.228882766713439156e-01,4.710436092027385502e-02,-9.048881967107347268e-02,4.655877983205293502e-02,1.381179276090959036e-02,3.791856861658473438e-02,4.006372059525414864e-02,-1.303915231886326465e-01,-1.046971777014321786e-01,8.627355932085671586e-02,-7.697295305586845937e-02,7.024453019553485167e-02,9.307303775508134203e-02,1.110516454479120452e-01,1.019452856235263105e-01,7.178125219446408745e-02,7.497669639867822478e-02,4.970695303957514688e-02,1.175523192481203877e-01
-2.771942018720116932e-02,4.910681102509629331e-02,7.536584384938151138e-02,6.197415813975200305e-02,-1.219043927863939364e-01,-1.440657515080467355e-01,5.469791476814339637e-02,1.288308158029836392e-01,-4.140634647575288339e-03,-5.815517537966747447e-02,3.142639932394127728e-02,7.962792188385924008e-02,6.029434977490894659e-02,1.876840670257687305e-02,-7.692188834123067642e-02,-5.565633906614541465e-02,-8.819952437223742281e-02,-1.155288551558198429e-01,-4.199332830871143479e-02,5.435538844319300067e-02,1.293461092619943853e-01,-7.597894154731570093e-02,-1.030389485868093841e-01,1.046336548073875522e-01,7.530444030382914267e-02,4.448168974883660171e-02,-8.138307202892824943e-02,-4.671882145743762142e-03,5.509229877382140067e-02,5.856780130374583671e-02,-1.417226274223153670e-01,-1.294619563317539815e-02,-1.330356061650190824e-01,-7.750273769441839988e-02,-7.716029271852450910e-02,6.514545803477411745e-02,1.348988631865544185e-02,6.854108953905871382e-02,-1.974147796691699819e-02,7.023625662600699315e-02,-2.501917451791963246e-02,-1.337593255461701214e-01,6.144001353658557624e-02,-3.771164228801623247e-02,9.068430029788233926e-02,6.854481254270501644e-02,-8.118794378315477567e-02,3.247997434917117288e-02,8.550898662100955838e-02,-1.183262017623441936e-01
-7.324469426379749681e-02,1.396626365648209467e-01,8.513916813085083135e-02,4.501538188368728322e-02,-1.240429074878991039e-01,1.012724429040800511e-01,1.168999621667849015e-01,7.345878980261660862e-02,4.223072545914598880e-02,1.319524101566756646e-01,-1.932627935544157377e-02,3.411253477858296190e-02,1.160127040335432042e-01,-9.902670210703594378e-02,1.174342126347541621e-01,1.332429202951090630e-01,-4.376705838107029095e-02,2.290598751678998846e-02,9.688665866423737394e-02,-6.063784821468948955e-02,8.309095030112849389e-02,-1.465623940430038630e-01,-7.992706369172412895e-02,1.471542312368078476e-01,-2.254632723075047571e-02,1.472639216345153143e-02,-7.271498656565149321e-02,9.098348509944652329e-02,-1.074514973769667425e-01,-1.462539766130488139e-01,7.161777635835142597e-02,4.974186747350483467e-02,1.313002203145739455e-01,7.529584228412361524e-02,-7.586099528465771805e-03,-5.921279274896138617e-02,-5.825908280931321043e-03,-6.617326811144608190e-02,7.803487190471596058e-02,7.310895416795415436e-02,8.031947902141652051e-02,-1.298910662847379827e-01,9.033644658170185415e-03,-1.138486009115931563e-01,-6.544462653758209569e-02,-3.855533707178833425e-02,1.752913326045197132e-02,-5.643829771405307894e-02,7.970782046600902171e-02,7.948544344864300060e-02
6.617194924865568706e-02,1.233819999533258549e-01,-1.520065449621194054e-02,7.480064910576128545e-02,-5.717291830875488590e-02,-6.878745054695555028e-02,2.100576448603433746e-02,-9.414557071873022598e-02,-1.248201660274727565e-01,1.324044119210201209e-01,-1.053352260564972137e-01,1.492533718095778450e-01,-1.018024413893088287e-01,-1.979985581546104319e-03,7.827971393331337180e-02,9.751898553546133053e-02,-1.252747423321627918e-01,-7.001084596715957675e-02,1.383084735008030253e-01,1.407746632836507361e-01,-1.386978818370870059e-01,-1.441929953700510081e-01,1.477781419993977052e-01,-1.272083218353905198e-01,-4.463465004827642246e-02,3.254245525053494487e-02,-3.610607533499534533e-02,1.262499317966769008e-01,-4.904254634978688632e-02,-1.455662440906398125e-01,6.084057765616090324e-02,8.961160332525533456e-02,-6.576592407225165249e-02,-4.783124121561498771e-02,-3.629781550417527421e-03,-6.092338663966680168e-02,-6.768017706600275296e-02,-1.096218162050846129e-01,4.424739181936810511e-02,9.739350045385641863e-02,-1.958377775886894351e-02,1.098147289139753957e-01,-1.329889712152881043e-01,5.413543331452682489e-02,-2.404326679164164524e-02,7.375554788225908986e-02,-1.051966808157346611e-01,-7.029250561269913267e-02,1.026348911771172712e-01,8.884553097600736415e-02
-2.961701941884191738e-02,6.751774279327898975e-02,-9.302758033887462141e-02,1.167218982815395323e-01,-9.022526258997616566e-02,-5.710482889333851064e-02,2.110619930555159007e-02,-3.770494716581619665e-02,4.179255737472971355e-02,-8.560189817948649083e-02,1.495806923559653452e-02,6.190843799051267554e-02,-5.025962714313193802e-02,-2.802249873020213819e-02,-2.651834624698306761e-02,8.896464793476756283e-02,-3.092476178675913727e-03,-1.384182034544932105e-01,-6.453128810718776476e-02,7.479352445200250499e-02,-1.279596692111833467e-01,-2.543118834675742179e-02,1.304701497344042671e-01,3.070577750896008248e-02,-1.212827256122563958e-02,4.535905774464546111e-03,4.758059413087313561e-02,1.235949253644179069e-01,7.318268208125232321e-02,9.572462319525215646e-03,2.271625909362147075e-02,1.300848298640771283e-01,1.130444904997550543e-01,-8.673043809737060461e-02,5.868771453347972761e-02,-1.060620422522089712e-01,-1.368165609955934447e-01,-2.239492424371641865e-02,-1.203727015807274647e-01,1.453709880084801120e-01,5.967350577802671419e-02,-7.323367503415177671e-02,-4.186345719236760077e-02,9.814973518819988807e-02,1.064076063888341750e-01,1.004202059841646094e-01,1.174596686322696565e-01,-1.453630980998496525e-02,-8.063022669215022531e-02,-1.060513066119087577e-01
-1.164617703297719242e-01,7.296927182240681153e-02,-8.743388124442608156e-02,-7.334546923039658717e-02,5.990301716190649106e-02,-7.969171077920314539e-02,1.371702469637052502e-01,9.937954275512994942e-03,1.355539490743278841e-01,-1.488458283203704206e-02,-1.298674810705751637e-01,-1.318883899211837629e-01,-3.749710528610757099e-02,1.056288606004493341e-01,1.222995081543427898e-02,1.262850272977238120e-01,-2.907622221643288429e-02,9.463840819540592086e-02,4.506360699705650591e-02,9.941180311440923900e-02,1.901285648950991683e-02,8.486940245811538941e-02,1.418671543280891900e-01,4.019550575050975794e-02,1.458433136594343704e-01,1.346242062243652449e-01,-1.084279202227315664e-01,3.139626109781148283e-02,2.382333413686625948e-02,7.377567629912842873e-02,9.281819984960468228e-02,6.830144032607132765e-02,1.191341797885960702e-02,-1.079266613013175474e-01,5.590769084802297423e-02,8.170169260620496754e-02,9.074676706895767886e-02,-9.929149454172678246e-02,1.454969236692665036e-01,-3.677367167383352453e-02,-8.743421739911751145e-02,3.251438658128154996e-02,1.195049212032255059e-01,3.665003812385790594e-02,9.169737211117141851e-02,-1.180454552988368933e-01,1.462347904479664729e-01,4.516166038584870646e-02,8.681005903761981890e-02,-3.085587110634512020e-02
1.303884833023531420e-01,6.623471392504090560e-02,-1.039124652962720718e-01,9.942279456534616755e-02,-1.023707920764747037e-01,1.470339652494582483e-01,-2.114517214082796068e-02,5.734408852514419341e-02,6.560668593329321840e-02,1.453934948745680689e-01,8.900719027553785634e-02,-3.877951068100616433e-02,-2.368570770211879048e-02,3.144341942335572571e-02,-7.108380822315442382e-02,3.656833896927300098e-02,8.333293631011481906e-02,-6.747795951814031246e-02,-3.278604320889354218e-02,8.485182728969248647e-03,1.000127911088595639e-01,1.374937430250311732e-01,-4.554602515263540818e-02,-3.967099614168929922e-02,2.866389838148495836e-02,4.055383632569045660e-02,-5.401705976950127441e-02,7.869748559816809597e-02,1.422042099367445411e-01,-8.950122455776132746e-02,9.597757300670778369e-02,8.769129289945423733e-02,-5.444437320367636474e-02,3.391463338244621317e-02,7.715644759582669654e-02,-2.796729317856037553e-02,3.603015108918979081e-03,5.452122684443900386e-02,7.101301985488636670e-02,7.867932056502949245e-02,6.982526262621871482e-02,-2.535712384094145067e-02,-8.163740966915954134e-02,-7.009613960009976330e-02,-7.833450148401534252e-02,7.765608581914398845e-02,5.890399266804947215e-02,9.375411193818855571e-02,4.242686912599427651e-02,-4.139153525626156072e-02
3.398514446499786412e-03,-6.296124196711107290e-02,-1.151549103756180220e-01,8.479954387520718950e-02,-1.161416975585885664e-01,4.457734615814044898e-02,-6.306264906221249744e-02,-2.447432103976729389e-02,1.327535454366897960e-01,4.098949475878455040e-02,1.224242902494928481e-01,-1.011177878113301599e-02,-6.483287710157974171e-02,5.477418868891236609e-02,8.985498809408634657e-02,6.397009356941620040e-02,1.089178674428321059e-01,-3.329545386302146248e-03,9.347046486568602597e-02,-2.072696097724807673e-02,2.317324618814423261e-03,-9.707870310952187998e-02,2.318664459679740247e-03,1.478894744615530041e-02,9.142928536355091063e-02,7.702843459871033804e-02,-4.930511005657371715e-02,4.932840387436069479e-02,-9.344108701758740976e-02,-9.158193561121574788e-02,-1.235021677140873131e-01,-1.126946738930667269e-01,1.733080551421462695e-02,-1.714710452510154193e-02,5.636518476639470338e-02,-9.434854645885995539e-02,3.744084106168844156e-02,-1.117335391322188676e-01,-2.545452969892947337e-03,-1.264761656627320652e-01,-2.007330856435735143e-03,-1.993687529780102663e-02,4.618279594855642656e-02,1.436095678447379953e-01,4.562517132612228798e-02,-1.096750286785697359e-01,-2.244574843867450098e-02,1.214833564696576884e-02,-1.094618114657575081e-02,-1.376340460385987730e-01
-1.013808204653531136e-01,5.834673200717960251e-02,7.038933650212139681e-02,-1.480892665892866167e-01,3.828678114875899707e-02,-2.117714663597727864e-02,-5.915620387963842208e-02,-9.310410310725433791e-02,-1.127289714872361237e-01,1.300128814290072155e-01,-5.694779603646733801e-02,6.177861109740945267e-03,1.486498359804597214e-02,-8.158809434440288111e-02,-1.056065726048001086e-01,1.448400192370560557e-01,8.273147704688074699e-02,-6.662353198888151806e-02,-1.186804127537048059e-01,5.124219983293840097e-02,-1.294361754329787229e-01,1.486675627974493041e-02,1.094455035596207659e-01,5.203478266713601474e-02,-2.322187222560548325e-02,1.055068547489365904e-01,6.067233119106435479e-02,9.071176754495205441e-02,1.459474204752021220e-01,1.788464172115147854e-02,5.926665793307417385e-02,1.358923518039274192e-01,-5.425779931479102203e-02,-1.187251098085823631e-01,-8.973079035587352981e-02,-1.004339412359977896e-01,9.230670990347800142e-03,1.189059296086381057e-02,1.128819669130849690e-01,1.041165143819250682e-01,1.216123806215178849e-01,-1.056322348437532810e-01,1.073841017723773106e-01,-1.465376606095692702e-01,-6.134659391723709665e-02,1.433212785421370261e-01,1.324504591923421348e-01,-8.939122294629631149e-02,1.419591685896897937e-01,1.164619806111087674e-01
1.186666488006619946e-01,1.159341141351237503e-01,2.089197494352695861e-02,3.038906855695153175e-02,1.393630989130172637e-01,2.364080381815983345e-02,-1.187727826579221269e-03,-6.601738615316328496e-02,9.619416222541282702e-02,1.378294552891459468e-01,1.130332013675627578e-01,1.185476843497438593e-01,7.593094337628863988e-02,-1.431991818532956928e-01,-1.147289745961388996e-01,4.893608877868507734e-02,1.431817285695513586e-02,5.842264144894895872e-02,-1.221167580318480717e-01,1.041941311579242246e-01,5.908914343824769877e-02,-1.183584773950821373e-01,-3.189026457965560279e-02,-4.900584744251289260e-02,-7.857373878463176642e-02,-9.474541164426800166e-02,5.792622602297670120e-02,-3.729630560958713259e-02,-6.825287035367658128e-02,-4.182048848792722928e-02,-1.368462268068444954e-01,-3.646152199110959391e-02,-7.475529990405474501e-02,-1.215945347013314970e-01,1.112510709980433499e-01,4.784952171706483015e-02,5.007368520441768389e-02,-3.128359401547931018e-02,8.419992040745274964e-02,6.842923911170312179e-02,-9.725667891225708850e-02,-1.364053072481958839e-01,5.972875749452025151e-02,-1.379022619111894832e-01,-1.491466670034363728e-01,1.284699216503944197e-01,5.374980023216441305e-02,5.960239683130172383e-02,-1.019021201276909400e-01,-5.223688678915255901e-02
1.435888475008046672e-01,4.112189904119092909e-02,4.174350500691398347e-02,-1.223575660953368782e-02,7.654990841472827934e-02,-3.659932399277909809e-02,-4.018023395776186557e-02,1.297541041058389022e-01,1.340568072423164725e-01,9.101883613158517905e-02,1.105240129927368142e-01,-5.711784839210068410e-02,-6.616885098456266878e-02,-9.313428096085560326e-02,8.834218276388755564e-02,-5.653193401211902003e-02,1.230372088903719796e-01,1.325218523319567077e-01,1.445126808441093702e-01,-1.784422851845757219e-02,1.232422776259979036e-01,1.479703787023325945e-02,-7.737582565765005471e-02,7.086226283402125015e-02,1.087149738909356234e-01,2.741504534728989029e-04,-1.031821662263669170e-01,1.297655756580079756e-01,1.042335278866844683e-01,1.184810728808040892e-01,3.330491776137906035e-02,2.352703104090617114e-02,-3.487662491574497481e-02,2.622371155406227894e-03,-5.218561567050501726e-02,3.787524980529657914e-02,2.346028424719978633e-02,-1.750871821480282087e-02,1.455636559020667964e-01,6.593623479068502768e-02,5.332732439494175525e-02,-5.481896191584538502e-02,-1.047398677031394221e-01,-6.147284220279936040e-03,-2.488527912127774799e-02,-7.223280489716429886e-02,6.050345799434583838e-02,-2.248158864788019073e-03,-4.432188973336922966e-02,6.857280370499577171e-02
-7.513629288035456044e-02,9.826130117352513405e-02,-8.043410769817140038e-02,-1.060136687045933612e-01,-9.474968988656876090e-02,1.072591737785035526e-01,1.517013744130579767e-02,-2.605973964782480612e-02,1.241997268088160522e-01,1.006735015441807823e-01,1.109465968678050862e-01,-7.254292312929838671e-02,1.474800978782264682e-02,-1.355550347785804688e-01,-4.886968840942214343e-02,-1.586367344873731988e-02,-8.608410834267284095e-02,3.141469842450139716e-02,6.786452660132388792e-02,-1.392572718403882193e-01,-1.396153349460005355e-02,7.026481684283172879e-02,-3.075845665925999728e-02,-2.122895379705694308e-02,1.270592963515653484e-01,1.442526798691327328e-01,-1.105653007946880428e-01,-3.984568132561150389e-03,-1.034238074550396791e-01,-1.469177841986279154e-01,-5.207365142032426009e-02,6.579472638620423308e-02,6.285964735812749060e-03,8.398829278965205813e-02,3.694413307703009464e-03,7.971732820141602671e-02,8.825891623547343912e-02,1.262366757772522552e-01,-1.065758866738877320e-01,-1.159182735086246585e-01,-6.456070045485086395e-02,-1.046828740663180435e-02,1.446768325146325085e-01,-5.484479086684655724e-02,-1.398507844011378232e-01,1.121666388180534157e-01,-4.588297632851374985e-02,-1.389310464503842324e-01,-5.994947732221060643e-02,6.159883870085550162e-02
-1.354104220113921953e-02,6.331592593686036219e-02,-1.445119863320168119e-01,4.470190186461636683e-02,-5.748570244369127780e-02,-8.820401395025512237e-02,1.470243433517424425e-01,-3.965687142825492784e-02,6.929301080060568108e-04,-7.356962119055723837e-02,1.004071028123413034e-01,5.842419459736850063e-02,1.903046400984587105e-02,-1.171790310863331519e-01,-1.457442964259011153e-01,-1.395743027383388457e-01,7.806730607201350924e-02,-1.061439286778539937e-02,-1.641320998669765219e-02,8.258282647042530789e-02,-6.742247411835168569e-02,-1.044476129355010191e-01,-7.311185403697914587e-02,8.546114001916269021e-02,1.071492718993466153e-01,-1.360774928946579532e-01,1.399799435082380861e-01,4.398607911405336135e-02,8.920304861568931210e-02,-8.951079432903488731e-02,1.181847450012843692e-01,-8.277919625034019235e-03,1.079661228606577927e-01,9.243823491445524176e-02,-9.581009971874343556e-02,1.059247206316493439e-01,-1.098757944625308458e-01,1.000971860669420399e-01,6.617063885060894823e-02,1.340562140493860854e-01,-1.027042442168383252e-01,-1.226936493465604766e-01,-4.155804703771183439e-02,1.265549007725704500e-01,9.936974880018711875e-03,-4.443253144184554360e-02,-3.185276376808474086e-02,-8.210057484589555754e-03,5.011265926306157636e-02,4.000661012533746064e-02
-6.098047681030122069e-02,4.021614089851399676e-02,8.535186086184168297e-02,1.394084091709369699e-01,1.407793062223633151e-01,-1.398128467274875886e-01,1.090712752086928361e-01,5.123624728065884204e-02,3.849020474308839646e-02,-7.041331239928466657e-02,1.092782788593168186e-01,-3.883676774861427594e-02,2.012686009064007520e-02,1.272653466797387389e-01,1.052494540389772026e-01,3.381932082138749962e-02,-5.920478278113361359e-02,8.164749698496234775e-02,1.435992176024640521e-01,4.562609846103490852e-02,-1.218555952306606543e-01,-9.454106761629360589e-02,-8.360835465263921629e-03,6.949090924583900541e-02,1.240183766902044904e-02,5.493785229887637733e-03,7.238130847477558527e-02,1.385782474485355575e-01,-1.133944297651752475e-01,6.203130044719210034e-02,1.237621093659805604e-01,4.731469850601391358e-02,-1.250837217433591608e-01,7.084672920035003929e-02,-4.811972738438037578e-02,-1.825567332067509763e-02,-1.153621729297941712e-01,-1.377416097016700147e-01,2.585125983217445578e-02,-5.407422874021433623e-02,-3.026663945222829444e-04,2.580288186028953379e-02,-1.294869189568782497e-01,-8.936184151045006852e-02,7.989669419137365725e-02,-1.248549687172392231e-01,9.365907443974344493e-02,-1.278523532228350024e-01,-1.403808832700136899e-01,6.813493037169637834e-02
-5.288687128536463666e-02,4.568007783532201938e-02,5.429600319982072487e-02,-6.824915973124619228e-02,-1.078486363399415449e-01,1.489428195265397881e-01,3.991712804042296669e-02,-4.767732392817160270e-02,-1.419792239222266439e-01,-7.257613433921841772e-02,5.693099959104166996e-02,1.528534127434588719e-05,3.151813297849545559e-02,8.516312567487410723e-02,-6.272469192918496417e-02,2.784058174232856286e-03,1.240624744658311018e-01,-4.371752121700434035e-04,9.925248651075482820e-02,-1.009851557167666114e-01,-3.853259044831330860e-02,2.514031050367177000e-02,1.180053360804788898e-01,-2.447826990264476144e-02,-2.406681133294119590e-02,1.037363931364884972e-01,6.755798024275483371e-02,1.074186035212141010e-01,1.627903892945603559e-02,6.152593245458459759e-02,7.730128721256665503e-02,1.429182455949369046e-01,1.763555568362334958e-02,-1.386880926635786770e-01,1.394794050920080963e-01,8.479281489177029063e-02,-4.601283363553680672e-02,4.722980163302303858e-02,1.069284913987506858e-01,9.961607047122686409e-02,-1.138208028302519215e-01,-1.289399226333781401e-01,1.478737427788098524e-01,3.054059733090225270e-02,-1.050850638233163103e-01,-4.778764289531989284e-02,4.418582969370915547e-02,-3.884148620434943466e-02,7.655691845997547595e-02,6.456071350275788268e-02
-1.968567998519521467e-03,1.131528453180419558e-01,1.033388220031440652e-01,1.291849405745996993e-01,7.166339233521243357e-02,-1.076868945685436341e-01,1.392776425345698399e-01,1.044099017760025949e-01,9.013939372424814578e-02,-9.467597169271091406e-03,-1.270643322411042775e-01,1.096014834826302964e-01,-2.448675480205525501e-02,-1.186257888958183737e-02,1.238863259592893062e-01,1.238919691563852843e-02,3.615875137012941609e-02,7.180843657292232396e-02,-1.530760654617252525e-02,-3.004382026757720925e-02,-1.426977349102183934e-01,-8.093636794917598298e-02,7.106696402249612632e-02,-1.409262697419289001e-01,1.254264062081509035e-01,2.775130567670608395e-02,9.967210953694979891e-02,-7.993457711737167459e-02,4.623421010667178033e-03,3.514535603447960233e-02,1.402605966436204221e-01,-1.412255674240122938e-01,1.441181111561751493e-01,1.071518342052804329e-01,-5.630872030409572737e-03,-1.364430780658881792e-02,7.703699082338721915e-02,-1.057944782948429252e-01,9.233796165709845516e-02,-1.025473138598916867e-01,1.231536023649383582e-01,-8.242461697871639181e-02,1.082319729278841403e-01,-9.600928667282515594e-02,1.382760478198274134e-01,7.885765521587051463e-02,7.385313982656460663e-02,-9.573556588809037371e-02,-1.128531563040822971e-01,1.294467819863564240e-01
1.235519988050578777e-01,-7.211515789810636623e-02,7.204177304187051045e-02,-1.437559765483858720e-01,-4.714954574522665226e-02,1.043735826629926811e-02,-1.361152523191324903e-01,-8.339452099290585452e-02,8.514459313852748568e-02,1.258528441136871068e-01,-1.344747826077273278e-01,5.664841931024596280e-03,1.198469600854297767e-01,-1.294147045748545999e-01,-2.509451436612955555e-02,-1.213323399901941463e-01,-5.797674424052823294e-03,7.320369453012465222e-02,1.381798167157518575e-01,-1.465036648023644028e-01,5.795671773058076043e-02,-1.046400527464961955e-01,4.001627043589957994e-02,1.228200441064945386e-01,-8.983605430226604405e-02,4.998323949954307927e-02,-5.604713445850997844e-02,-5.036301133826095316e-02,-8.711504788624056805e-02,-1.464653544892645931e-01,-7.024355110688626502e-02,-6.121883491144138045e-02,2.788528589569081936e-02,8.339017362645195774e-02,-9.329111775775127124e-02,-3.077555891450711734e-02,-6.643739761792787080e-02,1.319536248885935514e-01,4.334465801071976654e-02,1.300729097812776125e-01,1.391263669665388503e-01,-2.199027448190699063e-03,-2.277695057752315844e-02,1.140946521415051734e-01,-6.607435171022569415e-03,-1.496949860677562749e-01,1.360626815795996369e-01,2.658451411535625586e-02,-1.031200133223909854e-01,-5.880616569459214127e-02
-1.491976222443558153e-01,3.652172888863908229e-02,-3.562457237581798108e-02,-1.194976236163030336e-01,-9.057173053293186837e-02,-2.109498389170494370e-02,-1.278803779362324144e-01,1.346742606755235994e-01,9.934461184631404596e-02,7.978066907262734708e-02,-3.668256878190695458e-03,9.800876002974054368e-02,6.662627678375510065e-02,9.640757370224481426e-02,-9.339554051431794846e-02,9.784759097873518829e-03,-1.347910035458009526e-01,-1.487739791995651428e-02,-1.403896217063147212e-01,-1.460111769330066644e-01,1.133575836154412098e-01,-4.038606748900537557e-02,1.268988666371490270e-01,1.951824692502751590e-02,-1.266302340438359431e-01,2.911461092141742757e-02,-3.599314595200743538e-02,-1.058428114690390665e-01,-5.458182764855587510e-02,-5.133751810214183531e-02,-9.192456058789627571e-03,-4.459954375431197937e-02,7.108502075265885067e-02,-3.843018184020388639e-02,-1.082478696903071969e-02,1.111045462992182042e-01,-1.191326299282378792e-01,9.561813062308291422e-02,8.259273376593642690e-02,9.870545516350337500e-02,-1.319047898016824649e-01,1.345848643820655999e-01,3.058882200356394243e-02,3.513229197245867907e-02,-6.056194192411150368e-02,-9.396399782855101301e-02,9.735841733752217952e-02,-1.132526903122900580e-01,4.870300664224846976e-02,-1.120123888758579461e-01
-1.301478186014673188e-01,-9.718519292322998215e-02,5.038188269352852217e-02,-3.866907700053927310e-02,-1.405780417778015323e-01,4.843740746054175927e-02,-9.470627427458991332e-02,8.629269898986163811e-02,1.295027596497032030e-01,-3.001056392785533822e-02,1.349920541839382537e-01,1.464879149628361098e-02,1.480952679862775345e-01,1.018458487999329420e-01,-4.783419987266734896e-02,-1.387046536418682641e-01,1.503721884474859827e-01,-1.561478120440012995e-02,9.227910598275973486e-02,-6.443643666619862376e-02,1.510165262482328075e-01,-4.570419997348387081e-02,1.401042286367956968e-01,6.732011240110796768e-02,-1.305496688948329653e-01,3.227025107934683446e-02,-4.485927406337919532e-02,-1.104204772581749150e-01,-3.812111315146013424e-02,-6.282311395036593860e-02,6.528777714918752861e-02,4.104443840838742363e-02,1.309299754533128635e-01,9.564496753366347193e-02,1.034784039301862579e-01,9.104603321549342709e-02,1.302946922159599619e-01,1.408161075102749571e-01,-1.000498865713076307e-01,-6.367832519355089149e-02,-2.286103525688393256e-03,1.392989907026943031e-01,2.670714069409307889e-02,-8.010706173723698698e-02,-3.831226242442221756e-03,-3.521095360650056127e-02,6.351944157750270825e-02,-6.676591219916989950e-02,1.369973341445499260e-01,-6.900381395046403799e-02
-3.466766335162551390e-03,8.556587611770079260e-02,-5.461205301251929010e-03,-6.284336575008017678e-02,-9.223163236441367374e-02,-3.059956192944046117e-03,-2.550969805861799666e-02,8.986136795339966232e-02,-1.463961833377347144e-01,-9.238963723267414052e-02,2.377400046524437774e-02,1.606633765739441666e-01,3.335730938246045385e-02,-1.258085122497534236e-01,-6.040469080367177890e-02,3.132477671527521268e-02,-1.047308772432090501e-01,-9.245937267176172758e-02,2.161290984590190367e-02,5.312617628865277247e-02,4.020778728400138408e-04,1.368638606039654371e-01,2.002318038524444899e-01,3.761073143543032515e-02,8.491731513106655360e-02,-2.222348801623130754e-02,1.442489658752001873e-03,4.432614040856145549e-02,-1.809671671749381663e-02,-9.009274450598225847e-02,9.811725276902631687e-02,1.242243544051477994e-01,-9.533842975928684405e-02,-4.459147852600715833e-02,-4.740039272374600710e-02,8.402221987900848621e-02,1.263948436731956136e-02,1.309763434006255278e-01,1.450442293639419566e-01,-3.158443781534855249e-02,-8.898346883890122239e-02,-1.340341630726751276e-01,7.037990911239626335e-02,-4.673900061211306439e-02,1.243850720037596030e-01,2.359985003778956522e-02,-1.141193562366571296e-01,1.013855605013603833e-01,-1.043594758049321974e-01,-1.183095594200197082e-01
-3.591945311548576381e-02,-1.547266544052371823e-02,8.419828762120390442e-02,-1.654304945583610648e-03,-8.985735272614539526e-02,1.065610624229588743e-01,9.947397736511280619e-02,1.384864584635764340e-01,4.963904218675251750e-02,-1.149987516005287619e-01,-1.513937149963444917e-01,-4.099634446062815074e-02,4.098020223687982855e-02,-1.154564510514060754e-01,4.079790310071438469e-02,6.478298518115122029e-02,-3.369853621201668575e-03,-4.606661067844777802e-02,1.367023325527838215e-02,2.071609756189096360e-02,1.306271118351358396e-01,-3.865445404278456537e-02,5.332893715514161470e-02,2.782371981082819301e-02,-1.457103881495550868e-01,-6.623065695128087238e-02,1.581869207754175721e-01,-8.515532559051021411e-02,-1.282824744260597227e-01,-6.843644470323413664e-02,4.208164943343602193e-02,-1.637205768254586594e-02,1.422687340226994890e-01,7.315293618839795869e-03,-1.679390914742233398e-02,-1.932660721762338024e-02,8.642496005534827663e-02,8.675637236355615567e-03,3.817220324648052526e-02,-8.795680219762694318e-02,-1.312870481444808057e-01,1.173977316826530816e-03,-6.012752591167479926e-02,-1.303768809351757152e-01,1.495587480304302452e-03,-9.146604125386882667e-02,6.478768201552145833e-02,1.391085125125060204e-02,-1.229669086893510205e-01,-2.318473522538849405e-02
1.247278302500671870e-01,-1.628851829736213674e-02,5.595841514945618100e-02,4.781128858372198781e-02,-1.141934838453495804e-01,8.830427489530280616e-02,4.921306106372852485e-02,-3.210231576568241263e-02,2.875523185534305595e-02,7.668298050098373841e-02,8.458082686367750236e-02,-3.762131518229923366e-02,6.269900028454250540e-02,9.453000441328397729e-02,-2.113630566712563011e-02,-1.075006263889534686e-01,1.436082182646797045e-01,-9.520315952576419161e-02,-8.373535038451562773e-03,-7.471266920456461069e-02,-5.525148661293355357e-02,2.822454399002346029e-02,-7.415667779598697495e-02,4.841692079878254923e-02,-1.199367227584523070e-02,-8.196167485130630148e-02,-1.401806561046339272e-01,1.331256369476893804e-02,1.226188834376006620e-01,-6.793776203323048657e-02,-3.199926664159970235e-02,-2.011267884740087358e-02,1.434200986813301271e-01,9.003953949636189780e-02,-2.446926684921754344e-02,-8.320569455329376862e-02,3.792094298463158375e-02,1.072573695235781721e-02,1.394913920777257343e-01,1.430021221868314207e-01,-4.186767180793945359e-02,-9.873252536268688206e-02,-5.782160622874590178e-02,2.408983775721001280e-02,-1.180985933034624236e-01,-9.000915735365370984e-02,-2.290077575943988419e-03,3.417798784244197724e-02,-1.139410637950383082e-01,1.149332181962683108e-01
-9.767554037177482440e-02,5.605199916676109617e-02,7.153067111834139624e-02,-1.104799321851263755e-01,3.051191208303541402e-02,9.612601222057395867e-02,1.138207358745568359e-01,-9.439080522779187687e-02,-6.711404171463000723e-02,-7.930642975878184064e-02,-1.444231023986480844e-01,2.710538370707437847e-02,-4.145340541465832029e-02,6.274731985005747859e-02,1.159288752703085540e-01,-4.869553342744227520e-02,2.660377767632924814e-02,4.078659487787768267e-02,-1.089914091331755097e-01,1.475742915210909445e-01,5.465146743719493522e-02,-4.057552798766327767e-02,2.481974044701796833e-01,-2.183505676809414930e-02,1.225427339841047569e-01,3.085542763964213564e-02,5.628965692039750689e-03,-1.216311068349729546e-01,1.653566909838227045e-02,-7.761827256325187427e-03,9.985054559855757739e-02,-1.020615726377287376e-02,-8.963882938317006832e-02,7.765973977398142603e-02,-2.708887537157242398e-02,5.344881014858658685e-02,-1.595174197924223158e-01,2.789863923866156559e-02,-1.600529271641698281e-01,7.025964840587992088e-02,-8.647034622865919229e-02,-1.370719459585317823e-01,-2.130940627683476987e-02,-2.968903301774040993e-02,-1.246255744104957236e-01,-2.618820618002632578e-02,6.744375446517514305e-02,-1.358930784804587288e-01,5.164481570217029777e-02,1.295674745392141058e-01
-1.040306663242254737e-01,1.411446174956987668e-02,-1.634369005418733201e-01,-1.552728771753991363e-02,-1.696926507638155390e-01,-7.151787942305073975e-02,-7.385124690671427024e-03,-3.399103084785001089e-02,-9.724637413616657455e-02,1.172004577357252525e-01,1.271314857096823292e-01,1.299977024906059375e-01,-1.524559347515067331e-01,-3.092031304137471057e-02,-1.238461984761707602e-01,-2.544999723851524079e-02,2.516263012216159861e-02,4.073530035480420197e-02,-5.508757860825093389e-02,-1.163216309923236214e-01,1.214019724658053911e-01,5.184331806832906397e-02,4.051843270337354697e-02,4.604387644631754983e-02,-1.350998301813440550e-01,-1.559749664143155650e-03,6.021504604861708382e-02,4.467903364809869271e-02,-4.123707847699146362e-02,9.865971655981251379e-04,1.022468668860010005e-01,-1.693712687223206947e-01,1.204940198283162428e-01,6.335241967076658473e-03,9.939711353624569590e-02,-3.938426868219119942e-02,8.862599192161506323e-02,2.863058606749596322e-02,6.319277514921915750e-02,-6.767525798494804234e-02,-3.402968726411422645e-02,-1.328267829950716961e-01,-2.287141878313199775e-02,7.837938326976355563e-02,1.603252956727308498e-01,6.072096574479365211e-02,1.202979353955267727e-02,1.002163749027301515e-01,-6.251829685129972614e-02,3.047427264077745904e-02
-1.685179257359871174e-01,-1.432403202545103615e-01,-1.702926628730165315e-01,9.287615954088966619e-02,-2.336286420569379241e-02,9.690038409060124092e-03,-1.182053009490253472e-02,5.132875918505875462e-02,-8.177593289940290888e-02,-5.673980914946780835e-02,-1.451091567185936182e-01,1.723818550823416063e-01,-6.269326265092926842e-02,-1.019112470777614431e-02,1.577156445357781045e-01,1.444332312814763930e-01,-1.544065308341377452e-01,9.141215871190011902e-03,-7.537054904729317828e-02,-4.158589508261975365e-05,1.093492192432013316e-01,-7.765887571518992338e-02,2.026277409677990360e-01,2.402840277869525837e-02,-6.097875533449986785e-02,5.249232148200198150e-02,-1.413376724700489981e-04,-9.418451060701810151e-02,1.298633096183957336e-01,5.954897313270830772e-02,1.712499591114891861e-01,-5.215137030025338710e-02,-5.123070362663737637e-02,-5.775372839414608106e-02,-1.237811327522252321e-02,1.083910927686534825e-01,-4.358970475247880144e-02,4.920549067551120009e-02,1.580821385134404122e-01,-5.718913199603258696e-02,3.636337186648619380e-02,8.148336704616088513e-03,-6.128814394502382634e-02,-3.518194113350834457e-02,-7.008236563990144496e-02,-7.805522922240271111e-02,-4.976359799428287101e-02,-1.161798627772665515e-01,-2.963284195071441696e-02,1.014420329669247639e-01
1.512690189192796852e-01,-9.448426809469423482e-02,2.180315646259249618e-02,1.412013027121654038e-03,4.975942672567026936e-03,9.516545875507988542e-03,-1.036916683176753867e-01,2.649066582022538766e-02,-1.356050870025322097e-01,6.064742957041257404e-02,-9.739912606479732282e-02,-3.197076209211197062e-02,-4.434267579712636298e-02,1.475643892450034800e-01,8.445093728371455555e-02,-4.525507979706373113e-02,-1.283564417864098972e-01,1.289338971947779355e-01,-1.327924958357898366e-01,-1.943898100949777441e-01,1.366287193764914032e-01,1.027825468716361129e-01,1.853920579232635479e-01,-1.269049200306240910e-01,4.174014127266205583e-03,1.444582661849345973e-01,2.233654917108477897e-02,1.378204893973702105e-01,4.739239922742102123e-02,-9.450071987722286071e-02,1.627846395298933324e-01,-4.720903695408612544e-02,7.261044166788555021e-02,-1.123037101172359442e-01,-5.694441397419539724e-02,1.094060924978907945e-01,2.863908888181128723e-02,-6.804455959561381273e-02,-9.882469311999829420e-02,1.060657699635562112e-01,-2.799386654772442751e-02,-8.497078295938945147e-02,2.416463094372542711e-02,1.340857971383806711e-02,1.613236042561496178e-02,1.126269942337786989e-01,5.649904857338015896e-02,1.034541342509677775e-01,-1.512961175031718175e-01,-1.199303030053598673e-01
-9.808894935600837028e-02,2.543243819295450646e-03,3.399477948451488929e-02,-1.200467229030660332e-01,-2.364100883147056062e-02,6.943618014762131807e-02,-1.570840822044696217e-01,2.294179699315838233e-02,-1.294716998736280926e-02,-3.479169494064324880e-02,-9.036998510336229085e-02,-8.225721094765314767e-02,-8.195514029208197937e-02,-3.758969148210910410e-02,3.535457802888166551e-02,2.367177502786156976e-02,-9.125274675691109894e-02,1.061997210436669246e-03,1.268354641648947734e-01,8.202556193555284036e-02,1.683402728316447938e-01,-6.487472011189240884e-02,9.961874270640590223e-02,-9.712290905669351826e-02,-1.152924165060502659e-01,1.376070420145109330e-01,2.200569848869985551e-02,1.184609968904713762e-01,-1.488450188574578503e-01,1.972439387460458993e-01,-1.060909115034528033e-01,2.224563614110494983e-02,1.958750982849039590e-01,-1.068294678283523980e-01,-2.623864565061161808e-02,-8.488800061293726162e-02,1.953527448538255537e-02,-2.470190306595974189e-02,-1.371739569535935510e-01,7.467118033980753300e-02,1.643834932223760606e-02,-1.157658012333503128e-01,5.730867115858109817e-02,-8.969988941954104567e-02,7.014721192487852197e-02,-9.209895799588813103e-02,-1.001577637802711640e-01,-1.053435442199025518e-01,-9.083591337923352382e-02,-1.325739897825898295e-01
8.689508646072871545e-02,-4.073447081911625274e-04,-7.538100755941037900e-02,4.630177763004496294e-02,-2.927228867711766103e-02,2.809804993555756886e-02,-6.797297759785171645e-02,2.309777189674047659e-01,9.958866460487150740e-02,-1.050737129019848476e-01,-1.159922875194334818e-01,1.947288484152766563e-01,1.710294097918270140e-01,1.460779891174493472e-01,8.313135557611467386e-02,1.517148087256327549e-01,-1.140786248293412936e-01,9.451616831739108326e-02,-1.734221181673317180e-01,1.473029360596007920e-01,5.191415247258601012e-02,8.609302689890506455e-02,-6.283106461602351589e-02,1.259444593508166899e-01,-1.169463030475286214e-01,-5.977089780130700331e-02,4.960523716688922113e-02,7.985737101670793703e-02,4.026439182297936181e-02,1.039056286724089340e-01,-2.129312534872345244e-02,-1.278851652849631870e-01,9.643071383421399079e-02,1.080837696265185832e-01,-1.255318907520053540e-01,-3.224617371796938137e-02,-8.745125974643733202e-02,1.245140195121992484e-02,-7.635372271274615263e-02,1.087679029247530377e-01,-5.190773567276674855e-02,1.340700562175745625e-01,-6.736864530499946102e-02,-8.967166550289010218e-02,-2.451738610174978433e-02,1.821483412140421573e-02,1.060468301463342727e-01,-1.252455742961324225e-01,-2.517118462394182798e-02,-6.701095083653174460e-03
9.228136084601662459e-02,-1.484019977971787752e-01,-2.312981887149879318e-02,3.350033194863975827e-02,-1.137093709998177882e-01,-2.553134510908819724e-02,-9.761461381838584805e-02,8.988137727536808785e-02,-4.753639181221680499e-02,-1.901734698083733244e-01,-1.245971735723744034e-01,-6.959279675241253175e-03,8.280909139003177211e-02,2.152952540053119923e-02,2.248892495705474143e-02,2.400154404036319855e-01,-4.818309678240337290e-02,-1.314423683952129496e-01,-3.584401015964890080e-02,-1.039882278488095391e-01,5.083297684526702498e-02,2.068908054209865968e-02,-3.327517875710628986e-02,1.735845583206554327e-02,-1.588203209236410396e-01,7.660432507987921524e-02,5.327176880585365870e-02,-1.706158138678624259e-01,-2.013320475738507864e-01,1.383651741737587371e-01,2.268966153493780780e-01,-4.881456869307725793e-02,-8.487886976835878894e-02,1.094471809893086478e-03,1.308033608029035844e-01,5.730341035317043641e-02,-7.959334283877040131e-03,1.498293413986993144e-02,2.383220050968197154e-02,3.734786553638103773e-02,3.723422458611627683e-02,7.906165836059943219e-02,-1.220385861640571196e-01,-2.129973723001572505e-01,-1.587337453311877394e-02,-1.102274021179257095e-02,-4.547991584801197411e-03,1.337876573621863963e-01,1.618735780424358228e-01,-2.934550196231364150e-02
1.135118562595996416e-01,-3.221937140540042516e-02,2.370124685054255873e-02,5.464109663571645181e-02,-7.070386394937855368e-02,-1.387760059611934382e-01,-1.192631250606557003e-01,8.372853569097157833e-02,1.475814430198501837e-01,2.282361809630364946e-02,6.237665819399617478e-02,1.043977235853241481e-01,5.507388137906682468e-02,-1.189522500814745587e-01,-4.812251811834739740e-02,-2.841939705579363609e-02,-1.411838627535149937e-01,-6.049400766994471323e-02,-4.621276869247668145e-02,1.437164427456021631e-01,1.614247705954316065e-05,1.928542218486891530e-02,2.374863250460801378e-02,9.770556048083382794e-02,-5.412220503055407972e-02,-1.590373855643737733e-01,4.131756608979708992e-03,-1.080393600189651776e-01,-3.389770065288862794e-02,1.145114094878497968e-02,1.050743173216038828e-01,-4.643665208267004629e-02,-1.258294775654407172e-01,-7.844874845535980412e-02,1.014093202439270980e-01,-9.206497708967674443e-02,-1.146065575055358471e-01,8.377512557872916765e-02,-1.198590565847703487e-01,-1.037602010695612559e-01,1.702386282324918620e-01,1.061805021185604769e-01,-2.261847651229009770e-02,1.140318592324559566e-01,5.353479246970185151e-02,-2.449569923781694941e-02,-1.057498649288767245e-01,-3.656160982130345766e-02,4.086292723705018531e-02,9.430343389676862711e-03
-2.432055276568593008e-02,1.278684955657206739e-02,1.182729316196345359e-01,-1.142776076155092718e-01,-1.503035784940737474e-01,5.581877271128397183e-02,-9.464085989011458699e-02,-3.849015234463133706e-02,-4.999927355261159917e-02,3.393049819454150434e-02,-2.495668413499256468e-03,3.805939178304216380e-02,1.803103011483707940e-01,-1.067168772527713749e-01,-1.089349082693504001e-01,2.142282421597093700e-01,-1.095845160129167162e-01,4.037954470755518444e-02,1.448742494904714240e-01,8.668432002418063886e-02,8.117739302672059842e-03,-6.049248944607393819e-02,-5.021100357730162028e-02,6.140044838664399096e-02,1.803614934528418104e-02,-8.540849308541528795e-02,1.657034922076834893e-01,-1.985133585691000596e-02,-9.819839785637765606e-02,-1.461644298414034593e-01,-2.124388508829703689e-02,-1.221553554790473783e-01,1.542751005264314246e-01,-5.533465452535435772e-03,-5.296528507306734468e-02,-4.303593201549157921e-02,-1.048734584108063639e-01,-9.523389983415173066e-02,4.307328464634603560e-02,-7.307622825335666206e-02,-1.072100867555897119e-01,-1.964671435787462145e-02,-5.833302467760473342e-02,-4.926945243232433609e-03,9.634608639812854147e-02,-4.359063504862534244e-02,-1.570638451408211678e-01,-3.444434598026847871e-02,-1.031405447768127814e-01,-1.811364952976354283e-03
4.891732885977576051e-02,-4.789327622829956527e-02,4.528067821869383169e-02,1.155763407074636290e-01,-1.570060838119542723e-01,-1.619906754599207410e-01,-1.098399173861840522e-01,-9.538546358942857906e-02,1.237432992493654599e-01,1.492219475212823165e-01,-8.047792019855845580e-02,-1.294154340835784126e-03,-8.139946399816293254e-02,-3.449888570466819182e-02,9.270826016675026704e-02,-2.426876620464744894e-02,5.087258333436101010e-02,-1.332652782683717563e-01,-8.502670320680751070e-02,6.620255017016189909e-03,1.108785496391030689e-01,-7.007062630579274920e-02,-2.497852452912160265e-02,-1.760770551460306282e-02,-1.259796417576154390e-02,-1.100727672181407713e-01,1.557505469046353841e-01,-6.712088366903259939e-02,3.812542245004758162e-02,1.610009641836707139e-02,6.542342037986179082e-02,-5.865888183960331348e-02,1.230567606709357942e-01,7.056424125666807545e-02,-7.916490428811122360e-02,-8.605230427562977902e-02,-4.553315955222080741e-02,1.141803900026453628e-01,-1.315990150532828362e-01,5.103024175570350374e-02,1.459390512875770041e-01,2.828982101097208754e-02,4.030686552777041493e-02,6.524117138784883696e-02,5.226189412988788835e-02,1.990479647757902384e-02,-1.640810580045975742e-01,7.535570146173049821e-02,1.411595335952729735e-01,-3.563816080419274918e-02
3.552480891035424831e-02,9.075538444241665337e-02,-8.306739842178270661e-02,-1.191830959217042296e-01,-1.964946949904030141e-02,-1.303741077352867650e-01,-9.813106447674307953e-02,-1.405431042982706047e-01,6.010768459308570705e-02,-1.330378324434615123e-01,1.824541729358678671e-02,8.988138015126258262e-02,4.047505648956827018e-02,-8.527057739840382400e-02,1.383251884168180124e-01,8.585885675285323537e-02,-6.085016840291865292e-02,7.177695041158105999e-03,4.338181633236467584e-03,1.633344186483615124e-01,8.536766322895912584e-02,-1.050454041354181578e-01,1.111489067658033847e-01,-1.327717903311022019e-01,-6.588116490692053073e-02,4.186528078424216204e-02,-9.042421363562928166e-03,8.657135630693896244e-02,5.386757463511870903e-02,-1.100195577830036797e-01,4.206604396929885387e-02,-1.005574068489321210e-01,8.457465906681944923e-02,-4.626526440008058016e-02,-4.235141786524665442e-02,1.136352692877937720e-01,3.747884552716140155e-02,-3.524403694223738476e-02,-6.454911824022728506e-02,3.092654964970690049e-02,-1.226611599661774354e-01,1.138971381518489312e-01,1.365522416950937235e-01,-1.352709425097586293e-01,9.436667206222906779e-02,1.139929276660656132e-01,-1.763917603225376995e-01,1.387388450338733759e-01,-8.840900157212026877e-02,4.643718081955008209e-02
-1.522102259666094359e-01,1.225474158045987694e-01,-3.256720660885902008e-02,-1.023043936116468933e-02,-1.210693349333449020e-01,-5.131485308711899312e-02,9.462918845518739075e-02,-1.350505503753299530e-01,-1.296255996590059134e-01,-1.242177316864128828e-01,-1.694940327652144640e-01,-1.208829732877588908e-01,4.371864153148986160e-03,-1.552540418247868315e-01,1.002972820934926595e-01,1.304971612986700058e-01,8.524147677873088191e-02,-4.778368183884798559e-02,-1.122669090039898621e-01,1.242284802264902351e-02,5.035036988008198544e-02,-7.298167483264181299e-02,-2.647450729327385094e-02,1.283353975559290150e-01,-8.149868368729755452e-02,9.987370478531688855e-02,1.681673584856168413e-01,-7.428816679542751822e-02,-4.025777418293387949e-02,-2.819893798885793335e-02,-4.581138784904936756e-02,1.701565476839459606e-02,5.906443761158363531e-02,-7.386887493192068055e-02,1.594194706071559164e-01,-8.038687919785132696e-02,-1.389127942403863281e-01,8.978372808924497961e-02,9.659885412578815556e-02,-1.444647910621419951e-01,-1.073573972489599293e-01,-1.241126865664003293e-01,-5.299501302350754367e-02,-1.044535593187530392e-01,1.021439394974295034e-01,6.471065146314311511e-02,9.785286333340144360e-03,9.683709297543349748e-02,-1.133231209609843054e-01,-1.479207910509606205e-01
