-1.376697162132838048e-01,1.120558320121091411e-01,9.783468105886525268e-02,-1.480290783553760980e-01,1.098825522745905392e-02,-7.335168157451607551e-02,-1.390410098296912533e-02,9.577872384695509944e-02,-7.913824545463317428e-02,-7.124361054844625951e-02,-5.676942229652331973e-02,6.703447701366860301e-02,-1.168542358416194693e-01,4.372627332912515374e-02,-1.010074948718285015e-01,1.303188639765705259e-01,-1.445114671177874510e-01,1.348824144698479721e-01,8.623698135393179087e-02,-9.571000878467172956e-02,9.401491599082850703e-03,2.019340311970427293e-02,3.742623089627997168e-02,-1.368364225113888888e-01,8.683472725130386705e-02,9.505863856110546850e-02,-1.273494888215068455e-01,-2.722452936428290671e-02,7.472468307941043664e-03,1.095098672224609215e-02,1.149318506908301452e-01,6.127859428823023702e-02,7.163522770417049546e-02,9.473777659553361818e-02,1.920533508900781894e-02,-1.381474979150040527e-01,-1.250256392947453332e-01,5.023810001968670447e-02,1.321758510384777041e-01,9.827247195789665102e-02,1.037975645754392884e-01,-1.262706709560645901e-01,2.549830999767890849e-02,-7.839542702057405998e-02,1.149425734340017435e-01,-5.658836804575378965e-02,9.791526783426410252e-02,-2.426493894005898877e-02,-1.135275235695244744e-01,2.211812684412944874e-02
-1.364625899362111039e-01,-8.880844844892962775e-02,5.998783148749908811e-02,4.869508481569626013e-02,1.162025991255835333e-01,5.101155057754949707e-02,1.308949135951220366e-01,-1.435165582174350585e-01,-6.836084807674891461e-03,-3.770569988298813624e-02,-1.233155262993168022e-01,-8.179810981674252857e-02,-8.154559014265566619e-03,-1.375895339553066532e-01,-1.355120506614670983e-02,1.124653296757497645e-01,1.174375125909696560e-01,6.516170631740381136e-02,5.381743566862942640e-02,7.021586866542359195e-02,1.038614670767355752e-01,1.040432687619457786e-01,-3.601233052848935856e-02,6.113305922652595426e-02,8.311967943718506779e-02,1.383008568455219300e-01,5.554782098545874014e-02,2.906655499212956739e-03,7.009237689575875674e-02,-1.324829061910691996e-01,1.166159964029633567e-01,1.192220147630117244e-01,6.775968924931902171e-02,1.151064943899749171e-01,1.481330499142349544e-01,-3.605021086651127860e-02,3.676021659287009857e-02,1.375127786152535447e-01,-6.600291714014416833e-02,5.126572617414740241e-02,-3.139237586552195980e-02,-1.469668644739967889e-01,6.319453096149216242e-02,-1.283938403795451266e-01,-1.496549575354371719e-01,-2.239009565862110085e-02,-1.119894139988625303e-02,2.627936868933183900e-02,-1.403132474737937285e-01,9.513049687593114201e-02
-1.113519941484875375e-01,1.291859943537217170e-01,7.058777275664918083e-02,-1.096760826546246265e-01,6.458688116303332172e-02,5.953937949435572641e-02,9.751134853502088640e-02,9.207150495386620670e-02,-1.274948992013569260e-02,1.236683798875727602e-01,-9.943375535090984152e-02,4.304943234552588427e-02,-1.055606787063661789e-01,-1.366513490596047709e-01,1.407742200695450141e-01,-7.341930109338921928e-02,9.145173027425365642e-02,1.436739883425771913e-01,7.390957932021546828e-03,7.643591546822836591e-02,-6.038775157336326305e-02,-3.318899890671690722e-02,-1.057128252078521069e-01,-1.535328248947118168e-02,-3.077713987558976239e-02,1.039122483692151155e-01,-6.695235282058174808e-02,8.357247091561609276e-02,1.334726573429103891e-01,-9.319793587080625608e-02,-7.144895099973010144e-02,7.386712057771666062e-03,-1.248860852228412255e-01,-1.216280657908871965e-02,3.506187514061678834e-02,-8.493171154600798189e-03,-1.166966573324932088e-01,1.467634344230624166e-01,3.458303280898950005e-02,-3.100061412466631472e-03,1.648142037579589103e-02,-5.025135111881824657e-02,3.719423033714647220e-02,-1.894528309300688718e-02,1.402758226081685933e-01,-4.460501736902160175e-02,-1.455578981362562752e-01,-5.028979524029993098e-02,-1.351774949768725920e-01,6.777568993383775720e-02
3.181055355776629678e-02,1.487763998408786204e-01,5.074020596429890118e-03,1.215889947142540228e-01,1.015203249725787626e-01,-1.019067570161267811e-01,7.246930550480129574e-02,1.010965167651505514e-01,1.327335851028577374e-01,-6.128006003216292241e-02,-1.402601978928627591e-01,1.430244522233944660e-01,-4.613990489962653541e-02,-6.863458803203752179e-02,4.749583870013068809e-02,8.639179264710075690e-02,1.242524390384364408e-01,8.050835609810932936e-02,-1.123852313953699056e-01,7.129801921610370852e-02,-1.002020517663249344e-01,3.731969667776202648e-02,-1.305749681222106995e-02,2.846874108235605827e-02,-5.600921348224642549e-02,8.804928417264426543e-02,-1.494149842403882655e-01,-1.942796688276116068e-02,1.008535271208431394e-01,-2.258779755865666927e-02,-2.223358053354121400e-02,-1.346708768836168968e-01,6.874530712545484645e-03,1.106405762469019616e-01,-4.334799216840949654e-02,2.192966188244882542e-03,3.221995052996320941e-02,-5.330350564024151361e-02,-1.256949441665383138e-01,6.605305015989576534e-02,9.874039663284275847e-02,1.192918950512612819e-01,-4.838348499440758843e-03,1.049738981584301956e-01,1.261625213073616913e-01,6.026584117916680694e-02,-6.340491480554467929e-02,4.378563623606737676e-02,6.799094499943114656e-02,1.390196772141123749e-01
7.390635204286710724e-02,1.012541927000677744e-01,-1.423572811343788713e-01,1.019265293622612090e-02,8.575566926985064842e-02,4.881949289028533756e-02,8.290548713367851263e-02,-1.336674820135369535e-01,9.023085444354503326e-02,1.023729533355085264e-01,-4.263986741231580446e-02,1.330717952068427301e-01,8.403765979130786712e-02,1.492828069371075761e-01,-1.344400779324304851e-01,-6.734063631228094648e-02,1.062468825039682707e-01,-1.245302317038668588e-01,4.278155261747071392e-02,-3.713707233706232957e-02,1.386752700880984068e-01,-5.805213803391412464e-03,-1.324246198212216952e-01,1.198790875861655836e-01,1.491319640406226499e-01,-1.454213959626997066e-01,-9.484218771724539643e-02,-5.120660341434361829e-02,-1.135213493779408667e-01,1.309058919617655248e-01,1.245949202390298216e-01,-1.293264044603726626e-01,-6.133508488765194999e-02,1.473017590857560177e-01,-9.291027398080151101e-02,3.219274092101381823e-02,8.116217752202603553e-02,1.797281751796711569e-02,-1.199443783087104226e-01,1.285496334638851768e-01,-5.184051949479680232e-02,5.769488847549311683e-02,-8.438011594710048691e-02,-2.689647442652794151e-02,1.153622253619203952e-01,-1.251816495958951725e-02,1.283570909911135871e-02,1.110031409066763175e-01,-4.927615651130229368e-02,7.053759350230984215e-02
7.877392519204898247e-02,1.125664712625922548e-01,3.741799532756678870e-02,-1.025472039474939340e-01,-9.645497658931670437e-02,-5.407929645977366251e-02,5.484736622496044767e-02,-1.196955435490068415e-01,-1.477405662735908065e-01,-7.471835476887525584e-02,-2.686907089631435097e-02,-7.074273520726971631e-02,-4.248855898493114625e-02,2.109417129748797359e-03,9.355622248716838341e-02,-9.740846262179578274e-02,-6.359224807118341039e-03,2.335836390092910220e-02,-1.126929640962047591e-01,-5.769815342245893097e-02,-6.152312872716310388e-02,-9.346978738290170896e-02,-1.260829023640967494e-01,1.945376530818812566e-02,-1.087748564335405538e-01,1.324956017168514577e-01,-3.988663037928598387e-02,3.368489582347358735e-02,-1.009406407997467947e-01,-1.356658742194649936e-01,2.037404739424666933e-02,-1.308862350296165211e-01,1.264327290827512440e-01,6.147148307777128284e-03,-8.632015931324488189e-02,-9.998408456526952648e-02,-5.903382836560000513e-03,1.424189869169016631e-01,-2.990283732759005386e-02,2.014098232574515479e-02,2.968164427268080163e-02,3.971711290113880133e-02,-9.095636885593672005e-03,1.089639311355782569e-01,-7.139787754946859410e-02,-2.249984614528527382e-02,7.106665982610094190e-02,7.832774929151500864e-02,9.100475638535723832e-02,-7.057326555265797108e-02
-1.053891540283115880e-01,1.150397720623281550e-01,8.724670154849537007e-02,-1.453406933708025484e-01,-1.301905755977956491e-01,2.972678601009534627e-02,-1.449378447520668911e-02,1.240402897513556424e-01,-3.021735744699702297e-02,-9.467469333545594501e-02,-2.212442794398730705e-02,-1.263083126853805915e-01,-5.899685914787773655e-02,8.490443393767707625e-02,1.138634883705082201e-01,-5.366178163486398645e-02,-3.013374914153349460e-03,-1.777113877891184357e-02,1.222792898899710823e-01,8.135214407539101411e-02,-2.939850579196143232e-02,-1.126277807946436671e-01,-1.479728710203265241e-01,-1.140890654470104598e-01,-1.035561876460999453e-01,4.217081186191207198e-02,9.364945943221875124e-03,-6.676711909546746704e-02,-1.179284546430583169e-01,8.568052079395696574e-02,-1.398130366184540951e-01,-2.767405151376896300e-02,1.135396423283081824e-01,-8.278983942348588920e-02,7.102895098458406054e-03,1.097930562501938379e-01,4.912262832713920613e-02,2.893058646300172843e-02,-8.036914022128005541e-02,-5.963414714205408917e-02,-1.202379816820475789e-01,8.178360048348154443e-03,-1.102853120481495919e-01,4.011930791858372980e-02,-3.706122462424056574e-02,-1.188013568703863432e-02,-3.663339589597498780e-02,1.327604896823974812e-01,2.462157667846726072e-02,-1.137202355516842844e-01
-6.039788403491522240e-02,4.289004270085719495e-02,-1.458393644106204812e-01,-4.399281218590801734e-02,-1.426952829628771735e-01,8.203923638682608654e-02,-1.133176124801660301e-02,1.060688000306152790e-01,1.417237539991807738e-01,-2.272879035405814263e-02,9.049520441258041004e-02,1.032116934633753313e-02,1.800130654015019704e-03,7.725565257532568397e-03,4.368334203436616270e-02,1.251052019723656039e-01,-2.007955134159739030e-02,6.352581115820477020e-02,-9.755103069729514909e-02,1.414250895187619539e-01,-4.330796951873856770e-02,-5.125609724363333619e-02,-1.122909540366274495e-01,5.789122219088008170e-02,-1.075386160517111667e-01,-1.373408425372427688e-01,-8.425782145814829371e-02,1.280939405138829812e-01,1.798908581505967441e-02,-1.319427241309544530e-01,-4.904011169349976884e-02,1.469841074482236554e-02,-4.788216854204821460e-02,-7.752812712018211649e-02,-1.214235150018372761e-01,2.274876372104692179e-02,-9.895297258803420481e-03,-1.829526996106811687e-02,1.383221220875392177e-01,-1.277802445352738125e-02,1.495285406923911597e-01,7.545957050601459493e-02,-4.091969253452323874e-02,1.851631036831369315e-02,2.601089906550557718e-03,2.924924366743705817e-02,-6.730672501559001319e-02,6.576085396833422636e-02,-8.193100265669307769e-02,7.433521749364313536e-02
-8.545714854744490552e-02,8.394094275264679661e-02,-3.701857789578709423e-02,-1.115113975090975817e-01,-1.488138434648222097e-01,4.007507551935018952e-02,1.296053760102327257e-01,8.416185691886829412e-02,1.129397319551039003e-01,5.372584039630898256e-02,-1.238569556658970366e-01,-6.609907320357318039e-02,-2.814764513070530660e-02,-9.974638854163619950e-02,2.029034074483640482e-02,-6.361081956025881057e-02,1.343351264986441251e-01,-1.003119632256073979e-01,3.190214667870225340e-02,1.070851962911343602e-01,7.588240894431089179e-02,6.303114259513889484e-02,-7.095688697677154932e-02,1.070064602241518892e-02,-7.857627575696500555e-02,1.037618360413090357e-01,-4.731447209095730744e-02,1.375787437488124043e-02,-5.249826582266217678e-02,-8.988086626631583420e-02,5.681002649213662270e-02,5.145497918708177854e-02,1.944773568979102363e-02,1.725403480464571260e-03,-5.018772788270561835e-02,-2.897553714264207436e-02,1.461440085465559868e-01,-7.271811628890567647e-02,1.301578609082449656e-01,1.467557415331926796e-01,-1.015233188351454124e-01,8.269956828688551642e-02,4.706001978201979075e-02,-6.102752322083464243e-02,-3.159123480160824782e-02,1.879079106041597891e-03,5.133937025669499388e-04,6.693781936782827735e-02,1.158858360361393613e-01,-9.045224414478270081e-02
-8.322457885291931201e-02,1.435576934832104856e-01,-1.353381560562667285e-01,1.152642408552191078e-01,9.524295593297432694e-02,3.605909040651500419e-02,-1.404959301984069764e-01,-1.782913221527834824e-02,3.526904602377167741e-02,-2.029263359565081082e-02,1.471965199388722556e-01,2.158359251999297790e-02,-6.742029932401827352e-02,1.119650962013823137e-01,8.971005818480096150e-02,1.558853068936078001e-03,1.058406982596406809e-01,1.359671718108939331e-01,2.528527052792831076e-02,1.467784297470593746e-01,-6.569742409173556785e-02,1.494436215515656807e-01,3.782650218156477506e-02,9.541618216568828470e-02,-1.429166724108697217e-01,-4.717247061512470918e-02,-2.089733636826407448e-02,1.090778005523101724e-01,1.952942650759958987e-03,1.340575800155603126e-01,-3.678758297454526316e-02,-7.578729455460889164e-02,8.020974959187654463e-02,-7.180411406679405861e-02,6.599266959130356547e-02,-1.896456709392457807e-02,1.264758290458108669e-01,-1.315070918187469795e-01,2.218679965799413845e-03,-3.903502710500950101e-02,-1.391455044225198834e-01,1.244930093907410662e-01,-7.038456815215644868e-02,5.683039319441807180e-03,1.014869851388076893e-01,-8.138393143546114594e-02,1.172315556155531791e-01,-9.204913597877045772e-02,-7.314203773814809129e-03,-9.905612527253553068e-02
2.965875028228953658e-03,-8.414633823322419104e-02,8.111456775979741796e-02,-5.537737412741305931e-02,1.119818436894824132e-01,6.532723240637505757e-02,-2.711941585777091768e-02,-1.303911859429280062e-01,1.321726794278848816e-01,7.366977957549269984e-02,-4.005177300437685883e-02,3.709565543474616089e-02,4.601618895785175578e-02,3.642725770060761814e-02,7.697519939193397942e-02,5.818998945380637888e-02,-4.227674074105630675e-02,-6.233138172217796147e-02,-8.040958772607720295e-02,3.544871551631240125e-02,9.686882607981181503e-02,-7.471759669808121507e-02,6.932557176453910119e-02,-9.961932319167710048e-02,2.430376852921420361e-02,-1.494219485330632868e-01,-1.359126093392221124e-01,-1.476778584715471299e-02,-7.971413511512855099e-02,1.180722888807203275e-01,-7.616005745512319236e-02,2.043703890290193836e-02,4.841739912526921152e-02,-3.000031686281627585e-02,1.820198783436496881e-02,6.504811152688647069e-02,1.140173129265071028e-01,-6.819131972557759824e-02,1.365852777064852364e-01,8.373614033188980788e-02,-9.807891513905944714e-02,1.256327240432708880e-01,-9.848085919788182596e-02,7.623797767474949083e-02,-1.037046273777167682e-01,1.126492284934250410e-01,6.978062665857481806e-02,1.396939459333272071e-01,2.587257403654588672e-02,2.888633029368009586e-02
4.190233651118410729e-02,-8.808724503461373700e-03,1.104486827414080663e-02,1.129390385425592391e-01,-1.198438645223898202e-01,-1.281162598288552168e-01,-7.071222627913598124e-03,9.743537038664923378e-02,1.241494900289159264e-01,-1.485167182641084493e-01,3.027641276455916852e-02,-5.525123518130857503e-02,-1.055673561438320585e-01,-5.029616695761719714e-02,-1.129201403862248598e-01,-6.496883914766050927e-02,8.720682330644649594e-02,-1.439356887192830003e-01,-3.009492227934643105e-02,7.429643253189585628e-02,1.093222456303841461e-01,-7.327740797412971019e-02,2.462576971002650161e-02,1.238584616332873145e-01,-1.133823941305486110e-01,-1.129814516648126599e-01,-9.814225846423217658e-02,-9.589752686969914286e-02,-1.220831890431798294e-01,2.078312005857391176e-02,-8.785161041046429808e-02,-7.739306415060624722e-02,1.008941586482823560e-01,7.248562001959427126e-02,-8.140022645937770862e-02,3.202955175365196361e-02,-6.519386940940430364e-02,-9.509648261973424610e-03,-4.515352368166426766e-02,-5.097061903135312322e-02,-6.749565660768344633e-02,-6.727271765802440850e-02,-8.005853966414933076e-02,3.154968515981254606e-02,8.537316363594751878e-02,-4.965957299141543491e-02,1.278986768561797549e-01,8.256323996197070803e-02,1.579415684746982018e-02,7.191540777709415355e-02
1.032928156961812338e-01,5.347361840943770650e-02,1.138240545157594708e-01,-1.526467260865116415e-02,2.729357260860940104e-02,-4.398357469503882955e-02,-1.161046620826295811e-01,-8.560789885178581027e-02,1.383573421909744805e-01,-1.430601783090926504e-01,-2.222420274917866201e-02,1.960423737825614521e-02,1.181648815975083477e-01,1.119046320543641004e-01,3.331682170414640431e-02,1.310845382529560454e-01,1.248720916844147932e-01,1.316895074670574595e-01,9.818426854507228407e-02,1.696354800770880078e-02,1.196209873402157842e-01,-1.172862286067535842e-02,1.077739344171438629e-01,3.486482491811923601e-02,1.376894207629750233e-02,1.326062902703398494e-01,-1.422920928453753342e-01,7.716033875217009896e-02,9.684411908909748568e-02,-4.129931407101516960e-02,2.870185248449119708e-03,1.437608812115936940e-02,6.103710846374871268e-03,-1.215008751354013511e-01,1.198312495616537798e-01,8.831196201071755958e-04,-1.495756583981736887e-01,1.127336569296721047e-01,8.098631429537650472e-03,-7.228784276640670692e-02,1.054172803004691794e-01,4.081580787143668232e-02,1.060586702612602295e-01,1.453884127789241976e-01,-7.385968438064993702e-02,4.426627466743826567e-02,-5.408362771995667284e-02,1.137362541888294609e-01,5.198995549653676052e-02,-8.201437656979795876e-02
1.037481351384691441e-01,-3.842114756085693306e-02,2.267123710621560262e-02,1.278523938040988794e-01,3.627263095678557453e-02,-3.475242161551238274e-02,1.288623660086639366e-01,1.531840023974443965e-01,-8.127978283192639763e-02,6.030517967790660627e-02,-9.288780044638754452e-02,1.773497396242183777e-03,-3.509897826263978782e-02,1.416933829571827286e-01,6.357579209505007101e-02,1.419979818243140846e-01,-8.347407021223289536e-02,-7.924752492533287951e-02,-1.321520988234274607e-01,-1.043634401586276544e-01,-1.206229827297483799e-02,-3.207005871540170860e-02,-1.384838151946705398e-01,-1.246919622932796679e-01,3.938124451468273668e-02,4.470544281395982811e-03,5.076704421363949227e-02,-1.453717106621074118e-01,-3.314047509466826191e-02,-4.402558327830985441e-03,8.384439309797780959e-02,5.324178638076138004e-02,1.309124732775278910e-01,1.362864615461700235e-01,1.015130896580203196e-01,-1.295242915786254112e-01,-1.000382778521317906e-01,9.612750386734379704e-02,-1.401065936554708735e-01,1.491147373797745701e-01,1.275487119900047331e-02,-2.508635645205482129e-02,-1.384561239926991594e-01,8.750810555610717689e-02,8.323499224899082172e-02,-3.275997942097506888e-02,-8.815063200185677128e-02,1.389628255022795911e-01,1.172327604170993742e-01,-7.538335446473644341e-02
-4.355273577091278714e-02,-2.561130782547216267e-02,5.799982936986172732e-02,-3.810894635034486888e-02,8.827490688344662856e-04,-1.317594595646400524e-01,1.464917628680093842e-01,1.618828463370431681e-01,-9.459012600750014987e-02,-5.770936642399571159e-02,8.268484418548203985e-02,5.023089924854115540e-02,-1.250167313903340349e-01,-9.935986157697790366e-02,5.020369259191395130e-03,1.076934171999248957e-01,-5.416025984723878139e-02,-1.062585070334874648e-01,-8.155745681081653584e-03,-1.077677502168172680e-01,9.023802851731629882e-02,-1.418503040571578444e-01,1.030246464155281337e-02,5.366325188590415074e-02,-1.000687424369016004e-01,-5.742692500236901143e-03,7.296122528974301191e-02,5.114086289460437196e-02,9.384548818848938156e-02,2.195003496841541057e-02,1.373693633215742060e-01,-5.909722404096401371e-02,4.145601703814269512e-02,-1.107737226753556931e-01,8.043608615880794288e-02,-1.344620578882541051e-01,-2.510125846668777999e-02,-1.178939137125882136e-01,1.367449606103499360e-01,-1.237384210551048247e-01,1.066828209727616918e-02,6.942675267776765580e-02,1.386107193166455087e-01,5.894445711047672370e-02,1.359954982129525647e-01,1.331576898812231180e-02,1.026670432059468563e-01,-1.245764677504007656e-03,6.064334906250579138e-02,1.165625179310191550e-01
1.228688907322865453e-01,-4.754238104120456221e-04,5.640567675464344677e-02,-2.571587111599270281e-02,-8.120673711811439432e-02,1.190998627103321550e-01,-8.912200631815525576e-03,8.863076985432072341e-02,-1.240114947687656205e-01,-5.646575954473584402e-02,3.979389086639481543e-02,-1.342663173792066067e-01,-7.080958222123463763e-02,-1.430968066759379098e-01,-6.113135608918614239e-02,1.098417852885275325e-01,1.522744194012931596e-02,8.704930714799691271e-03,-2.909586370095711139e-02,3.715059382442159608e-02,1.310950220657447762e-01,2.217524325769867910e-02,1.322290978134731121e-01,1.127519871993011569e-01,5.773198118437758430e-02,-9.156059725607476607e-02,-7.291114590004388329e-02,1.104457087722235664e-01,1.411323137482830836e-01,1.424780589017832499e-01,-1.081617120801508236e-01,1.045807898852332829e-02,-8.523302096308078835e-02,-5.209015839958620886e-02,2.396669099655504565e-02,-9.465954003689722174e-02,3.688791438147331903e-02,-1.000020459524460364e-01,-1.381832453067805000e-02,-1.020692499305646816e-01,6.570500611079027609e-03,2.359440154481323715e-02,-1.279994602384063596e-01,9.277527245199812533e-03,-8.415347870190338642e-02,-8.427840737726990938e-02,1.494832535166648879e-01,8.275652427097349162e-02,1.425731161234044808e-01,-5.698684589750030449e-02
7.107892257576275963e-02,-3.439013111267076594e-02,7.689532045345501277e-02,-4.501673421712970580e-02,6.782385237929769439e-02,-9.520726958698236264e-02,-5.163258600205300475e-02,-4.002654069516248247e-03,1.065849059702798363e-01,1.094663866679690678e-01,-8.844474115739964226e-03,-6.754901865758891621e-02,-6.150881653594103549e-02,1.243610836211868909e-01,-1.236764697304491428e-01,9.710652011001208450e-02,1.042378610347301227e-01,-9.768943721955788972e-02,-1.756746700693584406e-02,-1.487032801826056738e-01,1.016851041440964554e-01,-2.412710558212610712e-02,-6.616294034317131423e-02,1.844167094947771202e-02,5.587442001550885218e-02,-1.403752763892738287e-01,3.262841609132649534e-03,2.147172273678080168e-02,-1.433694313301464573e-01,-7.763704191892598083e-02,-8.129643640815716055e-02,-4.845910011765097725e-03,3.174348065862236945e-02,-8.531786521698332681e-02,1.329013197628029219e-01,6.832631887881523980e-03,-2.308466705474887526e-02,5.011657831955557141e-02,-3.180807166341667602e-02,-7.643955907283705997e-02,1.134155672137841797e-01,1.407706677578536569e-01,3.981645170324416005e-02,-1.378939304607123828e-01,-7.584912613654344604e-02,-1.240389657827741660e-01,8.472319021606827816e-02,1.829131376574838486e-02,6.947818140187533853e-02,-5.798510099188909639e-02
1.322581938735412355e-01,3.162429194644655883e-02,-6.269385285274953201e-02,-5.370668978103723679e-02,7.526536923626592213e-02,9.079160079287074137e-02,7.317475868013104123e-02,-1.259553514867111090e-01,9.246687862340854935e-02,1.961461982899226353e-02,-1.112964610139570709e-01,-7.720479478304269338e-02,1.319320210452772646e-01,1.055203393215308483e-01,-1.452849544317847408e-01,-6.722569815444945363e-04,-3.042767284132125161e-02,-1.234933670314061344e-01,-1.378810297152662789e-01,-1.100741048554847168e-01,-1.087960566762859738e-01,-6.695434887225609755e-02,1.473726027741645572e-01,-4.275946398576359331e-02,-4.537909691305683224e-02,5.228065315161473103e-02,-1.013996552671031504e-01,-3.477857659240617128e-02,2.912290573985759634e-02,1.036731431158036398e-01,1.257797707135928922e-01,-1.482751022363610061e-01,9.019871947614085950e-02,-4.463844422286275537e-02,-1.271569593051231351e-01,1.305282536670739624e-01,-9.868420526199464526e-02,-4.631990474833047600e-02,1.333100053769353532e-01,4.692247898024970443e-02,-1.452526919738425515e-01,1.195134981501054516e-01,-1.035221768553768462e-01,-7.948634315600501543e-02,-8.076409765710136635e-02,5.927716788014425475e-02,1.657411369925002043e-02,-9.274200630334669682e-02,-1.318147424881000174e-01,-1.046191341847489409e-01
-1.127838162252658288e-01,-1.368521493484718687e-01,9.117870005713626935e-02,-1.083459201691206186e-01,4.326429302972389923e-04,3.021186924514995820e-02,9.408367934168782032e-02,-1.244500821713206556e-01,-9.093163792479014296e-02,8.728944315275263821e-02,7.456503731726993323e-02,6.619479929684729536e-03,4.942121104562333112e-02,1.497445753635935628e-01,-2.911105779738701327e-02,-1.441567330988147988e-01,7.479916342047432387e-02,1.126497786426264580e-01,-7.758022348586805783e-02,1.306653873621403672e-01,1.966830868060265303e-02,1.490948021325211037e-01,9.922405648643367604e-02,1.407294740708342484e-02,-4.773007643335178130e-02,7.632253071522515642e-02,4.824272651784611288e-02,-1.347680993151194606e-01,6.395235531205323287e-02,1.154772242257626202e-02,-4.125078941004781119e-02,-1.039915229178018652e-01,4.292814136342609777e-02,-1.190174017051577882e-01,-6.317891991702254129e-02,-3.653620496598117273e-02,7.818016677184994045e-02,-9.636460806469179796e-02,-1.015770915675821007e-01,3.915772560596780805e-02,1.105117255405208276e-01,1.470649917062346324e-01,-6.870614931207383314e-02,-1.199562757423213166e-01,-3.851107431500001843e-02,-1.321263210360885954e-01,1.291888347008886273e-01,-3.321189049715489450e-02,2.493864944444759701e-02,-6.759147719776262275e-02
5.145535626386243955e-02,4.512817897487922392e-02,1.379015153729104270e-01,-2.063179946801838027e-02,6.939388255542541795e-02,1.662805294125119238e-02,1.479161273433848012e-01,-1.376449217955988957e-01,6.326520086286840927e-03,1.250039987605839065e-01,-7.528587996073128619e-02,1.187331388433774115e-01,-9.883166456355689522e-02,4.431593065621242111e-03,-1.150932236093341471e-01,-9.153373485244140073e-02,-8.734301578999832671e-02,3.800968760975256822e-02,-1.367921943509425031e-01,-1.204029559657738141e-01,-1.486795795394497688e-01,-1.390673009651572090e-01,4.278535332867433594e-02,-1.235200869573742088e-01,-3.573729102353451204e-02,-7.212076775910207516e-02,7.331354355924607491e-02,5.892556154076641906e-02,1.251841305837888829e-01,-1.028214501430314842e-01,-2.504502161262558979e-02,-1.421012329349727321e-02,-1.382651823957306569e-02,6.080487361655034784e-03,-6.640368646285678411e-02,1.195060367073930152e-02,4.633273276366298155e-02,-3.497992076545722306e-02,1.335045977720017152e-01,1.364053838204511704e-01,7.442726864685247912e-02,2.542519590054201362e-02,6.680481830069104343e-02,-1.135468209297126330e-01,-1.256605289191490282e-01,9.881787605873826319e-03,5.986767750245491904e-02,1.467494890632844995e-02,-1.922975488818445822e-02,-4.171420911344231319e-03
2.578579636400418762e-02,-9.115547862296097259e-03,-6.560811249404625844e-02,1.276812750416440323e-01,1.103971392725000833e-01,-2.514334287640887511e-02,1.490053213323045689e-01,9.431935969309890311e-02,1.011974014102870467e-02,2.005641222312287697e-02,-1.031744127976672032e-01,-1.159054027936052000e-01,-7.470838858658655768e-02,5.128687576764184852e-02,-7.036891973967934755e-02,-4.704919739094010067e-02,8.759963041365695369e-02,-2.033722436056595306e-03,4.528972302297434860e-02,-1.228665978810364739e-01,7.110694778491438717e-02,-9.734568677452437591e-02,-1.185828035377531758e-01,1.058703763024278766e-01,7.212633386924346968e-02,-7.103280658793166558e-02,3.607442603541560766e-02,1.323961279684084114e-01,2.947555484737332532e-02,1.200186106987200241e-01,-1.780630107240641080e-02,-8.799852500454874438e-02,-5.910522290493039343e-02,-8.604390975181970547e-02,1.446574161191689079e-01,7.034720226728685688e-02,1.432319654907036888e-01,-4.744315269308180261e-02,1.015985216972441763e-01,1.224432880754090236e-01,-9.336197601763501774e-02,-8.862670771443476037e-02,-5.664682299171691637e-03,2.985742414702288738e-02,-1.122954515762522448e-01,2.155374566035397899e-02,-1.463566295242701154e-01,1.465364331667750319e-01,-4.734614096540543104e-02,7.515061725468533127e-02
8.593678465599471905e-02,7.022261971990723106e-02,-4.510203525720736517e-02,-9.663762878696816050e-02,9.137520202301077643e-02,1.026994092789120516e-01,1.179606725815841306e-01,-2.762006235975095203e-02,-9.730892532066048872e-04,-1.466870470172449148e-01,3.038719800226491463e-02,-5.125714744862924777e-03,-1.256038020761571228e-02,-1.004083815642388133e-01,2.371913167356956564e-02,1.448720449962694612e-01,4.364624387324006483e-02,-1.046227240532185687e-01,-1.386292957894900701e-01,4.285754601703137268e-02,-1.270437225312796570e-01,-2.057835530480112141e-03,-6.326510197050819184e-02,-2.552430304260749905e-03,-8.373014373759736506e-02,-8.747408876040874137e-02,6.600242735583988773e-02,4.704073433151972905e-02,1.202978660243248787e-01,9.602603213455029874e-02,7.325574976877288758e-02,4.748612190418521894e-02,-1.096033906281784071e-01,1.354682221338645298e-01,-8.656228010182466515e-02,-7.168855519720795932e-04,4.921950093299948259e-02,-6.403230241280831458e-02,9.948712118305930163e-02,-1.239804767216816928e-01,-6.733959943170014784e-02,1.131457887236610171e-01,-1.265281929652970760e-01,-1.343412607261619818e-01,-9.165705624855188804e-02,-3.968925549375509898e-02,6.058610573084999285e-02,-1.064715900842172491e-01,-9.198464251551408122e-03,-9.991261889727010015e-02
1.270597852823348306e-01,7.859809208909612765e-02,5.500800947787820583e-03,6.759650498996716550e-02,-1.654909747383886964e-02,1.234424092623291058e-01,1.499903043817456261e-01,-6.076178298781655107e-02,1.382052803465918245e-01,1.226794249079944665e-01,-1.318326700690704290e-01,-1.464094540428245994e-01,2.147091276598786513e-02,-1.289497365089378456e-01,1.063916242995513184e-01,-2.566131339030565395e-02,-2.367150017316405064e-02,1.151811426270227534e-01,-3.672093085040410709e-02,-7.162611094896298436e-03,1.442286631920962903e-01,-7.771862468520385203e-02,-8.975205236146124865e-02,-6.963045063522299571e-03,-1.815668654501595425e-02,1.347480634462287774e-01,4.021798135170687183e-02,1.199417269414135012e-01,-1.693448009708692359e-03,-6.718006302819752584e-02,1.131519558441916595e-01,-5.980399989655157955e-02,1.213331720950478199e-01,-2.535220106487040548e-02,-7.465515745114043034e-02,-1.542907901394080517e-02,-8.003685176222932740e-02,-1.369474853730516251e-01,-1.029914954797828130e-02,2.175801050542769399e-02,-1.403164238498270933e-01,1.846350639285082584e-02,-1.172764249867580544e-02,-4.631383647931303083e-02,-6.404246693181013528e-02,-1.287273390969810583e-01,-3.264411140592168858e-02,-4.532213504549099936e-02,9.118700192890849543e-03,-1.128575682306754840e-01
7.132515980781384268e-02,-9.945197342015305031e-02,6.583991026303032124e-02,-1.083752892550150504e-01,-9.047912663160088964e-02,2.800552525163341189e-02,1.017490513739518765e-01,-1.451878636308303883e-01,-1.600776654009383737e-02,-6.107403371974298723e-02,-2.551067223747810475e-02,1.150926108083860921e-01,-1.208286809542411522e-01,6.084895611359716905e-02,4.034198429331078972e-02,-5.030207575175080215e-02,7.941353080559693245e-02,2.276543796465110847e-02,7.613374360979971445e-02,1.503603521830185197e-02,-5.311152000087411562e-02,-3.237943199083426205e-02,-1.005817989706554172e-01,5.010031408673662479e-02,2.847524903148915265e-02,2.231048577330421723e-02,5.281676775380872435e-02,1.432852458409607788e-01,-4.292911164177251604e-02,-3.883026776285186665e-03,-7.583103048130106216e-02,2.934019937637857844e-02,-1.233303513932385714e-01,9.847721335817558042e-02,1.075371712380440714e-02,1.034798541457349896e-01,-1.155417918580125547e-01,5.583073633758856014e-02,8.555119637064015348e-02,7.166268061250050114e-02,-1.374433326078568218e-01,1.117287972832886889e-01,1.574262329579306785e-02,-4.256458356667754128e-02,1.141755268921242628e-01,-3.361018442742395862e-02,-1.479386308838799013e-01,-5.816511558547034222e-02,1.126832238575218581e-01,-3.481784515199121133e-03
8.960368002549229383e-02,1.093955266443134844e-01,-5.666900138091689187e-02,-1.954876480038081343e-02,2.308144968261097163e-02,-1.297124303044075444e-01,4.853494214155151809e-03,1.158854439148413185e-01,-3.020019322190850564e-02,-3.763332848921370488e-02,-8.830442165543936350e-02,-1.423019824510421139e-01,3.796558263224467100e-02,5.185229675687899609e-02,1.370059092546552504e-01,1.319513641247182234e-01,-1.457081280372225784e-01,-3.402439591566169819e-02,-1.201115176722955952e-01,3.027228171571211268e-02,4.847714989603213454e-02,-1.198503615616891421e-01,4.783699873810851044e-02,-8.027890094993578307e-03,-9.806155516320677612e-02,9.795007800479918481e-02,1.321500553527793498e-02,-9.802506431795204866e-02,-4.284647597532942331e-03,-1.177698745276485326e-01,7.048681667413844720e-02,-1.204844031719005670e-01,1.307234808859874808e-01,-4.164461083073235648e-02,-1.268982962399060332e-01,1.057596057584165583e-01,5.188916547624125575e-02,-7.670637799231146137e-02,6.727764160583882269e-02,-1.308032956623910725e-01,1.215742677561917895e-02,-8.444224297796201761e-02,2.282866561488283708e-02,-1.153200672651132075e-01,-1.064585849266838358e-01,-7.176072151479613581e-02,2.827047771527557707e-02,-7.658901446648405664e-02,8.174928861126823376e-02,-5.705670525114622804e-02
-1.350739285362128339e-01,-1.206883198817341463e-01,5.592866292023401797e-02,-3.036565671725888205e-03,1.370538708861350485e-01,-2.395937299948236454e-02,-1.345210542568120171e-01,-4.626224799934633425e-02,1.141395340822434490e-01,1.067415532618726515e-01,3.017276135013682858e-02,3.074410185910186888e-02,-3.344701846536976553e-02,7.593154643909633128e-02,1.155442169658278673e-01,-1.176175329869030284e-01,-3.577229925851127534e-02,-1.002787190582840882e-01,-5.358509235480896082e-02,8.675878635061143318e-02,-1.129220916950960385e-01,1.069362972711897231e-01,4.041849083963761080e-02,2.887889143905164602e-02,-7.758808054451615810e-03,-1.808196649531362832e-02,-7.849507238353824190e-02,-1.022241339332717047e-01,1.303688419457599001e-01,-5.655083240648427212e-02,-7.450311164877905512e-02,5.407398752400879860e-02,1.337225789897390771e-01,-1.847690254837552892e-03,5.387610770811940286e-02,5.986485405045119390e-02,-6.997281688553541601e-02,1.897930184068780113e-03,-7.198974429297816391e-03,-1.015760454033545479e-01,-1.025072461291166304e-01,-1.224962257586863501e-01,-9.383788687562437392e-02,9.918491043761817894e-02,8.100798719180510310e-02,1.008105943425497697e-01,7.703393867003222040e-02,-2.216872614445877798e-02,-6.159395925758576196e-02,-9.311925462042516810e-02
-8.914491618500719472e-02,-1.017169210858316630e-01,6.480675998432861018e-02,8.092402596675371540e-02,3.333225632425362850e-02,1.130533882355080066e-01,-5.222633895818702687e-02,9.026124751075670360e-03,-1.451683043092132086e-01,1.965972649242350712e-02,-1.463801486721233724e-01,-9.254179945213225622e-02,-4.529423515493515018e-02,-7.300535924797085796e-02,1.367501987798352692e-01,-7.764652371862801328e-03,-3.803647049002698011e-02,-1.358871434499272224e-01,-4.865657888146786292e-02,-3.949946521998454196e-02,-1.366065313239777645e-01,8.260767294640664060e-02,9.771544147005931102e-02,-1.371072747890801913e-01,1.275911965649106916e-02,-1.038458389146614258e-01,-1.307641590971846679e-01,-8.745661943132802818e-02,-4.738622487969318398e-02,6.188667785421769763e-02,-6.446578215212525609e-02,1.428587984671757793e-01,-3.947134184222994557e-02,-1.260852254041582576e-01,3.855994223106931629e-02,-8.635448864786994527e-02,1.267566288498706006e-02,-2.338643678725679798e-02,5.480608211646761929e-02,-3.328214794338418825e-02,-7.550086328847831207e-02,-5.671910029385884844e-04,-3.345086055211884957e-02,-3.297808749458883137e-02,3.745514938092001089e-02,-1.002248800875864820e-01,4.190170112721314233e-02,-1.158462575842766074e-01,6.585790182545755989e-02,1.394340352704679098e-01
-6.780927595334075575e-02,1.014082323079453507e-01,-7.345697175163973247e-02,-5.606437529130474384e-02,-5.524956017247786844e-02,-9.390414527273088785e-02,9.102571463441341826e-02,1.291908103490191639e-01,-7.012013674481883119e-02,8.833959839814162218e-02,-6.588326336829603003e-02,-1.076829338270723774e-01,-9.518120333998825178e-02,1.095051228788314901e-01,1.300281440681676781e-01,7.395683526960752929e-02,-3.261602086132095457e-02,-1.181395698491786161e-01,-4.653998905386259877e-02,-5.114830780299374491e-02,-4.924878140497211676e-02,-1.274710460513560073e-01,8.442053993130185785e-02,4.231066710304481893e-02,2.267449570246454771e-02,1.308176071630422210e-01,-1.396755555126299730e-01,-1.358984117930832070e-01,1.394986330345050207e-01,1.151135592352264814e-02,-8.104303208020897931e-02,-1.458419700014467468e-01,1.362881419230008995e-01,-1.169616905427006692e-01,1.263204065934378784e-01,-9.693775802688335552e-02,1.396922299812794477e-02,-5.936304903491664009e-02,-5.668527714521269523e-02,2.529715119504655219e-02,8.233038940823000917e-03,-7.076648764244569678e-02,-1.775918727034633826e-02,2.410455247518433763e-02,-1.027057408260068916e-01,2.981880974928802219e-02,8.569634907354714559e-02,-1.090496433590049663e-01,1.336656972600175630e-01,2.586001226823381183e-02
-3.802553326689261937e-02,1.314558212580360375e-01,4.636869066567966824e-02,-1.209667111963758923e-01,2.428363162806529418e-02,-6.164702674870643773e-02,1.382765254185693571e-01,1.159544233155162807e-01,-3.932828658666381871e-02,6.968872529896233403e-02,4.625550320849575181e-03,-9.640226876820584545e-02,8.354797808071606768e-03,9.608332415489717615e-02,-5.308185891552169577e-02,2.249649761503066947e-02,1.101826189551847468e-01,-7.877166678228327001e-02,-1.912897683924019709e-02,9.198128079305020743e-02,1.124174933070705984e-01,-1.020342302925607014e-01,-5.059259276934534311e-02,7.555268499381265213e-02,-1.324064128855631517e-01,-3.338964342453012990e-02,-2.059680485278403417e-02,-4.896193615351258910e-02,1.180525615549002094e-01,1.913644328612396084e-02,-1.230484758967480274e-01,6.410004307541738999e-03,-3.912994261776828187e-02,-8.718432078835265664e-02,-3.885326670390200354e-02,9.159630434610130378e-02,-1.393315858002841801e-01,2.042031624634951803e-02,8.039523434742906760e-02,-1.328819100266098174e-01,1.945750667913062615e-02,1.236805110300235599e-01,-1.216247151997876252e-02,-2.999106401103233954e-02,-1.460299361426185827e-01,6.974189999297941700e-02,-2.754448311632304303e-02,1.059360367631377031e-01,-2.418186841278832655e-02,6.591229765052497580e-02
1.237008131620908891e-01,1.358197198004947592e-01,-1.547774662525069900e-02,1.371660384847639691e-01,4.956398196504532838e-02,-6.245458067591265483e-02,-1.204771294994393671e-01,3.986796357223987286e-03,4.626969700746128011e-02,8.845665282982403954e-02,2.900619364422998836e-02,8.836319873116282864e-03,-4.346229794198996910e-02,-1.236262168176825854e-01,1.532888086691097662e-02,-7.536423242910754439e-02,-4.426135197252369091e-02,-5.652547711502868555e-02,5.133995878389141510e-02,-8.619103002676743730e-02,-6.745072247205552429e-03,2.846491325527378269e-02,1.231770915093376162e-01,-5.691186919978247216e-03,-1.456073217465330416e-01,-1.278380808157307258e-01,8.334668063943048710e-02,7.798844779361879809e-03,1.112543965347655706e-01,8.416925691514676178e-02,1.143795550570378405e-02,-1.184801303860498617e-01,-1.423937899238338078e-01,-4.125775156174806002e-02,3.571774675851444036e-02,-1.322576043454321559e-01,-2.432584662178546853e-02,-1.337816963931523218e-01,-2.933919266418733018e-02,-3.509782023332461143e-02,-5.850901610795085361e-02,-4.347421140529240946e-02,-2.052849231256759222e-02,1.473003721933423271e-01,7.818392367279741739e-02,-4.923753980369506567e-02,1.205013815926089804e-02,4.636972479682721637e-02,7.382335026230868458e-03,1.403342261952225944e-01
4.676635231542874971e-02,8.422746438919390122e-02,-2.885811644984637159e-03,9.614535876062466069e-02,8.401576458232917766e-02,-5.521257772992575752e-02,7.974960003557285404e-02,1.226050533826344713e-01,-1.314778727090831767e-02,7.958967148244261436e-03,-1.337230076410974300e-01,1.396394396141731331e-02,-6.550789298096312829e-02,-3.335071947114465196e-02,8.673780745602877040e-03,-7.804065450359948253e-02,-3.565755868861505973e-02,1.169191613041163647e-01,-5.018529237716834457e-02,3.386426545371171160e-02,1.227689891372553965e-01,-5.080505088469135233e-02,2.945834609246070213e-02,1.846799740451701699e-02,-1.345833032512433469e-02,1.239385396052125610e-02,-2.647890254518422970e-02,-1.051711294442433664e-01,-7.866604838650166631e-02,-1.228831301419827243e-01,-8.103933177750599626e-02,-6.885997910135668865e-02,-2.528035724307889365e-02,-5.147182957949429649e-02,7.805347188102690348e-02,-4.618707699647568721e-02,-2.307228746947148634e-02,-1.741809592942181184e-02,-5.502708455331366266e-02,1.899024652466796415e-02,2.773814729361540055e-02,-1.424790671591625590e-01,1.733623561909436450e-02,1.323933713498494369e-01,-5.416243882981146285e-02,7.821953337898804315e-02,-1.218845843768087966e-01,8.401165471028082532e-02,-2.782798532049764184e-02,6.876393880012227067e-02
4.416757714243657595e-02,-1.697018545750128560e-02,-7.666749333572753233e-02,1.594913386349208761e-02,-9.311841770692969034e-02,1.018104168047247737e-01,-1.297707957670053147e-01,-8.422887348885650660e-02,-1.497850159739401443e-01,1.408803824533998161e-01,-6.196226194150424027e-02,-1.306860308187191289e-01,-3.622591675543031242e-02,3.732561244989657245e-02,-8.076069587459988597e-03,9.667850587409668184e-02,7.967739604978152368e-02,-1.083445048655508891e-01,2.413270398274411366e-02,-7.661169809459300595e-03,-1.025441906414063242e-01,-9.789975924026209086e-02,-4.338671520842517226e-02,9.696448920738937050e-02,-1.252124310135742657e-01,4.598691650678157772e-02,-2.583805840296317380e-02,-8.541270084556810971e-02,9.964685168272202631e-02,-1.126708886444777458e-01,1.312827657408558168e-01,-7.441862485086429835e-02,-4.496164169174968195e-02,-2.773126649003092303e-02,6.652338746784874912e-02,2.556849707961228457e-02,-1.404481149700045062e-01,-2.940829113202696188e-02,-6.791234643690595429e-02,-3.172310628115716791e-02,4.315268666554805677e-02,1.356460826546506404e-01,4.745405495729720924e-02,-9.315771300863927296e-02,-4.254670445348938956e-02,7.027916228763964046e-02,-1.862503966427486723e-02,-1.123285298697269952e-01,-1.296734918375890833e-01,-1.021377490136605171e-01
1.383327124547529541e-01,-1.222841429920666634e-01,4.944885396706455438e-02,1.157093571958303646e-02,4.726529112533905952e-02,4.158253038115228284e-02,-1.377499090251809999e-01,-1.451624360856204332e-01,1.477662845937284530e-01,1.497482107455428146e-01,2.269606158737544344e-02,6.968376374568502341e-02,1.910682210326131170e-02,1.765312428206616824e-02,1.374689788532506840e-01,5.545864922657534057e-02,9.573541876239666237e-02,6.493084692937603486e-02,-1.178514408423777249e-01,3.367548873149925348e-02,-5.134210733420115080e-02,-3.328393142386529280e-02,2.965492788111601108e-02,-7.582864122379208427e-02,-1.396405228562520029e-01,-1.830483367680041384e-02,-7.265129844912437962e-02,-7.687866326774840664e-02,-1.284975872580337020e-01,-2.128389928537371967e-02,2.017856041413701451e-02,-1.184587623773485782e-01,5.697079104906108138e-02,-6.548646144912768918e-02,-4.853763703876552704e-02,-7.233866630603895398e-02,2.663855453643534932e-02,1.210741317956473828e-01,1.334980855153485579e-01,-6.358979313693419178e-03,-5.297726620045402346e-02,9.492426217198307592e-02,1.393945985876889615e-01,-1.490226901643920687e-02,7.205142368939998487e-02,-2.484189587481835937e-02,2.821190906940887477e-02,-1.041076837340008943e-01,9.897086215348455118e-02,4.581043434060044772e-02
8.423166796515577093e-02,-7.628659812850509259e-02,-1.115112704585348447e-01,3.902087925043606909e-02,-2.040225726198904854e-02,1.221944004518846216e-02,-5.683883502296625811e-02,-5.415418973616066556e-02,-6.719129486253858086e-02,1.065633890596558719e-01,2.517751367547549357e-02,1.131432587623591723e-01,-1.337460019825996160e-01,4.464367351225340119e-02,-6.487498837133751084e-02,1.197426738416796088e-01,4.429813310024566242e-03,2.853923146206185923e-02,-3.531363491610102490e-02,4.943330183079600038e-02,-8.931568964953062739e-03,-1.115577448497763052e-01,1.296443081356555005e-01,-1.109876890051517406e-01,1.217711692912894772e-01,-7.832750156340329006e-03,1.020863040498093677e-01,-2.324920325522916720e-02,3.912983862410651659e-02,-1.601884141826062646e-02,4.610541040626892073e-02,4.326636482322729349e-02,6.181766656670023563e-02,2.227319997602369983e-02,-2.573518930063239951e-02,-5.641846968492482406e-02,2.860628398451511845e-02,7.936594275648553576e-02,-9.443538370064234744e-02,4.514604213904524488e-02,-1.807698652539185824e-02,-5.444999419599125257e-02,-6.471550057173831860e-02,5.446581772107655928e-02,1.144714879457362222e-01,5.855758647490427737e-02,-4.383405962905408126e-02,-3.414625064838512636e-02,-1.119055327719798709e-01,7.123108119504978353e-02
-4.319564370767831063e-03,2.124465714663231405e-02,1.314337108075423755e-01,-6.200927406563794264e-02,7.038403964771069998e-02,3.609403602813088252e-04,-1.070240730547555724e-01,-1.165049025539030975e-01,-1.332686480727334269e-02,-4.633216431412418013e-02,-1.694657472106770452e-02,1.046767437917888316e-01,-1.195199169528468885e-01,-3.206020587734892402e-04,8.450853840768191017e-02,4.791695628962210768e-02,1.006260097698397638e-01,-4.188176597888032537e-03,9.214329087264795659e-02,1.341087838002797024e-02,-2.636393389169949114e-02,1.129687052156307658e-01,-8.602730606126778035e-02,6.792896570516056276e-02,1.137501656952816520e-01,-1.480491841212789039e-01,1.646365179096975773e-02,1.165644790241355533e-01,-1.124038692814094409e-01,-5.282525813936642112e-02,-2.778748717839399016e-02,-1.425069452411493465e-01,-8.223397414617250600e-02,1.229883862149417084e-01,-1.187773829973308160e-01,-6.026642847113700130e-02,-1.287132699230106314e-01,-1.236846595613899646e-01,1.378521535797097852e-01,-5.420089694414094439e-02,-9.277800634707278338e-02,-8.038745755172715945e-03,4.659320746551470771e-02,1.324046694356587894e-01,4.565794560533367741e-02,-2.324862497927642976e-02,-9.371609995854068842e-04,9.360332913732564986e-02,2.844577175647682726e-02,-1.255613072121342100e-02
-8.636680795623206952e-02,-5.174476224543099294e-03,-1.062939837351733335e-01,-7.467603983471919615e-02,-5.212350893585618837e-03,-4.981900734479073611e-02,4.431419804473182844e-02,1.375912705320986029e-01,-1.446408117878391353e-01,2.913756737322822921e-02,9.943615055284831666e-03,1.012870475523056785e-01,7.110967943164181460e-02,-9.365486684415862129e-02,-6.611823065945592048e-02,3.501802456237153999e-02,6.454141984063982429e-02,-4.253194298343393465e-03,-7.437490090908262415e-03,-3.143806601948822416e-02,6.299531272334902600e-03,4.659767313196300220e-02,1.185072393304503063e-01,1.931633400456534908e-02,-1.337925874072018739e-01,1.123248271007754318e-01,7.739039033928843403e-02,2.288964659387647191e-02,7.214321858749087046e-02,-7.817505193892237969e-03,2.962679116008571159e-02,-2.990954229259359942e-02,-1.162004701579262556e-01,-1.097672803300321076e-01,-6.384765708846014409e-02,1.380293693579753012e-01,-8.242031438035651858e-02,-1.168150230919905441e-01,9.732832965249680821e-03,-5.955111403477848786e-02,-8.262533274903048619e-02,-1.154193789071754211e-01,2.575426001218328320e-02,-1.411466316198803916e-01,-3.285401037996139861e-02,2.647656397319444240e-03,-8.036378133778350474e-02,1.228929500798213725e-01,-3.514804418547382708e-02,-6.191170279623028905e-02
6.317922903363186460e-02,1.194759702295537449e-02,-3.474309288477731711e-02,7.803057518705550089e-02,7.138962538136764402e-02,-4.629537341161323732e-02,2.864732078561533363e-02,-1.217766126487217077e-01,-2.263815558671984640e-02,-7.486465090281799184e-02,-1.406863076042906280e-01,1.500404003722159985e-01,3.258137631407459489e-02,-1.404133933363544973e-01,-3.751999367532690699e-02,-7.792251951343928673e-02,1.101449265421602375e-01,-1.376030206269857059e-01,-1.005290909229336893e-01,-8.812630471426741163e-02,-9.166652849735866526e-02,-9.384116938633019211e-02,1.328229666855052504e-01,-3.597488121613304918e-02,1.355539128857779496e-01,1.282302963461509626e-01,-9.350098337442597218e-02,-2.317283139305171408e-02,1.011463937482705716e-01,-1.371598734929023455e-01,1.483070802977542457e-01,4.818187575568621400e-02,1.569870170456653391e-01,5.643146271820093270e-03,2.879269688576724384e-02,7.557409993478312379e-05,7.985998272029209977e-02,3.060414064975686133e-02,1.140918870438961535e-01,-1.323831260974030199e-01,4.406212855291070929e-02,-2.776578818652386191e-02,-6.819299739562155460e-02,-1.854302057194593886e-02,-7.334565515688014348e-02,-3.677634778529518395e-02,-8.055737061825828105e-02,1.248468592214932883e-03,5.283946835754428639e-02,-2.617743365998792537e-03
4.353274352222875898e-02,-1.093503463843855800e-01,-9.455332560025223043e-02,-1.472842218267547687e-01,9.665729128681123383e-02,-1.269451073016793496e-01,-1.419059358324452902e-01,-1.399201855252593940e-01,-9.294413147607677450e-02,3.044328029831870272e-02,5.475583488741598420e-02,-3.980395528921074760e-02,8.821842401315559135e-02,9.923334077734215219e-02,1.216399808047955583e-02,1.134214692170907868e-01,-3.869011421101924836e-02,1.182890276956089642e-01,-5.466014178946006392e-03,-1.091835929215319856e-01,-6.306517794504098995e-02,-1.458580004548231668e-01,5.809219915284221693e-03,2.733482247037965357e-02,-3.365960934486036948e-02,2.854248654973708110e-02,-1.142860734545302487e-01,1.082968543902135955e-01,-1.419960048489435356e-01,5.399691739450429573e-03,-1.281430606556029639e-01,-5.613358123457793530e-02,1.972572343303368586e-02,-1.711132981784037679e-02,-9.319912447164604985e-02,-5.290715844020739411e-02,4.665861795668497375e-02,-6.390061578064876180e-04,9.689042686394433446e-02,-4.951213106684701319e-03,-1.169135836882842228e-01,8.251057210908079032e-02,7.001951200274381115e-02,2.480561547608556641e-02,9.392372547443768316e-02,1.134399719396692457e-01,-3.171357241350726552e-02,1.260684302828004033e-01,-9.993101082464161955e-02,3.975427993243085822e-02
-8.480149945566520242e-02,9.735545934635198018e-02,-1.070742659365577498e-01,-6.884945372648262896e-02,-1.460615554370708336e-01,2.543530322820027750e-02,-7.985784703925767614e-02,4.068097821744985632e-02,1.866548594048673580e-04,1.469109915127573551e-01,6.498110205262956456e-03,-9.821416408844066415e-02,-2.197813680526752161e-02,-1.100954169160201085e-01,4.116106317331966191e-02,1.081425523621815099e-01,7.163426694236660341e-02,1.198077411838995299e-01,1.166510094695560468e-01,9.235535863664913470e-02,7.587935643315794378e-03,1.079191874691508984e-01,-2.636932332564896966e-02,6.527098981877918482e-02,-1.317304313497871526e-01,-1.252565299834917101e-01,6.930943143231078907e-02,-2.885889189993999862e-02,-5.599057679288074740e-02,3.883474832564109969e-02,3.838631420932894778e-02,-1.280340116171635803e-02,-7.683370544756112919e-02,-6.327915009417608982e-02,6.962577098543765337e-03,-8.942942761203220847e-02,-2.177185463889742476e-02,1.326219763412520014e-01,-1.163048700502039429e-01,1.262970002122149882e-01,-1.215412358366826755e-02,-1.644120947567496993e-02,-4.275553211692070810e-02,9.813459078738781191e-03,-3.918436508704137809e-03,1.052388803610736917e-01,1.311111863780486664e-01,5.211698331173108406e-02,-1.325630644388876012e-01,8.461938105984753711e-02
-1.333091795759009657e-01,1.443389358062565631e-01,-5.936257687699397767e-03,-7.761963078446543207e-02,-6.168819904515979126e-04,-1.458920803212482575e-01,4.098323045413727189e-02,7.776775534454100428e-03,-1.098775309116046123e-01,-9.036637916506756740e-02,-1.165504042126987438e-01,-1.337352412573876992e-01,1.444717443363346121e-01,1.431954531323353652e-01,8.667423079684699605e-02,4.154357666044571767e-02,-1.377561027660616499e-01,-9.838578654989500738e-02,-2.896604007643363218e-02,-4.856140201375349665e-03,-7.576360889525404763e-02,9.791652514610955926e-02,2.674508122046133363e-02,-3.423157872751890311e-03,2.246822151659355268e-02,1.214114154285728386e-01,1.007451510531444383e-01,1.130676171965079024e-01,-1.554953937819144281e-02,6.141016606092336572e-02,-8.258967618937754218e-02,-2.872098294588720790e-02,3.303709556069677616e-02,-9.169030608716388642e-02,-8.371912389086606787e-02,-1.072334084454957537e-01,-3.844597788396371396e-02,4.760688925299227242e-02,1.362144607016804732e-01,7.178253010214334651e-02,4.697147211121220634e-02,-4.545643427132458995e-03,-1.027939958637748702e-01,7.886495840304598437e-02,1.790967195107435184e-01,2.350387694467309663e-02,-1.166095033305626361e-01,4.284087852134849106e-02,-6.394953087441750117e-02,-3.387867566879083914e-02
1.555532180563056616e-02,-9.882022794528291798e-02,-8.986212724625963766e-02,-1.129188450696596568e-01,-3.993629883148498011e-02,-4.149462739316623489e-02,1.497797388289495019e-02,8.270754353016604443e-02,3.919725895468803567e-02,-5.096266539503662568e-02,3.751817083655873547e-02,-1.260260085134977115e-01,5.048304315448359780e-02,1.269803450171826109e-01,6.798804639104240322e-02,2.672880555600344599e-02,-1.053435131478574899e-01,6.846003299703302784e-03,-1.113845113988594510e-01,-1.479905751575657513e-01,1.441366789651095034e-02,1.155636713773683238e-01,1.422955621082679922e-01,7.603869946053068429e-02,1.379292310789929088e-01,-5.727762863442723701e-02,-4.040094403742141432e-02,3.935354513607201843e-02,-1.226998765054793106e-01,-8.276340794700066950e-02,-1.435392818316723607e-01,2.335409032389958173e-02,-6.253951547200148342e-02,5.290886151715454289e-02,5.407638721291811029e-02,-6.933106019422607957e-02,-8.531843225436334943e-02,2.682880304372903951e-03,-7.878302427556845011e-02,-5.544780708926981549e-02,1.303102567175146165e-01,4.952005094057927714e-02,-8.115591956369676285e-02,-1.222241157600500172e-01,-3.006479268873142943e-02,1.051982429632094818e-01,9.700907887472297320e-02,5.079834028730912700e-03,1.287444698800093434e-01,-8.060337734222906836e-02
6.427448718674573513e-02,-7.554943009657322239e-02,-5.169497653849429442e-02,3.119238693842829938e-02,6.288333639596919988e-02,1.404866015794519474e-01,8.942271202561646870e-02,1.338578801904802967e-02,3.617058220360421655e-02,6.234016836298122977e-03,5.174265708895922633e-02,3.801396710847853438e-02,-6.067220124584254276e-03,-4.484560166142260995e-02,-1.644843615910174806e-01,-1.155383741280982535e-01,-1.300820671838574805e-01,-7.212511390530014499e-02,-1.131170637459367606e-01,-8.194748373560867272e-02,-6.237311032479660872e-02,-7.278874795584798496e-02,1.392496679172775254e-01,-8.424675021348301818e-02,-7.763546271581786562e-02,-1.232007145204731396e-01,-9.903181191996979216e-02,-1.345370368196409094e-01,-8.740190728220659233e-03,-2.818450428550473008e-03,-1.426702016720727551e-01,1.371121250553390958e-01,1.397006380645280099e-01,1.123515693025993190e-01,-1.541588616593436538e-02,7.142951703448133238e-02,2.950707307943987914e-03,-1.417426803864842433e-01,-1.044581620524531046e-01,1.295814791353520623e-01,1.430807467346240369e-01,-4.302353152231096906e-02,-1.438298856329410791e-01,-9.295286914877352868e-02,4.658025069097324750e-02,-6.889660392197961836e-02,7.545751364758299107e-02,1.239928505146720705e-01,1.865141528341332858e-02,-9.258455536561124855e-02
-6.552997724890140263e-02,-9.701664994815270560e-02,-4.992647369451609640e-02,1.658983419346454768e-01,1.384600671167022790e-01,-3.924779223952656881e-02,1.006108287258653533e-01,9.490695755252287480e-02,-2.380555644716259023e-02,-1.338561426860099546e-01,-5.018221387213377821e-02,-1.548041479692512795e-02,-1.036603396106545311e-01,4.622221654345144010e-02,1.152961615004016033e-01,1.186784997859746671e-01,1.055702153254930130e-02,1.129848851896686351e-01,-2.164117659617229711e-02,6.752634086268770319e-02,-9.467856873219869865e-03,1.314212746561940481e-01,-9.377490638985688798e-02,-9.627493935595415886e-02,-2.433346143371371839e-02,7.909047803693752821e-02,-1.549205633451002651e-01,3.181229523480991195e-02,-1.428319300573871742e-01,9.128496149307050930e-03,-6.923865867565831556e-02,-1.209256613772315830e-01,-1.013772159919443250e-01,2.137334029109433722e-02,-1.019065092503148307e-01,2.209275699950340177e-02,-4.597823940327522285e-02,1.237038891223526949e-01,-9.167431855930963103e-02,-1.985802358338927681e-02,-1.091465115313628165e-01,6.825210908380630048e-02,5.110751873825541969e-02,-6.367344774185343392e-02,1.070644975204407545e-01,-9.540253147011119872e-02,-1.421597453587644388e-01,6.293255798789423872e-02,-1.256160799617681012e-01,-1.158098079802871438e-01
4.570242299219915566e-02,5.745150998665483899e-02,9.144193135782876375e-03,4.163294327791276783e-02,1.846624904873298001e-02,2.008771678754012538e-02,-1.030160518492703320e-01,5.669654482666688922e-02,2.186186577221538307e-02,-1.256395890185267317e-01,8.085021671161370105e-02,-2.248833238506336291e-02,1.457767171157531572e-01,1.099514599631974676e-01,-7.504963717627904929e-02,1.977394227352411438e-01,9.242340477187769698e-04,-2.434568194722943821e-02,-1.309098895527138588e-02,1.633741798503598741e-01,1.889583125710704928e-02,9.567956988755314807e-02,-1.028965922005863759e-01,-6.925211587012010395e-02,-1.213818905642964491e-01,-9.163326731257302737e-02,-1.399034909737490728e-01,1.325044408492258852e-01,1.346348403913794345e-01,2.872317154800241995e-02,-1.925558663973046813e-02,-3.364065906583374455e-02,-1.264914699861414416e-01,-9.237573452413866404e-02,-2.318264892950212819e-01,5.116620231762893101e-02,7.299072933597156032e-02,6.758448734580560502e-02,-6.225914503944963291e-02,-1.061248278731824757e-01,-1.253339090342412421e-01,-6.940143946376206574e-02,1.622717400984129421e-01,-1.487804906180077158e-01,8.878084782684628196e-02,1.513019241419000238e-01,-3.531917388995303025e-02,-9.881817852078512987e-02,1.159975287703979840e-01,6.787594769199084555e-02
-1.219602144349452195e-02,2.432374822699762129e-02,1.114686732739798986e-01,8.628083917045777096e-02,-1.506219039997799547e-01,-1.246840075074575060e-01,1.268378837577693041e-01,8.148602755253414598e-02,-3.726201433791821640e-03,1.558383811742259165e-02,-5.725175084513767915e-02,-3.093781616778971261e-02,-4.146703347736985928e-02,1.285760394492693193e-01,1.132661547583465045e-01,-1.045283104186266604e-01,-2.426027024004313859e-02,6.279464203386025956e-02,3.433138443557387509e-03,-9.418340141525256837e-02,1.876393175227978119e-02,-3.831241622713134343e-02,1.236622554706516552e-01,2.030178344952000141e-02,-4.860702028274847125e-02,1.280870672390068896e-02,-9.191378201949558513e-02,-8.134524045109473023e-02,1.840136168370153785e-02,3.883974503027498582e-02,3.020728722370637567e-02,-1.273343224212728775e-01,4.890111772646427851e-02,-9.048881967107347268e-02,4.310409235800622546e-02,1.375198657250077151e-02,3.779940169958775908e-02,4.006372059525414864e-02,-1.303958444697676800e-01,-1.046971769719411138e-01,9.223570366153946432e-02,-7.697294259222618729e-02,7.024121610325208265e-02,9.306857894137809950e-02,1.159774643742582934e-01,1.019450705474189839e-01,7.178125220310761778e-02,7.497669639867822478e-02,4.970695376087547190e-02,1.175523192481203877e-01
-2.771942035571766869e-02,4.910681102510001950e-02,7.024061951443891227e-02,6.197418796394846274e-02,-1.219044034531803905e-01,-1.475613529955693559e-01,5.469796576976799357e-02,1.210991838423200462e-01,-4.148436384807781263e-03,-5.815517537966747447e-02,2.529771975371659584e-02,9.734801492317786409e-02,7.006183239461487300e-02,1.876840671005012076e-02,-8.007211830002841646e-02,-4.265173457395383255e-02,-9.461113672417661991e-02,-1.155288551558198429e-01,-4.199332787111888232e-02,5.406984956528179675e-02,1.516696453663753386e-01,-7.597894154731570093e-02,-1.020422411462845874e-01,9.485263071294681991e-02,7.530444029856694921e-02,4.448168981641115877e-02,-8.138307128991185968e-02,-4.671923346591124425e-03,5.509224312079018249e-02,5.856780130374583671e-02,-1.382687289929006025e-01,-1.294619563317539815e-02,-1.312985312482812528e-01,-7.750273769441839988e-02,-8.033859875212431834e-02,6.514545803477411745e-02,1.348989536870545507e-02,6.854108953905871382e-02,-1.974576477802076832e-02,7.023625662601391817e-02,-1.908011080425145098e-02,-1.337593313307781639e-01,6.144001353658557624e-02,-3.771179992082225596e-02,9.558675627798553232e-02,6.854481254280785085e-02,-8.118794377451550581e-02,3.247997434917117288e-02,8.550898686569399776e-02,-1.183262017623441936e-01
-7.324469426379749681e-02,1.396626365648209467e-01,8.513916300231044731e-02,4.501538188368728322e-02,-1.240431134358838811e-01,1.012720917473962368e-01,1.168973263242624044e-01,7.345878980261635882e-02,4.222237534896511324e-02,1.319527039339504215e-01,-1.960552437778432036e-02,3.452125904134835388e-02,1.164750145643938389e-01,-9.902670210703594378e-02,1.174339902491097071e-01,1.337780632753930721e-01,-4.376705838346193339e-02,2.290598751678998846e-02,9.626095660643990692e-02,-6.067793249780513432e-02,8.309097209969001918e-02,-1.465623940430038630e-01,-7.906852110793712030e-02,1.466324159087619705e-01,-2.254632723075116960e-02,1.472751472116220171e-02,-7.193441911084341722e-02,9.098349985413677066e-02,-1.074524298108516934e-01,-1.462539782715295000e-01,7.208692143653411266e-02,4.974186747350483467e-02,1.313008968770629503e-01,7.529584228412361524e-02,-7.828432700622844215e-03,-5.921279274896138617e-02,-5.825913659517752315e-03,-6.617326811144608190e-02,7.803469922194399000e-02,7.310895416834134464e-02,8.032397965304040321e-02,-1.298910662847391484e-01,9.033644658170185415e-03,-1.144416757228799847e-01,-6.513654187124684469e-02,-3.855533707178831343e-02,1.752913326045197132e-02,-5.643829771405307894e-02,7.970782046934328513e-02,7.948544344864300060e-02
6.617194924865568706e-02,1.233819999533258549e-01,-1.520065449621194054e-02,7.480064910576128545e-02,-5.717311357552094797e-02,-6.878780146387591943e-02,2.100576399484896384e-02,-9.414557071873022598e-02,-1.248285181207276495e-01,1.324047057160916141e-01,-1.056144837420758542e-01,1.496612863566972040e-01,-1.013420859032677923e-01,-1.979985581546104319e-03,7.827971395981317415e-02,9.805157157544955315e-02,-1.252747423347236599e-01,-7.001084596715957675e-02,1.376845975419480339e-01,1.407347799898869545e-01,-1.386978637566115280e-01,-1.441929953700510081e-01,1.486353829008992544e-01,-1.277293305548769242e-01,-4.463465004827642246e-02,3.254245301238949117e-02,-3.532785285043202328e-02,1.262499479723045714e-01,-4.904254473189120084e-02,-1.455662457491204986e-01,6.130767575411623371e-02,8.961160332525533456e-02,-6.576570719631111284e-02,-4.783124121561498771e-02,-3.870769140168088540e-03,-6.092338663966680168e-02,-6.768017706600275296e-02,-1.096218162050846129e-01,4.424722389172539017e-02,9.739350045424322033e-02,-1.957976348868050928e-02,1.098147272250626361e-01,-1.329889712152881043e-01,5.354305905081014477e-02,-2.373631434737604254e-02,7.375554788225908986e-02,-1.051966808155741090e-01,-7.029250561269913267e-02,1.026348930035423379e-01,8.884553097600736415e-02
-2.961701941884191738e-02,6.751774279327898975e-02,-9.302758033887462141e-02,1.167218982815395323e-01,-9.022526292919791358e-02,-5.710482889333851064e-02,2.110619930555159007e-02,-3.770494723933926623e-02,4.179255530975640315e-02,-8.560189814662477747e-02,1.483250262764269911e-02,6.206799545491612641e-02,-5.022916367994676584e-02,-2.802249873020213819e-02,-2.651834622104027109e-02,8.910135958218633190e-02,-3.092476178845142941e-03,-1.384182034545508866e-01,-6.453128810411967731e-02,7.482582507370387492e-02,-1.279596421054243205e-01,-2.543118834675742179e-02,1.305373871668956132e-01,3.075766594812793728e-02,-1.212827256122563958e-02,4.535902952578997095e-03,4.760106256798803809e-02,1.235949268505034809e-01,7.318268374377623342e-02,9.572462319525215646e-03,2.272842304145510778e-02,1.300848298640771283e-01,1.130444907157722029e-01,-8.673043809737060461e-02,5.871726008886905129e-02,-1.060620422522089712e-01,-1.368165609955934447e-01,-2.239563737674503049e-02,-1.203727016104898379e-01,1.453709880084801120e-01,5.973462544463384316e-02,-7.323367672306453635e-02,-4.186345299470892178e-02,9.814971616790250930e-02,1.063293078224647470e-01,1.004202083039706928e-01,1.174596686324302086e-01,-1.453630980998496525e-02,-8.063022489863587439e-02,-1.060513066119087577e-01
-1.164617703297719242e-01,7.296927182240681153e-02,-8.743388300296307813e-02,-7.334546923039658717e-02,5.977614420780829468e-02,-7.914951276686570114e-02,1.370993545500439614e-01,9.918253142114660456e-03,1.348943257901200343e-01,-1.487902454302757888e-02,-1.298674810706157146e-01,-1.325575467061733959e-01,-3.693153761729646434e-02,1.056288606004493341e-01,1.222995081543427898e-02,1.261262517356400159e-01,-2.907622221643288429e-02,9.463840819540592086e-02,4.387374097794090322e-02,9.941667061488293489e-02,1.840029377524669829e-02,8.486940245811538941e-02,1.429608435719631754e-01,3.874431676356338006e-02,1.458433136594343704e-01,1.346242061317612371e-01,-1.084175097965495993e-01,3.140078748758152322e-02,2.383841992086407208e-02,7.377567629912842873e-02,9.418042130019900482e-02,6.830144032607132765e-02,1.192048624770084345e-02,-1.079266613013175474e-01,5.535521963302895976e-02,8.170169260620496754e-02,8.951721917852117905e-02,-9.929149454172678246e-02,1.454969236692665036e-01,-3.677367167383352453e-02,-8.687639748865602640e-02,3.251224335851799624e-02,1.195049225781533303e-01,3.649985036727220605e-02,9.169729488832084607e-02,-1.180367358145125167e-01,1.462347904479664729e-01,4.516166038584870646e-02,8.681005903761981890e-02,-3.085587110634512020e-02
1.303884833023531420e-01,6.623471392504090560e-02,-1.039127053555709140e-01,9.942279456534616755e-02,-1.024800305358778418e-01,1.475822040944458347e-01,-2.121606455448923553e-02,5.734408852514419341e-02,6.494706264908538251e-02,1.453934948745680689e-01,8.900719027553785634e-02,-3.944814389476485050e-02,-2.312014371991041525e-02,3.144341942335572571e-02,-7.108380822315442382e-02,3.638937763523347746e-02,8.333266460566719769e-02,-6.747795951814031246e-02,-3.397761002617404047e-02,8.484592099336524251e-03,9.940061136756712934e-02,1.374937430250311732e-01,-4.445401113078432248e-02,-4.112209627761460179e-02,2.866389838148495836e-02,4.055383632569045660e-02,-5.401705862018804649e-02,7.869598590397529347e-02,1.422043068014495204e-01,-8.950122455776132746e-02,9.734806854465835602e-02,8.769129289945423733e-02,-5.443743187690357199e-02,3.391463338244621317e-02,7.660140042682010708e-02,-2.796729317856037553e-02,2.373467276645804987e-03,5.452122684443900386e-02,7.101301985488636670e-02,7.867932056502949245e-02,7.038165250915931481e-02,-2.535712384094145067e-02,-8.163740829423171697e-02,-7.023118180184365067e-02,-7.833237059203031205e-02,7.765608581914398845e-02,5.890399266804947215e-02,9.375411193818855571e-02,4.242686912599427651e-02,-4.139153525626156072e-02
3.398514446499786412e-03,-6.296124196711107290e-02,-1.151551486763798676e-01,8.479954387520718950e-02,-1.161416975585885664e-01,4.457729115688126298e-02,-6.306264906221249744e-02,-2.447432103976729389e-02,1.327535454366897960e-01,4.098949475878455040e-02,1.224242902494928481e-01,-1.011125520990207097e-02,-6.483287710155780093e-02,5.477418868891236609e-02,8.985498809408634657e-02,6.397009356941620040e-02,1.089175957383844845e-01,-3.329545386302146248e-03,9.347012864382749087e-02,-2.072696097724807673e-02,2.317707591785208524e-03,-9.707870310952187998e-02,2.319119621599322924e-03,1.478903629717637051e-02,9.142928536355091063e-02,7.702843459871033804e-02,-4.930511005657371715e-02,4.932840387436204094e-02,-9.344099015288241661e-02,-9.158193561121574788e-02,-1.235019296340984229e-01,-1.126946738930667269e-01,1.733067857214617632e-02,-1.714710452510154193e-02,5.636518476641882991e-02,-9.434854645885995539e-02,3.744084106166681303e-02,-1.117335391322188676e-01,-2.545452969892947337e-03,-1.264761656627320652e-01,-2.007484582737178308e-03,-1.993687529780102663e-02,4.618279594855642656e-02,1.436092025079543921e-01,4.562517132612228798e-02,-1.096750286785697359e-01,-2.244574843867450098e-02,1.214833564696576884e-02,-1.094618114657575081e-02,-1.376340460385987730e-01
-1.013808204653531136e-01,5.834673200717960251e-02,7.038933650212139681e-02,-1.480892665892866167e-01,3.828678114875899707e-02,-2.117714663597727864e-02,-5.915620387963842208e-02,-9.310410310725433791e-02,-1.127289714872361237e-01,1.300128814290072155e-01,-5.694779603646733801e-02,6.177861109740945267e-03,1.486498359804597214e-02,-8.158809434440288111e-02,-1.056065726048001086e-01,1.448400192370560557e-01,8.273147704688074699e-02,-6.662353198888151806e-02,-1.186804127537048059e-01,5.124219983293840097e-02,-1.294361754329787229e-01,1.486675627974493041e-02,1.094455035596207659e-01,5.203478266713601474e-02,-2.322187222560548325e-02,1.055068547489365904e-01,6.067233119106435479e-02,9.071176754495205441e-02,1.459474204752021220e-01,1.788464172115147854e-02,5.926665793307417385e-02,1.358923518039274192e-01,-5.425779931479102203e-02,-1.187251098085823631e-01,-8.973079035587352981e-02,-1.004339412359977896e-01,9.230670990347800142e-03,1.189059296086381057e-02,1.128819669130849690e-01,1.041165143819250682e-01,1.216123806215178849e-01,-1.056322348437532810e-01,1.073841017723773106e-01,-1.465376606095692702e-01,-6.134659391723709665e-02,1.433212785421370261e-01,1.324504591923421348e-01,-8.939122294629631149e-02,1.419591685896897937e-01,1.164619806111087674e-01
1.186666488006619946e-01,1.159341141351237503e-01,2.089197494352695861e-02,3.038906855695153175e-02,1.393630989130172637e-01,2.364080381815983345e-02,-1.187727826579221269e-03,-6.601738615316328496e-02,9.619416222541282702e-02,1.378294552891459468e-01,1.130332013675627578e-01,1.185476843497438593e-01,7.593094337628863988e-02,-1.431991818532956928e-01,-1.147289745961388996e-01,4.893608877868507734e-02,1.431817285695513586e-02,5.842264144894895872e-02,-1.221167580318480717e-01,1.041941311579242246e-01,5.908914343824769877e-02,-1.183584773950821373e-01,-3.189026457965560279e-02,-4.900584744251289260e-02,-7.857373878463176642e-02,-9.474541164426800166e-02,5.792622602297670120e-02,-3.729630560958713259e-02,-6.825287035367658128e-02,-4.182048848792722928e-02,-1.368462268068444954e-01,-3.646152199110959391e-02,-7.475529990405474501e-02,-1.215945347013314970e-01,1.112510709980433499e-01,4.784952171706483015e-02,5.007368520441768389e-02,-3.128359401547931018e-02,8.419992040745274964e-02,6.842923911170312179e-02,-9.725667891225708850e-02,-1.364053072481958839e-01,5.972875749452025151e-02,-1.379022619111894832e-01,-1.491466670034363728e-01,1.284699216503944197e-01,5.374980023216441305e-02,5.960239683130172383e-02,-1.019021201276909400e-01,-5.223688678915255901e-02
1.435888475008046672e-01,4.112189904119092909e-02,4.174350500691398347e-02,-1.223575660953368782e-02,7.654990841472827934e-02,-3.659932399277909809e-02,-4.018023395776186557e-02,1.297541041058389022e-01,1.340568072423164725e-01,9.101883613158517905e-02,1.105240129927368142e-01,-5.711784839210068410e-02,-6.616885098456266878e-02,-9.313428096085560326e-02,8.834218276388755564e-02,-5.653193401211902003e-02,1.230372088903719796e-01,1.325218523319567077e-01,1.445126808441093702e-01,-1.784422851845757219e-02,1.232422776259979036e-01,1.479703787023325945e-02,-7.737582565765005471e-02,7.086226283402125015e-02,1.087149738909356234e-01,2.741504534728989029e-04,-1.031821662263669170e-01,1.297655756580079756e-01,1.042335278866844683e-01,1.184810728808040892e-01,3.330491776137906035e-02,2.352703104090617114e-02,-3.487662491574497481e-02,2.622371155406227894e-03,-5.218561567050501726e-02,3.787524980529657914e-02,2.346028424719978633e-02,-1.750871821480282087e-02,1.455636559020667964e-01,6.593623479068502768e-02,5.332732439494175525e-02,-5.481896191584538502e-02,-1.047398677031394221e-01,-6.147284220279936040e-03,-2.488527912127774799e-02,-7.223280489716429886e-02,6.050345799434583838e-02,-2.248158864788019073e-03,-4.432188973336922966e-02,6.857280370499577171e-02
-7.513629288035456044e-02,9.826130117352513405e-02,-8.043410769817140038e-02,-1.060136687045933612e-01,-9.474968988656876090e-02,1.072591737785035526e-01,1.517013744130579767e-02,-2.605973964782480612e-02,1.241997268088160522e-01,1.006735015441807823e-01,1.109465968678050862e-01,-7.254292312929838671e-02,1.474800978782264682e-02,-1.355550347785804688e-01,-4.886968840942214343e-02,-1.586367344873731988e-02,-8.608410834267284095e-02,3.141469842450139716e-02,6.786452660132388792e-02,-1.392572718403882193e-01,-1.396153349460005355e-02,7.026481684283172879e-02,-3.075845665925999728e-02,-2.122895379705694308e-02,1.270592963515653484e-01,1.442526798691327328e-01,-1.105653007946880428e-01,-3.984568132561150389e-03,-1.034238074550396791e-01,-1.469177841986279154e-01,-5.207365142032426009e-02,6.579472638620423308e-02,6.285964735812749060e-03,8.398829278965205813e-02,3.694413307703009464e-03,7.971732820141602671e-02,8.825891623547343912e-02,1.262366757772522552e-01,-1.065758866738877320e-01,-1.159182735086246585e-01,-6.456070045485086395e-02,-1.046828740663180435e-02,1.446768325146325085e-01,-5.484479086684655724e-02,-1.398507844011378232e-01,1.121666388180534157e-01,-4.588297632851374985e-02,-1.389310464503842324e-01,-5.994947732221060643e-02,6.159883870085550162e-02
-1.354104220113921953e-02,6.331592593686036219e-02,-1.445119863320168119e-01,4.470190186461636683e-02,-5.748570244369127780e-02,-8.820401395025512237e-02,1.470243433517424425e-01,-3.965687142825492784e-02,6.929301080060568108e-04,-7.356962119055723837e-02,1.004071028123413034e-01,5.842419459736850063e-02,1.903046400984587105e-02,-1.171790310863331519e-01,-1.457442964259011153e-01,-1.395743027383388457e-01,7.806730607201350924e-02,-1.061439286778539937e-02,-1.641320998669765219e-02,8.258282647042530789e-02,-6.742247411835168569e-02,-1.044476129355010191e-01,-7.311185403697914587e-02,8.546114001916269021e-02,1.071492718993466153e-01,-1.360774928946579532e-01,1.399799435082380861e-01,4.398607911405336135e-02,8.920304861568931210e-02,-8.951079432903488731e-02,1.181847450012843692e-01,-8.277919625034019235e-03,1.079661228606577927e-01,9.243823491445524176e-02,-9.581009971874343556e-02,1.059247206316493439e-01,-1.098757944625308458e-01,1.000971860669420399e-01,6.617063885060894823e-02,1.340562140493860854e-01,-1.027042442168383252e-01,-1.226936493465604766e-01,-4.155804703771183439e-02,1.265549007725704500e-01,9.936974880018711875e-03,-4.443253144184554360e-02,-3.185276376808474086e-02,-8.210057484589555754e-03,5.011265926306157636e-02,4.000661012533746064e-02
-6.098047681030122069e-02,4.021614089851399676e-02,8.535186086184168297e-02,1.394084091709369699e-01,1.407793062223633151e-01,-1.398128467274875886e-01,1.090712752086928361e-01,5.123624728065884204e-02,3.849020474308839646e-02,-7.041331239928466657e-02,1.092782788593168186e-01,-3.883676774861427594e-02,2.012686009064007520e-02,1.272653466797387389e-01,1.052494540389772026e-01,3.381932082138749962e-02,-5.920478278113361359e-02,8.164749698496234775e-02,1.435992176024640521e-01,4.562609846103490852e-02,-1.218555952306606543e-01,-9.454106761629360589e-02,-8.360835465263921629e-03,6.949090924583900541e-02,1.240183766902044904e-02,5.493785229887637733e-03,7.238130847477558527e-02,1.385782474485355575e-01,-1.133944297651752475e-01,6.203130044719210034e-02,1.237621093659805604e-01,4.731469850601391358e-02,-1.250837217433591608e-01,7.084672920035003929e-02,-4.811972738438037578e-02,-1.825567332067509763e-02,-1.153621729297941712e-01,-1.377416097016700147e-01,2.585125983217445578e-02,-5.407422874021433623e-02,-3.026663945222829444e-04,2.580288186028953379e-02,-1.294869189568782497e-01,-8.936184151045006852e-02,7.989669419137365725e-02,-1.248549687172392231e-01,9.365907443974344493e-02,-1.278523532228350024e-01,-1.403808832700136899e-01,6.813493037169637834e-02
-5.288687128536463666e-02,4.568007783532201938e-02,5.429600319982072487e-02,-6.824915973124619228e-02,-1.078486363399415449e-01,1.489428195265397881e-01,3.991712804042296669e-02,-4.767732392817160270e-02,-1.419792239222266439e-01,-7.257613433921841772e-02,5.693099959104166996e-02,1.528534127434588719e-05,3.151813297849545559e-02,8.516312567487410723e-02,-6.272469192918496417e-02,2.784058174232856286e-03,1.240624744658311018e-01,-4.371752121700434035e-04,9.925248651075482820e-02,-1.009851557167666114e-01,-3.853259044831330860e-02,2.514031050367177000e-02,1.180053360804788898e-01,-2.447826990264476144e-02,-2.406681133294119590e-02,1.037363931364884972e-01,6.755798024275483371e-02,1.074186035212141010e-01,1.627903892945603559e-02,6.152593245458459759e-02,7.730128721256665503e-02,1.429182455949369046e-01,1.763555568362334958e-02,-1.386880926635786770e-01,1.394794050920080963e-01,8.479281489177029063e-02,-4.601283363553680672e-02,4.722980163302303858e-02,1.069284913987506858e-01,9.961607047122686409e-02,-1.138208028302519215e-01,-1.289399226333781401e-01,1.478737427788098524e-01,3.054059733090225270e-02,-1.050850638233163103e-01,-4.778764289531989284e-02,4.418582969370915547e-02,-3.884148620434943466e-02,7.655691845997547595e-02,6.456071350275788268e-02
-1.968567998519521467e-03,1.131528453180419558e-01,1.033388220031440652e-01,1.291849405745996993e-01,7.166339233521243357e-02,-1.076868945685436341e-01,1.392776425345698399e-01,1.044099017760025949e-01,9.013939372424814578e-02,-9.467597169271091406e-03,-1.270643322411042775e-01,1.096014834826302964e-01,-2.448675480205525501e-02,-1.186257888958183737e-02,1.238863259592893062e-01,1.238919691563852843e-02,3.615875137012941609e-02,7.180843657292232396e-02,-1.530760654617252525e-02,-3.004382026757720925e-02,-1.426977349102183934e-01,-8.093636794917598298e-02,7.106696402249612632e-02,-1.409262697419289001e-01,1.254264062081509035e-01,2.775130567670608395e-02,9.967210953694979891e-02,-7.993457711737167459e-02,4.623421010667178033e-03,3.514535603447960233e-02,1.402605966436204221e-01,-1.412255674240122938e-01,1.441181111561751493e-01,1.071518342052804329e-01,-5.630872030409572737e-03,-1.364430780658881792e-02,7.703699082338721915e-02,-1.057944782948429252e-01,9.233796165709845516e-02,-1.025473138598916867e-01,1.231536023649383582e-01,-8.242461697871639181e-02,1.082319729278841403e-01,-9.600928667282515594e-02,1.382760478198274134e-01,7.885765521587051463e-02,7.385313982656460663e-02,-9.573556588809037371e-02,-1.128531563040822971e-01,1.294467819863564240e-01
1.235519988050456097e-01,-7.211515789810636623e-02,7.204177304187051045e-02,-1.437559765483858720e-01,-4.714954574522665226e-02,1.043735826628559155e-02,-1.361152523191324903e-01,-8.339452099290585452e-02,8.514459313852748568e-02,1.258528441136871068e-01,-1.344747826077273278e-01,5.664841931024596280e-03,1.198469600854354944e-01,-1.294147045748697267e-01,-2.509451436612955555e-02,-1.213323399901931193e-01,-5.797674424052823294e-03,7.320369453012465222e-02,1.381798167157557156e-01,-1.465036648023603227e-01,5.795671773061170789e-02,-1.046400527464953906e-01,4.001627043590267468e-02,1.228200441065038784e-01,-8.983605430226604405e-02,4.998323949954307927e-02,-5.604713445850924985e-02,-5.036301133826035642e-02,-8.711504788622399797e-02,-1.464653544892645931e-01,-7.024355110689266268e-02,-6.121883491144138045e-02,2.788528589569560720e-02,8.339017362645195774e-02,-9.329111775775127124e-02,-3.077555891450711734e-02,-6.643739761792810672e-02,1.319536248885935514e-01,4.334465801071976654e-02,1.300729097812776125e-01,1.391263669665388503e-01,-2.199027448190699063e-03,-2.277695057752315844e-02,1.140946521414906850e-01,-6.607435171022812276e-03,-1.496949860677562749e-01,1.360626815795996369e-01,2.658451411535625586e-02,-1.031200133223909854e-01,-5.880616569459214127e-02
-1.491976222443558153e-01,3.652172888863908229e-02,-3.562457237581798108e-02,-1.194976236163030336e-01,-9.057173053293186837e-02,-2.109498389170494370e-02,-1.278803779362324144e-01,1.346742606755235994e-01,9.934461184631404596e-02,7.978066907262734708e-02,-3.668256878190695458e-03,9.800876002974054368e-02,6.662627678375510065e-02,9.640757370224481426e-02,-9.339554051431794846e-02,9.784759097873518829e-03,-1.347910035458009526e-01,-1.487739791995651428e-02,-1.403896217063147212e-01,-1.460111769330066644e-01,1.133575836154412098e-01,-4.038606748900537557e-02,1.268988666371490270e-01,1.951824692502751590e-02,-1.266302340438359431e-01,2.911461092141742757e-02,-3.599314595200743538e-02,-1.058428114690390665e-01,-5.458182764855587510e-02,-5.133751810214183531e-02,-9.192456058789627571e-03,-4.459954375431197937e-02,7.108502075265885067e-02,-3.843018184020388639e-02,-1.082478696903071969e-02,1.111045462992182042e-01,-1.191326299282378792e-01,9.561813062308291422e-02,8.259273376593642690e-02,9.870545516350337500e-02,-1.319047898016824649e-01,1.345848643820655999e-01,3.058882200356394243e-02,3.513229197245867907e-02,-6.056194192411150368e-02,-9.396399782855101301e-02,9.735841733752217952e-02,-1.132526903122900580e-01,4.870300664224846976e-02,-1.120123888758579461e-01
-1.301478186015249117e-01,-9.709544312806064892e-02,5.038188269352852217e-02,-3.866907700060356196e-02,-1.414750265338832469e-01,4.843740746054175927e-02,-9.470627427458991332e-02,8.629269898986163811e-02,1.288589207635955081e-01,-3.001056392785533822e-02,1.349920541839217669e-01,1.504869211033289800e-02,1.480952679863977994e-01,1.018458487999329420e-01,-4.820706591009794872e-02,-1.387046536418682641e-01,1.503741112708809891e-01,-1.561478120440076313e-02,9.135740809675287066e-02,-6.440512234941918324e-02,1.518806593401559046e-01,-4.570419997348387081e-02,1.410046135152134283e-01,6.731270260574133413e-02,-1.305496688948330208e-01,3.227025107934683446e-02,-4.485927406332720913e-02,-1.104204772581749150e-01,-3.864093874799263972e-02,-6.282311395036593860e-02,6.563141799585328617e-02,4.104443840838742363e-02,1.310869171061714022e-01,9.564496753366347193e-02,1.034265000254705885e-01,9.104603321549342709e-02,1.293527068944540226e-01,1.408161075102749571e-01,-1.000498865713076307e-01,-6.367832519355089149e-02,-2.286103525750940012e-03,1.392989907026943031e-01,2.670714069409307889e-02,-8.071335598957760094e-02,-3.831226242425698082e-03,-3.521094618843260970e-02,6.351944157750277764e-02,-6.676589841551656967e-02,1.369973341445499537e-01,-6.900381395046403799e-02
-3.466774732137677898e-03,8.565616812964998994e-02,-5.458255658283134130e-03,-6.284339046512472937e-02,-9.683212097486473824e-02,-3.060232819820851366e-03,-2.550969805861799666e-02,8.986136795339966232e-02,-1.499175035130687339e-01,-9.238964172063199309e-02,1.900141074522059687e-02,1.631193252685888273e-01,3.283441449566369685e-02,-1.258085122497534236e-01,-6.355929364200810228e-02,3.132477671527521268e-02,-1.041212369853617287e-01,-9.245938075321419314e-02,1.755353993202145996e-02,5.323389456752757043e-02,8.561927185279696526e-03,1.368638606039654371e-01,2.126969870199147683e-01,3.472944139476055736e-02,7.235759369247027339e-02,-2.222348801623130754e-02,1.442487272846516323e-03,4.432614040856145549e-02,-2.069959373084682627e-02,-9.009274450598225847e-02,1.077808515550056079e-01,1.242242837814370171e-01,-9.055263898440463199e-02,-4.459147852600715833e-02,-4.809334518307151890e-02,8.402221987900848621e-02,9.574929365335401940e-03,1.309763387677951862e-01,1.450441978344593763e-01,-3.158443781534855249e-02,-8.898346883683462549e-02,-1.340341630726751276e-01,7.037990614236935838e-02,-5.312285671671541226e-02,1.176153231946743399e-01,2.586867336610402038e-02,-1.221390888388672880e-01,1.030848635849042072e-01,-1.043594758049310595e-01,-1.183095594200197082e-01
-3.591921875443671031e-02,-1.538294818580477653e-02,8.459096331753958309e-02,-1.654343284257177868e-03,-1.116632601602598057e-01,1.001853063069640531e-01,9.947397736511226496e-02,1.384864584635831786e-01,3.264258590828499063e-02,-1.149987516005287619e-01,-1.513938975947135279e-01,-1.432133005968811400e-02,4.098143531262452011e-02,-1.154566900522674411e-01,3.990141258973228799e-02,6.478298518114002091e-02,-1.002110997234289223e-02,-4.606661085600484429e-02,-2.886843795515959578e-03,2.408905407694693357e-02,1.690598207238181994e-01,-3.864039066184808691e-02,7.842433055408883080e-02,1.172572645052247231e-02,-1.457103881765612063e-01,-6.623065695127780539e-02,1.581869207754163231e-01,-8.515492229721166595e-02,-1.322172602547338205e-01,-6.843644470323413664e-02,4.572259564454708713e-02,-1.637276093122059378e-02,1.512029785647920066e-01,7.315372408965388137e-03,-1.898811393308075246e-02,-1.932660721762338024e-02,8.020615372134042020e-02,8.675628666654427307e-03,3.817217172103635342e-02,-8.761024298061183269e-02,-1.285599298347723241e-01,1.173977316826530816e-03,-6.012752888170163484e-02,-1.317366811377871927e-01,1.495587480304446000e-03,-8.706273787018051213e-02,6.478370977954649168e-02,1.420694662370175845e-02,-1.229605441895877810e-01,-2.319820309934868263e-02
1.255264467877627577e-01,-1.629216630785632752e-02,5.756548550639314921e-02,4.727900992157435534e-02,-1.351027570814269385e-01,8.192925011517063205e-02,4.923844355013402146e-02,-3.395395942916453608e-02,1.240241203950144533e-02,7.668298050098366903e-02,1.353973630389266047e-01,-1.151566777969945977e-02,5.136653892055597498e-02,9.945868353282560914e-02,-5.100680390365921330e-02,-1.082709886166439983e-01,1.817627606506057036e-01,-8.368527908966941209e-02,-2.402494022393903556e-02,-8.091527482938791482e-02,-8.385845067665426145e-02,2.819652524930081616e-02,-5.506208764174728987e-02,1.094803715358449656e-02,-8.725548576794651609e-03,-8.196167570144262393e-02,-1.441411440441123237e-01,1.245725460402974903e-02,1.175433553744793663e-01,-5.415208835744813459e-02,-3.150339864901895159e-03,-2.014095246658979474e-02,1.461814635078847735e-01,8.948123851924086325e-02,-2.661596419350068313e-02,-8.320569455329376862e-02,3.264358356759319152e-02,1.072103254805069003e-02,1.394615274441804165e-01,1.433486815902649536e-01,-3.803159781704817249e-02,-9.873252536268697921e-02,-5.932795199545269627e-02,2.169337558496976445e-02,-1.048807388052413608e-01,-8.473240803887259476e-02,-9.089062547421549246e-03,3.446439170615302888e-02,-1.371043530347429151e-01,1.149332181962683108e-01
-1.017144814601460417e-01,5.616907732998267094e-02,7.225725131373222920e-02,-1.199725805962062464e-01,3.051162912743936306e-02,8.975110335225364167e-02,1.459594736205510612e-01,-9.508456488252944871e-02,-7.018642854426911104e-02,-9.472934849962039161e-02,-1.443512572395646565e-01,4.476045319714268625e-03,-3.743164898058486817e-02,6.886189956328608863e-02,1.357395263840730226e-01,-8.409385404186292545e-02,5.063607221038225747e-02,5.519089536304634669e-02,-1.105073188857735034e-01,1.406146502241459317e-01,8.923348730697718001e-02,-4.057827554060568914e-02,2.483620501717694606e-01,-2.616174141365757919e-02,1.251480575493111314e-01,4.366435932845396523e-03,-1.928597426350121824e-02,-1.321327835868532641e-01,2.172826392200585474e-02,-1.125510490669244523e-02,1.223356897292285639e-01,-2.955641308234705292e-02,-8.507706873004459991e-02,7.767479005373449652e-02,-2.521375251929320466e-02,5.344881014858658685e-02,-1.623279512103504296e-01,2.366902885242367152e-02,-1.603082945376893553e-01,7.025964819622214363e-02,-8.246458386058971857e-02,-1.370719459585318656e-01,-2.280482601953375335e-02,-3.468499189563973434e-02,-1.210028692643577708e-01,-2.249282289346297634e-02,6.744547921105518984e-02,-1.355916351364956085e-01,5.164506818859092296e-02,1.295674745392141058e-01
-9.698299710464956813e-02,1.431499395863329929e-02,-1.752531914758326259e-01,-1.434873126203003654e-02,-1.697445233078312965e-01,-7.206246720714237775e-02,-9.849388363397307625e-03,-3.497849624578253103e-02,-9.725231922121432837e-02,1.108415765693647193e-01,1.455044166200672173e-01,1.345658844215699423e-01,-1.497459367246495587e-01,-2.642323047570592151e-02,-1.302465232869591261e-01,-4.097240172245471268e-02,7.485907420856341074e-03,3.940854162480780798e-02,-6.823842705752808380e-02,-1.165458945837004046e-01,1.599966457178348678e-01,5.184343271596095204e-02,6.036251597808196812e-02,3.324543106640963364e-02,-1.324868561056688765e-01,-1.453790160986953095e-03,4.844161828419338983e-02,5.014239236971051311e-02,-5.074450312288950743e-02,-2.506431038144494878e-03,1.228593753471884237e-01,-1.578278729456672469e-01,1.202444430074832565e-01,6.090981382585716232e-03,1.037318110431582202e-01,-4.009995852566135971e-02,8.924313650116827423e-02,2.860550252753999920e-02,7.025560700100315359e-02,-6.767046183968604411e-02,-2.880782211991701758e-02,-1.328267829950716961e-01,-3.718097797699562029e-02,7.584264263842181719e-02,1.685014462476935315e-01,6.163836222169150753e-02,1.197979118309100248e-02,1.008205845993917493e-01,-6.243784357642446353e-02,3.047427264077745904e-02
-1.388839612143492885e-01,-1.431443182159006788e-01,-1.779799331317199751e-01,8.928599142400318878e-02,-2.656336664110823045e-02,-5.879724057369644860e-03,-3.910154826964475951e-03,5.389212643260033603e-02,-8.698375742404397537e-02,-6.137351334678384923e-02,-1.647615691319383457e-01,1.891462621349281059e-01,-4.939508257337853897e-02,-6.803388961699495703e-03,1.518451646681588385e-01,1.178909862142394072e-01,-2.276732758900117115e-01,2.345003458418885769e-03,-7.329486485351097147e-02,-8.180909689991121194e-04,2.391190063722264114e-01,-8.790271070573524304e-02,2.800129715816421228e-01,3.613261946897711185e-02,-9.197520809991940882e-02,3.715802428482081060e-02,-2.597625425926247504e-03,-6.654212247367835564e-02,1.333952658860531326e-01,2.854055096367312874e-02,2.006582542913342149e-01,-5.115482130262973687e-02,-3.035133078780913318e-02,-5.786528666037146079e-02,-2.164189014699391747e-02,1.083910927686522752e-01,-4.799050448059271473e-02,4.920528405577488662e-02,1.568116561271689358e-01,-5.329720031571739958e-02,5.708600752045672744e-02,8.148336704609224213e-03,-7.455806922007156279e-02,-4.646944659674175776e-02,-7.255601209866557877e-02,-5.822717146073942002e-02,-8.745790560933949798e-02,-1.161772198396405220e-01,-9.622568713098748200e-03,9.021236896400235128e-02
1.674832812470981869e-01,-9.447540700991216567e-02,1.372745078153479910e-02,9.994599745776903618e-03,2.254172846735899224e-02,9.528486309831522491e-03,-1.191741893411821795e-01,5.120537308478653044e-02,-1.621774301999396872e-01,4.342883680647897926e-02,-1.587066797671659313e-01,3.388102547903947730e-04,-3.146155002636426973e-02,2.034246593258218494e-01,9.648587879809668311e-02,-9.547588406278990913e-02,-1.856145548840749115e-01,9.109685281876192531e-02,-1.379000551248239226e-01,-2.154689482555727231e-01,2.380553239856636194e-01,1.195490587296659801e-01,2.677959747823710490e-01,-6.628779063779752234e-02,-7.999666372131619685e-03,1.126979200814542809e-01,-8.213081553836262122e-03,1.592221632142867271e-01,3.489229300171594467e-02,-1.036669535614484355e-01,2.091633997987030480e-01,-4.352587443835660708e-02,9.805631051244326213e-02,-1.099791948923222740e-01,-4.064037670992223794e-02,1.094050818049095708e-01,6.735003846703722930e-02,-6.804427388327256854e-02,-8.382423887957594910e-02,1.143076195132593370e-01,-4.915965275827201969e-02,-8.631074968508559153e-02,3.350304365894421661e-03,-2.610497834046490023e-02,6.153035737259586989e-03,1.314713957002281997e-01,8.470843257935570941e-03,8.158826245574904434e-02,-1.496245116819868437e-01,-1.210370787591734665e-01
-1.037830270909643193e-01,2.543243896205091628e-03,3.453334533458982114e-02,-1.153781905086407322e-01,-1.166325807900503442e-02,8.513987651051094230e-02,-1.729687934925991655e-01,4.279132679678896573e-02,-5.016087605305848823e-02,-5.189697293755719809e-02,-1.448457379818917090e-01,-2.751045509053505825e-02,-8.539184668212866647e-02,4.811627604920055089e-04,6.176193331624858091e-02,3.631436146345993349e-02,-1.252930709199941983e-01,-5.773165100849065451e-03,1.369462093331718644e-01,7.899674473567258604e-02,2.117961034344578164e-01,-6.510672065084528726e-02,1.715362140473045971e-01,-9.064974227063882228e-02,-1.197737264015410474e-01,1.376112902050677933e-01,1.503575754746207249e-02,1.469550299455069653e-01,-1.765836255772676722e-01,2.859663839311277767e-01,-1.007954734880425057e-01,2.224568761360153080e-02,2.280268419634159660e-01,-1.115618039428156322e-01,-4.552379537394490167e-02,-1.123245919758831257e-01,4.395421287234242691e-02,-2.434770288000029370e-02,-1.359653812976375775e-01,7.919221995781505763e-02,-5.600685546081016208e-02,-1.159999747177896667e-01,4.281657156653697477e-02,-1.114075619628658309e-01,6.493893070569857484e-02,-9.430529873373795502e-02,-1.073488294784375324e-01,-1.283272528291600212e-01,-9.834041514569856479e-02,-1.338449379611872381e-01
6.824586945563188012e-02,4.138775400446961100e-03,-1.104677050581672482e-01,4.543065303938766120e-02,-4.272654704496493816e-02,2.262170663783362110e-02,-7.466976333025764079e-02,2.124240413176433084e-01,8.646743329267464473e-02,-1.062235996306334640e-01,-1.651097681999945666e-01,2.067845946193952456e-01,1.568458966451131420e-01,1.747382157102662370e-01,8.942723692331044916e-02,2.756524335337264819e-01,-1.356199511509266209e-01,9.492927799920214404e-02,-1.897401812430329349e-01,1.706875926695130274e-01,1.105063855938901024e-01,8.470811089254304260e-02,-1.360572303424898398e-02,9.223217752933561553e-02,-9.849575763568103881e-02,-5.976941703857501648e-02,2.226018561795817946e-02,1.216797107210964152e-01,9.644623035310814774e-04,2.508313140448689693e-01,-7.774984536952964098e-02,-1.278851141438986927e-01,1.048102460726708651e-01,1.076692887105459989e-01,-1.983085726413706396e-01,-5.966149452328421005e-02,-8.750488522318405904e-02,9.257268896712614673e-03,-8.193908334614320721e-02,1.215779448406638374e-01,-1.123733099063963931e-01,1.326120230673016043e-01,-3.752024878144995246e-02,-1.007976922258477515e-01,-1.375085809605678527e-02,3.543305732907391092e-02,1.205217934034275712e-01,-1.263648639960808506e-01,-3.003649781012735290e-02,-6.701095083653174460e-03
7.463259908932745601e-02,-1.484019977974206095e-01,-5.774370655276645642e-02,3.642086170869501816e-02,-1.221272500094916363e-01,-2.956544431653801083e-02,-8.551877535296895094e-02,9.341121237327879023e-02,-5.262291828742934885e-02,-2.167891051663595747e-01,-1.664134612829379356e-01,3.171432191952436221e-03,1.060055066814255265e-01,3.216422938903121254e-02,3.668185393022265622e-02,3.244916468455043002e-01,-7.187513826808678008e-02,-1.249496153365025203e-01,-4.882059069321877109e-02,-7.277865724626363109e-02,7.578224846438225137e-02,3.032787324117375283e-02,-6.025790895720817275e-02,4.220337013005620586e-02,-1.414649695879957592e-01,5.749326299775958660e-02,4.924111247001711211e-02,-1.656604636920639140e-01,-2.420753280715151612e-01,2.151461404597401206e-01,1.170388296802491734e-01,-5.771551632057613651e-02,-9.547606728622555494e-02,-2.027311455892904374e-02,1.174183339163322320e-01,5.730341035146900575e-02,-8.131459338002598736e-03,1.153809796932544346e-02,3.726370443145728129e-02,4.673926273398452957e-02,3.137269312113759312e-02,7.902896447042026540e-02,-1.163495781775718968e-01,-2.313179932646099723e-01,-2.322707514208535804e-03,-1.102328276177460750e-02,4.487247668391641103e-02,1.337876573313986350e-01,1.666786723421604111e-01,-2.934550196231364150e-02
1.122388904422339101e-01,-3.221937140540042516e-02,1.387654321131113859e-02,5.503400484024896511e-02,-6.567109091204689775e-02,-1.425515291008058738e-01,-1.118301917698781150e-01,6.495521157559049075e-02,1.555889891318847085e-01,1.901461836903629420e-03,3.421773042504216988e-02,1.774676372625910992e-01,9.837632967783919991e-02,-1.279257153760831323e-01,-6.880839237751439075e-02,5.672566326674386566e-02,-1.637975099181492034e-01,-7.822329720722658031e-02,-4.788847011895620148e-02,1.833893004024723661e-01,1.146993499797190411e-02,2.891717942424718024e-02,4.696901656856759116e-02,1.220130357254560760e-01,-7.380526931483154252e-02,-1.592124422401303696e-01,-1.157220979245372761e-02,-1.132423224612506968e-01,-3.471100383303396542e-02,-1.988816295970905618e-02,5.078818259601677182e-02,-5.533759971100347258e-02,-1.207181792381797347e-01,-7.901528211368143151e-02,1.130866530144562232e-01,-9.206506994583785186e-02,-1.146584744423547741e-01,7.576925266673713300e-02,-1.060032385796708526e-01,-9.436881550485617942e-02,1.780696316783740574e-01,1.068011544489685938e-01,-3.190624199656683091e-02,9.454839550873761489e-02,5.935359738974487626e-02,-2.449594550372512572e-02,-1.016011528913011580e-01,-3.656160982010910748e-02,3.523347504840423916e-02,9.430343389676862711e-03
-8.151939830027264342e-03,1.278684955657206739e-02,1.145498106948029254e-01,-1.075494483443289045e-01,-1.535838046457638773e-01,5.397403259342856835e-02,-9.675368649350063466e-02,-2.864625027218234074e-02,-5.005403816111327758e-02,2.842864890902653541e-02,-2.885536182136827499e-02,6.447951661908733756e-02,1.791383155725882748e-01,-1.175563984051311295e-01,-1.171692389686207064e-01,2.526257041992537311e-01,-1.095918406216773167e-01,3.855740565353438926e-02,1.403199353319652676e-01,8.289498576065783275e-02,3.464720737733402445e-02,-5.075314650860246468e-02,-6.515693169435411713e-02,6.900336257526767936e-02,1.566876450794778492e-03,-7.724504485232080997e-02,1.768046851472866166e-01,-2.580280008539622555e-02,-1.027385279413265406e-01,-9.237594849309654910e-02,-5.409391411973581837e-02,-1.221553554790473783e-01,1.588030880761736319e-01,-5.533466316818847104e-03,-5.925760223556079259e-02,-4.359201947585312348e-02,-1.026449298430579804e-01,-9.033456791516969453e-02,2.132487649590557310e-02,-6.979026587349568267e-02,-1.018307762517084852e-01,-3.748491856923488741e-02,-5.652799395146494710e-02,-3.215597661861210182e-02,7.095833741040784293e-02,-4.351875929107457824e-02,-1.693847169791911911e-01,-3.444434598026847871e-02,-9.529268345194216727e-02,1.871693283090570398e-02
5.334724312264538942e-02,-4.789327622829956527e-02,4.296757207414170221e-02,1.138746472806922011e-01,-1.596298925636961408e-01,-1.664221422139641193e-01,-1.118059463091068545e-01,-8.792483338353561384e-02,1.237432738732386350e-01,1.518862215649441627e-01,-1.084418127702709983e-01,-2.933753562036555199e-02,-1.063929087026541098e-01,-3.558912874990157599e-02,5.893952706737894814e-02,-3.525928936314824680e-02,5.065561339294047394e-02,-1.005803314159917222e-01,-9.199427692341320684e-02,-2.852768899227951099e-02,1.048390056324330216e-01,-6.030402215753148665e-02,-5.468207365207718162e-02,-2.178331861174762421e-02,-1.413661618495786962e-02,-7.648516653732648218e-02,1.797496119064018183e-01,-5.908892619162906673e-02,5.980092755442190100e-02,9.918710262071582517e-02,4.579597676043584836e-02,-5.865888183960331348e-02,1.310898123041547569e-01,7.056431732387960509e-02,-8.904847422945437463e-02,-8.587712936359641336e-02,-4.553316055256860506e-02,1.251368434419357911e-01,-1.315990286892101957e-01,5.974461773138851906e-02,1.770312420685160315e-01,2.828869719124984042e-02,4.181798235287999960e-02,5.523856612509140535e-02,3.747703545147137300e-02,2.005527342096275270e-02,-1.771153672276948032e-01,7.535570146173049821e-02,1.518643775742014590e-01,1.791514705914185046e-02
4.234448660885208743e-02,9.075538444241665337e-02,-8.306785250621005756e-02,-1.203371291935767112e-01,-1.964947824991225556e-02,-1.317781473146375226e-01,-9.813147812396678937e-02,-1.307506217638506607e-01,5.773594517205402066e-02,-1.330378559839881236e-01,-7.557891359207948934e-04,9.004229770065066973e-02,6.323241262974424459e-02,-8.527058006077645191e-02,1.063439586043246898e-01,1.160139749769852902e-01,-6.085017489090781273e-02,-1.079661998347358938e-02,-2.457061606139415363e-02,1.398397488543907108e-01,7.774539313724268541e-02,-9.527900166740109478e-02,1.387973815569675529e-01,-1.369513222924403639e-01,-6.588116788380302125e-02,4.186506787473299324e-02,4.815776557020929466e-02,8.657158958167161800e-02,4.628329400443809138e-02,-8.402682671826257332e-02,3.637579424949877183e-02,-1.005574068489321210e-01,9.699648809992959808e-02,-4.626485769644191060e-02,-6.488723126484387260e-02,1.136355259838340848e-01,3.747884325310902459e-02,-2.977457454672674531e-02,-6.454911824077064209e-02,3.092655039316603502e-02,-8.114519064993735986e-02,1.138959410616862122e-01,1.380035159046909543e-01,-1.352715652522871737e-01,1.082292394544404068e-01,1.139930365678607227e-01,-1.763923516091783494e-01,1.387388450338733759e-01,-8.890893370040195420e-02,4.643718081955008209e-02
-1.453911626086573372e-01,1.225474158045987694e-01,-4.750360317779928065e-02,-1.138431336994295481e-02,-1.169032164409642832e-01,-5.132099620872929147e-02,9.312001819849040352e-02,-1.225022607398049551e-01,-1.296253044814675570e-01,-1.242108801567282650e-01,-1.844733040613250885e-01,-1.172724914030722210e-01,2.869041883949748420e-02,-1.550797247526607137e-01,8.498233226399962148e-02,1.735594659730829992e-01,6.777533071070074300e-02,-6.575806868190750554e-02,-1.359452386795896028e-01,-6.561468960762159922e-03,6.727818077500564986e-02,-6.321527236455881660e-02,3.978456150877105087e-03,1.276746058471709133e-01,-8.149868651738804981e-02,1.004242921479847617e-01,2.159275811337848516e-01,-7.441118333551274833e-02,-3.207376428750418479e-02,-2.205867472343528250e-03,-6.243060060051868615e-02,1.701565476839459606e-02,7.115501488181436018e-02,-8.379926572165809218e-02,1.422979450213776031e-01,-8.126804614831321938e-02,-1.389134060071858245e-01,9.525411017604937247e-02,9.659885412524528425e-02,-1.444647910621419951e-01,-7.188471946917662780e-02,-1.241156628684533109e-01,-5.299501045865114002e-02,-1.015221066603391731e-01,1.159316581519024419e-01,6.451394083114919686e-02,9.785399669360705932e-03,9.683709297543349748e-02,-1.043668768066194491e-01,-1.479207910509606205e-01
