1.497649894368406620e-01,7.571750304456276170e-02,1.271916233370828653e-01,1.754492286501577181e-02,-9.718628700763395911e-02,-1.228508647182554175e-01,-1.426264132074535618e-01,6.729567016106541288e-02,1.232236683215726381e-01,7.279936620177393514e-02,-8.204734561273009652e-02,-2.809857155198039469e-02,-1.208237742404312254e-01,1.301908223740611270e-01,-2.300201879290486584e-02,-6.216664381284885132e-02,-5.196208563738091701e-03,1.325535515337665504e-01,1.282081150576992734e-01,-6.709704706472380265e-02,-1.167882912623997016e-01,1.137070562281721486e-01,1.944500306582275240e-03,-1.049993622446732666e-01,-1.497907832899716962e-02,1.524557777792495683e-02,-1.958252694293932672e-02,1.344028002962252277e-01,1.288881723054548789e-01,-1.355616607646523142e-01,1.043123107344588740e-01,1.117522472121560140e-01,-5.777360373178425101e-02,1.223304773336670037e-01,-4.594017987467471920e-02,6.420611986999197329e-02,7.705788625883314147e-02,-9.948635772847068404e-02,-4.393677120620054222e-03,7.447046446807009668e-02,-1.347014104109166277e-01,5.489008137658799025e-02,1.787693312490212794e-02,-1.428366122090059254e-01,1.094010314763216307e-02,3.527053375236119392e-02,1.408019917495078321e-01,1.265581931604553567e-02,-6.837984650798796527e-02,-9.762842398864041149e-02
-7.594880099195877587e-02,-1.443712749340603785e-01,4.302091839445534860e-02,-1.419207499416134388e-01,-1.883017871261935539e-02,1.391869474665267947e-01,-9.772750868488944143e-03,9.194725526694202955e-02,-6.634576754482537919e-02,-7.951016472234269383e-02,1.215137294543089386e-03,4.325239173105538404e-03,-1.172328329661058155e-01,-4.821317372121228240e-02,-1.049678430286242192e-01,-1.381747124213813793e-01,-1.315698321810487847e-01,1.137567395650057600e-02,1.081336967467200483e-01,-7.473250463543144873e-02,4.906617740019100782e-02,2.314395707066269070e-02,1.223013677555368772e-01,-4.701886097770974215e-03,-1.440448797712272355e-01,-8.683463375670104345e-02,-4.619351734577657742e-02,1.277230479935592411e-01,-3.198417384414388442e-02,-4.846703042152110397e-02,-2.003113847545662241e-02,3.326504647569916706e-02,2.882549240235340871e-02,8.151369822581713831e-02,7.417581481286281142e-02,-4.913502562334488843e-02,1.099761906725069127e-02,4.539642549818445616e-02,6.292930362500262498e-02,-1.466839905347592510e-01,1.180779584593269482e-02,-7.291617226530415496e-02,6.542199670600390427e-02,9.282159153821273323e-03,7.818030563247407860e-02,-8.825563996975352432e-02,2.565081052372911175e-02,1.272342700451410680e-01,1.250802490566668423e-01,-9.230095769694443564e-02
-2.106345895918113054e-02,5.479518860784243772e-02,-1.384753811177669713e-01,-4.166270058762966411e-02,-7.931631501718605648e-03,-5.123152040694768650e-02,-1.412142008172468932e-01,9.487217584220331013e-03,-7.750350172989253772e-02,9.613287433507144986e-02,1.032725296468981202e-01,2.125198313932655236e-02,-7.595812987592416576e-02,-3.131689509919229064e-02,-1.416552933613838550e-01,5.357986984571239120e-03,-4.665643276563009867e-02,-4.679827132078066831e-02,4.798522340731942171e-02,-5.099595201601789252e-02,1.102770557205936253e-01,-5.063879326078772614e-02,3.194583335103973187e-03,-6.302500395562112001e-02,7.945068323479306804e-02,-1.335889743556737674e-01,-1.152315404198183402e-01,1.156841027169766278e-01,1.208248699668474646e-01,-8.526795321646567227e-02,-1.321285621688365608e-01,-1.467731667700414300e-02,-1.450090280120982233e-01,1.465607676157754113e-02,-1.097162308450490564e-01,3.367306057588137502e-02,9.295123127946933184e-02,-1.106988201224945734e-01,-1.197944862750559697e-01,6.404926695877222187e-02,-8.352472615288983326e-02,1.098651876607960876e-01,-5.857856928287359655e-02,1.253840351263742214e-01,-2.032971936103725175e-02,-7.512874289626543522e-02,-9.535277400693448202e-02,8.618864030862424808e-02,-1.620121685723807659e-02,-9.831177815656352847e-02
1.355343059183269638e-01,1.074947998362767165e-01,7.284317496768721867e-02,8.951521231718653770e-02,8.255649526220595891e-02,1.003601542320065876e-01,-2.600139560474004630e-02,-4.753309027335160530e-02,-9.521920123062685426e-02,-9.220174597924424287e-02,-4.263640590464243263e-02,-4.586086524284072041e-02,1.176502079282042701e-01,1.240309182458876336e-02,1.413455689725146014e-03,1.337524653264010877e-01,4.783532904459106283e-02,1.316142538829083997e-01,-1.934975206743116960e-02,-4.323536146613078668e-02,-1.907253816377854627e-02,1.296406676957573278e-03,-7.540352755349440106e-02,1.128311247242483051e-01,6.598889842462096755e-04,-3.513811131811986344e-02,3.886867433677135275e-02,-1.186674681040184864e-01,1.148836556621666560e-01,-9.143414768936208858e-03,-1.215589727767396461e-01,-2.902639000802029190e-02,-3.504250584423349024e-02,-1.278915081743646487e-01,-8.215550230325746606e-02,-7.317890656085568324e-03,1.008804084937291179e-01,1.970943535573943528e-02,-9.146035195522714267e-02,-3.494513580192695756e-02,-1.037350811362621472e-01,7.500959302616333479e-02,-1.011983606335589703e-01,-1.027347062321624926e-01,-1.012605055206993038e-01,-5.787779379583275763e-02,4.518339640178808958e-03,-9.092603627598899729e-02,-6.891788963375340693e-02,5.247503102397821362e-02
1.046949560407959001e-01,-6.517955581619024052e-02,1.419574558469790804e-01,4.387141636851998872e-02,-1.068130173145869083e-01,-3.042384532033852451e-02,4.692236198781610246e-02,6.679496586498551158e-02,-1.405387307098817651e-01,5.881018243632241127e-04,-1.239319781048253688e-02,7.348096852431820758e-02,1.070131326653241677e-01,-5.950237158876667265e-02,3.090383278844474613e-02,-1.168744322061261304e-01,-2.147455833127837055e-02,5.532196696803481917e-02,-7.429615971656179652e-02,-1.068916790507246639e-01,-8.088330958369947810e-02,-1.042311689607073044e-01,-2.888206642983283390e-02,-1.161753733331464811e-01,-4.811548053421234317e-02,-8.882610587342101849e-02,-5.426173232063485896e-02,1.347287894450408807e-01,-8.471429753327970602e-02,-1.161453216814543332e-01,-8.759334971330021147e-02,1.163085746707217816e-01,3.128068003298836719e-02,1.434208191144441813e-01,3.029454940575018740e-02,-2.530561118819718569e-03,1.866257808849014488e-02,-1.196461851424195783e-01,-4.930697973850066418e-02,5.143756232165502817e-02,8.652817576108420838e-02,1.287816995958107613e-02,-6.843438528612434679e-02,-1.189198964600993308e-01,7.766042420499200127e-02,-1.046104024354600204e-01,1.045691608951832274e-01,-6.130753279762324315e-02,-1.154936653599003549e-02,-2.031557334196543163e-02
-6.040313924051331218e-02,5.529619022643178505e-02,-3.699832633374990076e-02,-1.144852487425759846e-01,-1.153815749908373989e-01,-1.154162029081165219e-01,-2.170942281303342436e-02,-4.858110908096698044e-02,-1.324634981631735986e-01,7.386168216601970982e-02,-5.643035644093824521e-02,1.401419209669012289e-01,1.199611454949056910e-01,-7.833992499960583389e-02,9.735615030078498267e-02,1.353909594199160515e-01,2.432068175301943525e-02,5.472649783617999919e-02,5.617401718594389193e-02,-1.030487654976012246e-01,1.486911857288814309e-01,-1.118272209272852535e-03,-1.425445427650009478e-01,3.800514796031695397e-02,-6.051153975798347073e-02,9.288187034086137217e-02,9.927731266774034169e-02,2.548143936072699844e-02,-1.360371469062626737e-01,1.466314604951582667e-01,2.878350341876143026e-02,-1.093302858644861209e-01,-8.894328134095527694e-02,1.768893640823082647e-02,-5.176167431700147425e-02,-1.066048348296073089e-01,-1.130543742882964275e-01,-9.493436008525221736e-02,-4.090397347950025519e-05,1.320208214996742291e-01,-8.051563342730749806e-02,-2.972132524854059765e-02,-6.699030600461332308e-02,3.793919680717264264e-02,4.774279018724153500e-02,1.025220325053257386e-01,9.807394270213570797e-03,6.693444286941591104e-02,-4.680577760349463601e-02,1.199472309214461851e-01
-4.652376704178211309e-02,-1.156118218813970977e-01,4.908441439461980194e-02,-2.340740455233708550e-02,-2.958610468452589626e-02,5.166359904222844746e-02,7.048438439634940877e-02,-6.782215439109051669e-02,-5.062165080545615037e-02,1.351700343241521718e-01,1.221914089566103756e-01,-1.396789139590983442e-01,-1.024679732888927053e-01,1.122846588710878224e-01,4.093121748735972787e-02,1.437201992757601576e-01,5.686159625624870317e-02,-1.243726737087843259e-01,1.767820403473852053e-02,3.311074491674789733e-02,7.590009575131309583e-02,-1.454197412208662332e-01,-1.380753996756415580e-01,-4.182447473134721927e-02,1.489108006568023168e-01,9.052742963683907407e-02,1.212885215103462477e-02,1.044180554039691733e-01,8.250384414428030277e-02,-5.040374747338664807e-02,3.257381689294605587e-02,-1.223176089340713979e-01,-1.248713790214580899e-01,-8.135118227567252058e-02,-7.488261709036131419e-03,-1.320622484137703723e-01,7.166319666048848180e-02,-1.371554435086765333e-01,-8.814766866353296315e-03,-1.448101597944484176e-01,-1.249027780371096130e-01,-1.228801099580579814e-01,-1.148258904807427927e-01,1.764774990981132774e-02,-1.425495698185812177e-01,-5.501522900027568108e-02,2.610960547735866055e-02,6.848596711635945855e-02,1.161394445531931663e-01,-5.013951875315203477e-02
1.062692164706568188e-01,-8.172083548293962441e-02,1.173514521598462423e-01,-6.449903587284494533e-02,-1.412104230622612810e-02,3.953514269449376339e-02,-1.338582400084050161e-01,-3.673382358563766215e-02,8.094163430721124097e-02,1.315023022489174853e-01,1.363659177075299545e-01,1.467779154171671985e-01,-1.133360249272339637e-01,-1.158266902933776377e-01,-3.072511026956856184e-02,-5.099952421742670605e-02,1.138897232800114290e-01,1.064874929243069535e-01,2.044050860371934841e-02,1.392618888570806013e-01,2.833527246087974572e-02,1.268045269273781750e-01,-1.052400836186745403e-01,3.241589556709417730e-02,1.008701049696428542e-01,8.993864717560343114e-02,8.115189837264621953e-02,-1.404031523986684349e-01,-4.169314195672642331e-02,1.158131743544064396e-01,-4.126795659017790108e-02,8.223772659718373013e-02,1.087478128668056543e-01,-1.438195056017234352e-01,1.473868371130435950e-01,-5.433357513124245641e-02,7.580339063852789550e-02,1.302502024400836456e-01,-4.103057347206161276e-02,4.921841986013997250e-02,-7.697678607477652368e-02,1.018626856688955307e-01,-4.364953994985078245e-02,1.066948086346655722e-02,-1.352482699822538659e-01,-6.045456698227878733e-02,1.316310032978648403e-01,-9.939360707183431121e-03,-8.436026864862973540e-02,-7.360232896838277139e-02
-7.888563967114736730e-04,5.964555987860972741e-02,-4.678578355930480825e-02,1.090162057632044490e-01,-1.459681649988968377e-01,5.070047769457991516e-02,-9.450311752795176323e-02,1.025724286253935358e-01,9.759765312718396424e-02,-4.529219993681601886e-02,-6.999440252552122099e-02,9.993535921239191100e-02,-5.949150336467005917e-02,1.197491223335115096e-01,-2.541272211465668562e-02,4.259291603385134684e-02,-1.196340415558457271e-01,-3.824482067227436000e-03,1.077446475366473921e-01,-3.311828381459179516e-02,-1.271380689628917871e-01,4.284174878656438201e-02,-5.634441147162205787e-02,4.118785219999893110e-03,1.471125941882426569e-01,-1.352709270204644210e-01,2.307151846576060983e-02,-5.786601611453497107e-02,-5.148690222959019513e-02,1.393310929137111243e-01,8.028864937441657079e-02,-1.279508242575692623e-01,4.765500033472369612e-02,-1.127340851832537155e-01,1.174896499613113654e-01,1.424959111974146431e-01,7.637885876462860435e-02,-1.193845607463503156e-01,-5.955814303878377569e-02,3.122579511547451947e-02,2.345322820124290386e-02,-6.013532940371831004e-02,9.776073605899557317e-02,7.946427916132633995e-02,7.925657817579415121e-02,-1.349587992400324288e-01,-1.095751163923351645e-01,2.365320111209209819e-02,2.259921219814636784e-02,-6.452788619387547775e-02
-8.802518732687680814e-02,9.476960084665170259e-02,-9.919194295545138984e-02,1.028233228823627610e-01,-4.126402665319023333e-02,9.032303227785476452e-03,1.471055992236458554e-02,1.433886761357687500e-01,-7.122306019268827282e-02,5.430841618079085276e-02,1.203239758844307505e-01,1.239475922713972611e-01,8.111414225132315692e-02,-1.361881225254466532e-01,-1.283244929723880157e-01,9.327646965341698793e-02,-9.875585321700583452e-02,-1.132759265818329419e-01,5.769470586129621381e-02,1.446830760213041467e-03,9.706135963273551659e-02,1.322481639100233364e-01,1.315908286013310613e-01,-4.702386631489861857e-02,7.859384466399266245e-02,1.074519050566914158e-01,-6.518419304303030293e-02,-4.306606021621611768e-03,1.493105831061419531e-01,3.826396922683972246e-02,1.148870760332663388e-01,6.985719242332533163e-02,3.927704738830567477e-02,8.691906288448217333e-02,-6.379860265040850076e-02,6.020811497253597544e-02,6.373078522886840847e-02,7.319833037330586434e-02,-1.835215430022774097e-02,6.881725604359922865e-02,1.484673431269672161e-01,1.040956484907584467e-01,-1.352618973432125615e-01,1.301110339155172324e-01,6.588152970777025330e-02,-1.126359570484864736e-01,1.290261732073990919e-01,1.070540700952083701e-01,1.359110048854136610e-01,1.480531990705634404e-01
-6.138236279127030903e-02,-1.496746651858157084e-01,-3.604495180105292407e-02,1.002349149809567130e-03,-9.396234464682223786e-02,-8.009192756943070424e-02,-9.359321067807233052e-02,1.099679925722195917e-01,-7.552013876961001515e-02,1.170478005329157745e-01,-3.748187222320394085e-02,1.840753490780333568e-03,-5.306520978056103455e-02,4.587344128981352132e-02,9.771266389136512576e-02,7.205049643393840464e-02,-1.478444558384400809e-01,-1.154433720961439147e-01,-1.460695430142821827e-01,-5.301459696764929119e-02,-5.121614613999120325e-02,-6.493667222439593323e-02,-9.488162507453860861e-02,-1.832295161550651086e-02,3.852919352490835614e-02,9.774959721602061169e-02,1.421532746100905575e-01,5.995995789380312302e-02,-1.010367121093183607e-02,-1.301585373451023819e-01,-1.378958592245566050e-01,-4.561013781991792027e-02,5.135711870180789673e-02,-1.354637687299410920e-01,5.855346907630443187e-02,-1.407342867839703193e-01,-2.435150169850983093e-02,8.030400788889097141e-02,-6.135717093910371400e-02,-1.645427376344901771e-02,-6.954578693243894383e-02,-4.632176519898957567e-02,1.163708038471640005e-01,1.876909218970679305e-02,-8.665144831752742693e-02,-2.003543509963134905e-02,-7.941340943708513622e-02,6.582349238107154665e-02,-4.734551090722600997e-02,-8.080698841841711666e-02
9.187441759976153199e-02,4.949886906858186331e-02,5.374887993784585594e-02,-8.257358385968704972e-02,2.637064419681844907e-02,-7.066415769857520290e-02,4.687347653049295237e-02,-8.976596494947589044e-02,-1.333610410593634443e-01,1.254280876212091889e-01,-1.307860715688128339e-01,-1.159062311471899809e-01,-8.414679770566431405e-02,1.367618196981892631e-01,-5.139197646459768565e-02,6.438624544599780286e-02,-4.959479867646456042e-02,-9.362417212621154672e-02,1.064669108959050148e-01,1.077558712808935060e-01,6.028293130932110833e-02,1.450687810775697362e-01,-1.102906671529798599e-01,-1.277497418432782528e-02,-1.022916874181042102e-01,4.423249823702229966e-02,-5.821997304030934739e-03,-1.442662727697258396e-01,-3.863327321178784690e-02,5.340073794730199053e-03,-1.343901904251688373e-01,1.131014705618439697e-01,1.228019893585551581e-01,1.039515966582864326e-01,-3.698640522403738584e-02,1.026327368764714809e-01,-4.375208934134834637e-02,1.215260215022116175e-01,6.962502324133765241e-02,-9.611132930252716533e-02,-5.525259745172624026e-02,-7.626645487805482071e-02,1.242394903800335959e-01,-4.856741409726553216e-02,1.041400576304327419e-01,-6.658406840693097128e-02,-6.341443247035252750e-02,3.451547086303990985e-03,-1.002723787034980607e-01,-4.183748304598444712e-02
-2.542955322564904863e-02,-7.048366473500938811e-02,8.182994470420745792e-02,8.308239512433870932e-02,3.851854412602995215e-03,-4.185619543285835908e-02,-4.654730788506179773e-02,9.548702348617851832e-02,-6.689865291058387509e-02,7.097595269613343749e-03,1.020182551725397901e-01,1.102045846437964827e-01,-4.302885576980443327e-02,5.843274287357702601e-03,-1.240202440898364317e-01,4.888915350347836086e-02,1.025041885590510793e-02,-5.962654447677440128e-02,6.571586111659472040e-02,-1.334791539106909009e-01,-8.376657931443738658e-02,4.829917766198466023e-02,-9.482796672768606383e-02,-8.797999623638301514e-02,1.423790696417112922e-01,-2.143715826049752415e-02,1.139219769426047524e-03,1.685531570255216494e-02,-7.086716371861126462e-02,6.098983442909233776e-02,6.586569747985399070e-02,1.045103034343769499e-03,3.466145834319461771e-02,4.677558845839757673e-03,-4.232911001436580334e-02,-2.025716864566620701e-02,6.555977148828276424e-02,-1.462133243465831289e-01,2.185083491463846173e-04,-1.256022414327650494e-01,1.313284314242157136e-01,6.610634344967480924e-02,2.092121860478460271e-02,1.369033197209839903e-01,-3.823133014497814841e-02,1.189764365982282912e-01,-1.002658364499700999e-01,3.877532103015718379e-02,1.452423984366663368e-01,-1.461905103643085235e-01
-1.178488100292559987e-01,-1.210577410769873435e-01,-5.683653517983398851e-02,-5.040368900085333281e-02,8.919844371241519854e-02,-1.245505438109306140e-01,1.347743850050697745e-02,4.555896691346492111e-02,-1.121594622690091636e-01,3.606180583113727245e-02,2.198670868918667365e-02,1.056637468661900947e-01,3.760374286370438135e-02,4.004828831351331386e-02,5.581473665857955568e-03,5.251349916118397410e-02,5.944768321139651257e-02,1.183895793759902337e-01,-9.331261536219756514e-02,7.032075238417834218e-02,-2.755533787647122812e-02,-9.522300624319038342e-02,-1.096234467345373886e-01,9.697483131404879830e-02,-4.562495776998584662e-02,-1.218271644416934057e-01,-1.453705613726197221e-01,1.366435607666283414e-01,-4.093667062092398723e-02,-4.257463182069892715e-02,-7.148559760708020350e-02,6.324105747020072887e-02,3.310104191420826236e-02,8.725164929867940122e-03,-6.615535878980446927e-02,-7.128664080069402331e-04,1.359438091479154009e-01,2.721135873169228114e-02,3.242274055374350095e-02,5.709764323473431880e-02,7.050793453533796273e-02,-1.662467799674280378e-02,-8.929189762304472200e-02,1.344629354512524022e-01,-1.230397333198707532e-01,2.004476147094702565e-04,-1.403468985828815740e-01,-8.792778547668171629e-02,-1.257608614436570016e-01,-4.929561695291238832e-02
-1.449895278476066585e-01,-3.482191867540368468e-02,6.010742189103909783e-02,8.679611694697195179e-02,-1.223898086049261813e-01,-1.310803622960035608e-02,3.207132422283767714e-02,1.017647865795080764e-01,-9.600580454569961064e-02,7.676788509497795010e-02,8.987650256732165888e-02,1.059885214478605009e-01,5.992577905747992206e-02,1.423365185723270698e-01,-1.022480655432823488e-01,-1.192712546114304967e-01,-1.004767592005872956e-02,-7.752387865635868014e-02,1.443090200650427313e-01,-1.174806274680729457e-01,-3.398352479021558847e-02,-8.672474665089058288e-02,-7.275818879910485315e-02,7.554249072822846744e-02,-1.187738800114481047e-01,1.381131461582092712e-01,-6.305943134398750427e-02,-1.409806258776157561e-01,5.690880673060977335e-02,5.484004873057668483e-02,-8.994189738629226882e-02,-1.320863602395203618e-01,-5.523482427218791291e-02,-1.163515617705840888e-01,1.331793430464640327e-01,9.634856702817773400e-03,-6.415473871096681602e-02,-1.358069903781648768e-01,-1.458187113003630297e-01,3.711299356258515592e-02,1.813566318561932178e-02,-9.388993991543137518e-03,6.836184919660318049e-02,-9.960631370149257424e-02,-1.489130299086733333e-01,-2.224513017087811906e-02,-8.106221781486964983e-02,-1.259239608670545407e-02,-7.504518842939039702e-03,-7.133982002371572206e-02
-4.308969828569307603e-02,6.512017654767440766e-02,1.381258032592130036e-01,-3.680796711191537673e-02,9.561653701272332384e-02,-8.161222175647615817e-02,-9.815330606004826763e-02,1.116353083600701568e-01,1.229852760567299030e-01,-1.453907562843921863e-01,1.114094176893345167e-01,-7.761222062024449031e-02,-4.773919612683086289e-03,1.305855335464379541e-01,6.496122287749137025e-02,-9.839053025325894541e-02,-4.503711526831051526e-02,-7.543822682462658635e-02,3.039488380948263124e-02,1.353020451817282810e-02,2.197472674714201490e-02,1.509542721935763776e-02,6.938714444446675289e-02,8.869128187350838743e-02,-1.451877112643631951e-02,-4.843244351177630747e-02,-6.655045884476967766e-02,-4.258532718600183120e-02,-2.622526558641899430e-02,1.389631628790728712e-01,2.339010825000734095e-02,1.230975679772936260e-01,-1.011303958349139276e-01,-9.259300286996163809e-02,-7.806383435895514200e-03,-8.318429500807025812e-02,-1.042095480793272244e-01,4.533258516160398877e-02,3.027821741144048895e-03,-5.381841967116850201e-02,8.112320559267416353e-03,-7.748848076883868563e-02,-3.707378364277889859e-02,-5.496141781353824918e-02,5.218538904342032159e-02,-1.031614167937003196e-01,2.282382212634989638e-02,2.845031783210588694e-02,-6.868624991549962533e-02,-4.958344757583221796e-03
7.120412158144068249e-02,-9.563073109535114025e-02,1.153221413827444086e-01,1.396844226709346992e-01,9.561981161372501425e-02,1.356821572670635911e-01,7.869269848341917117e-02,-1.430032247190758665e-01,1.069664842139464722e-01,1.166816033925062446e-01,9.454739937337716671e-02,-1.268067399163569642e-01,8.325553707848262763e-02,6.349390519088471407e-02,-2.617266876017193544e-02,3.705222826240017753e-02,5.705214185208418165e-03,-1.266967427445137295e-01,8.630323955159827087e-02,7.570206396644754698e-02,1.494152609333298798e-01,1.307682802340204564e-01,-3.663738603854790887e-02,-3.271739825664436718e-02,6.356648854196622622e-02,1.297387566718038177e-01,-5.327210675100060855e-02,-1.089770077666165071e-01,-1.210616513524054028e-01,2.943007044817161355e-02,4.852459241706605364e-02,1.075002744500337670e-01,1.050427818442606076e-01,-1.009392393230366530e-01,-9.659368190391837139e-02,-2.685677739531769359e-02,-9.060205349374744754e-02,1.253295009264923376e-01,7.657145232750650621e-02,1.049628918616127282e-02,3.513635109209806151e-02,-3.319367786513940932e-02,-1.055693248606537349e-02,9.351799767309604272e-02,-4.937823807033592249e-02,-4.437514206170733999e-02,-3.350106550520723370e-02,8.005724337770417365e-02,1.471237437596870368e-01,-9.224587230088648893e-02
8.746814834421365314e-02,6.081924176142672334e-03,7.985441424378422748e-02,-1.354231688185909832e-01,1.175294553013651322e-01,-1.102712835105539857e-01,7.878713193167014017e-02,-8.462523909016200774e-02,7.184965189029063337e-02,-3.525151596161568701e-02,-1.394173781887233510e-01,-1.316553122416300736e-01,-1.228227248384250458e-01,-1.133128157432113925e-01,1.032982244680822059e-01,8.802560322926605840e-02,6.174706571053234505e-02,8.242717527183598958e-02,-9.863718750716686523e-02,9.387043778954104467e-02,-1.490118922515971112e-01,8.547613336092382830e-02,-1.366319333350968501e-01,6.196866556476021692e-02,1.281424775199760668e-01,6.753174086889762728e-02,4.618309175757273621e-02,4.421434225266190898e-02,-1.263982533771081107e-01,-1.932701166062511522e-02,4.628266937822575477e-02,8.351726305044410159e-02,-1.006379756386914237e-01,-5.990883884185385644e-02,5.692999421014371952e-02,1.299642882811012645e-01,-4.177446965511817656e-02,9.597813972309429675e-02,1.139714342894312116e-01,1.348720995493292441e-01,-1.074108015277036587e-01,-6.622164713363865030e-02,1.192605492031603431e-01,9.850892306964423306e-02,1.000233848917121693e-01,-3.301416399289006098e-02,-1.057563310880190732e-01,1.813091086600965296e-02,-3.134080407475145491e-02,1.240735438680463931e-01
2.418371092113635878e-02,-5.751431678820556614e-03,1.359017117349550774e-02,-4.431869423792338114e-02,-5.997449119804618145e-02,-9.030422330363882533e-02,-4.852895670625648195e-02,9.446807530422038357e-02,1.482344644722272398e-01,4.876173411592937823e-02,1.027258723980727095e-01,-7.566612010134213251e-02,3.397060278670760436e-02,5.771129053636300799e-02,9.627768785321139111e-02,5.029764252155000115e-02,7.377259318834855639e-02,5.625238900961773703e-02,1.987783259940170688e-02,1.304791179005604096e-01,1.753546653575649428e-02,-9.379206259516059685e-02,1.261501300968365935e-01,7.147443075467085905e-02,5.333769270595284384e-02,7.907086630255877324e-02,-6.935179133086585845e-02,-2.960040989405243739e-02,4.583115309129631720e-02,7.805119730368340059e-02,6.600010680619358694e-02,-3.702896475152936406e-02,-5.020695328016754055e-02,1.483992825827057105e-01,-9.367072035158766075e-02,-1.165729280612170377e-01,1.294858273817097449e-01,-8.404529226283037613e-02,7.155341292544900589e-02,2.752577515969073518e-02,4.933722052611533293e-02,6.359722190083558213e-02,-9.410229616415599629e-02,-1.581491596785722376e-04,2.404035789978339888e-02,-8.317212740798107795e-02,1.283021256999789250e-01,-8.010437845078710595e-02,6.498082552071263174e-02,-9.140329755811055223e-03
-8.283254760345859502e-03,-1.646049371754143564e-02,1.249994671297567639e-01,-1.830085628822980537e-02,1.371053792664828908e-01,-1.892040601311334447e-02,-1.372882668960099528e-01,-4.426388576218097393e-02,-1.748562862007790875e-02,-5.744435103908938911e-02,2.133021198656992468e-04,-1.345957951096291294e-01,2.213620910851091250e-02,-1.072457263584241094e-01,9.481625848291683201e-02,7.312860784167599104e-02,7.965847964800651382e-02,4.814866394376610126e-02,-1.475470173711190269e-01,-6.080670304857595243e-02,1.176527527332940914e-01,-9.044174042958018356e-02,-6.016236069732389113e-02,-1.811668949979566845e-02,-8.513474777346095868e-02,1.015210786715850522e-02,3.547374764740224284e-02,-5.011422516001007299e-02,-1.223892141527098687e-01,2.270448146357309516e-02,5.475131253719817126e-02,-1.093227047558299470e-01,-1.409557262938590516e-01,2.591991654771788611e-02,7.440156845054185508e-02,1.145717326065812947e-01,-1.345198905120437993e-01,-1.396856812197455611e-02,3.938743102777397809e-02,-5.453296904737586770e-03,1.138086325912517072e-01,3.304120143056032965e-02,-1.474454798117529053e-01,-1.138281537949398514e-01,-9.121170168367720432e-02,-3.374632459001131179e-03,5.723713387274953490e-02,-1.277204792692694102e-01,-3.595470194718794477e-02,-1.196982542908708452e-01
-1.150702899770954246e-01,1.137648335710086112e-01,-1.054845339209539712e-02,-3.978361947149590405e-02,1.196374331602347574e-01,-5.371714469671619308e-02,8.879542752510796721e-02,-1.265586016807510317e-01,1.097577506486494270e-01,9.996274186603482104e-02,6.083415953850379587e-02,-1.250754719617315491e-01,-3.061303885365909694e-02,8.077337236635570572e-02,9.757596729774117850e-02,4.096555371424806524e-02,9.516209805188199922e-02,-4.284561694895842876e-02,5.678370581469222023e-02,1.419406826240556529e-01,8.222574724010825453e-02,-3.686837012551742732e-02,-7.355798966294956054e-02,1.565918931607701570e-02,-1.172258749534705879e-01,2.266657720523063135e-03,8.486953617916109804e-02,-1.152497121448912420e-01,4.976432908094663432e-02,-5.176319610638153990e-02,1.220376964037178935e-01,-9.187943855462005205e-02,-1.478609330906921482e-02,1.058816669158240409e-01,1.570518908540999292e-02,5.203561217473745559e-02,-5.243807361473794282e-02,-1.452329242320077318e-01,7.968480006806494265e-02,1.054188065034598887e-01,-1.760019951949934325e-02,-2.471257041793351039e-03,1.356132462264233174e-01,1.107948436869900799e-01,1.370690403040939753e-01,-1.077059047568176831e-01,6.712365996471200691e-02,-1.386349386530081884e-01,-1.310746088811339805e-01,-9.622694518210925252e-02
1.641213016812029246e-02,1.459230826465694186e-01,1.208386666526165276e-01,-1.979583550703364891e-02,1.315705629098761487e-01,-2.353718061846979404e-02,-1.432261185126471048e-01,6.643439233645145880e-02,-4.940932219141969117e-02,1.204006165022764308e-01,2.624048053706315442e-02,3.573625431662369456e-02,4.104980777150615823e-02,1.073124841319977041e-01,-8.843028959058901739e-02,-7.758318549157403043e-02,3.942248742705392606e-02,-6.287384236032364515e-02,-8.598279214284415550e-02,4.498577596840194759e-02,-5.317395769803216765e-02,-8.318444115016708496e-02,-9.367591903180022550e-02,1.100294502248327921e-03,-3.918868421548400705e-02,1.333636051050000326e-01,-4.443735092376360774e-03,1.698689187498159114e-03,-1.139104415864066744e-01,6.449443118672656960e-02,-1.409892312393274394e-01,-1.420713462868088417e-01,3.564650624935178369e-02,-4.754466979301354146e-02,4.183851412216657573e-02,-9.098474348751747764e-02,1.107356342622520251e-02,-9.987443831682049633e-02,6.788465274571547914e-02,3.425228854296538672e-02,-6.860293013759306835e-02,-1.176529870824271073e-01,1.068613730037265841e-01,7.360534732694123949e-02,1.006505003743222992e-01,-1.162306939093821212e-02,-8.849496657653974085e-02,-3.623992473522419377e-02,1.147156059264650418e-01,-5.941179401117646641e-02
8.169504186053649919e-02,-2.632773001491765796e-02,-6.158960530884471929e-02,-1.110596354581649681e-01,-5.835799716780887270e-02,1.959356470126100147e-02,8.079598421029712818e-02,1.494798892050519523e-02,4.215273140849060129e-02,-1.289701831198654114e-01,-8.062165227576481574e-02,-4.035062202875455695e-02,4.015244959953964687e-02,2.444598355858690342e-02,5.640197835297688922e-02,-4.959991018731260692e-02,2.509581666694954416e-02,-9.669084504651546952e-02,-6.545231723759921405e-02,-1.441644651245063691e-02,-6.591266036202826639e-02,3.720419083121226378e-02,6.291008987128388075e-02,-6.536698688735387286e-02,-4.149790243088509467e-02,1.245424422007899989e-01,-1.041044066932098056e-02,1.119695896447208405e-01,9.852144029365064726e-02,7.807420682573215642e-02,-1.392500699098739303e-02,1.344184375193131220e-01,-1.310753331225186780e-01,1.468630096977097954e-01,1.161083960892262124e-01,3.086096330112797492e-02,-4.984112317626536448e-02,-1.385795980428175811e-01,1.052922964918309445e-01,3.825659683061810590e-02,1.304339678013272108e-03,1.954422269593583672e-02,-1.218855407754195069e-01,1.173873656344704142e-01,1.327348205002363557e-01,-3.163730768536951454e-02,-1.205271528051389263e-01,8.450494449168510780e-03,-5.237198937553512457e-02,1.429073703412984953e-01
-3.984301831628091206e-02,-4.756032581002697657e-02,-2.532588549039438419e-02,-2.220907688199424967e-02,1.574272955746375269e-02,7.710671658857784494e-02,8.762856954819556177e-02,3.696394456926191396e-02,-4.840185001859120817e-03,-9.486566412460142872e-02,-1.050761558276299135e-01,1.055414894103735846e-01,-1.872523975413509234e-02,1.163400282218680915e-01,1.063774448958973162e-01,3.277464527341908407e-02,-5.541621872636791346e-02,1.283708684189266147e-01,-4.607883772130173805e-02,-1.421242559162230468e-01,-1.308452000528103343e-01,-6.455134597935757723e-03,7.217872948233550190e-02,-1.420328059571548951e-02,-1.320259734039921085e-01,5.193044996119666745e-02,8.438529997154417539e-02,9.323500393505695927e-02,7.786385239373791456e-02,-1.083398736243558480e-01,5.931213122548892325e-02,3.413927105012182217e-02,-1.287674269346839317e-01,-9.181530086322824136e-02,-3.991441217348984383e-03,-2.417872191430853190e-02,-1.845393800077810287e-03,1.113134811307413818e-01,1.060363563755807037e-01,1.282220599858224785e-02,1.201823826277928220e-01,3.186906173215522942e-02,-5.378753794942597866e-03,-8.709470994385495879e-02,-9.102059356323152772e-02,-4.977869980403701322e-02,-4.419315979017500451e-02,1.050451666058246636e-01,-1.450099349123211423e-01,-6.785983513106746967e-03
-3.376615133335063301e-02,-6.322384257587268519e-02,-9.607401124001162251e-02,7.022341986369823319e-02,1.316968390889468321e-01,6.204626761664572276e-02,-2.576146950788396617e-02,1.097891637173586676e-01,-1.297872466737046704e-01,2.103045429495456475e-02,-1.390865804172298492e-01,2.907215364374274302e-02,-9.634476398753125115e-02,7.501457354425575264e-02,-6.420462131542233053e-02,3.719532250197934986e-02,2.657822138895454822e-02,-6.715326089589619685e-02,1.105874205056218973e-01,1.435117050890994117e-01,6.957640480742871558e-02,-1.461070620861229796e-01,-6.445862297818248654e-02,-7.544761115183497291e-02,-7.086103610957598942e-02,-1.595278892905060975e-03,1.051074586451718751e-01,-2.694148055376348327e-02,-9.794707942947381007e-02,3.741837751980478521e-02,-1.331375010076592535e-01,-3.417667624064898990e-02,-1.312280503076507232e-02,-4.199819880168566277e-02,1.192914266072856722e-01,9.735818894725387085e-02,-3.377593792515762305e-02,6.869075829362439323e-02,-3.820532870864572217e-02,-3.088125122016865953e-03,7.041059776818628380e-02,-1.497354070762723088e-01,1.162638694608425505e-02,-1.892072145370662928e-02,1.377723024416161179e-01,-5.889337547829927300e-02,-6.400196814069808449e-03,-1.177434458611858192e-01,7.875364260694120433e-02,1.340265393900754443e-01
1.206276096537624298e-01,1.896174341608708458e-02,-5.010426700985266824e-02,-1.045632008235820309e-01,1.900514192533064861e-03,-6.198926969377130392e-02,-5.587650164916692364e-02,7.743575571134136970e-02,-4.280728258794699870e-02,-9.989092719399711440e-03,-1.271970317504583781e-02,-3.981277164871828422e-02,9.175145288249828002e-02,-6.439299622400763978e-02,-9.947003980399810041e-02,9.010938525148434741e-02,1.392480714717406476e-01,-1.165651808603731521e-01,8.371102008626896129e-03,-1.265443204076797667e-01,-5.456635903048889791e-02,1.006662270951817206e-01,1.072685512652551132e-01,8.905055190163269074e-03,1.387524339677518592e-01,5.225299346318335036e-02,-1.406358084936343567e-01,-1.403223156812605510e-01,1.096345392061972845e-01,-5.440326553879394622e-02,-8.600027392444693775e-02,5.455796873343563003e-02,2.876003694361792262e-02,2.185809160040158572e-02,4.166104835519768290e-02,2.261508562281031032e-02,7.317977872837708175e-02,1.287174828909478375e-01,-2.034883875688905941e-02,-8.807498906743413403e-02,2.587508205851690724e-02,-3.415961772904460569e-02,5.505833927461506461e-02,9.131987131729632501e-02,2.223138134269059263e-02,-5.073038693918016651e-02,4.293961408497953824e-02,-9.709666519346177305e-02,-1.244153361847338685e-01,-5.712364831453455027e-02
2.820306157827945359e-02,1.778709994106891790e-02,-7.603188446536210399e-02,9.066498729413505209e-02,1.034021477747060491e-01,1.790108007975346749e-02,2.158729138023435246e-02,-1.134720360679387641e-01,-8.690383663871274755e-02,-1.060035447781566553e-01,7.814181953185722618e-02,1.167108651057740254e-01,1.291818884036563253e-01,-1.086802877728423877e-02,-1.208264071801579131e-03,-7.393684908686823376e-02,-1.332306875782321709e-01,7.167292446930634275e-02,6.402788660343042282e-02,-1.207469311579589255e-01,-5.789215563228099215e-02,-6.658510186778569817e-02,-3.721781506384949645e-02,6.919540515568886607e-02,-2.671347516985236870e-02,1.246774560275415722e-01,5.279173214624915955e-02,1.101603565773631999e-01,-8.002769273823136242e-02,1.327256026632006591e-02,-6.400551609623218730e-02,1.431318495305657634e-01,3.808268985965179709e-02,-1.195244130754073292e-01,-5.514477521335608978e-02,-2.244217199720352496e-02,-1.490896164773117816e-01,-2.486400819693254660e-02,1.049975229446317437e-01,1.480025459181113778e-01,1.144369241601167764e-01,3.358169271001076872e-02,-2.171716056332134714e-02,-1.032796563355792008e-01,-9.083303467126922770e-02,-1.324534865571602715e-04,-1.162399049850051380e-01,1.404856111868579005e-01,4.262323583869179200e-02,1.484686235130872889e-01
3.812890568181032114e-02,-1.129162367993024885e-01,1.639029498538840945e-02,-4.712472356143516949e-02,4.160031418893350708e-02,3.474766956002739438e-02,-7.225316277212973093e-02,-1.667929379714136462e-02,1.084114612843066483e-01,6.644900431165473575e-02,-1.246378961392428791e-01,-2.014310871176783202e-02,7.332983971680367974e-02,1.425531141490579690e-02,2.603913668976393092e-02,3.370560758494031695e-02,9.321152438714036537e-03,-2.540559701375566526e-04,-1.055226682529935844e-01,6.820772559770435506e-02,3.862477014349505189e-02,8.035315366346756916e-02,-1.996950344391620891e-02,-6.862790874660430751e-02,9.237060433183991170e-02,-5.204800595613419401e-02,-7.193543514744431266e-02,-4.821734683673169208e-02,-1.236912588494804566e-01,1.427528522552777568e-01,-1.153960119537418560e-01,1.403455400207959947e-01,4.278334379974130242e-03,8.632138546944947977e-02,8.843877853828230329e-03,1.297798571782277088e-03,1.318717243939402095e-01,4.675640881316667219e-02,1.171596879154807036e-02,-5.354477207556919416e-02,6.048569886664312278e-02,1.497652886581914145e-01,-4.847653745034219419e-02,-1.050653165779557030e-01,2.611144577915253118e-03,8.550992059099066234e-02,7.416542456108440873e-02,8.237817394127758264e-02,3.353391685075352013e-02,-1.344921548397523536e-02
-7.293685908757227554e-02,1.383295613841192817e-02,4.192556124140711660e-04,4.720782474934903661e-02,3.391291444519298204e-02,-1.215690576823014180e-02,1.427001223538731101e-01,-1.207420812499960250e-01,-8.662094150143406779e-03,1.101157443129472113e-01,2.269495875342047997e-02,-3.307516520950536110e-02,-2.204238609918604541e-02,-3.326977306596763662e-02,-4.639797808217964448e-02,-1.381491959370517719e-02,2.450196666215093133e-02,6.458563935722275162e-02,-4.319985100367029762e-02,-3.140337113543341385e-02,5.535143506313774941e-02,-3.791584712026598025e-02,-1.121141027795036216e-03,7.960955147746695548e-03,7.592668379365996589e-02,-1.307625102712134391e-02,1.196586264316689963e-01,-6.138271835843002455e-02,-6.760338823679844233e-02,-5.132799620411059027e-02,2.106336210281958832e-02,1.402111660289671324e-01,-9.495948347273103218e-03,1.397252067369964268e-01,6.453524177154446040e-02,-5.886928947892726416e-02,5.199489374758592408e-02,-1.461144279094291620e-01,-6.583771071056325475e-02,1.313373422957909986e-01,8.478297940857412729e-02,-8.406658878346795483e-03,1.157236981432704093e-01,1.862433227518348056e-02,1.170739674031385513e-01,3.046154241921616990e-03,2.217037761595985756e-04,1.248420623346479241e-01,9.757866244466670280e-02,-1.561911798137530227e-02
5.650819751597152552e-02,-3.730375223466522727e-02,-1.283257881249966204e-01,-1.152765531705560592e-01,1.063709598407354961e-01,3.222881099630053869e-02,-4.516264146198518958e-02,1.249449126949971622e-01,1.193884798442168271e-01,1.394421468268625952e-01,-2.924198092327928711e-02,3.309664745435364486e-02,5.583019943730552215e-02,-2.447574244674144417e-02,6.579333118773370015e-02,1.126187122408345287e-02,1.075013862885335902e-01,-1.725941435586084149e-02,-3.223796199209251478e-02,9.035626486471093344e-02,-8.446626436393753212e-02,-2.219877575116324664e-03,-1.397908310313794589e-02,8.867915558025951661e-02,-7.269317185108382928e-02,1.324079998638749700e-02,-1.487104322562430025e-01,-5.598634668842657203e-02,-1.417086182522317717e-01,1.058653839442852407e-02,-1.158796909768713967e-02,7.288448283676951522e-02,2.429036427192260428e-02,5.275865744407129410e-02,1.204907601995583166e-01,1.194490331836988994e-01,1.058165539727869697e-01,-8.961257664088617680e-03,1.244258130671408724e-01,-5.625586439700676344e-02,-8.982846421474768861e-02,-4.303238727220123905e-02,1.384161437716874277e-02,-2.060435940502025609e-02,1.152189416917247244e-01,-1.194005785728772390e-01,1.456615924003016038e-01,-9.189586070228850101e-03,-6.527926668755509865e-02,9.508375784625630600e-02
1.595171642431758574e-02,-6.630874769670226654e-02,6.669256347251517614e-03,-4.728201719067094688e-02,1.187418674836589749e-01,6.763140501825370965e-02,-6.091647812638091575e-02,-7.779455649985488053e-02,-2.742385587133236435e-02,-8.737748295157148071e-02,1.157262243894110199e-01,5.392080003210980577e-03,3.565572916694778605e-02,5.424907423460006983e-02,1.305928194456702218e-01,6.980649293198282201e-02,3.835796074808553446e-02,-5.999858453055632868e-02,-3.350596064053619483e-02,-6.902012597700628305e-02,6.336285219566356597e-02,-9.104177466860957635e-03,-4.088937228653995171e-02,-6.256397639672875433e-02,-1.059893061399618808e-01,-6.072121678292193014e-02,-1.078402767500562520e-01,-1.306404874113900327e-01,-7.958227194568560925e-02,1.300392933637295190e-01,8.389104310849881951e-03,1.244159272918825831e-01,-5.490663978905704901e-02,2.507577951142164752e-02,-1.420328899560045766e-01,1.007440158538419339e-01,3.712746125090263249e-02,2.129069298761021578e-02,1.030507518244440923e-01,1.513533891011889509e-02,-9.910584591323629011e-03,1.015284475374691187e-01,-1.338385575240479131e-01,3.228968105251275866e-02,1.041153467670366817e-01,-1.225224354498065105e-01,-2.385818363691977195e-02,-2.340675006574460815e-02,3.060672663552274630e-02,-1.454713081629056270e-01
1.237680504109009705e-01,-2.776349894076965419e-02,6.944504684489694046e-02,-5.285909578613569304e-02,-4.321758451831196612e-02,-4.431561703285707976e-03,1.023922466611451865e-01,-8.043432986261435380e-02,-1.030768241840610000e-01,-8.350127165091579540e-02,-4.950405419811722274e-02,-1.471943034085760049e-01,1.396333461358746086e-01,-3.182010505032525916e-02,-1.414011021780656185e-02,3.068538374635332300e-03,6.923641741615885192e-02,-9.509863443850632980e-02,7.275672734821350685e-02,-1.115109899188648779e-01,3.543074385349004318e-02,-2.790320058735751285e-03,4.255256160096154705e-02,-1.353811733841104037e-01,-5.455421372696869775e-02,1.107056038653228269e-01,1.023421911770318327e-01,1.430061194341950837e-01,-1.399512948865284379e-01,5.577846563195881791e-02,1.310360450176944747e-01,9.483232491820658971e-02,4.100484627479544786e-02,7.458697227693297793e-02,6.659168427817496738e-03,8.807011187031490995e-02,-4.345183123978887951e-02,1.035412851817842650e-01,-5.032134287413737861e-02,-8.311626285299987538e-02,1.109807022911664387e-01,-1.434160732507926972e-01,5.641502655143321165e-03,-1.125355039972910365e-01,1.436673035897168271e-01,-1.066926121389875082e-01,-1.153850144899311592e-01,1.043890864942740027e-01,6.091828668488583065e-02,-3.768256146286838582e-02
1.351577724920722534e-01,-1.468796094946851760e-01,-1.017914642922835011e-01,7.247389044946608849e-02,-5.126599424464392540e-02,-1.010615440306016355e-01,-1.261041145785312401e-01,1.303043461301125749e-01,-1.130372339332988141e-01,2.958024806111139715e-02,-4.453515264081167602e-02,1.310094019462043902e-01,-9.864664412942300564e-02,7.299921691072167040e-02,-1.114720497994560744e-01,5.533051468971839082e-02,1.038421999298705101e-01,-9.253240917871807802e-02,-9.213563600633004058e-02,-4.614254020771442477e-02,4.376258856812959008e-02,-9.404999239009931289e-02,-3.641324067209475435e-02,-5.351769855112588348e-02,-1.258958578700601072e-01,-1.290660056233883246e-02,-9.625069419935886050e-02,-1.419713776150447193e-01,1.316162941984089507e-01,1.499475565955940559e-02,4.702608169282179729e-02,7.664481640482709301e-02,-7.278729476343001603e-02,-2.258379047698702569e-02,8.261356526761798325e-03,-6.919697528553533927e-02,-7.665689586648462284e-02,2.518602835991023969e-02,6.703658485755326080e-03,8.034645069030721398e-02,2.948561055245677021e-02,1.410598736466548708e-01,6.492805341255231122e-02,-9.755088934558064917e-03,-3.541396871288099435e-02,-1.425383585791945296e-01,-4.064063690605496104e-03,1.342118595237172529e-01,-6.135894364674612800e-02,-1.135079706008871869e-01
-2.256564519823556214e-02,1.101706423130302259e-01,2.238060596722885043e-02,-1.479292578019441307e-01,2.076977042404778984e-02,-1.387061011606973981e-01,1.031357469505415347e-01,-7.903853498500586217e-02,3.791674247383333696e-02,-5.949945220116634181e-02,-7.415607268925614171e-02,-7.585929711977941470e-02,6.062716000367954217e-02,-5.958095730834712944e-02,7.726789383979942860e-02,-1.066333754533294320e-01,1.281940572753914875e-01,-8.449940514078935205e-04,-1.354919682588662522e-01,-9.959198990042848754e-02,9.928541532162044048e-02,9.557259377601093342e-02,6.922889890333322471e-02,1.388244683390622847e-01,9.596878636928826700e-02,-1.055343128666401120e-01,-5.725092512708986059e-02,-1.841766269193301220e-02,1.072741117506062769e-01,-4.197177538704181810e-02,-1.207645153188329490e-01,1.075335855548608388e-01,-8.363745087410334733e-03,-2.653997597367174777e-02,-1.842992080975075497e-02,-4.528495388460451743e-03,-1.491471630491797984e-01,6.409058120782187840e-02,-1.280703019228436323e-01,-9.789817559720076501e-02,-1.022790552472735703e-01,9.877710303620509946e-02,1.467806098474270515e-01,-2.785898691586094489e-02,-9.053386826195677917e-02,1.083489549607688229e-01,-1.927030885971237062e-03,1.254737937187463126e-01,-8.006407434137545465e-02,-7.783245603654409539e-02
-1.165975101122707913e-01,5.361431860199639132e-02,7.414811804402066109e-04,-1.039128429935388676e-01,9.997737062366338079e-02,7.442625085483911551e-02,1.270699434057499244e-01,3.942769954279568001e-02,9.987839070039661316e-02,-1.367491004902202933e-01,-3.571028752299154618e-02,1.054334150990607344e-02,-2.217744474609006922e-02,1.373414293363425520e-01,-1.062928293830273929e-01,1.423847169620104103e-01,-2.514203751021477917e-02,1.405715218336774652e-01,-7.565519492912620159e-02,-1.183895046967461950e-01,-6.621031697991151821e-02,3.572156417193364519e-02,-9.777240595525710232e-02,-7.967573382483518485e-02,-1.285076587104888590e-02,-6.131086398520342595e-02,-4.451941231086779804e-02,9.512609051629924983e-02,-6.551336969271606692e-02,1.404437807740675781e-01,-1.093891762506934429e-01,3.097333509295724374e-03,9.408303094725875559e-02,1.168147455913065291e-01,-5.430419399274884207e-02,1.469502479513593862e-01,-6.946429463663258974e-02,3.850258704493400574e-02,-1.210995851822099234e-01,7.525528558692209935e-02,-5.548346256457360737e-02,3.377843630247362450e-02,-1.323617357923059235e-01,-1.462267483123330103e-01,-9.146207644893361577e-02,1.316414566202041836e-01,-1.437582318639860079e-01,-1.091525856438160524e-01,9.620461693962947813e-02,8.659093163426362372e-02
3.914708489830517890e-02,1.216414668185241410e-01,-8.965968177298458408e-02,1.085176983044183474e-01,2.367461032094397844e-02,1.095340566877197330e-01,1.398885953358748047e-01,-2.504620600176275802e-02,-6.906487136767959500e-02,7.521214712226512167e-02,3.972178670576789750e-02,-5.417915288215052749e-02,1.245946685554459032e-01,-1.000004906743103272e-01,-5.895287129738102649e-02,5.384870808224576089e-02,-1.442871039087852691e-01,9.634119245036196211e-02,-9.636095016379112033e-02,-4.271012228012784073e-02,-4.651016388730876139e-02,-1.228411310394635081e-01,1.393432957659148375e-01,5.903070792726586302e-02,9.335413846591947284e-02,-1.053519039568151933e-01,9.656479770383002981e-03,-1.042858252653204171e-01,7.331206252409799839e-02,1.488687825864299097e-01,-5.515401676382047924e-02,8.644479422191342355e-02,-2.310589506229995815e-02,9.630796883303033296e-02,4.827724369629105006e-02,8.209271062427966892e-02,-8.633678619075155214e-02,1.111341586136796733e-01,-5.257186643476914611e-02,1.246216481192555514e-01,5.657910420617862091e-02,-2.270663177234449881e-02,1.305863240283028082e-01,8.772004957956028304e-02,-8.708034136313892726e-02,1.163324880789995408e-02,7.377059623291207235e-02,1.261010965814258478e-01,7.951860456703804814e-02,-8.671288962492541830e-02
1.033835195779523597e-01,-8.970292223879508531e-02,1.185231445699964220e-01,-3.406924790032907213e-02,2.889332707651948162e-02,-6.924476868032285182e-02,-7.034603096537896116e-02,9.567618247055702241e-03,-8.837088901693615495e-02,2.945888187983956331e-03,5.572236187816614894e-02,1.019375719018611459e-02,1.427074703562852820e-01,5.982171664905000519e-02,-9.937501637114654063e-02,9.017706840668827939e-02,-9.885115604383848398e-03,-1.437577728928523257e-01,-1.244009984409997216e-01,4.899346218924147123e-02,-1.399376043168864270e-01,-1.245886758764507274e-01,1.482158166248573605e-01,5.315712064877300795e-03,-1.828292930562499044e-02,4.457052617189191657e-02,1.245361770722062111e-01,-2.869194512770814609e-02,-4.880695008312446737e-02,-4.225333581487662749e-02,2.037653052920229690e-02,-5.267647559083594999e-02,5.273515223719160705e-02,-1.365956885335111726e-01,2.261960447368308036e-02,-8.279241222869322681e-02,1.170486568498153856e-01,-1.164777097621607638e-01,-1.069561082256925699e-02,-3.872171691265167970e-02,5.839682555010078380e-02,-5.909594988174184799e-02,4.488818749463176737e-03,7.212138429753622848e-02,7.535466876877325304e-02,1.261810270550949853e-01,1.446941141515647733e-01,5.695275043077850652e-02,-9.999061222921432068e-02,5.139331034296999723e-02
9.020411346645276773e-02,4.484833574119326260e-02,1.665387544034832301e-01,1.482269150978351158e-01,4.338761627280468547e-02,6.678476689077711415e-02,-6.149587897086520455e-02,2.323492752789795349e-02,6.492260967213681067e-02,-2.693301960808466497e-02,-1.899582081386635979e-02,6.242707238111322443e-04,-1.045597879776554856e-01,-6.263048918194555337e-03,1.630255242011524608e-02,1.947924848915835172e-01,-1.123711868686021464e-01,1.243417246299783063e-01,-7.306039325260132999e-02,1.266674178567323006e-02,-8.623317757191224786e-02,4.149256301919826417e-02,1.085427713552295226e-01,6.235142500909312234e-03,-8.785788441081929245e-02,-2.591974850366357552e-03,3.413139742699675822e-02,-1.217353980732447175e-02,-1.206532301364726667e-02,-3.050258750146675468e-02,-1.374225139965986886e-01,-6.961704425930945184e-02,1.197321584906354264e-01,-6.649145307792415915e-02,1.415293612338894558e-01,-1.239821092689478710e-01,-1.489836751408643578e-02,-1.873970308173131608e-02,-1.762326089735685719e-02,8.018050746077659552e-02,-9.682049314890776859e-02,-3.922561919126721537e-03,1.105809366180638201e-02,-1.179099561295004345e-01,8.985554243166321564e-02,-2.959086325377782711e-02,-5.901928549213877884e-02,7.029180838087575878e-02,-4.582817756395766995e-02,5.495518348784843993e-02
-1.283599155799310665e-01,-1.060222728084265070e-01,9.271155528098597165e-02,3.083064359915510533e-03,1.124254497905160799e-01,-1.493067729277555433e-01,4.422646564021393001e-02,8.728224449653304573e-02,1.332713631408409538e-01,8.267211999570149572e-02,1.047492197616047005e-01,2.221024806132276819e-02,-1.030382139637037037e-01,1.351440066115522642e-01,1.333017124740855930e-01,1.464405363747349476e-02,-1.421728813519910206e-01,7.880910270330612755e-02,7.259469493834630471e-02,-3.278016808486751421e-02,-9.416689586462284600e-02,-1.166759357418137300e-01,2.259045478892662828e-03,1.179855199279729039e-01,-3.669863074817437953e-02,6.050781649422673492e-02,8.720572494136519248e-02,5.357490862917260732e-02,7.239695772038348687e-02,-4.023858874765806615e-03,2.369787803363576639e-02,-1.345139033490176383e-01,-4.827226548305489640e-02,1.362213944262260779e-01,8.007080712351019591e-02,1.207631484444928460e-01,-1.311847421625648713e-01,-4.172257385759339798e-02,1.163355907002518175e-01,-2.802160462249903006e-03,-1.243270052898725053e-01,-1.592189941556893529e-01,3.086617633796131382e-02,2.777954638998986203e-02,1.435700705339649497e-01,6.789427936918522588e-02,-5.099231929169860400e-02,-3.757597879784313477e-02,-1.226414369183220915e-01,-6.187192696791072970e-03
4.329784883064763390e-02,3.923451937225552744e-02,6.866493758986421878e-04,-8.692528627913508055e-02,4.668043349567091438e-02,1.247451866608694226e-01,-7.844416710955703920e-02,1.102683187638752449e-01,1.487012181814096057e-01,3.310281008988767704e-02,-1.003204943922088033e-01,-6.648971106300916034e-03,7.764452941200725156e-02,-1.274330949706104221e-01,1.150898916325484855e-01,-9.503869649111871751e-03,-8.241099867326781570e-02,4.834940869791509721e-02,-5.572633066156382209e-02,-5.736399678125549129e-02,-7.943385748310005656e-02,7.735490121729432511e-02,-4.932572852105630845e-02,-5.825370255596775543e-02,-1.227682733073806043e-01,1.030612071275025243e-01,-8.217006702163491549e-02,-3.864631184695613286e-02,-1.157410763048087599e-01,3.908244803118435251e-02,-1.167460976760394953e-01,-8.922144807465631766e-02,1.205286002709819587e-01,-1.254257021713464371e-01,1.429337613638086146e-01,4.455019172790075643e-02,-4.411948134431899204e-02,1.095701891890339258e-01,1.058445328435340949e-01,7.293781292623627288e-02,1.114086639213980046e-01,-1.156292481536529484e-02,1.355903561712601124e-01,-3.804610204267808160e-02,1.249073273656411409e-01,-1.182276988206545226e-01,-1.135591989998430834e-01,-5.582048262052148602e-02,6.925471839640215399e-02,-3.264279201812735065e-02
-7.818426006769528536e-02,-1.275125940661263335e-01,4.833313912569828230e-02,-4.225903109792190915e-02,-3.619069939507056632e-02,6.292592132225119372e-02,4.149454063905877454e-04,-6.689158837951597603e-02,1.483989730878892133e-01,1.059470794947533221e-03,1.032968112107034708e-01,-5.050851864681944747e-02,1.141920819979916520e-02,7.783402965541164065e-02,1.237967120629724638e-01,2.335121005722351484e-02,9.635140564575989108e-02,1.408616413256930933e-01,-3.699594354726873369e-02,5.401900459568054202e-02,1.294900703465261815e-01,-4.746788403084443997e-02,-6.142121997109667442e-02,-5.641991537106243876e-02,1.063203461373319059e-01,1.199017684224198688e-01,-4.805852415887396090e-02,9.830543034678471126e-02,1.081900814295681246e-01,-1.086524762696881585e-01,-1.294229193254138599e-01,-5.948851649158512500e-02,-5.432554732909208872e-02,-2.575243617893231696e-02,7.056268832923445755e-02,-6.065484043759625243e-02,-8.834312623864065683e-02,-1.132653946575409298e-01,3.210461127143787730e-02,-1.203037778821389181e-02,3.446519591990090947e-02,1.497749987356961771e-02,-3.602643414339393169e-02,1.125538962223553152e-01,-6.826061808642067130e-02,-3.290999352332521499e-02,-3.580644235011433418e-02,1.048304659501761160e-01,8.517853117415821740e-02,1.033995490734481298e-01
7.452610088058000959e-02,1.379891196186004976e-01,-6.852881138831518060e-02,-1.170115482342732188e-01,-1.353321509597319242e-02,-1.145849916051489836e-01,6.867566613170950074e-03,1.287971764697070087e-01,-6.171063424013130405e-02,-4.768945818284307803e-02,-5.519328750651969484e-02,1.798775631889898419e-02,1.319174482374587398e-01,4.034706499686649406e-02,-5.087102240792880370e-02,-5.651747813723018155e-06,1.052173349220286713e-02,5.062956597860890362e-02,-7.751168615767480008e-02,-9.827967099642884174e-02,-7.662809783347365733e-02,-9.948140239156200160e-02,-1.453069699723616437e-02,-1.263065187496667996e-03,9.251719566464917943e-02,7.330295847579310076e-02,-5.475464086506970363e-02,-1.748022023151217796e-01,-6.023291475219849644e-03,1.480024342808380633e-01,9.055047069307003982e-02,-4.489898365734075469e-02,1.456877936710133242e-02,-3.436904923969300030e-02,-5.417630325441410988e-02,-3.791787994541218065e-04,-8.916949188043307717e-02,-9.823102967207111846e-02,7.393805723056126600e-02,-7.382180953782731259e-02,1.076580466736708208e-01,5.166598441818409659e-03,7.556381385664721895e-02,1.352216157899124582e-01,1.344687708012864413e-01,3.150804230416026641e-02,4.596318575057165012e-02,3.148507708328307508e-03,5.005493701932633988e-02,-4.129706010282493400e-01
1.340412862334057487e-01,-4.740050032710842187e-02,6.266402679221214078e-02,5.101423335658186731e-02,3.097831939194803375e-02,-2.486759417161665819e-02,-3.016541431576710841e-02,3.595072346656078000e-02,1.872423350266197439e-02,-7.326915848850563961e-02,9.752818950818348265e-02,9.660009109015593731e-02,-2.341875266633074160e-02,6.354190785753840998e-02,6.035338088682984381e-02,-4.890125905947683566e-02,1.338646749012196158e-01,-7.099318627328049525e-02,1.681559141954155900e-02,2.968848010924786396e-02,-3.859262500094774728e-02,1.146266611539941971e-01,4.215729415150065718e-02,-4.708370257095595424e-02,-1.873363521788645736e-02,-1.352827140462482536e-01,1.995582399449674638e-02,2.211920633770103617e-02,4.625117565911512907e-02,-3.760252112702940075e-02,5.291712107017647326e-02,3.553477077356678726e-02,1.497049340607737589e-01,-8.136410008319158726e-02,-1.590788841107982146e-02,-5.495346219599001047e-02,8.595151296903022486e-02,-1.204577184717687266e-01,2.967675263845639955e-02,-7.629761794348555171e-02,9.545903069839604960e-02,-5.652907329569289985e-02,3.129121407560714330e-02,1.463986850995599720e-01,3.821862410552202133e-02,8.633809955441232309e-03,-5.687532734177751237e-02,6.645606866238409904e-02,-5.103453380102594694e-02,7.114938634218205549e-02
-1.464481535966102865e-02,5.316993382585578215e-02,-1.056803060942474587e-01,9.829666057172542493e-02,-8.549984515418827813e-02,8.562687660524662125e-02,-1.438359514778342896e-01,-1.387053773096442566e-04,-1.436916768214930584e-01,1.336932433593669978e-01,1.488959957020503377e-01,-4.305115024966572196e-02,1.284640387656410011e-02,4.203945774999372567e-03,-8.435449658592804323e-02,1.227485159147167493e-01,-1.768788109783137399e-02,-1.039999791943654606e-01,-1.425792157921956793e-01,-8.121407740111438733e-02,5.547929955551389458e-02,-8.185236730810452332e-03,-3.737714740032498789e-02,4.833708538335342725e-02,-9.894084153046314722e-02,8.002763419802708111e-02,1.142528503134073725e-01,1.429203983598447136e-01,5.968374133776002677e-02,-3.021788695585540807e-02,-8.521842136455433370e-02,-1.166592106976922921e-01,-6.451897447023967336e-02,7.998561964536021751e-03,1.036421906508908086e-02,-8.505283980136062183e-02,-2.194779303717411811e-02,8.189405985886048789e-02,1.313105871991966100e-01,4.608434869008620760e-02,1.147769263253810845e-01,-1.272216792980096212e-01,-2.085446292658526060e-02,3.498414123433393752e-02,-5.818165199973184855e-03,-1.269362137912665722e-01,1.470112662485013877e-01,-6.445825777283924196e-02,4.150972264474608181e-02,-3.274261427376687350e-02
4.419657985048316973e-02,7.907013138321612733e-02,-9.586573868106137986e-02,1.220067318633265840e-01,-9.719319717111804535e-02,3.541310296141856901e-03,9.270892409647399357e-02,1.055988096582145402e-01,-1.975426155452814081e-02,1.039754698576933617e-01,3.342300321219820580e-03,3.927191072662650217e-02,5.970298915806430962e-02,-6.847775538719169663e-02,7.299822617964660254e-02,8.368435434527622674e-02,5.790337455067190442e-02,1.010223142830646015e-01,7.324760800214871748e-02,1.193780702970169832e-01,1.047562557116952509e-01,-1.282766723719956092e-01,1.342477594155152276e-01,-5.550040346816782072e-02,-1.264822675766367477e-01,8.240280655840176438e-02,-9.618087183256482375e-02,-1.047053947341248098e-01,2.856064636929306344e-03,-1.420669856712962476e-01,1.101573111669559152e-01,4.623125043424902714e-02,1.299000401062394006e-01,-5.572304302912141349e-02,9.412068597741526932e-02,2.819758280592638694e-02,-6.233624319896106242e-02,-1.396067672231766921e-01,-9.852379506191830116e-02,9.195402307431055355e-02,1.174162564542277909e-01,4.036406941582397490e-02,-1.341621229277966121e-01,-1.017127810422565476e-01,-2.347452261211744051e-01,1.419833905956147113e-01,3.000184051887922268e-02,-4.635590198271219431e-02,-1.468537215538257557e-01,-4.736038661516758091e-02
-9.909183031157228760e-02,-1.065472925573645036e-01,1.462936513641127367e-01,-1.269448503034227571e-01,-6.878247010001289907e-02,4.371495804241173899e-02,9.087504289625143727e-02,9.450084298885295941e-02,-9.163668603396740719e-02,4.413666464599726169e-02,-1.016501968673695910e-01,-1.424857844863867407e-01,7.556154714605897715e-02,8.123394574991404937e-02,7.359065841756698423e-02,-9.210889326968794977e-02,2.701593815644540847e-02,8.539321979606662172e-03,9.655678964258754271e-02,-6.644462673620774029e-03,-9.929372052964768880e-02,-5.498533440157339636e-02,-1.234130995138111586e-01,1.106749439734688312e-01,2.622147313853222510e-03,-3.310115075816466579e-03,-8.170997491078026143e-02,1.825331366496057636e-02,-9.212436942878945989e-02,-1.197434115485239703e-01,1.309534771368350003e-01,-1.331734499847222197e-01,-1.038076036079816494e-01,3.606906134318125373e-02,3.782721031494104547e-02,8.706872220540945451e-02,1.110153405331240906e-01,-1.083394419251766105e-01,9.111909515107888269e-02,7.784521826748563855e-02,-3.518202735397671366e-02,1.401817391382260969e-01,1.223238296504736977e-01,-6.463901545188110997e-02,2.731877778775078647e-01,1.001859407939690028e-01,1.446610686355424558e-01,1.176294911249083502e-01,2.751726628781747674e-02,-2.367852555245427704e-01
-6.736001119433876472e-02,-6.097247503753100428e-02,-1.255310746778596359e-02,-1.367050097722217195e-01,-4.338533886190279465e-02,8.156185097926560434e-02,-1.101539330142463774e-01,-6.054362848141392472e-02,-4.485601920449795721e-02,-3.068820776888201221e-02,-3.740934440188171950e-02,-8.336486323310753066e-02,5.562597413095232007e-02,-1.239566312723807129e-01,1.042287295167803329e-01,-7.552043506811617624e-02,-9.427788915904498912e-02,1.398867635207623750e-01,1.142677082748595752e-01,-8.100646536803764175e-02,1.480995940581111836e-02,-7.958057144742114453e-02,6.300780250583420949e-02,1.087346228972135842e-01,-4.684637497076527685e-03,-4.457833472846338407e-02,-8.674873288518406000e-02,1.071604678349530326e-01,-1.475587859200631347e-01,-1.471591701583515321e-01,1.102599955899193074e-01,9.986736286434425014e-02,-9.054433232762687522e-02,7.033358053267796395e-02,-7.727401469628039643e-02,8.559522223117574380e-02,-1.466604605152147522e-01,4.847306266802081653e-02,9.855895406592049546e-02,1.316012640254685118e-02,-4.138048676777392187e-02,1.223537116045067819e-01,-1.171472940564646792e-01,-4.582826804099912610e-02,1.221476728219417912e-01,-8.793286724090254580e-02,-6.086184175774303484e-02,1.029110830311118080e-01,-6.514590184971159881e-02,-1.061461492541593415e-01
-1.469473607766286494e-01,5.151009534661398631e-02,-3.668727177178476850e-03,-1.231973180712569588e-01,8.825744174083954841e-02,5.237902708184177109e-02,1.243085735888917187e-01,8.144537904763000935e-03,1.332347651998989357e-01,-6.791727142551275131e-02,-1.178835804691818201e-01,1.034655109068064738e-01,-1.435820110861499299e-01,1.321582593056091215e-01,-9.127437215027792150e-02,2.320484758807861425e-02,-6.487620781762236388e-02,1.349432576188202282e-01,-2.998873713075284053e-02,-1.068657076331163136e-01,-2.451360374119251895e-02,2.508900417683528408e-02,-5.285398573431843161e-02,-1.170004193200794851e-01,-5.503087411430872961e-02,-1.813951564824056728e-03,-2.017959666087240644e-02,5.015740532958596481e-02,6.891285944621761139e-02,3.218804466448765833e-02,-5.902564286865830123e-02,-1.102370194799563163e-01,3.448707025766784007e-02,-3.213127662806544715e-02,-4.704842157647735890e-02,-1.364542132654925077e-02,-4.971183843260174040e-03,3.904837594833451830e-02,7.926990561134114599e-02,-3.441486919510386433e-02,6.101089884589852574e-02,1.906318525452663226e-02,-1.194079860741934784e-01,-5.761737226790719646e-02,-1.255933063999645771e-01,-1.101401462782658214e-01,1.720826689631416162e-02,4.177097935485585972e-02,9.716512819492896524e-02,1.228115224169646080e-01
-1.245428462399217895e-01,-9.539100293213778614e-02,1.286088710730450002e-02,-1.931985553600010230e-02,1.154112666727162007e-01,-3.901066835396199001e-02,1.437316102939101281e-02,-9.446278134302273088e-02,7.709212796172335014e-02,2.093652422960884385e-02,-9.857083286246921816e-02,-7.420779659425476293e-02,-1.389798914948043307e-01,-4.976444361549564599e-02,-6.501183530635121222e-02,2.224361167711982890e-02,-7.271787059846242240e-02,6.198230568848345223e-02,1.179631636361101327e-01,-1.312758822929009916e-01,-1.427419389114872039e-01,3.045784992663274141e-02,-3.125028910912916458e-02,1.167189379736540966e-01,1.290038067157395774e-01,5.556051684669027768e-02,-1.219466276453475273e-01,-3.797404211794514622e-02,7.212167752767167928e-02,-1.124590898224980678e-01,2.798463692468999842e-02,-1.337195117397013341e-02,-2.329262324057837508e-02,8.289855608083096516e-03,9.428340476723864882e-02,5.628819175496624361e-03,-3.913714875349275091e-02,7.833291741486435658e-03,-3.871817034593889872e-02,-1.180994514636508341e-01,4.817818805279813765e-02,1.355567485286068574e-01,1.425520823431010997e-01,-5.923721141103029109e-02,-1.159912100939147067e-01,7.357685107359665522e-02,-3.476086211706225226e-03,1.443096566098518163e-01,-1.429749617615382051e-01,-2.806537293712699221e-02
-3.862088993915357982e-02,1.431801576823996947e-01,1.030647641394471237e-01,-3.068632368469606519e-02,-1.098682320611571450e-02,-8.452814753965816330e-02,-4.786882335379907816e-02,-1.017779511151994526e-01,7.028011074727363861e-02,7.087865338340021415e-02,1.290857130836917943e-01,-5.005799268672894708e-03,8.204896306622624924e-02,-1.198823967864106194e-01,1.895671343171101766e-02,1.096075879231412087e-01,-7.432807353020511043e-02,1.266476648985961906e-02,-1.078647394120217790e-01,-9.754536609876940378e-02,1.418385990058473600e-01,-1.214942887668411381e-01,4.471023267624274489e-04,-7.189111278433112096e-02,8.347161118728560480e-02,5.973496285359936042e-02,6.188375373883728270e-02,-2.901251214849326007e-02,8.306709852505730907e-02,-1.118078489444662427e-01,4.948367080436261167e-02,1.127350301274809841e-01,5.436929932600748083e-02,1.498394757581049952e-01,4.047188929548323211e-02,-3.313710443899664515e-03,-4.819049533553980413e-02,2.093043169053349084e-02,-1.290151490861851102e-01,-2.514238900896807738e-02,-1.285231315975704502e-02,-1.099646834501532833e-01,-1.107043080260815410e-01,7.719148498593347840e-02,-1.377877431906780747e-01,2.507998835431266005e-02,-1.220649859248210817e-01,1.250451442918678879e-01,-5.267185886336772649e-02,1.096277562120559490e-02
1.424334571870285726e-01,-3.604119096119072496e-02,4.645915365610074621e-02,1.206433685102586972e-02,-3.900317852291740328e-02,-4.665563156538717060e-02,-1.122087953144521033e-02,4.274535351336655048e-02,4.162722437302041056e-02,-7.698499806006310620e-02,-7.192741786009830551e-02,-1.063517332285883604e-01,-3.692911569420943840e-02,1.004573360171920615e-01,1.357948428318556111e-01,1.236694726432903402e-01,1.370181538588403913e-01,-1.007543612205807348e-01,1.431558186692897527e-01,-8.049318348759100517e-02,6.098713045897180551e-03,3.235481143428162176e-02,3.026969970227966211e-02,-8.919060749141886901e-02,-3.788836753709443061e-02,1.250325579560384870e-01,-8.155508504737005171e-02,6.036376737442681467e-02,3.413272700455022290e-03,-1.204445470494278081e-01,5.603407548700761742e-02,9.622576723371448204e-02,9.855939731770735346e-04,-1.477573496569261624e-01,1.191296741174076301e-01,8.936781465537771418e-02,-6.943151899543188732e-02,-1.128214467707010921e-01,6.553457802308781943e-02,2.801771424781066000e-02,-8.023360388412809074e-03,-8.764189452382278867e-02,-5.375492007320034626e-02,8.518150545070937718e-02,-8.789686437879870584e-02,1.327662674740367199e-01,-1.756940945685847577e-03,-2.641618032099636235e-02,-1.359292645086701001e-01,-1.203220937411217245e-01
1.493973501845097251e-02,-4.845483846525967808e-02,4.690336283275760298e-02,1.100174619843455048e-01,6.316560990697893396e-02,-1.028172408380849945e-01,7.583975737867945655e-02,-1.063135320382915250e-01,1.455452748302091537e-01,5.958511589942058762e-02,1.423648165373647412e-01,-5.670971652302744803e-02,6.792283397081078089e-02,-5.259784624070603515e-02,-5.385779676881587152e-02,-7.833948036132953874e-02,1.458705464781941130e-01,5.693026468186479505e-02,1.476057695479891796e-01,9.476543121891092825e-02,-7.130017031523327997e-04,-1.191002371882213945e-01,-3.088239739457965261e-02,9.189611552329632338e-02,-1.243113740848916238e-01,2.279455719725603791e-02,7.808184540355794789e-02,1.413400366909971229e-01,5.664156125309444123e-02,-1.389829009034566909e-01,-5.497648674097593835e-02,-4.533957978383740262e-03,-2.396666354923387976e-02,3.663439472691998322e-02,-1.066388739757970217e-01,7.745904211361614999e-02,-5.533933569243383588e-02,1.522366002539489102e-02,-1.499294946757387947e-01,-1.191329202792297259e-01,-7.328673928274331839e-02,5.225078425586063280e-02,1.118603748590276392e-01,-8.277600904060604392e-02,-8.475174384324510313e-02,-8.961649885671635341e-02,6.823465347765261813e-02,-1.009708123399769564e-01,-1.043393208503241021e-01,4.082121464815751527e-02
-3.167067688725695718e-02,-5.582370108581787005e-02,-7.280690808969932093e-02,1.436043791343326326e-01,-4.565737376271712666e-02,6.357798695216371199e-02,-6.226283372602416100e-02,-3.334361982804313895e-02,-1.483078773787853133e-01,1.273555721369279414e-03,3.014109354452709777e-02,-1.391198186639792944e-01,-1.328636316043962928e-01,4.022760352157089825e-02,5.936238551293759880e-02,3.803903203437064562e-02,9.148809984398065254e-02,-2.044078334316284939e-02,2.405553778048483138e-02,-7.426066275982946829e-02,1.185691378526540218e-01,-5.869397248508137488e-02,7.106082597942409151e-02,-1.018724767065745662e-01,-8.091117816565668308e-02,7.270335620207654670e-02,1.291215475147223513e-01,1.355516015024871290e-03,-1.231379887686547270e-01,1.181569679478807477e-01,1.258503597759217107e-01,-8.814453488363392653e-02,2.832462209586350532e-02,-1.309673031048543268e-01,-1.487086984053624938e-01,-1.187037644884351983e-01,-5.411428140422787358e-02,-1.390643879244437831e-01,-1.992270996499720392e-02,1.462306993387385845e-01,8.082774080914142956e-02,7.499749187351520407e-02,6.273692426882632178e-02,7.451844666193091493e-02,-1.297473420659636945e-01,9.177778613497500348e-04,-1.366897525717906958e-01,6.729989248779233435e-02,-4.955830937714479634e-02,1.600650654038249243e-03
-1.041912751561959172e-01,-7.552206741346169372e-02,-1.165158437672130787e-01,-8.581614910693480258e-04,1.495752148182996344e-01,8.532019428155382390e-02,-6.772779705296394503e-02,1.038903942070617814e-01,-7.966664682270280240e-03,-3.101009042449560937e-02,9.846065295967884601e-02,-5.541606498358517263e-02,-6.760160450609530025e-02,9.357601901227599606e-02,3.993850338978005565e-03,6.787238268268347419e-02,1.236800492272593088e-01,1.187401012799640110e-01,1.230821230654714771e-01,-4.783424960927785963e-02,8.474457572693466778e-02,-9.692708570191746476e-02,1.244773635104419462e-01,7.381929326097080857e-02,-7.778393292157347039e-02,1.412072715291383951e-01,7.862302894863754110e-02,5.082638360002211808e-02,3.934386118598581783e-02,1.042159664195642377e-01,-1.610424320923536934e-02,-9.709282883518879914e-02,2.313024687377995825e-02,1.022617659391341360e-01,-7.179856713114628197e-02,1.116635365063607110e-01,1.379301173578935391e-01,-1.417070988335318582e-01,-2.556785594629024105e-02,9.006445801912349447e-02,-9.472350336713618313e-02,-8.806762134695803046e-02,-3.989727633935517825e-02,-7.332331511668248314e-02,8.624398026658028349e-02,-4.546958735565848064e-03,-9.105540147503793369e-02,-1.268053361384874345e-02,8.458707076470298181e-02,1.447061911621772279e-01
-7.620530970551013528e-02,1.950805649279768739e-03,-1.157202418873576333e-02,5.625555165989579165e-02,-3.004420353263809185e-02,7.919338579562029690e-02,1.067549489699065324e-01,1.439280370039109636e-01,6.811435823834874337e-02,1.726851679173999066e-02,6.204106748405371907e-02,2.357555795967289369e-02,8.275065130822226167e-02,5.939306261529664344e-02,-9.766033789164399459e-02,1.150032036263331225e-01,-1.370125970102825386e-01,1.334670763061113485e-01,3.059423512596243233e-02,-1.118080119850799470e-01,9.070642259344896541e-03,-1.202660071143741988e-01,-1.887639798373799693e-02,-1.176791143063969369e-01,2.548881052144644221e-02,9.272615575674847399e-02,1.402897145001659462e-01,6.438285770593510371e-02,-9.409432956900747047e-02,-1.060273722229970739e-02,1.142334842981454213e-01,-8.873198277063776285e-02,-1.447393523274157490e-01,-2.365003905984447430e-02,1.022311624545378106e-01,-6.976121458749941218e-02,-6.554847731366215957e-02,1.312194731192869168e-01,8.586484012327741389e-02,-8.537235362809630912e-02,5.071435073714472552e-02,1.453928178756354883e-01,-9.094665986112901446e-02,7.695953633968724561e-02,1.059998449134335885e-01,-8.510666711593205258e-02,4.653885866354046108e-02,1.201297275079456217e-01,-7.232900754225074502e-02,-8.728342239742843678e-02
-1.440946620835621417e-01,6.907526850866987922e-02,5.489256667968678283e-03,-9.889168820852015096e-02,-2.686975668228017144e-02,-9.385423361525557784e-02,1.190480109208440218e-01,-6.103511414301517057e-02,-7.038474159415637754e-02,1.329465412468059660e-01,-1.997210411913172279e-02,-1.211525160226773062e-01,-9.570031976799958651e-02,3.438350913800361508e-02,-5.503971711008166789e-02,-6.112339500456499819e-02,-7.153846311343113606e-02,-8.201590473795281055e-02,3.447273252325028237e-02,1.468674270313190811e-01,8.561262763219426586e-02,7.570726958307671950e-02,-6.727049451977810957e-02,-7.930827019746763962e-02,1.190709548726092970e-01,4.078527135482248878e-02,1.480898687088894050e-03,4.027949255176568877e-02,1.075154160829166206e-01,5.338683715397385399e-02,-3.432706948283598125e-02,-7.940548869771094087e-02,-1.146053957628011544e-01,3.931749311025944937e-02,-1.534846528303668300e-02,3.917749450641894171e-02,1.314932651849579082e-02,-1.016409507881299856e-01,-9.911352810616949616e-02,1.272082938203726032e-01,1.207227499246165958e-01,-8.165648042493293957e-02,-3.956526025586902529e-02,-1.112503690072516316e-01,3.275267769048068045e-02,1.109126835859895188e-01,-1.407030309916128541e-01,3.117083379791213416e-02,1.309243664281703745e-01,4.597503187349250009e-02
1.208918179933614889e-01,-7.626778240083242899e-02,6.214331942568679379e-02,9.443786238485785134e-02,-3.188071707300563218e-02,-3.460313865654404686e-02,5.825852801507855339e-02,4.184322750239777289e-02,1.368703930129101798e-01,-1.396493424754626789e-01,1.446445441006858068e-01,1.053354229841848289e-01,-3.690134183660749578e-02,3.589578628395767579e-02,-1.064935225964565857e-01,1.162522486934785271e-01,7.027997368943436629e-02,4.449008466063997247e-02,1.710794341459836998e-02,-3.678037510305628977e-02,2.111248962801681728e-02,9.539503580519526071e-03,5.533377147089341141e-02,6.724773331639907759e-02,1.044842257436673361e-03,-5.941783890577867489e-04,-8.413319321532282402e-02,1.340549044112433752e-01,-1.325078828709626844e-01,1.672784027282772645e-02,-1.253066912026373769e-01,-9.067332454584485502e-02,1.083022696548013863e-02,5.097065813789208866e-02,-1.003232884944404296e-01,-7.453333570613958348e-02,-3.570000072179209394e-02,-1.547873031247065656e-03,-1.017509750503504673e-01,-2.293692983219194903e-02,-4.720663890907118854e-02,-8.541825664584004607e-02,3.734740142641362892e-02,-9.423141593994487086e-02,-1.335577084555103489e-01,-3.634359628268550579e-02,-1.139743505828635373e-01,5.022833765862838584e-02,1.469417023826505575e-01,-1.268123077953874633e-01
6.625895292562300476e-02,1.408567664513283579e-01,9.319227861365891874e-02,5.048359841428123884e-03,-2.263900243101174548e-02,-1.098787223095213650e-01,-7.895369704527727128e-03,-3.759659966697449784e-02,8.042778231985195370e-02,1.398621758507551383e-01,-1.278170794151711753e-04,1.047319321754126842e-01,-5.948076192348773772e-02,1.165078680810139600e-01,-1.150707674415715059e-01,8.382863906204413018e-02,-1.234316710475366619e-02,6.758525286906957863e-02,-4.213168228640852553e-02,-7.394151837577399300e-02,3.523243417250809806e-02,9.806314654279288390e-02,1.016819990143906505e-01,1.403025168503586328e-01,1.186609427359854030e-01,9.666294465676830705e-02,2.240475088210752697e-02,1.265722782048495920e-01,-1.150447737382003233e-01,-1.399451682980915601e-01,-1.145426088877855436e-01,-2.506380435832347708e-02,-3.783404234188054993e-02,-8.959362490918434951e-02,1.226624432551285115e-01,3.377364974840976752e-02,-1.464201846051778333e-01,1.482512734936193566e-01,-1.063167155636789291e-01,1.082575897955006805e-01,1.815248110766268241e-02,-7.833218636410538283e-03,-6.533356764565335928e-02,-6.790619446168544293e-03,-1.158653179929553523e-01,-2.328284789948842359e-03,7.248688105900485956e-02,-6.624777071387366600e-03,3.655536277437351766e-02,1.325418065034535686e-01
-8.085370784961548596e-03,-3.822312567797206406e-02,8.175013506600972701e-02,4.601063031643790047e-02,-2.899264838507295550e-02,7.533545366442451208e-02,2.323620061056991259e-03,1.172917444340581261e-01,-7.193886685011681437e-02,6.592485992770683034e-02,-6.210633457710375283e-02,-1.352793057249107034e-01,-6.904791696608206242e-02,-1.268491196661690190e-01,7.347441020172237880e-02,-4.032083762121058124e-02,1.070179674260984537e-01,-1.355985478477625128e-01,1.235379364046381989e-01,7.175534249672821385e-03,8.558728548641772460e-02,8.859938337726194768e-02,-1.291905200682149368e-01,1.247493871258011089e-01,-9.421369582270619492e-02,4.358255629531535003e-02,-6.692766650734914557e-02,1.198725118420756186e-01,-8.340064002508017216e-02,-1.066613886636925412e-01,-5.093043202223060395e-02,-6.919259988711226605e-02,5.169769839382387655e-03,1.237049373079303904e-01,8.981666303669161300e-02,-1.450627050975262233e-01,-1.155901623464841155e-01,-1.013626741215797600e-01,-2.957554428117960266e-02,1.327698368867600565e-01,-1.499115300941814555e-01,-8.870149901129645298e-02,1.306994294806622936e-01,1.125188445164276574e-01,-1.264675405990701718e-01,1.468215178342416605e-01,-1.390130273964809982e-01,-6.100916046215550115e-02,-1.288478516231549020e-01,-1.038552458421482805e-01
8.292276227148345780e-02,-5.948100107259279845e-02,2.679631188999695435e-02,9.692656704073324136e-02,-5.202353266297274348e-02,2.453889424429553379e-02,2.358979211322953518e-02,1.246427847146536483e-01,9.909167421419765032e-02,1.258457852993505044e-01,-3.832334838116061015e-02,3.891716890105784143e-02,1.481069227226027019e-01,-1.489614749943210525e-02,-3.458026447065716547e-02,2.545635235140539243e-02,-2.899400617265875113e-02,3.668011617150435111e-02,1.350310280126546247e-01,-3.512937318923163577e-02,-1.174901762029762903e-01,1.117022967270248912e-01,2.844336598726973642e-02,1.305799674237433650e-01,5.142498362519393185e-02,-6.845496127239003581e-03,1.438333168244607385e-01,-2.139321627336732146e-02,-1.290801225966765886e-01,9.418717976125254299e-02,-3.071196732950645658e-02,1.340307839072788776e-01,-9.145370886213402550e-02,9.070953002623396988e-02,-4.628721826555906582e-02,1.138803553879907948e-03,1.237716972272287219e-01,1.396287048539729403e-02,9.257821246398456605e-03,-9.669884476162973752e-02,-1.142446151699810508e-01,-4.493320060467273502e-02,1.113690844264715041e-01,-1.126886990464338600e-01,1.149721279209746927e-01,-1.477169866999386849e-01,-1.499775150432690884e-01,-9.455643795958078301e-02,-1.454059521986517667e-01,2.912907186733654230e-02
7.907320827986200062e-02,1.131029892406647808e-01,1.335095480437354099e-01,6.285193535631730666e-02,1.491846008180414129e-02,-4.542927569225974072e-03,-1.993984271465146230e-02,-6.382293199064696665e-02,-8.953513413958727463e-02,3.576611786625172318e-02,-1.229520138862943424e-01,-5.022167450247511100e-02,-1.068275154026646911e-01,-4.098477065728985125e-02,1.265742805571850316e-01,-3.921240123269045807e-02,-1.220835876965861572e-01,-6.763634815834250469e-02,1.033255625435865188e-01,-8.860438197734107901e-02,5.701120001216461453e-02,-8.858619074479229250e-02,1.610117173747110941e-02,9.932707553569353198e-02,-6.639683262358386795e-02,1.241831640070759357e-01,-5.660511666909960604e-02,8.716771698963160508e-02,7.508704180662226224e-02,-1.262675276471256769e-01,-1.228760069994952048e-01,-1.346564344843748928e-01,-4.582953330998137953e-02,2.318962787764766720e-02,5.888478088180199022e-02,-2.068425805532211892e-02,7.278298738016078517e-02,-4.023954716516482677e-02,8.363579230259435282e-02,-1.167735927780688132e-01,-8.295055884722442319e-02,6.597724501146545739e-02,1.730755324276156415e-02,1.306057859214254380e-01,-1.397153657305630625e-01,2.990803468591141101e-02,4.829490079003817549e-02,1.075912824806654899e-01,4.079113328927222448e-02,1.221467948237525969e-01
3.927338507518252086e-02,8.418581101109123832e-02,1.433093851492384940e-01,-4.165853481868853070e-02,-5.599543777791733679e-02,7.592088861762910645e-02,-4.435919212165854997e-02,7.629017942039056921e-02,1.858440970762187394e-02,5.096703204569325019e-02,-1.262319207270153065e-01,7.213110545559311970e-02,7.529355136004070581e-02,1.186155462026038110e-01,6.602445057800013228e-02,1.359800067158057069e-01,-1.747624178950962781e-02,5.842517943291528071e-02,3.958143533704988615e-02,-1.245810024702215246e-02,1.137969454794461044e-01,-3.757579441200969983e-02,-5.964764644640253854e-02,-6.953235145734899814e-02,-5.853929492729605111e-02,1.947813201770698388e-02,3.693924851157207034e-02,1.483293058554658039e-01,1.392402884846087596e-01,-1.215284525624647921e-01,-8.702362910722007128e-02,-5.179240076794819347e-02,1.487614136957528810e-01,1.060456940574070750e-01,2.510192335672395414e-02,8.876543619745588809e-02,-1.208073099524596961e-01,4.260723722642800748e-02,-4.151582544273269004e-02,-1.277190126505912959e-01,1.180569344565945977e-02,-3.556928313278226450e-02,2.263421372109408747e-02,7.001328040726781388e-02,1.209808139177064590e-01,-1.206527699111983043e-01,8.815774985864843760e-02,2.113861160879612622e-02,-4.570193761750024342e-02,1.047794621885894395e-01
8.260467323740389167e-03,1.163150391734213696e-01,-8.724110616320128464e-02,5.894083484246809279e-02,-6.124859900210505304e-02,1.136706758170581699e-01,-5.292450311674565255e-02,-2.084638309750391771e-02,7.048680909897492297e-02,7.484681678880597544e-02,-1.172493938262050839e-01,-4.782168002181588773e-02,-1.386983830352532809e-01,1.470938468402634147e-01,1.483819734759312670e-01,1.100209016639751847e-01,-1.001294283093969728e-01,-2.097751566862407491e-02,-4.541476174566140556e-02,5.627380354340683066e-03,-7.022442689860901310e-02,5.039753016283321507e-02,-9.229311950609150883e-02,6.089547453405980137e-02,-1.199036794863966443e-01,-5.385454389454341628e-03,-4.314852501796319351e-02,9.369019504685674460e-02,-4.432898353226599752e-02,-1.973480276876052320e-02,-1.360625687249062687e-01,1.287663404828357783e-01,9.678291641493938502e-02,-1.138917561339240908e-01,-3.381327600514007214e-02,7.591663400325548983e-02,-7.654852624967974084e-02,-1.239229725505406471e-01,-3.533675385293894022e-03,1.096947399291947345e-01,8.374641455202411211e-02,1.116338995246990151e-01,9.945072542730823417e-02,-7.410373440683522273e-02,-8.716237413454128169e-02,6.842862012869296851e-02,8.387906351548429784e-03,-7.523813695717206096e-02,-1.380633537269172484e-01,-8.807767544160138851e-02
8.597135278945650105e-03,1.370163414046917383e-01,8.970392659462897433e-02,8.994824340869436718e-02,-3.768746813551906993e-02,-7.808833986037112818e-02,-5.158868135630910456e-02,4.864975423928175058e-02,5.977823035205637181e-03,-7.075009894253339593e-02,3.194037960948653554e-02,1.816130924184852780e-02,1.845738164952154259e-02,-1.098749872900958713e-02,1.025770922618174652e-01,-2.212678531545758664e-02,6.823127155603425642e-02,-1.089149770707274201e-01,8.231585664343130104e-02,5.608501524502784719e-02,5.426141702232140096e-02,-3.565855031070426506e-02,-3.038517723592351616e-02,1.370562314891537736e-01,4.870624592506389572e-02,1.421562057480398600e-01,8.670384770929581708e-02,-6.796971842969899702e-02,-3.223462465228327245e-02,1.034636802682998569e-01,-1.048583677377636636e-01,1.012792305247767477e-01,-9.381135255067835077e-02,6.566054935692958172e-02,-6.257196602858743073e-02,2.059505424406476992e-02,1.901211271492253552e-02,1.290695434323696211e-01,-2.612135107009339041e-02,9.522744601837671019e-02,-5.222147772665824972e-02,1.297279831394348160e-01,-1.251436598504462872e-03,-1.541102252767811986e-02,1.464979779499561985e-01,5.036665753017915970e-02,9.341662120855809270e-02,-7.099632742536327035e-02,-5.354928467772841760e-02,-5.260986063188033413e-03
-3.959061843074997145e-02,4.281014667451604749e-02,-7.836762381882553252e-02,-1.283025470498441178e-01,-1.178961834856340901e-01,8.996886983656804393e-03,1.328472721402354784e-01,-4.254249428880004652e-02,9.605830718507527011e-02,-5.870901673000442078e-02,-7.450789461744017350e-03,9.206354701962429776e-02,-4.502027094534402467e-04,-8.877521722767815759e-02,-3.781216938894342572e-02,-6.355734420019532038e-02,8.532476892451661132e-02,1.054374465945830119e-01,-4.630123170108212116e-02,6.822966085601256392e-02,1.024718826025281249e-01,1.158938922932370719e-01,-6.067749599735551558e-02,-1.238030235651990663e-01,-1.552633953192871508e-01,-7.675873784839883085e-02,4.838774848310909912e-03,-1.469205020580802157e-01,-6.976237083588901489e-02,-1.395046840537482180e-01,1.155626562588981388e-01,-1.229864969700074917e-01,-3.751024801006214854e-02,1.175100512874901748e-01,-8.849799250538770146e-02,-9.317060398475704441e-02,-4.847428066466812069e-02,8.724050122524959483e-03,-5.440396023551655191e-02,2.738216611323415761e-02,-1.121977695819688196e-02,7.618624246684679684e-03,1.052911487041803401e-01,8.381828276231273467e-02,-8.285459957804773568e-02,-5.420914312445980487e-02,2.207926854109534820e-02,-5.017500174758623283e-02,1.046333169265478702e-01,-1.107828020410867378e-02
-2.245824129920429013e-02,1.306986185656750232e-01,-3.536834035072082549e-02,1.000443612416633543e-01,1.058473349214174297e-01,-5.199250702770094601e-02,-1.042373788402863044e-01,-7.672993263197876168e-02,-1.597427678029194609e-01,1.258895750448585094e-01,-1.382820816727941826e-01,1.373261074887227075e-02,2.420433286667384928e-02,5.345472903707318424e-02,6.674372264989762715e-02,1.877637256866359072e-01,-1.418713637178225795e-01,-1.318121436742931418e-01,8.912605115802219036e-03,2.042021201865538982e-02,1.255541943856467169e-01,-1.884444076686742076e-02,-6.333235812350221372e-02,-1.284113433703359397e-01,-4.098485962348716316e-02,1.381856141188490261e-01,3.230654904053208848e-02,-2.510705159713765705e-02,3.414673755320848936e-02,-5.537244661989194905e-02,-1.198799500998498357e-01,-1.284254765173412083e-01,4.804803228819642252e-02,-2.750834141037359487e-02,1.219244497313886899e-01,-8.976224333743820782e-02,5.444186503035239322e-02,-7.480428085525157866e-02,-9.703213633213739198e-02,-4.913120309240921746e-02,-3.186822552755391724e-02,2.821217422229928967e-02,-6.308093987209612008e-02,-1.466029937802298955e-01,2.421943910872679517e-01,4.089738346720880185e-02,-1.775705810424672293e-01,1.691252508893562601e-01,-7.324849087742540954e-02,-2.031221736614049200e-01
-8.408007935562876456e-02,-1.235032956775890811e-01,1.168342308226825998e-01,1.166514857155636353e-01,-1.671555827419452800e-01,6.345352042367752299e-02,-1.095708489334439456e-01,-6.001839322290032641e-02,-2.112289813067689259e-01,7.672772132754757113e-02,1.103180022006779309e-01,8.781260305952737211e-02,-6.317467048089123183e-02,-1.372042006968830219e-01,4.790954931982024240e-02,-5.479657589037455201e-02,-1.696513556586058680e-03,-3.107161892799186614e-02,1.135719489253583653e-01,-8.395694379047605183e-02,-1.267503922362077651e-01,-8.909667817160675518e-02,-1.164644119101449771e-01,-9.025030476320544670e-02,-1.517066697509759643e-01,1.490839255381875283e-01,-1.377423877984983169e-01,1.356805257500338091e-01,1.169000380055714161e-01,4.790006608751889994e-02,1.116348194801572158e-01,1.037266836791749247e-01,-1.027321727428167075e-01,-4.726316765108053153e-02,-1.814519102125070407e-02,-1.059277567181926005e-01,6.368290537590064193e-02,1.252964631111157801e-01,7.210459184072330087e-03,-1.123849548040655455e-01,1.469301139998305380e-03,-1.659783758133452358e-01,-4.914901510514997629e-02,-1.084524344277654068e-01,5.098980458750724809e-01,-5.449020268051791432e-02,1.670899854212930802e-01,1.236089329464839549e-02,-5.884232800886093906e-02,-1.790476968980904693e-01
1.581914442726900516e-02,8.560710342551920704e-02,-5.974177350741835535e-02,9.657225120870932544e-02,1.522538939976834363e-03,4.885352978295663673e-02,2.091780799342599778e-02,6.319934333595289555e-02,-1.200881796440622096e-01,-1.750589328866696340e-02,9.943771105783745512e-02,4.428906489341728758e-02,-8.908722376297704970e-02,-8.860057678557631267e-02,1.305664749629085186e-01,-1.198433237634716070e-01,-6.606711943667964437e-03,5.584318989729409981e-03,8.109519742142955179e-02,7.521019404319045920e-02,5.808132837998492004e-02,1.017211641721321724e-02,1.575679175319627534e-02,-8.994543317886102840e-02,-8.449781215703229542e-02,-1.176012431278839337e-01,6.551816511991861991e-02,-5.324724066552840446e-02,-1.008608836456416080e-01,6.663937942327230468e-02,-1.231297675860837382e-02,-1.511976591596731478e-01,-8.419661695605212826e-02,-1.457173648087195517e-01,-9.664549283274910529e-02,1.015824653146472911e-01,6.229395565506289784e-02,-4.580853636512650928e-03,8.549262278466328302e-02,-1.208077781727597555e-01,-1.252520065498267943e-01,-1.390824300767408428e-01,1.293180743715678371e-01,-1.177991129399523079e-01,5.882289977757734212e-01,1.075973851361212569e-01,-3.375511681868070823e-02,-8.449219525202184000e-02,-2.792699519237434314e-01,-2.075804022648740921e-01
-3.665585449255487349e-02,-7.488626773789757059e-03,1.236599102534548071e-02,-1.055196254470612827e-01,1.124071896427468742e-01,7.431158322187317311e-02,2.765257003518471410e-02,-9.159875848620174787e-02,-6.664661422492196285e-02,-3.234496187297680042e-02,2.886040815036123794e-02,-1.103605782315217748e-01,7.045083602444675297e-02,-1.711037952622641578e-01,-1.373857185371214762e-02,-1.335499915723704634e-01,5.804897473710213252e-03,1.029570473633568961e-01,-1.476340911060401440e-01,-1.393583275965354362e-01,-7.402168657706374721e-02,-1.386085854040649268e-01,1.448055971925869823e-01,1.243208184842704497e-02,-2.139805348111745720e-01,-5.389849989146391213e-02,-1.326442678040284651e-01,2.898919160952374841e-02,1.255127852365933161e-01,-1.199210584774772492e-01,-1.822747750705721870e-01,1.256874525904185524e-01,5.092936851300024909e-02,-1.344125937802836956e-03,5.478220801176797439e-03,-2.277501036936527834e-01,-1.707628145212370663e-01,-6.226253000540837856e-02,-2.935905637303532489e-01,-1.540695493769300706e-01,9.278813600287300067e-02,2.202368855677883444e-02,-8.297731861732444980e-02,1.326634797344902056e-02,1.021692828003534448e+00,7.962757471590005409e-02,-3.058574534217958774e-02,2.073479948181238819e-01,-5.229880186113031737e-01,-1.447000364051491579e-02
1.009190001986269292e-01,-3.336503621868996267e-02,9.681242074259276131e-02,4.994602767211998168e-02,-9.414461921488037621e-02,1.264205212640290843e-01,8.107119070569646091e-02,6.908092971356370737e-02,-4.283125412162060858e-02,3.289621999537227504e-02,1.275097714824038608e-01,-5.643667957892845033e-02,8.092817227096187060e-02,-1.138980931214330500e-01,-1.636620994183644873e-01,-4.810493088579650273e-02,-1.424298327821490739e-01,-2.999761166404899676e-02,1.954198863083620591e-02,-1.217516344211686530e-01,6.118575122644960562e-02,1.096337000982682414e-01,4.942152790941511248e-02,2.796156291887915216e-02,-2.968780901370733916e-01,3.979500392425714544e-02,-3.624235066151815926e-02,-4.939099469145206284e-02,1.318519319448318849e-01,8.222720469339514504e-02,-5.040767202534428976e-02,-1.213996263068356229e-01,3.531354181216705274e-02,-1.453808071161607485e-01,1.246839930860264289e-01,-1.036183301998075401e-01,-9.759130800169590891e-02,-9.323535918318612281e-02,-1.752472367752051785e-01,-9.246588960613025265e-02,-4.618764268939370282e-02,-1.039011110307250241e-02,1.696132406425338301e-01,-1.518027988211507473e-01,1.240088032785693573e+00,-1.403124957986497112e-01,8.714138620972962379e-02,5.965247895084690999e-02,-4.411747091357621220e-01,-3.992119097781996473e-01
1.201940312989176890e-01,-1.288456526633422750e-01,1.236874909891249735e-01,-8.425787033613227339e-02,-1.562947129450286132e-01,6.248534678311592344e-02,7.738178316312829819e-02,-1.193329976496508571e-01,9.929182258133377459e-02,-1.301165169210672656e-01,8.692233185397071904e-02,-1.360629750195673504e-01,-1.173501965013490494e-01,-2.045711822403972202e-01,7.790585533498629867e-02,-1.020678674117560386e-01,-5.077249665512425375e-02,-8.123119630383754397e-02,-4.743963636173941650e-02,-2.850158748439597396e-03,-9.556551463209789210e-02,8.073864009919298756e-02,5.056320658244166377e-02,1.082918340077184544e-01,-3.364672288954139168e-01,6.700625500256666978e-02,-8.096852713622487707e-02,-9.738239387117103574e-02,1.085559812989589090e-01,-2.867808390427017008e-03,-8.412253631599456161e-02,-8.108234956145997374e-02,-9.726679744938374061e-02,-1.015505879837785841e-02,1.676572538054560760e-02,-9.685460616271696077e-02,4.120787202878768013e-02,-9.971786309704064322e-02,1.002194263775166017e-01,-8.510560843988271285e-02,-9.788142535327820637e-02,1.587579277810473311e-01,7.023411026596049211e-02,-1.045733886699064079e-02,8.293837728269384257e-01,-2.829212457602665615e-03,9.529826910058207534e-02,-1.859357992564639184e-02,-1.247150123279432699e-01,-2.401086771648099916e-01
3.380173784557824468e-02,9.253324885593990079e-02,1.031524867158815396e-02,3.509899391921928596e-02,-9.040665758839032395e-02,1.900665079340559810e-02,1.353555412502611792e-02,-9.634483766278303940e-02,1.178442613671702444e-01,-2.796358781669239235e-01,-1.036920078131889633e-01,7.127771522755153855e-02,2.361683097651365582e-01,-9.356111429836135029e-02,1.482412669420083220e-02,-2.267804248352039698e-01,-1.325413830728084108e-01,2.911434469008780321e-02,1.420754305847141408e-01,1.650196904343483040e-02,-7.777453345034925081e-02,1.011499836506875027e-01,-4.768252362371563913e-03,-1.200059094103657631e-01,-7.113128797955356464e-02,-1.521633290382620740e-02,5.035447114000755203e-02,2.875748908450768623e-02,1.306728073288276892e-01,9.479627348193966907e-02,6.013275169826431260e-02,-1.243162325011189090e-01,-8.727398374207193110e-02,3.515317947403996668e-02,-1.202451897347861509e-01,1.146211067223788238e-01,9.829677754246861354e-02,-8.118936444719024315e-02,-9.690301781755158994e-02,6.747217783366812882e-02,-3.935145304642121561e-03,-1.208167519176590737e-01,1.768737162338034075e-01,5.634248654878282192e-02,7.445985685411695698e-01,-1.652267364792038284e-01,-2.560441369803999057e-01,-3.834014919029752472e-02,2.802798848463260439e-01,-3.629739175358216441e-01
-3.568474897644519084e-02,-2.862012236503471904e-02,2.167893699568610721e-01,-5.783368432708281548e-02,-2.764496550412115158e-02,-1.544970250366966558e-01,6.397834280047522137e-02,1.788290967220835040e-02,7.034525288356531514e-02,-4.442975401352732695e-02,-2.294485584000118678e-02,7.995682776077456255e-02,3.652435137259391618e-01,-2.430414628263726645e-02,1.199261362196399339e-01,-1.829435938020216867e-01,-2.257686694482673867e-02,-8.990746930698301220e-02,-2.162384640526670079e-02,-1.369353769880000682e-01,-7.364654680982776758e-02,3.313410818050310357e-03,-2.527097427214338582e-02,5.696166287101672200e-03,-1.071231770128657640e-01,1.365168447634432236e-01,3.641135842339573991e-02,-9.528269783366165313e-02,-6.119247498979926703e-02,-1.706356692780284026e-02,-9.751439102668749137e-02,-1.561418586529088603e-01,1.362127436487606813e-01,-6.628476980302903943e-02,9.774954476757100053e-02,-4.786789401016989381e-02,-1.490760046439433828e-01,-5.059517491374692505e-02,-2.015481364939157582e-02,-1.014656751693358977e-01,-4.375153057942385987e-02,3.569529616740306499e-02,1.371114540574275009e-01,8.470190935897752016e-02,4.121556080595248361e-01,5.302852064061738119e-02,-3.395723268897269387e-01,2.253066775069422767e-01,2.968883722652186363e-01,-5.654255433099127925e-01
1.210997880297344093e-01,7.871268588428782798e-02,2.153863322633990107e-01,-6.587404560371541706e-02,-3.676915164822983778e-02,-9.155786479955127510e-02,2.833471755661015612e-02,2.186418744300571981e-01,-4.915739136210090648e-03,8.118847839379325637e-02,-9.007851331880421808e-02,-4.273041522165428943e-03,5.763740682625747430e-02,-3.033871260070700529e-02,1.103401289457352635e-01,-2.798586181760680247e-02,7.371886523451100237e-02,1.922666137107229348e-02,9.398085628770506961e-02,-1.271773542810645252e-01,-2.927175221295294765e-03,-3.111984363172770260e-02,7.256076972421167393e-02,-6.355307822145546404e-02,-2.265222059359718876e-01,-2.002043565727675001e-02,1.487793453359070317e-01,2.210562426104673017e-02,-1.373791994284470908e-01,1.025250918656491761e-01,-8.529271371234278809e-02,-5.534235470261989615e-02,9.471455651267110531e-02,2.020567015676570308e-03,1.202681402957853259e-02,-1.090900491883154827e-01,-3.347309716903312457e-03,-1.772648779416502451e-01,-2.253783905826387685e-02,8.713334986507205449e-02,2.613073439043789650e-02,9.485306693368027176e-02,8.795325937022717422e-02,-1.680061669060198548e-01,8.160117299594059626e-01,2.209363577312881480e-02,-3.423898707705050892e-01,4.696362004818725733e-02,2.521045697339117098e-01,-3.220082552555512123e-01
-9.693880526016140919e-02,-1.183739615899004755e-01,1.209167884450385311e-01,-1.210960825680326564e-01,3.092392972080988678e-02,1.022709206417185823e-01,3.459973366043544996e-02,3.616257715224679287e-02,7.172699875355016685e-02,1.964681855831875920e-02,-2.993307616895166806e-02,3.698930894349598125e-02,-7.534607072811515260e-02,1.299017178180738030e-01,4.499667985923302971e-02,-1.245892697760527246e-01,1.074967653426884273e-01,-1.072186771604639322e-01,4.879966700328271928e-02,-5.552974789074557188e-02,6.892753292129609466e-02,9.313711648172991187e-02,-5.086125986933179993e-02,3.146113105996069855e-03,-7.907412983747037771e-02,-9.493326200263246806e-02,2.529672626287513340e-02,1.097677944753882584e-01,-7.140545397270640915e-02,-9.908720234653660419e-02,3.996029991797576258e-02,2.368851517619481074e-03,7.799398773181014100e-02,7.873017710551021009e-02,-9.415545709566419674e-02,8.965457191260545189e-02,-5.714399169733359179e-02,-3.903438403752059090e-03,1.477498528465751859e-01,6.172430169229800589e-02,-2.551343248269398456e-02,-1.287120275913571643e-01,-8.636885464960758485e-02,-1.473800434619858615e-02,2.110575063811005181e-01,-6.913235597389820464e-02,6.324676175889611118e-02,7.001646701936721506e-02,1.155456263404066458e-02,-2.080184712648487921e-01
-1.264346386765694552e-01,-9.852401785045654392e-02,-1.955304100706573706e-02,-1.529194219679801126e-02,1.137080148640084130e-02,5.405949201199702209e-02,-7.459751076898381295e-02,7.957510948930289485e-02,6.785314282523834117e-02,2.073641416617301447e-02,-1.321589997249707771e-01,-3.055565081840857025e-02,-1.594589031957377723e-01,-1.095845634887550324e-01,2.539117237336206007e-02,6.570085784582171962e-02,-1.894118984027656077e-02,-9.809910467197778539e-02,-1.174747527310313761e-01,-1.280328569449055154e-01,-4.799449480916776617e-02,1.314673012453755063e-01,4.262313720281255686e-02,-1.213283912251415103e-02,-1.157325982583306545e-01,-7.603793740445480287e-02,1.850734731243000586e-02,-1.606273643882216440e-01,-4.631751289122409965e-02,2.486866773509420828e-02,2.761277882874318620e-02,9.398526539618370750e-04,-1.424745267509033853e-01,-1.208042484144311451e-01,5.500388129291189365e-02,-6.011343843391200176e-02,-8.889554664052837230e-02,-9.618280952717779553e-02,-1.212687238104240145e-01,1.214601400576060253e-01,6.248890672482156766e-02,-6.528474500635557398e-02,-1.175034703080869297e-01,8.566228588915736353e-02,6.858020285983382758e-01,6.981902133302275715e-02,-1.274423818059081392e-01,-3.541151745705423126e-01,3.466692882336734616e-02,-8.099773874116113215e-02
8.105270140637915732e-02,-5.413040922453576237e-02,-1.357347441309660341e-01,-9.419442713946739321e-02,-4.225445365085861438e-02,-1.830097707877268165e-01,8.994232549697692147e-02,-2.316709229179751695e-02,1.156871829727165457e-01,-6.474795101976946188e-02,-9.897754283897226835e-02,1.769231089988702876e-02,-1.030249635813772213e-01,1.185058580567707187e-01,-4.771114743322733137e-02,-1.163447429103401931e-01,1.353793727840107708e-01,3.376316347719454658e-02,-4.778532667430843844e-02,-1.364832528623930175e-01,4.766066412876810571e-02,-1.395646971975607609e-01,5.510988087761107407e-02,-1.080018735894700543e-01,1.398125615129526822e-01,-1.420223541613319929e-01,2.923049473000302600e-02,2.779675334343234896e-02,-2.083941763189373075e-02,-7.927544186522526848e-02,-3.588993580601265027e-02,-8.117361213158658106e-02,-6.433694786529638165e-02,-4.387604078293545068e-03,1.130789456564651740e-01,1.701176010963042010e-02,3.195268014574326187e-02,1.260529624556473161e-01,1.254047106516853749e-01,-1.315103467530860104e-01,-5.387548410560419332e-02,1.276352683708550095e-01,1.210353159127751203e-02,-1.187529239962490518e-02,6.050874233039503780e-01,1.072216679527606409e-01,7.580210326357970929e-02,-3.575723500267534716e-01,5.439773614461324708e-02,7.616041646066845638e-02
-1.022110461148554722e-01,-5.723175369297027471e-02,6.292231543424169071e-02,1.497530824179941211e-01,7.013050860743581805e-02,4.112349959306179498e-02,7.865477114477180398e-02,7.069179782063711448e-02,-1.240197509129515041e-01,-4.472923700505303940e-02,-2.320925510355700827e-02,6.599616513810682705e-02,-1.076394268592296977e-01,4.423654682026318535e-02,-5.353637191877613777e-02,-1.181481302611967349e-01,1.616429256764717881e-01,-1.349711483147134905e-01,1.068463683669651082e-01,-9.314358970811367766e-02,-7.228912321656899564e-03,3.401595690696396224e-02,1.244192115261656684e-01,7.316976045635478765e-02,5.273554607866480504e-02,-2.685185822252812715e-02,-4.132500391272841272e-02,-4.156873720605727164e-03,7.228523591786872871e-02,9.370526042638285813e-02,-2.181659499795702423e-02,-1.911276235417460334e-01,1.511177838638490256e-01,8.486157999787703743e-02,2.476694453257138884e-02,-9.124304383129994145e-02,8.993144208232192738e-02,3.637450119647860775e-02,6.586531454688766829e-02,7.472161493185958125e-02,-3.813159729023343769e-02,6.611310970108721929e-02,-1.244500690758696682e-01,-1.794502578113922331e-01,8.220805649295861439e-01,4.116227982577896904e-02,9.083436537824207679e-02,-1.779993995095415227e-01,-9.420657136019919276e-02,1.155864288983838584e-01
