-1.376697162132838048e-01,1.120558320121091411e-01,9.783468105886525268e-02,-1.480290783553760980e-01,1.098825522745905392e-02,-7.335168157451607551e-02,-1.390410098296912533e-02,9.577872384695509944e-02,-7.913824545463317428e-02,-7.124361054844625951e-02,-5.676942229652331973e-02,6.703447701366860301e-02,-1.168542358416194693e-01,4.372627332912515374e-02,-1.010074948718285015e-01,1.303188639765705259e-01,-1.445114671177874510e-01,1.348824144698479721e-01,8.623698135393179087e-02,-9.571000878467172956e-02,9.401491599082850703e-03,2.019340311970427293e-02,3.742623089627997168e-02,-1.368364225113888888e-01,8.683472725130386705e-02,9.505863856110546850e-02,-1.273494888215068455e-01,-2.722452936428290671e-02,7.472468307941043664e-03,1.095098672224609215e-02,1.149318506908301452e-01,6.127859428823023702e-02,7.163522770417049546e-02,9.473777659553361818e-02,1.920533508900781894e-02,-1.381474979150040527e-01,-1.250256392947453332e-01,5.023810001968670447e-02,1.321758510384777041e-01,9.827247195789665102e-02,1.037975645754392884e-01,-1.262706709560645901e-01,2.549830999767890849e-02,-7.839542702057405998e-02,1.149425734340017435e-01,-5.658836804575378965e-02,9.791526783426410252e-02,-2.426493894005898877e-02,-1.135275235695244744e-01,2.211812684412944874e-02
-1.364625899362111039e-01,-8.880844844892962775e-02,5.998783148749908811e-02,4.869508481569626013e-02,1.162025991255835333e-01,5.101155057754949707e-02,1.308949135951220366e-01,-1.435165582174350585e-01,-6.836084807674891461e-03,-3.770569988298813624e-02,-1.233155262993168022e-01,-8.179810981674252857e-02,-8.154559014265566619e-03,-1.375895339553066532e-01,-1.355120506614670983e-02,1.124653296757497645e-01,1.174375125909696560e-01,6.516170631740381136e-02,5.381743566862942640e-02,7.021586866542359195e-02,1.038614670767355752e-01,1.040432687619457786e-01,-3.601233052848935856e-02,6.113305922652595426e-02,8.311967943718506779e-02,1.383008568455219300e-01,5.554782098545874014e-02,2.906655499212956739e-03,7.009237689575875674e-02,-1.324829061910691996e-01,1.166159964029633567e-01,1.192220147630117244e-01,6.775968924931902171e-02,1.151064943899749171e-01,1.481330499142349544e-01,-3.605021086651127860e-02,3.676021659287009857e-02,1.375127786152535447e-01,-6.600291714014416833e-02,5.126572617414740241e-02,-3.139237586552195980e-02,-1.469668644739967889e-01,6.319453096149216242e-02,-1.283938403795451266e-01,-1.496549575354371719e-01,-2.239009565862110085e-02,-1.119894139988625303e-02,2.627936868933183900e-02,-1.403132474737937285e-01,9.513049687593114201e-02
-1.113519941484875375e-01,1.291859943537217170e-01,7.058777275664918083e-02,-1.096760826546246265e-01,6.458688116303332172e-02,5.953937949435572641e-02,9.751134853502088640e-02,9.207150495386620670e-02,-1.274948992013569260e-02,1.236683798875727602e-01,-9.943375535090984152e-02,4.304943234552588427e-02,-1.055606787063661789e-01,-1.366513490596047709e-01,1.407742200695450141e-01,-7.341930109338921928e-02,9.145173027425365642e-02,1.436739883425771913e-01,7.390957932021546828e-03,7.643591546822836591e-02,-6.038775157336326305e-02,-3.318899890671690722e-02,-1.057128252078521069e-01,-1.535328248947118168e-02,-3.077713987558976239e-02,1.039122483692151155e-01,-6.695235282058174808e-02,8.357247091561609276e-02,1.334726573429103891e-01,-9.319793587080625608e-02,-7.144895099973010144e-02,7.386712057771666062e-03,-1.248860852228412255e-01,-1.216280657908871965e-02,3.506187514061678834e-02,-8.493171154600798189e-03,-1.166966573324932088e-01,1.467634344230624166e-01,3.458303280898950005e-02,-3.100061412466631472e-03,1.648142037579589103e-02,-5.025135111881824657e-02,3.719423033714647220e-02,-1.894528309300688718e-02,1.402758226081685933e-01,-4.460501736902160175e-02,-1.455578981362562752e-01,-5.028979524029993098e-02,-1.351774949768725920e-01,6.777568993383775720e-02
3.181055355776629678e-02,1.487763998408786204e-01,5.074020596429890118e-03,1.215889947142540228e-01,1.015203249725787626e-01,-1.019067570161267811e-01,7.246930550480129574e-02,1.010965167651505514e-01,1.327335851028577374e-01,-6.128006003216292241e-02,-1.402601978928627591e-01,1.430244522233944660e-01,-4.613990489962653541e-02,-6.863458803203752179e-02,4.749583870013068809e-02,8.639179264710075690e-02,1.242524390384364408e-01,8.050835609810932936e-02,-1.123852313953699056e-01,7.129801921610370852e-02,-1.002020517663249344e-01,3.731969667776202648e-02,-1.305749681222106995e-02,2.846874108235605827e-02,-5.600921348224642549e-02,8.804928417264426543e-02,-1.494149842403882655e-01,-1.942796688276116068e-02,1.008535271208431394e-01,-2.258779755865666927e-02,-2.223358053354121400e-02,-1.346708768836168968e-01,6.874530712545484645e-03,1.106405762469019616e-01,-4.334799216840949654e-02,2.192966188244882542e-03,3.221995052996320941e-02,-5.330350564024151361e-02,-1.256949441665383138e-01,6.605305015989576534e-02,9.874039663284275847e-02,1.192918950512612819e-01,-4.838348499440758843e-03,1.049738981584301956e-01,1.261625213073616913e-01,6.026584117916680694e-02,-6.340491480554467929e-02,4.378563623606737676e-02,6.799094499943114656e-02,1.390196772141123749e-01
7.390635204286710724e-02,1.012541927000677744e-01,-1.423572811343788713e-01,1.019265293622612090e-02,8.575566926985064842e-02,4.881949289028533756e-02,8.290548713367851263e-02,-1.336674820135369535e-01,9.023085444354503326e-02,1.023729533355085264e-01,-4.263986741231580446e-02,1.330717952068427301e-01,8.403765979130786712e-02,1.492828069371075761e-01,-1.344400779324304851e-01,-6.734063631228094648e-02,1.062468825039682707e-01,-1.245302317038668588e-01,4.278155261747071392e-02,-3.713707233706232957e-02,1.386752700880984068e-01,-5.805213803391412464e-03,-1.324246198212216952e-01,1.198790875861655836e-01,1.491319640406226499e-01,-1.454213959626997066e-01,-9.484218771724539643e-02,-5.120660341434361829e-02,-1.135213493779408667e-01,1.309058919617655248e-01,1.245949202390298216e-01,-1.293264044603726626e-01,-6.133508488765194999e-02,1.473017590857560177e-01,-9.291027398080151101e-02,3.219274092101381823e-02,8.116217752202603553e-02,1.797281751796711569e-02,-1.199443783087104226e-01,1.285496334638851768e-01,-5.184051949479680232e-02,5.769488847549311683e-02,-8.438011594710048691e-02,-2.689647442652794151e-02,1.153622253619203952e-01,-1.251816495958951725e-02,1.283570909911135871e-02,1.110031409066763175e-01,-4.927615651130229368e-02,7.053759350230984215e-02
7.877392519204898247e-02,1.125664712625922548e-01,3.741799532756678870e-02,-1.025472039474939340e-01,-9.645497658931670437e-02,-5.407929645977366251e-02,5.484736622496044767e-02,-1.196955435490068415e-01,-1.477405662735908065e-01,-7.471835476887525584e-02,-2.686907089631435097e-02,-7.074273520726971631e-02,-4.248855898493114625e-02,2.109417129748797359e-03,9.355622248716838341e-02,-9.740846262179578274e-02,-6.359224807118341039e-03,2.335836390092910220e-02,-1.126929640962047591e-01,-5.769815342245893097e-02,-6.152312872716310388e-02,-9.346978738290170896e-02,-1.260829023640967494e-01,1.945376530818812566e-02,-1.087748564335405538e-01,1.324956017168514577e-01,-3.988663037928598387e-02,3.368489582347358735e-02,-1.009406407997467947e-01,-1.356658742194649936e-01,2.037404739424666933e-02,-1.308862350296165211e-01,1.264327290827512440e-01,6.147148307777128284e-03,-8.632015931324488189e-02,-9.998408456526952648e-02,-5.903382836560000513e-03,1.424189869169016631e-01,-2.990283732759005386e-02,2.014098232574515479e-02,2.968164427268080163e-02,3.971711290113880133e-02,-9.095636885593672005e-03,1.089639311355782569e-01,-7.139787754946859410e-02,-2.249984614528527382e-02,7.106665982610094190e-02,7.832774929151500864e-02,9.100475638535723832e-02,-7.057326555265797108e-02
-1.053891540283115880e-01,1.150397720623281550e-01,8.724670154849537007e-02,-1.453406933708025484e-01,-1.301905755977956491e-01,2.972678601009534627e-02,-1.449378447520668911e-02,1.240402897513556424e-01,-3.021735744699702297e-02,-9.467469333545594501e-02,-2.212442794398730705e-02,-1.263083126853805915e-01,-5.899685914787773655e-02,8.490443393767707625e-02,1.138634883705082201e-01,-5.366178163486398645e-02,-3.013374914153349460e-03,-1.777113877891184357e-02,1.222792898899710823e-01,8.135214407539101411e-02,-2.939850579196143232e-02,-1.126277807946436671e-01,-1.479728710203265241e-01,-1.140890654470104598e-01,-1.035561876460999453e-01,4.217081186191207198e-02,9.364945943221875124e-03,-6.676711909546746704e-02,-1.179284546430583169e-01,8.568052079395696574e-02,-1.398130366184540951e-01,-2.767405151376896300e-02,1.135396423283081824e-01,-8.278983942348588920e-02,7.102895098458406054e-03,1.097930562501938379e-01,4.912262832713920613e-02,2.893058646300172843e-02,-8.036914022128005541e-02,-5.963414714205408917e-02,-1.202379816820475789e-01,8.178360048348154443e-03,-1.102853120481495919e-01,4.011930791858372980e-02,-3.706122462424056574e-02,-1.188013568703863432e-02,-3.663339589597498780e-02,1.327604896823974812e-01,2.462157667846726072e-02,-1.137202355516842844e-01
-6.039788403491522240e-02,4.289004270085719495e-02,-1.458393644106204812e-01,-4.399281218590801734e-02,-1.426952829628771735e-01,8.203923638682608654e-02,-1.133176124801660301e-02,1.060688000306152790e-01,1.417237539991807738e-01,-2.272879035405814263e-02,9.049520441258041004e-02,1.032116934633753313e-02,1.800130654015019704e-03,7.725565257532568397e-03,4.368334203436616270e-02,1.251052019723656039e-01,-2.007955134159739030e-02,6.352581115820477020e-02,-9.755103069729514909e-02,1.414250895187619539e-01,-4.330796951873856770e-02,-5.125609724363333619e-02,-1.122909540366274495e-01,5.789122219088008170e-02,-1.075386160517111667e-01,-1.373408425372427688e-01,-8.425782145814829371e-02,1.280939405138829812e-01,1.798908581505967441e-02,-1.319427241309544530e-01,-4.904011169349976884e-02,1.469841074482236554e-02,-4.788216854204821460e-02,-7.752812712018211649e-02,-1.214235150018372761e-01,2.274876372104692179e-02,-9.895297258803420481e-03,-1.829526996106811687e-02,1.383221220875392177e-01,-1.277802445352738125e-02,1.495285406923911597e-01,7.545957050601459493e-02,-4.091969253452323874e-02,1.851631036831369315e-02,2.601089906550557718e-03,2.924924366743705817e-02,-6.730672501559001319e-02,6.576085396833422636e-02,-8.193100265669307769e-02,7.433521749364313536e-02
-8.545714854744490552e-02,8.394094275264679661e-02,-3.701857789578709423e-02,-1.115113975090975817e-01,-1.488138434648222097e-01,4.007507551935018952e-02,1.296053760102327257e-01,8.416185691886829412e-02,1.129397319551039003e-01,5.372584039630898256e-02,-1.238569556658970366e-01,-6.609907320357318039e-02,-2.814764513070530660e-02,-9.974638854163619950e-02,2.029034074483640482e-02,-6.361081956025881057e-02,1.343351264986441251e-01,-1.003119632256073979e-01,3.190214667870225340e-02,1.070851962911343602e-01,7.588240894431089179e-02,6.303114259513889484e-02,-7.095688697677154932e-02,1.070064602241518892e-02,-7.857627575696500555e-02,1.037618360413090357e-01,-4.731447209095730744e-02,1.375787437488124043e-02,-5.249826582266217678e-02,-8.988086626631583420e-02,5.681002649213662270e-02,5.145497918708177854e-02,1.944773568979102363e-02,1.725403480464571260e-03,-5.018772788270561835e-02,-2.897553714264207436e-02,1.461440085465559868e-01,-7.271811628890567647e-02,1.301578609082449656e-01,1.467557415331926796e-01,-1.015233188351454124e-01,8.269956828688551642e-02,4.706001978201979075e-02,-6.102752322083464243e-02,-3.159123480160824782e-02,1.879079106041597891e-03,5.133937025669499388e-04,6.693781936782827735e-02,1.158858360361393613e-01,-9.045224414478270081e-02
-8.322457885291931201e-02,1.435576934832104856e-01,-1.353381560562667285e-01,1.152642408552191078e-01,9.524295593297432694e-02,3.605909040651500419e-02,-1.404959301984069764e-01,-1.782913221527834824e-02,3.526904602377167741e-02,-2.029263359565081082e-02,1.471965199388722556e-01,2.158359251999297790e-02,-6.742029932401827352e-02,1.119650962013823137e-01,8.971005818480096150e-02,1.558853068936078001e-03,1.058406982596406809e-01,1.359671718108939331e-01,2.528527052792831076e-02,1.467784297470593746e-01,-6.569742409173556785e-02,1.494436215515656807e-01,3.782650218156477506e-02,9.541618216568828470e-02,-1.429166724108697217e-01,-4.717247061512470918e-02,-2.089733636826407448e-02,1.090778005523101724e-01,1.952942650759958987e-03,1.340575800155603126e-01,-3.678758297454526316e-02,-7.578729455460889164e-02,8.020974959187654463e-02,-7.180411406679405861e-02,6.599266959130356547e-02,-1.896456709392457807e-02,1.264758290458108669e-01,-1.315070918187469795e-01,2.218679965799413845e-03,-3.903502710500950101e-02,-1.391455044225198834e-01,1.244930093907410662e-01,-7.038456815215644868e-02,5.683039319441807180e-03,1.014869851388076893e-01,-8.138393143546114594e-02,1.172315556155531791e-01,-9.204913597877045772e-02,-7.314203773814809129e-03,-9.905612527253553068e-02
2.965875028228953658e-03,-8.414633823322419104e-02,8.111456775979741796e-02,-5.537737412741305931e-02,1.119818436894824132e-01,6.532723240637505757e-02,-2.711941585777091768e-02,-1.303911859429280062e-01,1.321726794278848816e-01,7.366977957549269984e-02,-4.005177300437685883e-02,3.709565543474616089e-02,4.601618895785175578e-02,3.642725770060761814e-02,7.697519939193397942e-02,5.818998945380637888e-02,-4.227674074105630675e-02,-6.233138172217796147e-02,-8.040958772607720295e-02,3.544871551631240125e-02,9.686882607981181503e-02,-7.471759669808121507e-02,6.932557176453910119e-02,-9.961932319167710048e-02,2.430376852921420361e-02,-1.494219485330632868e-01,-1.359126093392221124e-01,-1.476778584715471299e-02,-7.971413511512855099e-02,1.180722888807203275e-01,-7.616005745512319236e-02,2.043703890290193836e-02,4.841739912526921152e-02,-3.000031686281627585e-02,1.820198783436496881e-02,6.504811152688647069e-02,1.140173129265071028e-01,-6.819131972557759824e-02,1.365852777064852364e-01,8.373614033188980788e-02,-9.807891513905944714e-02,1.256327240432708880e-01,-9.848085919788182596e-02,7.623797767474949083e-02,-1.037046273777167682e-01,1.126492284934250410e-01,6.978062665857481806e-02,1.396939459333272071e-01,2.587257403654588672e-02,2.888633029368009586e-02
4.190233651118410729e-02,-8.808724503461373700e-03,1.104486827414080663e-02,1.129390385425592391e-01,-1.198438645223898202e-01,-1.281162598288552168e-01,-7.071222627913598124e-03,9.743537038664923378e-02,1.241494900289159264e-01,-1.485167182641084493e-01,3.027641276455916852e-02,-5.525123518130857503e-02,-1.055673561438320585e-01,-5.029616695761719714e-02,-1.129201403862248598e-01,-6.496883914766050927e-02,8.720682330644649594e-02,-1.439356887192830003e-01,-3.009492227934643105e-02,7.429643253189585628e-02,1.093222456303841461e-01,-7.327740797412971019e-02,2.462576971002650161e-02,1.238584616332873145e-01,-1.133823941305486110e-01,-1.129814516648126599e-01,-9.814225846423217658e-02,-9.589752686969914286e-02,-1.220831890431798294e-01,2.078312005857391176e-02,-8.785161041046429808e-02,-7.739306415060624722e-02,1.008941586482823560e-01,7.248562001959427126e-02,-8.140022645937770862e-02,3.202955175365196361e-02,-6.519386940940430364e-02,-9.509648261973424610e-03,-4.515352368166426766e-02,-5.097061903135312322e-02,-6.749565660768344633e-02,-6.727271765802440850e-02,-8.005853966414933076e-02,3.154968515981254606e-02,8.537316363594751878e-02,-4.965957299141543491e-02,1.278986768561797549e-01,8.256323996197070803e-02,1.579415684746982018e-02,7.191540777709415355e-02
1.032928156961812338e-01,5.347361840943770650e-02,1.138240545157594708e-01,-1.526467260865116415e-02,2.729357260860940104e-02,-4.398357469503882955e-02,-1.161046620826295811e-01,-8.560789885178581027e-02,1.383573421909744805e-01,-1.430601783090926504e-01,-2.222420274917866201e-02,1.960423737825614521e-02,1.181648815975083477e-01,1.119046320543641004e-01,3.331682170414640431e-02,1.310845382529560454e-01,1.248720916844147932e-01,1.316895074670574595e-01,9.818426854507228407e-02,1.696354800770880078e-02,1.196209873402157842e-01,-1.172862286067535842e-02,1.077739344171438629e-01,3.486482491811923601e-02,1.376894207629750233e-02,1.326062902703398494e-01,-1.422920928453753342e-01,7.716033875217009896e-02,9.684411908909748568e-02,-4.129931407101516960e-02,2.870185248449119708e-03,1.437608812115936940e-02,6.103710846374871268e-03,-1.215008751354013511e-01,1.198312495616537798e-01,8.831196201071755958e-04,-1.495756583981736887e-01,1.127336569296721047e-01,8.098631429537650472e-03,-7.228784276640670692e-02,1.054172803004691794e-01,4.081580787143668232e-02,1.060586702612602295e-01,1.453884127789241976e-01,-7.385968438064993702e-02,4.426627466743826567e-02,-5.408362771995667284e-02,1.137362541888294609e-01,5.198995549653676052e-02,-8.201437656979795876e-02
1.037481351384691441e-01,-3.842114756085693306e-02,2.267123710621560262e-02,1.278523938040988794e-01,4.044586021905312301e-02,-3.404583171810070252e-02,1.288623660086639366e-01,1.337272967304866667e-01,-8.127978282328819637e-02,6.030517967790660627e-02,-9.288780044638754452e-02,3.474355231669442245e-04,-3.509897826263978782e-02,1.416933829571827286e-01,7.932740481216841999e-02,1.419979818243140846e-01,-8.225220206789314592e-02,-7.924752492533287951e-02,-1.202722614614840368e-01,-1.043634401586276544e-01,-1.387267919714485834e-02,-3.207005871540170860e-02,-1.386100680045665445e-01,-1.253062896304936169e-01,3.938124451468273668e-02,4.470544281395982811e-03,5.076704421363949227e-02,-1.453717106621074118e-01,-1.702551540715593892e-02,-4.402558327830985441e-03,7.362199725679080542e-02,5.324178638076138004e-02,1.308737959302426479e-01,1.362864615461700235e-01,1.065300669498171204e-01,-1.295242915786254112e-01,-1.000382778526528738e-01,9.612750386734379704e-02,-1.401065936554708735e-01,1.491147373797745701e-01,5.974317814685054483e-03,-2.508635645205482129e-02,-1.384561239926991594e-01,8.915328734558179702e-02,7.435468748819894225e-02,-3.319273028426525385e-02,-8.815063200185677128e-02,1.389628255022795911e-01,1.172327604170993742e-01,-7.538335446473644341e-02
-4.355273577091278714e-02,-2.561130782547216267e-02,5.799982936986172732e-02,-3.810894635034486888e-02,4.061408223897062207e-03,-1.317594655159855521e-01,1.464917628680093842e-01,1.410453647112658859e-01,-9.459012599886194861e-02,-5.770936642399571159e-02,8.268484418548203985e-02,5.023089924854115540e-02,-1.250167313903340349e-01,-9.935986157697790366e-02,2.077198197630974325e-02,1.076934171999248957e-01,-5.416025984723878139e-02,-1.062585070334874648e-01,3.921030019939085801e-03,-1.077677502168172680e-01,9.023802851731629882e-02,-1.418503040571578444e-01,1.030246462959698468e-02,5.366325188590415074e-02,-1.000687424369016004e-01,-5.742692500236901143e-03,7.296122528974301191e-02,5.114086289460437196e-02,1.109059121040028711e-01,2.195003496841541057e-02,1.263280659331034173e-01,-5.909722404096401371e-02,4.145601703814269512e-02,-1.107737226753556931e-01,8.562759610292744461e-02,-1.344620578882541051e-01,-2.510125846720887011e-02,-1.178939137125882136e-01,1.367449606103499360e-01,-1.237384210551048247e-01,4.076742541091594660e-03,6.942675267776765580e-02,1.386107193166455087e-01,6.058963889995135771e-02,1.269617855115342808e-01,1.331576898812231180e-02,1.026670432059468563e-01,-1.245764677504007656e-03,6.064334906250579138e-02,1.165625179310191550e-01
1.228688907322865453e-01,-4.754238104120456221e-04,5.640567675464344677e-02,-2.571587111599270281e-02,-8.120673711811439432e-02,1.190998627103321550e-01,-8.912200631815525576e-03,8.863076985432072341e-02,-1.240114947687656205e-01,-5.646575954473584402e-02,3.979389086639481543e-02,-1.342663173792066067e-01,-7.080958222123463763e-02,-1.430968066759379098e-01,-6.113135608918614239e-02,1.098417852885275325e-01,1.522744194012931596e-02,8.704930714799691271e-03,-2.909586370095711139e-02,3.715059382442159608e-02,1.310950220657447762e-01,2.217524325769867910e-02,1.322290978134731121e-01,1.127519871993011569e-01,5.773198118437758430e-02,-9.156059725607476607e-02,-7.291114590004388329e-02,1.104457087722235664e-01,1.411323137482830836e-01,1.424780589017832499e-01,-1.081617120801508236e-01,1.045807898852332829e-02,-8.523302096308078835e-02,-5.209015839958620886e-02,2.396669099655504565e-02,-9.465954003689722174e-02,3.688791438147331903e-02,-1.000020459524460364e-01,-1.381832453067805000e-02,-1.020692499305646816e-01,6.570500611079027609e-03,2.359440154481323715e-02,-1.279994602384063596e-01,9.277527245199812533e-03,-8.415347870190338642e-02,-8.427840737726990938e-02,1.494832535166648879e-01,8.275652427097349162e-02,1.425731161234044808e-01,-5.698684589750030449e-02
7.107892257576275963e-02,-3.439013111267076594e-02,7.689532045345501277e-02,-4.501673421712970580e-02,6.782385237929769439e-02,-9.520726958698236264e-02,-5.163258600205300475e-02,-4.002654069516248247e-03,1.065849059702798363e-01,1.094663866679690678e-01,-8.844474115739964226e-03,-6.754901865758891621e-02,-6.150881653594103549e-02,1.243610836211868909e-01,-1.236764697304491428e-01,9.710652011001208450e-02,1.042378610347301227e-01,-9.768943721955788972e-02,-1.756746700693584406e-02,-1.487032801826056738e-01,1.016851041440964554e-01,-2.412710558212610712e-02,-6.616294034317131423e-02,1.844167094947771202e-02,5.587442001550885218e-02,-1.403752763892738287e-01,3.262841609132649534e-03,2.147172273678080168e-02,-1.433694313301464573e-01,-7.763704191892598083e-02,-8.129643640815716055e-02,-4.845910011765097725e-03,3.174348065862236945e-02,-8.531786521698332681e-02,1.329013197628029219e-01,6.832631887881523980e-03,-2.308466705474887526e-02,5.011657831955557141e-02,-3.180807166341667602e-02,-7.643955907283705997e-02,1.134155672137841797e-01,1.407706677578536569e-01,3.981645170324416005e-02,-1.378939304607123828e-01,-7.584912613654344604e-02,-1.240389657827741660e-01,8.472319021606827816e-02,1.829131376574838486e-02,6.947818140187533853e-02,-5.798510099188909639e-02
1.322581938735412355e-01,3.162429194644655883e-02,-6.269385285274953201e-02,-5.370668978103723679e-02,7.526536923626592213e-02,9.079160079287074137e-02,7.317475868013104123e-02,-1.259553514867111090e-01,9.246687862340854935e-02,1.961461982899226353e-02,-1.112964610139570709e-01,-7.720479478304269338e-02,1.319320210452772646e-01,1.055203393215308483e-01,-1.452849544317847408e-01,-6.722569815444945363e-04,-3.042767284132125161e-02,-1.234933670314061344e-01,-1.378810297152662789e-01,-1.100741048554847168e-01,-1.087960566762859738e-01,-6.695434887225609755e-02,1.473726027741645572e-01,-4.275946398576359331e-02,-4.537909691305683224e-02,5.228065315161473103e-02,-1.013996552671031504e-01,-3.477857659240617128e-02,2.912290573985759634e-02,1.036731431158036398e-01,1.257797707135928922e-01,-1.482751022363610061e-01,9.019871947614085950e-02,-4.463844422286275537e-02,-1.271569593051231351e-01,1.305282536670739624e-01,-9.868420526199464526e-02,-4.631990474833047600e-02,1.333100053769353532e-01,4.692247898024970443e-02,-1.452526919738425515e-01,1.195134981501054516e-01,-1.035221768553768462e-01,-7.948634315600501543e-02,-8.076409765710136635e-02,5.927716788014425475e-02,1.657411369925002043e-02,-9.274200630334669682e-02,-1.318147424881000174e-01,-1.046191341847489409e-01
-1.127838162252658288e-01,-1.368521493484718687e-01,9.117870005713626935e-02,-1.083459201691206186e-01,4.326429302972389923e-04,3.021186924514995820e-02,9.408367934168782032e-02,-1.244500821713206556e-01,-9.093163792479014296e-02,8.728944315275263821e-02,7.456503731726993323e-02,6.619479929684729536e-03,4.942121104562333112e-02,1.497445753635935628e-01,-2.911105779738701327e-02,-1.441567330988147988e-01,7.479916342047432387e-02,1.126497786426264580e-01,-7.758022348586805783e-02,1.306653873621403672e-01,1.966830868060265303e-02,1.490948021325211037e-01,9.922405648643367604e-02,1.407294740708342484e-02,-4.773007643335178130e-02,7.632253071522515642e-02,4.824272651784611288e-02,-1.347680993151194606e-01,6.395235531205323287e-02,1.154772242257626202e-02,-4.125078941004781119e-02,-1.039915229178018652e-01,4.292814136342609777e-02,-1.190174017051577882e-01,-6.317891991702254129e-02,-3.653620496598117273e-02,7.818016677184994045e-02,-9.636460806469179796e-02,-1.015770915675821007e-01,3.915772560596780805e-02,1.105117255405208276e-01,1.470649917062346324e-01,-6.870614931207383314e-02,-1.199562757423213166e-01,-3.851107431500001843e-02,-1.321263210360885954e-01,1.291888347008886273e-01,-3.321189049715489450e-02,2.493864944444759701e-02,-6.759147719776262275e-02
5.145535626386243955e-02,4.512817897487922392e-02,1.379015153729104270e-01,-2.063179946801838027e-02,6.939388255542541795e-02,1.662805294125119238e-02,1.479161273433848012e-01,-1.376449217955988957e-01,6.326520086286840927e-03,1.250039987605839065e-01,-7.528587996073128619e-02,1.187331388433774115e-01,-9.883166456355689522e-02,4.431593065621242111e-03,-1.150932236093341471e-01,-9.153373485244140073e-02,-8.734301578999832671e-02,3.800968760975256822e-02,-1.367921943509425031e-01,-1.204029559657738141e-01,-1.486795795394497688e-01,-1.390673009651572090e-01,4.278535332867433594e-02,-1.235200869573742088e-01,-3.573729102353451204e-02,-7.212076775910207516e-02,7.331354355924607491e-02,5.892556154076641906e-02,1.251841305837888829e-01,-1.028214501430314842e-01,-2.504502161262558979e-02,-1.421012329349727321e-02,-1.382651823957306569e-02,6.080487361655034784e-03,-6.640368646285678411e-02,1.195060367073930152e-02,4.633273276366298155e-02,-3.497992076545722306e-02,1.335045977720017152e-01,1.364053838204511704e-01,7.442726864685247912e-02,2.542519590054201362e-02,6.680481830069104343e-02,-1.135468209297126330e-01,-1.256605289191490282e-01,9.881787605873826319e-03,5.986767750245491904e-02,1.467494890632844995e-02,-1.922975488818445822e-02,-4.171420911344231319e-03
2.578579636400418762e-02,-9.115547862296097259e-03,-6.560811249404625844e-02,1.276812750416440323e-01,1.103971392725000833e-01,-2.514334287640887511e-02,1.490053213323045689e-01,9.431935969309890311e-02,1.011974014102870467e-02,2.005641222312287697e-02,-1.031744127976672032e-01,-1.159054027936052000e-01,-7.470838858658655768e-02,5.128687576764184852e-02,-7.036891973967934755e-02,-4.704919739094010067e-02,8.759963041365695369e-02,-2.033722436056595306e-03,4.528972302297434860e-02,-1.228665978810364739e-01,7.110694778491438717e-02,-9.734568677452437591e-02,-1.185828035377531758e-01,1.058703763024278766e-01,7.212633386924346968e-02,-7.103280658793166558e-02,3.607442603541560766e-02,1.323961279684084114e-01,2.947555484737332532e-02,1.200186106987200241e-01,-1.780630107240641080e-02,-8.799852500454874438e-02,-5.910522290493039343e-02,-8.604390975181970547e-02,1.446574161191689079e-01,7.034720226728685688e-02,1.432319654907036888e-01,-4.744315269308180261e-02,1.015985216972441763e-01,1.224432880754090236e-01,-9.336197601763501774e-02,-8.862670771443476037e-02,-5.664682299171691637e-03,2.985742414702288738e-02,-1.122954515762522448e-01,2.155374566035397899e-02,-1.463566295242701154e-01,1.465364331667750319e-01,-4.734614096540543104e-02,7.515061725468533127e-02
8.593678465599471905e-02,7.022261971990723106e-02,-4.510203525720736517e-02,-9.663762878696816050e-02,9.137520202301077643e-02,1.026994092789120516e-01,1.179606725815841306e-01,-2.762006235975095203e-02,-9.730892532066048872e-04,-1.466870470172449148e-01,3.038719800226491463e-02,-5.125714744862924777e-03,-1.256038020761571228e-02,-1.004083815642388133e-01,2.371913167356956564e-02,1.448720449962694612e-01,4.364624387324006483e-02,-1.046227240532185687e-01,-1.386292957894900701e-01,4.285754601703137268e-02,-1.270437225312796570e-01,-2.057835530480112141e-03,-6.326510197050819184e-02,-2.552430304260749905e-03,-8.373014373759736506e-02,-8.747408876040874137e-02,6.600242735583988773e-02,4.704073433151972905e-02,1.202978660243248787e-01,9.602603213455029874e-02,7.325574976877288758e-02,4.748612190418521894e-02,-1.096033906281784071e-01,1.354682221338645298e-01,-8.656228010182466515e-02,-7.168855519720795932e-04,4.921950093299948259e-02,-6.403230241280831458e-02,9.948712118305930163e-02,-1.239804767216816928e-01,-6.733959943170014784e-02,1.131457887236610171e-01,-1.265281929652970760e-01,-1.343412607261619818e-01,-9.165705624855188804e-02,-3.968925549375509898e-02,6.058610573084999285e-02,-1.064715900842172491e-01,-9.198464251551408122e-03,-9.991261889727010015e-02
1.270597852823348306e-01,7.859809208909612765e-02,5.500800947787820583e-03,6.759650498996716550e-02,-1.654909747383886964e-02,1.234424092623291058e-01,1.499903043817456261e-01,-6.076178298781655107e-02,1.382052803465918245e-01,1.226794249079944665e-01,-1.318326700690704290e-01,-1.464094540428245994e-01,2.147091276598786513e-02,-1.289497365089378456e-01,1.063916242995513184e-01,-2.566131339030565395e-02,-2.367150017316405064e-02,1.151811426270227534e-01,-3.672093085040410709e-02,-7.162611094896298436e-03,1.442286631920962903e-01,-7.771862468520385203e-02,-8.975205236146124865e-02,-6.963045063522299571e-03,-1.815668654501595425e-02,1.347480634462287774e-01,4.021798135170687183e-02,1.199417269414135012e-01,-1.693448009708692359e-03,-6.718006302819752584e-02,1.131519558441916595e-01,-5.980399989655157955e-02,1.213331720950478199e-01,-2.535220106487040548e-02,-7.465515745114043034e-02,-1.542907901394080517e-02,-8.003685176222932740e-02,-1.369474853730516251e-01,-1.029914954797828130e-02,2.175801050542769399e-02,-1.403164238498270933e-01,1.846350639285082584e-02,-1.172764249867580544e-02,-4.631383647931303083e-02,-6.404246693181013528e-02,-1.287273390969810583e-01,-3.264411140592168858e-02,-4.532213504549099936e-02,9.118700192890849543e-03,-1.128575682306754840e-01
7.132515980781384268e-02,-9.945197342015305031e-02,6.583991026303032124e-02,-1.083752892550150504e-01,-9.047912663160088964e-02,2.800552525163341189e-02,1.017490513739518765e-01,-1.451878636308303883e-01,-1.600776654009383737e-02,-6.107403371974298723e-02,-2.551067223747810475e-02,1.150926108083860921e-01,-1.208286809542411522e-01,6.084895611359716905e-02,4.034198429331078972e-02,-5.030207575175080215e-02,7.941353080559693245e-02,2.276543796465110847e-02,7.613374360979971445e-02,1.503603521830185197e-02,-5.311152000087411562e-02,-3.237943199083426205e-02,-1.005817989706554172e-01,5.010031408673662479e-02,2.847524903148915265e-02,2.231048577330421723e-02,5.281676775380872435e-02,1.432852458409607788e-01,-4.292911164177251604e-02,-3.883026776285186665e-03,-7.583103048130106216e-02,2.934019937637857844e-02,-1.233303513932385714e-01,9.847721335817558042e-02,1.075371712380440714e-02,1.034798541457349896e-01,-1.155417918580125547e-01,5.583073633758856014e-02,8.555119637064015348e-02,7.166268061250050114e-02,-1.374433326078568218e-01,1.117287972832886889e-01,1.574262329579306785e-02,-4.256458356667754128e-02,1.141755268921242628e-01,-3.361018442742395862e-02,-1.479386308838799013e-01,-5.816511558547034222e-02,1.126832238575218581e-01,-3.481784515199121133e-03
8.960368002549229383e-02,1.093955266443134844e-01,-5.666900138091689187e-02,-1.954876480038081343e-02,2.308144968261097163e-02,-1.297124303044075444e-01,4.853494214155151809e-03,1.158854439148413185e-01,-3.020019322190850564e-02,-3.763332848921370488e-02,-8.830442165543936350e-02,-1.423019824510421139e-01,3.796558263224467100e-02,5.185229675687899609e-02,1.370059092546552504e-01,1.319513641247182234e-01,-1.457081280372225784e-01,-3.402439591566169819e-02,-1.201115176722955952e-01,3.027228171571211268e-02,4.847714989603213454e-02,-1.198503615616891421e-01,4.783699873810851044e-02,-8.027890094993578307e-03,-9.806155516320677612e-02,9.795007800479918481e-02,1.321500553527793498e-02,-9.802506431795204866e-02,-4.284647597532942331e-03,-1.177698745276485326e-01,7.048681667413844720e-02,-1.204844031719005670e-01,1.307234808859874808e-01,-4.164461083073235648e-02,-1.268982962399060332e-01,1.057596057584165583e-01,5.188916547624125575e-02,-7.670637799231146137e-02,6.727764160583882269e-02,-1.308032956623910725e-01,1.215742677561917895e-02,-8.444224297796201761e-02,2.282866561488283708e-02,-1.153200672651132075e-01,-1.064585849266838358e-01,-7.176072151479613581e-02,2.827047771527557707e-02,-7.658901446648405664e-02,8.174928861126823376e-02,-5.705670525114622804e-02
-1.350739285362128339e-01,-1.206883198817341463e-01,5.592866292023401797e-02,-3.036565671725888205e-03,1.370538708861350485e-01,-2.395937299948236454e-02,-1.345210542568120171e-01,-4.626224799934633425e-02,1.141395340822434490e-01,1.067415532618726515e-01,3.017276135013682858e-02,3.074410185910186888e-02,-3.344701846536976553e-02,7.593154643909633128e-02,1.155442169658278673e-01,-1.176175329869030284e-01,-3.577229925851127534e-02,-1.002787190582840882e-01,-5.358509235480896082e-02,8.675878635061143318e-02,-1.129220916950960385e-01,1.069362972711897231e-01,4.041849083963761080e-02,2.887889143905164602e-02,-7.758808054451615810e-03,-1.808196649531362832e-02,-7.849507238353824190e-02,-1.022241339332717047e-01,1.303688419457599001e-01,-5.655083240648427212e-02,-7.450311164877905512e-02,5.407398752400879860e-02,1.337225789897390771e-01,-1.847690254837552892e-03,5.387610770811940286e-02,5.986485405045119390e-02,-6.997281688553541601e-02,1.897930184068780113e-03,-7.198974429297816391e-03,-1.015760454033545479e-01,-1.025072461291166304e-01,-1.224962257586863501e-01,-9.383788687562437392e-02,9.918491043761817894e-02,8.100798719180510310e-02,1.008105943425497697e-01,7.703393867003222040e-02,-2.216872614445877798e-02,-6.159395925758576196e-02,-9.311925462042516810e-02
-8.914491618500719472e-02,-1.017169210858316630e-01,6.480675998432861018e-02,8.092402596675371540e-02,3.333225632425362850e-02,1.130533882355080066e-01,-5.222633895818702687e-02,9.026124751075670360e-03,-1.451683043092132086e-01,1.965972649242350712e-02,-1.463801486721233724e-01,-9.254179945213225622e-02,-4.529423515493515018e-02,-7.300535924797085796e-02,1.367501987798352692e-01,-7.764652371862801328e-03,-3.803647049002698011e-02,-1.358871434499272224e-01,-4.865657888146786292e-02,-3.949946521998454196e-02,-1.366065313239777645e-01,8.260767294640664060e-02,9.771544147005931102e-02,-1.371072747890801913e-01,1.275911965649106916e-02,-1.038458389146614258e-01,-1.307641590971846679e-01,-8.745661943132802818e-02,-4.738622487969318398e-02,6.188667785421769763e-02,-6.446578215212525609e-02,1.428587984671757793e-01,-3.947134184222994557e-02,-1.260852254041582576e-01,3.855994223106931629e-02,-8.635448864786994527e-02,1.267566288498706006e-02,-2.338643678725679798e-02,5.480608211646761929e-02,-3.328214794338418825e-02,-7.550086328847831207e-02,-5.671910029385884844e-04,-3.345086055211884957e-02,-3.297808749458883137e-02,3.745514938092001089e-02,-1.002248800875864820e-01,4.190170112721314233e-02,-1.158462575842766074e-01,6.585790182545755989e-02,1.394340352704679098e-01
-6.780927595334075575e-02,1.014082323079453507e-01,-7.345697175163973247e-02,-5.606437529130474384e-02,-5.524956017247786844e-02,-9.390414527273088785e-02,9.102571463441341826e-02,1.291908103490191639e-01,-7.012013674481883119e-02,8.833959839814162218e-02,-6.588326336829603003e-02,-1.076829338270723774e-01,-9.518120333998825178e-02,1.095051228788314901e-01,1.300281440681676781e-01,7.395683526960752929e-02,-3.261602086132095457e-02,-1.181395698491786161e-01,-4.653998905386259877e-02,-5.114830780299374491e-02,-4.924878140497211676e-02,-1.274710460513560073e-01,8.442053993130185785e-02,4.231066710304481893e-02,2.267449570246454771e-02,1.308176071630422210e-01,-1.396755555126299730e-01,-1.358984117930832070e-01,1.394986330345050207e-01,1.151135592352264814e-02,-8.104303208020897931e-02,-1.458419700014467468e-01,1.362881419230008995e-01,-1.169616905427006692e-01,1.263204065934378784e-01,-9.693775802688335552e-02,1.396922299812794477e-02,-5.936304903491664009e-02,-5.668527714521269523e-02,2.529715119504655219e-02,8.233038940823000917e-03,-7.076648764244569678e-02,-1.775918727034633826e-02,2.410455247518433763e-02,-1.027057408260068916e-01,2.981880974928802219e-02,8.569634907354714559e-02,-1.090496433590049663e-01,1.336656972600175630e-01,2.586001226823381183e-02
-3.802553326689261937e-02,1.314558212580360375e-01,4.636869066567966824e-02,-1.209667111963758923e-01,2.428363162806529418e-02,-6.164702674870643773e-02,1.382765254185693571e-01,1.159544233155162807e-01,-3.932828658666381871e-02,6.968872529896233403e-02,4.625550320849575181e-03,-9.640226876820584545e-02,8.354797808071606768e-03,9.608332415489717615e-02,-5.308185891552169577e-02,2.249649761503066947e-02,1.101826189551847468e-01,-7.877166678228327001e-02,-1.912897683924019709e-02,9.198128079305020743e-02,1.124174933070705984e-01,-1.020342302925607014e-01,-5.059259276934534311e-02,7.555268499381265213e-02,-1.324064128855631517e-01,-3.338964342453012990e-02,-2.059680485278403417e-02,-4.896193615351258910e-02,1.180525615549002094e-01,1.913644328612396084e-02,-1.230484758967480274e-01,6.410004307541738999e-03,-3.912994261776828187e-02,-8.718432078835265664e-02,-3.885326670390200354e-02,9.159630434610130378e-02,-1.393315858002841801e-01,2.042031624634951803e-02,8.039523434742906760e-02,-1.328819100266098174e-01,1.945750667913062615e-02,1.236805110300235599e-01,-1.216247151997876252e-02,-2.999106401103233954e-02,-1.460299361426185827e-01,6.974189999297941700e-02,-2.754448311632304303e-02,1.059360367631377031e-01,-2.418186841278832655e-02,6.591229765052497580e-02
1.237008131620908891e-01,1.358197198004947592e-01,-1.547774662525069900e-02,1.371660384847639691e-01,4.956398196504532838e-02,-6.245458067591265483e-02,-1.204771294994393671e-01,3.986796357223987286e-03,4.626969700746128011e-02,8.845665282982403954e-02,2.900619364422998836e-02,8.836319873116282864e-03,-4.346229794198996910e-02,-1.236262168176825854e-01,1.532888086691097662e-02,-7.536423242910754439e-02,-4.426135197252369091e-02,-5.652547711502868555e-02,5.133995878389141510e-02,-8.619103002676743730e-02,-6.745072247205552429e-03,2.846491325527378269e-02,1.231770915093376162e-01,-5.691186919978247216e-03,-1.456073217465330416e-01,-1.278380808157307258e-01,8.334668063943048710e-02,7.798844779361879809e-03,1.112543965347655706e-01,8.416925691514676178e-02,1.143795550570378405e-02,-1.184801303860498617e-01,-1.423937899238338078e-01,-4.125775156174806002e-02,3.571774675851444036e-02,-1.322576043454321559e-01,-2.432584662178546853e-02,-1.337816963931523218e-01,-2.933919266418733018e-02,-3.509782023332461143e-02,-5.850901610795085361e-02,-4.347421140529240946e-02,-2.052849231256759222e-02,1.473003721933423271e-01,7.818392367279741739e-02,-4.923753980369506567e-02,1.205013815926089804e-02,4.636972479682721637e-02,7.382335026230868458e-03,1.403342261952225944e-01
4.676635231542874971e-02,8.422746438919390122e-02,-2.885811644984637159e-03,9.614535876062466069e-02,8.401576458232917766e-02,-5.521257772992575752e-02,7.974960003557285404e-02,1.226050533826344713e-01,-1.314778727090831767e-02,7.958967148244261436e-03,-1.337230076410974300e-01,1.396394396141731331e-02,-6.550789298096312829e-02,-3.335071947114465196e-02,8.673780745602877040e-03,-7.804065450359948253e-02,-3.565755868861505973e-02,1.169191613041163647e-01,-5.018529237716834457e-02,3.386426545371171160e-02,1.227689891372553965e-01,-5.080505088469135233e-02,2.945834609246070213e-02,1.846799740451701699e-02,-1.345833032512433469e-02,1.239385396052125610e-02,-2.647890254518422970e-02,-1.051711294442433664e-01,-7.866604838650166631e-02,-1.228831301419827243e-01,-8.103933177750599626e-02,-6.885997910135668865e-02,-2.528035724307889365e-02,-5.147182957949429649e-02,7.805347188102690348e-02,-4.618707699647568721e-02,-2.307228746947148634e-02,-1.741809592942181184e-02,-5.502708455331366266e-02,1.899024652466796415e-02,2.773814729361540055e-02,-1.424790671591625590e-01,1.733623561909436450e-02,1.323933713498494369e-01,-5.416243882981146285e-02,7.821953337898804315e-02,-1.218845843768087966e-01,8.401165471028082532e-02,-2.782798532049764184e-02,6.876393880012227067e-02
4.416757714243657595e-02,-1.697018545750128560e-02,-7.666749333572753233e-02,1.594913386349208761e-02,-9.311841770692969034e-02,1.018104168047247737e-01,-1.297707957670053147e-01,-8.422887348885650660e-02,-1.497850159739401443e-01,1.408803824533998161e-01,-6.196226194150424027e-02,-1.306860308187191289e-01,-3.622591675543031242e-02,3.732561244989657245e-02,-8.076069587459988597e-03,9.667850587409668184e-02,7.967739604978152368e-02,-1.083445048655508891e-01,2.413270398274411366e-02,-7.661169809459300595e-03,-1.025441906414063242e-01,-9.789975924026209086e-02,-4.338671520842517226e-02,9.696448920738937050e-02,-1.252124310135742657e-01,4.598691650678157772e-02,-2.583805840296317380e-02,-8.541270084556810971e-02,9.964685168272202631e-02,-1.126708886444777458e-01,1.312827657408558168e-01,-7.441862485086429835e-02,-4.496164169174968195e-02,-2.773126649003092303e-02,6.652338746784874912e-02,2.556849707961228457e-02,-1.404481149700045062e-01,-2.940829113202696188e-02,-6.791234643690595429e-02,-3.172310628115716791e-02,4.315268666554805677e-02,1.356460826546506404e-01,4.745405495729720924e-02,-9.315771300863927296e-02,-4.254670445348938956e-02,7.027916228763964046e-02,-1.862503966427486723e-02,-1.123285298697269952e-01,-1.296734918375890833e-01,-1.021377490136605171e-01
1.383327124547529541e-01,-1.222841429920666634e-01,4.944885396706455438e-02,1.157093571958303646e-02,4.726529112533905952e-02,4.158253038115228284e-02,-1.377499090251809999e-01,-1.451624360856204332e-01,1.477662845937284530e-01,1.497482107455428146e-01,2.269606158737544344e-02,6.968376374568502341e-02,1.910682210326131170e-02,1.765312428206616824e-02,1.374689788532506840e-01,5.545864922657534057e-02,9.573541876239666237e-02,6.493084692937603486e-02,-1.178514408423777249e-01,3.367548873149925348e-02,-5.134210733420115080e-02,-3.328393142386529280e-02,2.965492788111601108e-02,-7.582864122379208427e-02,-1.396405228562520029e-01,-1.830483367680041384e-02,-7.265129844912437962e-02,-7.687866326774840664e-02,-1.284975872580337020e-01,-2.128389928537371967e-02,2.017856041413701451e-02,-1.184587623773485782e-01,5.697079104906108138e-02,-6.548646144912768918e-02,-4.853763703876552704e-02,-7.233866630603895398e-02,2.663855453643534932e-02,1.210741317956473828e-01,1.334980855153485579e-01,-6.358979313693419178e-03,-5.297726620045402346e-02,9.492426217198307592e-02,1.393945985876889615e-01,-1.490226901643920687e-02,7.205142368939998487e-02,-2.484189587481835937e-02,2.821190906940887477e-02,-1.041076837340008943e-01,9.897086215348455118e-02,4.581043434060044772e-02
8.423166796515577093e-02,-7.628659812850509259e-02,-1.115112704585348447e-01,3.902087925043606909e-02,-2.040225726198904854e-02,1.221944004518846216e-02,-5.683883502296625811e-02,-5.415418973616066556e-02,-6.719129486253858086e-02,1.065633890596558719e-01,2.517751367547549357e-02,1.131432587623591723e-01,-1.337460019825996160e-01,4.464367351225340119e-02,-6.487498837133751084e-02,1.197426738416796088e-01,4.429813310024566242e-03,2.853923146206185923e-02,-3.531363491610102490e-02,4.943330183079600038e-02,-8.931568964953062739e-03,-1.115577448497763052e-01,1.296443081356555005e-01,-1.109876890051517406e-01,1.217711692912894772e-01,-7.832750156340329006e-03,1.020863040498093677e-01,-2.324920325522916720e-02,3.912983862410651659e-02,-1.601884141826062646e-02,4.610541040626892073e-02,4.326636482322729349e-02,6.181766656670023563e-02,2.227319997602369983e-02,-2.573518930063239951e-02,-5.641846968492482406e-02,2.860628398451511845e-02,7.936594275648553576e-02,-9.443538370064234744e-02,4.514604213904524488e-02,-1.807698652539185824e-02,-5.444999419599125257e-02,-6.471550057173831860e-02,5.446581772107655928e-02,1.144714879457362222e-01,5.855758647490427737e-02,-4.383405962905408126e-02,-3.414625064838512636e-02,-1.119055327719798709e-01,7.123108119504978353e-02
-4.319564370767831063e-03,2.124462835154466989e-02,1.314337108075423755e-01,-6.200927406563794264e-02,7.038432228075451602e-02,3.609403602813088252e-04,-1.070240730547555724e-01,-1.165049025539030975e-01,-1.332665920662226382e-02,-4.633216431412418013e-02,-1.694657472015731470e-02,1.046766182005212098e-01,-1.195199169528468885e-01,-3.206020587734892402e-04,8.450865993943712517e-02,4.791695628962210768e-02,1.006260097558113326e-01,-4.188176597888032537e-03,9.214357967886124823e-02,1.341086669083586813e-02,-2.636420690398471808e-02,1.129687052156307658e-01,-8.602759078666913362e-02,6.792896576002334375e-02,1.137501656952816520e-01,-1.480491841212789039e-01,1.646365179096975773e-02,1.165644790241355533e-01,-1.124037019136639726e-01,-5.282525813936642112e-02,-2.778759111153859471e-02,-1.425069452411493465e-01,-8.223402284348624303e-02,1.229883862149417084e-01,-1.187773653375180649e-01,-6.026642847113700130e-02,-1.287129701079328115e-01,-1.236846595613899646e-01,1.378521535797097852e-01,-5.420089694414094439e-02,-9.277800634707278338e-02,-8.038745755172715945e-03,4.659320746551470771e-02,1.324048613271766039e-01,4.565794560533367741e-02,-2.324863239734833997e-02,-9.371609995854068842e-04,9.360331535352325871e-02,2.844577175647680645e-02,-1.255613072121342100e-02
-8.636680795623206952e-02,-5.264771987364802452e-03,-1.062969490335824441e-01,-7.467603983471919615e-02,-5.278749455571265289e-04,-4.981900734479073611e-02,4.431419804473182844e-02,1.375912705320986029e-01,-1.410644003284440284e-01,2.913756737322822921e-02,9.943615056195219751e-03,9.877499025344271821e-02,7.110967943164181460e-02,-9.365486684415862129e-02,-6.430608162336083622e-02,3.501802456237153999e-02,6.390943820746189385e-02,-4.253194298343393465e-03,-3.318595990765938180e-03,-3.154571029152965222e-02,1.725626226427518081e-03,4.659767313196300220e-02,1.135067496322642450e-01,2.219762528147323916e-02,-1.337925874072018739e-01,1.123248271007754318e-01,7.739039033928843403e-02,2.288964659387647191e-02,7.478711100778454024e-02,-7.817505193892237969e-03,2.758087801711581535e-02,-2.990954229259359942e-02,-1.171949383812383033e-01,-1.097672803300321076e-01,-6.312774306203521035e-02,1.380293693579753012e-01,-7.935587546692829397e-02,-1.168150230919905441e-01,9.732832965249680821e-03,-5.955111403477848786e-02,-8.262533274903048619e-02,-1.154193789071754211e-01,2.575426001218328320e-02,-1.385803144107058960e-01,-3.285401037996139861e-02,2.647676726233810784e-03,-8.036378133778350474e-02,1.227952088301524358e-01,-3.514804418547497200e-02,-6.191170279623028905e-02
6.317922903361751497e-02,1.194759702295442212e-02,-3.513717852245022699e-02,7.803057518706039974e-02,9.229883069243582927e-02,-3.992091438257383551e-02,2.864732078561565976e-02,-1.217766126487467432e-01,-5.867533501446519154e-03,-7.486465090281799184e-02,-1.406863076043400884e-01,1.233167185950097833e-01,3.258137631407459489e-02,-1.404133933363800602e-01,-3.699733945953306152e-02,-7.792251951340870009e-02,1.166156616172688842e-01,-1.376030206269857059e-01,-8.445730400907648650e-02,-9.146467835847078842e-02,-1.297643702830598156e-01,-9.384116938633033089e-02,1.080122475198949522e-01,-1.988429522562547638e-02,1.355539128857779496e-01,1.282302963461478817e-01,-9.350098337442597218e-02,-2.317283139305171408e-02,1.048732994793027395e-01,-1.371598734929023455e-01,1.446474959675799754e-01,4.818187575568621400e-02,1.480200439099663423e-01,5.643146271820093270e-03,3.110752742419218772e-02,7.557409993478312379e-05,8.513698746213686774e-02,3.060414064975686133e-02,1.140918870439025512e-01,-1.327306326806932113e-01,4.133501017198990685e-02,-2.776578818652386191e-02,-6.819299739562155460e-02,-1.778932275608194682e-02,-7.334565515688026838e-02,-4.117841500965729873e-02,-8.055737061825828105e-02,9.195707133163968146e-04,5.283946835754316229e-02,-2.617743365998792537e-03
4.353328811310925445e-02,-1.093503464754535109e-01,-9.455332560025223043e-02,-1.472842218267547687e-01,9.665729174085523068e-02,-1.205700843958399104e-01,-1.419059358324452902e-01,-1.399201855252593940e-01,-9.294413140239486670e-02,3.044328029831870272e-02,5.475585874944375459e-02,-5.358661634774024296e-02,8.821804953930487136e-02,9.923395326459434618e-02,1.216002638622906869e-02,1.134214692170905370e-01,-2.708879805174184766e-02,1.182890276956089642e-01,-7.110485110999403835e-03,-1.123117854441645636e-01,-7.940465343007001298e-02,-1.458580004548233056e-01,4.974847265640353587e-03,2.733407248237505749e-02,-3.365960934261282012e-02,2.854248739987647054e-02,-1.142860734545302487e-01,1.082968543902136094e-01,-1.512875000585565954e-01,5.399691739450429573e-03,-1.226577684314715255e-01,-5.613358123457793530e-02,1.627702484430077270e-02,-1.711132981784037679e-02,-9.483108495576585140e-02,-5.290715844020739411e-02,4.946566502149213340e-02,-6.390061578064876180e-04,9.689042686394433446e-02,-4.951213106684701319e-03,-1.191215102376787238e-01,8.251057210908079032e-02,7.001951200274381115e-02,2.480639857006993604e-02,9.392372547156761786e-02,1.090374805827295651e-01,-3.171357241350726552e-02,1.260684302827998760e-01,-9.993101082464161955e-02,3.975427993243085822e-02
-8.480096730269567895e-02,9.735545925528471534e-02,-1.070742659366507865e-01,-6.884945372648262896e-02,-1.460615549830268090e-01,3.181032613498495365e-02,-7.985784701317756584e-02,4.068097821744985632e-02,1.866785071777422584e-04,1.469109915127573551e-01,6.498135574463379145e-03,-1.119970892459102724e-01,-2.197853317323502850e-02,-1.100948044287679145e-01,4.115719112385107792e-02,1.081425523621812601e-01,8.323554116076399556e-02,1.198077411839089945e-01,1.150067341742020688e-01,8.922715934748039202e-02,-8.751899200457916375e-03,1.079191874683269325e-01,-2.720395578562447014e-02,6.527039250257890557e-02,-1.317304313497871526e-01,-1.252565291333523345e-01,6.930943137321736447e-02,-2.885889189993998127e-02,-6.528194746213898669e-02,3.883474832564109969e-02,4.387161575796816315e-02,-1.280340116171635803e-02,-8.028248424596519384e-02,-6.327915009417608982e-02,5.330652699438009207e-03,-8.942942761203220847e-02,-1.896478213757546091e-02,1.326219763412520014e-01,-1.163048700502039429e-01,1.262970001747656945e-01,-1.436207101609953893e-02,-1.644120947567496993e-02,-4.275553211692070810e-02,9.814266647829415421e-03,-3.918438012550019833e-03,1.008363890045009953e-01,1.311111863780486664e-01,5.211698300325378480e-02,-1.325630645740194236e-01,8.461938105984753711e-02
-1.333091795758868103e-01,1.443389357791172167e-01,-5.936257687699397767e-03,-7.761963078446543207e-02,-6.512204848989337118e-04,-1.458920803211601058e-01,4.098323045527849096e-02,7.776775535349158761e-03,-1.002176254174464293e-01,-9.036637916506756740e-02,-1.166195929077178256e-01,-1.320728598098641349e-01,1.444717224418289314e-01,1.431954531323353652e-01,8.664262579123691022e-02,4.154357666003757887e-02,-1.377561447781687765e-01,-9.838578654988554273e-02,-2.645979748374879120e-02,-4.271132584618714950e-03,-7.581511270660104551e-02,9.791652514528560725e-02,2.693735574357656454e-02,-3.156563159012193420e-03,2.246822154289589146e-02,1.214311179094512416e-01,9.407339098271645661e-02,1.130319646153675334e-01,-1.554943198514244576e-02,6.141016606092336572e-02,-8.256823459625811656e-02,-2.112735467787093396e-02,3.302288340218367119e-02,-9.169030608716388642e-02,-8.812413964785727194e-02,-1.072334084454957537e-01,-3.842975892402666904e-02,4.760688925299227242e-02,1.368499639020406833e-01,7.178253006469405284e-02,4.696279264895348443e-02,-4.545643427132458995e-03,-1.027939958637748702e-01,7.886495840444791849e-02,1.668909174558032005e-01,2.350387694275979378e-02,-1.184997856832701452e-01,4.284087852134849106e-02,-6.394953100954932357e-02,-3.387867566879083914e-02
1.555532180575695290e-02,-9.882022794529042586e-02,-8.986212724617541336e-02,-1.129188450696596568e-01,-3.897443369989196660e-02,-4.078801935783168964e-02,1.497807601418871780e-02,8.408884293775679974e-02,4.888899703900479593e-02,-5.096266539503662568e-02,6.506120177436995611e-02,-1.258197363614775022e-01,5.047407217615789560e-02,1.269803450171826109e-01,6.795675057588680679e-02,2.672876328723577249e-02,-1.041216405354670888e-01,6.846003299755099025e-03,-1.090415921524173909e-01,-1.513228472085658971e-01,-1.685226173252754242e-02,1.155636713773683238e-01,1.413826342802832758e-01,6.557804215406176640e-02,1.379292310789929088e-01,-5.725792629424573954e-02,-4.716393400170783290e-02,2.681445471955919493e-02,-1.236310322380501092e-01,-8.276340794700066950e-02,-1.344158060472073202e-01,3.094772098522703338e-02,-6.268454860650017613e-02,5.290886151715454289e-02,4.744806991660868722e-02,-6.933106019422607957e-02,-8.530220110759573204e-02,2.682880304372903951e-03,-7.814752107520825386e-02,-5.915159601866381428e-02,1.239698567371711607e-01,4.952462074808313547e-02,-8.115591956369676285e-02,-1.221975606394061914e-01,-4.211717542214007959e-02,1.047654908336466267e-01,9.511879660149685778e-02,5.079834028731007242e-03,1.211306017797570550e-01,-8.060337734222906836e-02
6.427451299084691039e-02,-7.554979793618511741e-02,-5.169494631751173769e-02,3.119238693842829938e-02,6.707658638534823303e-02,1.411943687729947106e-01,8.946236292877553231e-02,-6.070372515733318125e-03,3.619142324441536329e-02,6.234016836298122977e-03,7.935501574964469451e-02,3.651472332314985997e-02,-6.067329113415499860e-03,-4.484560166142260995e-02,-1.487348976302632075e-01,-1.155616852877635048e-01,-1.288581304524597793e-01,-7.212511390524835309e-02,-1.011922067399723540e-01,-8.586513849505900131e-02,-9.364418970841975609e-02,-7.278874801403449613e-02,1.381258784405111073e-01,-9.497603401549059576e-02,-7.763546271581786562e-02,-1.232007145192199477e-01,-9.912314270662005156e-02,-1.470536280339185542e-01,7.387755370257252131e-03,-2.818450428550473008e-03,-1.445979249056521809e-01,1.371121250553390958e-01,1.395555742629840112e-01,1.123515693025993190e-01,-1.244067889082023370e-02,7.142951703448133238e-02,2.994963018222266370e-03,-1.417426803864842433e-01,-1.044581620524531046e-01,1.258776874870090878e-01,1.301461801966938836e-01,-4.301896171480711073e-02,-1.438298856329410791e-01,-9.125367758491857717e-02,3.769994689922738507e-02,-6.932935553275011709e-02,7.545751364758299107e-02,1.239928505136330544e-01,1.103599839055924986e-02,-9.258455536561124855e-02
-6.784621198323861901e-02,-9.701664994815270560e-02,-4.917717234606510529e-02,1.581320166342443378e-01,1.218154748242144675e-01,-3.575217501286643423e-02,8.946703453951980467e-02,8.179934359171775471e-02,-1.674380675863854778e-02,-1.338735345396818432e-01,-3.740741996791382279e-02,-2.143667426980861226e-02,-9.556914585745930613e-02,4.622221654331273855e-02,1.023776791154662469e-01,1.146478035163215337e-01,1.696897008707868096e-02,1.129848851896686490e-01,-3.745155390017722991e-02,6.583695891649865573e-02,-2.619442724003181230e-03,1.314212746560807221e-01,-8.822135816909291994e-02,-1.281337145183258641e-01,-2.433346143377469392e-02,7.909047803710558822e-02,-1.471184903768091856e-01,1.476110086404714035e-02,-1.257696440132372306e-01,-3.612080549267082923e-03,-4.435621497416840364e-02,-1.209256613772315830e-01,-1.032345420149923670e-01,2.137334029109433722e-02,-9.749579356024887233e-02,2.209275699950340177e-02,-8.841573120892250170e-02,1.226551893020578626e-01,-9.979088167613112126e-02,-1.985802518805163813e-02,-9.043770707134210496e-02,6.825210908380630048e-02,5.325783203502005431e-02,-7.440136442494534041e-02,1.187393635469677772e-01,-9.540253219052297062e-02,-1.421597453587644388e-01,6.293255993707279339e-02,-1.256160800501358032e-01,-1.158098079802871438e-01
4.224858133628219686e-02,5.321709696912667320e-02,1.815027426207367666e-03,1.345301899079284769e-02,1.847107314141803111e-02,2.363679357876536866e-02,-1.325932399675544826e-01,5.622166375165939256e-02,2.892367775268959648e-02,-1.300934312363741241e-01,8.481388649335325214e-02,-4.796947133354477477e-02,1.307666529428840319e-01,1.099514599631974676e-01,-7.880232871098837022e-02,1.603873012529970221e-01,7.336172043212817184e-03,-2.434568194722943821e-02,-6.683751987514369684e-03,1.486809329406988400e-01,7.003763119646742039e-04,9.567956988755361991e-02,-1.219214770580931140e-01,-4.858831032090982216e-02,-1.213818905634233419e-01,-9.163326731257302737e-02,-1.149219010463535112e-01,1.210331600051403195e-01,1.346969709496565748e-01,2.428553157304316236e-03,1.311683196297107508e-02,-3.364065906583374455e-02,-1.283441282220071644e-01,-9.237573452413866404e-02,-1.633630237369090021e-01,5.116550582831084354e-02,7.304421162853684535e-02,6.020113010467609271e-02,-6.327096225478699709e-02,-1.061249953738457319e-01,-1.090355021688585169e-01,-6.940143946365193162e-02,1.558934788935174010e-01,-1.416862854627438661e-01,8.877988959209896780e-02,1.317863866778645754e-01,-3.531917388995301638e-02,-9.881817852078512987e-02,1.159975287703979147e-01,6.787594769199084555e-02
-1.219846255483278581e-02,2.432374822699762129e-02,1.165924210542869099e-01,8.625978712422842365e-02,-1.530953629948760275e-01,-1.211893467340248304e-01,1.259731247108443197e-01,8.912303691890302582e-02,-1.149130146907019999e-02,1.572605558516047830e-02,-5.105125547618696857e-02,-4.426858736598996563e-02,-4.796865498457577454e-02,1.285717583795364660e-01,1.165106294316127361e-01,-1.183001128526279533e-01,-1.784839558528091702e-02,6.279464203386025956e-02,-2.384851504872592416e-03,-9.211996884440615263e-02,-4.637756261768202423e-03,-3.831241622713086464e-02,1.289684677209632369e-01,3.197529430961118524e-02,-4.857809988753056946e-02,1.189786669719457984e-02,-8.175135703390203068e-02,-8.134405136054775887e-02,1.846796565075545932e-02,3.918199978319263782e-02,2.847181643493210818e-02,-1.211902718300788412e-01,4.710346666213761913e-02,-9.048881967107347268e-02,4.725260856037791224e-02,1.381179276090959036e-02,3.791999987127174510e-02,4.006372065172623259e-02,-1.303522845538286068e-01,-1.046971777014383959e-01,8.617859838221851587e-02,-7.697326779025649712e-02,7.024463266968719588e-02,9.307323470070397176e-02,1.110506491653406730e-01,1.019452856235260052e-01,7.152626218011061410e-02,7.497669639867822478e-02,4.970695303916362884e-02,1.175523192481203877e-01
-2.771929583021671972e-02,4.910681102509629331e-02,7.536606728585382164e-02,6.197415813974928994e-02,-1.219043927847729691e-01,-1.440657514593668143e-01,5.469791476813598563e-02,1.288312187471663539e-01,-4.140583531386504007e-03,-5.815517537966747447e-02,3.158703194511882500e-02,7.950318172488306245e-02,6.014054863584138155e-02,1.876840670257687305e-02,-7.682819848556531050e-02,-5.593995870507460777e-02,-8.819919915933095711e-02,-1.155288551558198429e-01,-4.199339505551395041e-02,5.437438934271212471e-02,1.291240869153783277e-01,-7.597894154731570093e-02,-1.033189932510294867e-01,1.048378499421118576e-01,7.530444038367944959e-02,4.448168974883660171e-02,-8.142327181829150939e-02,-4.671890332224524524e-03,5.509229877382636892e-02,5.856780130374583671e-02,-1.417813211184439648e-01,-1.294619563317539815e-02,-1.330356858027206546e-01,-7.750273769441839988e-02,-7.705127207383408172e-02,6.514545803477411745e-02,1.348988631865334631e-02,6.854108953905871382e-02,-1.970224115439759768e-02,7.023625662600077590e-02,-2.510116116598409136e-02,-1.337593255461701214e-01,6.137707413881449137e-02,-3.765413035533681646e-02,9.070240476641673599e-02,6.854481254270471113e-02,-8.127912733712393256e-02,3.247997434917117288e-02,8.550898662059804034e-02,-1.183262017623441936e-01
-7.324469426379749681e-02,1.396626365648209467e-01,8.513916813085083135e-02,4.501538188368728322e-02,-1.239839917776822537e-01,1.012825422890928639e-01,1.185182877784231037e-01,7.345878980261660862e-02,4.229981782705467125e-02,1.319491644794207608e-01,-1.778275882763998006e-02,3.405126454881612225e-02,1.155532760627719091e-01,-9.902670210703594378e-02,1.174342126351707177e-01,1.318619382937515905e-01,-4.376705838107492613e-02,2.290598751678998846e-02,9.657162764807374067e-02,-6.075480939112423012e-02,8.070211440090524491e-02,-1.465623940430038630e-01,-8.003647805748974331e-02,1.472167223132923308e-01,-2.254632722186503124e-02,1.472642123617175398e-02,-7.368094754577787786e-02,9.098841404035935831e-02,-1.074514973771900500e-01,-1.462539766130488139e-01,7.266688377085993300e-02,4.974186747350483467e-02,1.312853422397342040e-01,7.529584228412361524e-02,-7.644773674956794988e-03,-5.921279274896138617e-02,-5.825908280931321043e-03,-6.617326811144608190e-02,7.808483806940744176e-02,7.310895416795412660e-02,8.024154859457191535e-02,-1.298910662065580202e-01,9.033644658170185415e-03,-1.127736065079124050e-01,-6.499601340596540544e-02,-3.855533707178833425e-02,1.752913326045197132e-02,-5.643829771405307894e-02,7.970782013023268442e-02,7.948544344864300060e-02
6.617194924865568706e-02,1.233819999533258549e-01,-1.520065449621194054e-02,7.480064910576128545e-02,-5.711400260015899594e-02,-6.877351484939599191e-02,2.100576448603433746e-02,-9.414557071873022598e-02,-1.247510332398212018e-01,1.323983961004547849e-01,-1.053352254571807700e-01,1.491920364255708842e-01,-1.019047773629454118e-01,-1.979985581546104319e-03,7.827971393331337180e-02,9.738241517936582770e-02,-1.252747423321627918e-01,-7.001084596715957675e-02,1.384204228936225523e-01,1.407750956840299605e-01,-1.387888546996060013e-01,-1.441929953700510081e-01,1.477165875471291578e-01,-1.271458307757379336e-01,-4.463465003919449281e-02,3.254244509831777377e-02,-3.625635138012762992e-02,1.262497825347150548e-01,-4.904254635031252835e-02,-1.455662440906398125e-01,6.079459900199008643e-02,8.961160332525533456e-02,-6.578273689486330289e-02,-4.783124121561498771e-02,-3.596056088980781763e-03,-6.092338663966680168e-02,-6.768017706600275296e-02,-1.096218162050846129e-01,4.429711235786758933e-02,9.739350045385641863e-02,-1.964802984865890098e-02,1.098147290477427540e-01,-1.329889712157577286e-01,5.413543677336566523e-02,-2.406359724948547302e-02,7.375554788225908986e-02,-1.051966808157346611e-01,-7.029250561269913267e-02,1.026348908413409339e-01,8.884553097600736415e-02
-2.961701941884191738e-02,6.751774279327898975e-02,-9.302758033887462141e-02,1.167218982815395323e-01,-9.022464641331101598e-02,-5.710482889333851064e-02,2.110619930555159007e-02,-3.770494716581619665e-02,4.179259779466754088e-02,-8.560189818018815178e-02,1.495806987184763667e-02,6.190837264482845770e-02,-5.025979742084028812e-02,-2.802249873020213819e-02,-2.651834624698306761e-02,8.896224883319522880e-02,-3.092476178675913727e-03,-1.384182034544932105e-01,-6.453171311897190621e-02,7.479310251926159225e-02,-1.279596692754806087e-01,-2.543118834675742179e-02,1.304697587385398039e-01,3.070577749018873343e-02,-1.212827256102915266e-02,4.535895622247376746e-03,4.757929309364795911e-02,1.235949251807122035e-01,7.318268207953972093e-02,9.572462319525215646e-03,2.271723499448525044e-02,1.300848298640771283e-01,1.130441155645397766e-01,-8.673043809737060461e-02,5.868754035386197082e-02,-1.060620422522089712e-01,-1.368165609955934447e-01,-2.239494083790105963e-02,-1.203727015807274647e-01,1.453709880084801120e-01,5.967331894001112746e-02,-7.323367497247555702e-02,-4.186345719283722511e-02,9.815001740829390475e-02,1.064080820644555669e-01,1.004202059841646094e-01,1.174596686322696565e-01,-1.453630980998496525e-02,-8.063022669327012115e-02,-1.060513066119087577e-01
-1.164617703297719242e-01,7.296927182240681153e-02,-8.743388124442608156e-02,-7.334546923039658717e-02,5.988356321463171594e-02,-7.968844944301226030e-02,1.364427760982379889e-01,9.946716470581654784e-03,1.355539490743278841e-01,-1.488707826157561163e-02,-1.298672330395984620e-01,-1.337464740093035898e-01,-3.613791268721165684e-02,1.056288606004493341e-01,1.222995081543427898e-02,1.262848183151169812e-01,-2.907622221643288429e-02,9.463840819540592086e-02,4.108917440529018944e-02,9.874952531902911335e-02,1.746413446858441007e-02,8.486940245811538941e-02,1.451329150707544868e-01,3.609249353422509798e-02,1.458433136594343704e-01,1.346242062243652449e-01,-1.084329509180878837e-01,3.139299056783362296e-02,2.381782389984181750e-02,7.377567629912842873e-02,9.649702922439878927e-02,6.830144032607132765e-02,1.256561786180134498e-02,-1.079266613013175474e-01,5.487682117317106006e-02,8.170169260620496754e-02,8.741201197902126463e-02,-9.929149454172678246e-02,1.454969236692665036e-01,-3.677367167383352453e-02,-8.598700125342985390e-02,3.251601464993526119e-02,1.195049212031719654e-01,3.650539936847931044e-02,9.356473788435165639e-02,-1.180454552988368933e-01,1.462347904479664729e-01,4.516166038584870646e-02,8.681005903761981890e-02,-3.085587110634512020e-02
1.303884833023531420e-01,6.623471392504090560e-02,-1.039124652962720718e-01,9.942279456534616755e-02,-1.023902460237494788e-01,1.470339652494582483e-01,-2.187208195887765244e-02,5.734408852514419341e-02,6.560699252935195402e-02,1.453934948745680689e-01,8.900719027553785634e-02,-4.063790239926019093e-02,-2.232651510322287980e-02,3.144341942335572571e-02,-7.108380822315442382e-02,3.656833896919873400e-02,8.333281708113869646e-02,-6.747795951814031246e-02,-3.675830262718755848e-02,7.822941861236189925e-03,9.846361186636194696e-02,1.374937430250311732e-01,-4.227964016428482907e-02,-4.377372343895240964e-02,2.866389838148495836e-02,4.055383632569045660e-02,-5.401705976954292165e-02,7.869748559816809597e-02,1.422044289659541161e-01,-8.950122455776132746e-02,9.965418539800004194e-02,8.769129289945423733e-02,-5.378999508283356656e-02,3.391463338244621317e-02,7.612617100416571581e-02,-2.796729317856037553e-02,2.687973786513215418e-04,5.452122684443900386e-02,7.101301985488636670e-02,7.867932056502949245e-02,7.127239411354949206e-02,-2.535712384094145067e-02,-8.163740966921308184e-02,-7.024541112599279324e-02,-7.646794118445922328e-02,7.765608581914398845e-02,5.890399266804947215e-02,9.375411193818855571e-02,4.242686912599427651e-02,-4.139153525626156072e-02
3.398514446499786412e-03,-6.296124196711107290e-02,-1.151549103756180220e-01,8.479954387520718950e-02,-1.161416975585885664e-01,4.457734615814044898e-02,-6.306208801479494530e-02,-2.447432103976729389e-02,1.327538520327485316e-01,4.098949475878455040e-02,1.224242902494928481e-01,-1.011208641126720015e-02,-6.483287710157974171e-02,5.477418868891236609e-02,8.985498809408634657e-02,6.397009356941620040e-02,1.089177482138559833e-01,-3.329545386302146248e-03,9.347074932742983899e-02,-2.072696097724807673e-02,2.316867397242301351e-03,-9.707870310952187998e-02,2.318215234942725637e-03,1.478923236517684821e-02,9.142928536355091063e-02,7.702843459871033804e-02,-4.930511005657371715e-02,4.932840387436069479e-02,-9.344086798837783481e-02,-9.158193561121574788e-02,-1.235023585166995647e-01,-1.126946738930667269e-01,1.733065347863313108e-02,-1.714710452510154193e-02,5.636527286668387149e-02,-9.434854645885995539e-02,3.744137842135719652e-02,-1.117335391322188676e-01,-2.545452969892947337e-03,-1.264761656627320652e-01,-2.007438972072759370e-03,-1.993687529780102663e-02,4.618279594855642656e-02,1.436098932433041986e-01,4.562517132612228798e-02,-1.096750286785697359e-01,-2.244574843867450098e-02,1.214833564696576884e-02,-1.094618114657575081e-02,-1.376340460385987730e-01
-1.013808204653531136e-01,5.834673200717960251e-02,7.038933650212139681e-02,-1.480892665892866167e-01,3.828678114875899707e-02,-2.117714663597727864e-02,-5.915620387963842208e-02,-9.310410310725433791e-02,-1.127289714872361237e-01,1.300128814290072155e-01,-5.694779603646733801e-02,6.177861109740945267e-03,1.486498359804597214e-02,-8.158809434440288111e-02,-1.056065726048001086e-01,1.448400192370560557e-01,8.273147704688074699e-02,-6.662353198888151806e-02,-1.186804127537048059e-01,5.124219983293840097e-02,-1.294361754329787229e-01,1.486675627974493041e-02,1.094455035596207659e-01,5.203478266713601474e-02,-2.322187222560548325e-02,1.055068547489365904e-01,6.067233119106435479e-02,9.071176754495205441e-02,1.459474204752021220e-01,1.788464172115147854e-02,5.926665793307417385e-02,1.358923518039274192e-01,-5.425779931479102203e-02,-1.187251098085823631e-01,-8.973079035587352981e-02,-1.004339412359977896e-01,9.230670990347800142e-03,1.189059296086381057e-02,1.128819669130849690e-01,1.041165143819250682e-01,1.216123806215178849e-01,-1.056322348437532810e-01,1.073841017723773106e-01,-1.465376606095692702e-01,-6.134659391723709665e-02,1.433212785421370261e-01,1.324504591923421348e-01,-8.939122294629631149e-02,1.419591685896897937e-01,1.164619806111087674e-01
1.186666488006619946e-01,1.159341141351237503e-01,2.089197494352695861e-02,3.038906855695153175e-02,1.393630989130172637e-01,2.364080381815983345e-02,-1.187727826579221269e-03,-6.601738615316328496e-02,9.619416222541282702e-02,1.378294552891459468e-01,1.130332013675627578e-01,1.185476843497438593e-01,7.593094337628863988e-02,-1.431991818532956928e-01,-1.147289745961388996e-01,4.893608877868507734e-02,1.431817285695513586e-02,5.842264144894895872e-02,-1.221167580318480717e-01,1.041941311579242246e-01,5.908914343824769877e-02,-1.183584773950821373e-01,-3.189026457965560279e-02,-4.900584744251289260e-02,-7.857373878463176642e-02,-9.474541164426800166e-02,5.792622602297670120e-02,-3.729630560958713259e-02,-6.825287035367658128e-02,-4.182048848792722928e-02,-1.368462268068444954e-01,-3.646152199110959391e-02,-7.475529990405474501e-02,-1.215945347013314970e-01,1.112510709980433499e-01,4.784952171706483015e-02,5.007368520441768389e-02,-3.128359401547931018e-02,8.419992040745274964e-02,6.842923911170312179e-02,-9.725667891225708850e-02,-1.364053072481958839e-01,5.972875749452025151e-02,-1.379022619111894832e-01,-1.491466670034363728e-01,1.284699216503944197e-01,5.374980023216441305e-02,5.960239683130172383e-02,-1.019021201276909400e-01,-5.223688678915255901e-02
1.435888475008046672e-01,4.112189904119092909e-02,4.174350500691398347e-02,-1.223575660953368782e-02,7.654990841472827934e-02,-3.659932399277909809e-02,-4.018023395776186557e-02,1.297541041058389022e-01,1.340568072423164725e-01,9.101883613158517905e-02,1.105240129927368142e-01,-5.711784839210068410e-02,-6.616885098456266878e-02,-9.313428096085560326e-02,8.834218276388755564e-02,-5.653193401211902003e-02,1.230372088903719796e-01,1.325218523319567077e-01,1.445126808441093702e-01,-1.784422851845757219e-02,1.232422776259979036e-01,1.479703787023325945e-02,-7.737582565765005471e-02,7.086226283402125015e-02,1.087149738909356234e-01,2.741504534728989029e-04,-1.031821662263669170e-01,1.297655756580079756e-01,1.042335278866844683e-01,1.184810728808040892e-01,3.330491776137906035e-02,2.352703104090617114e-02,-3.487662491574497481e-02,2.622371155406227894e-03,-5.218561567050501726e-02,3.787524980529657914e-02,2.346028424719978633e-02,-1.750871821480282087e-02,1.455636559020667964e-01,6.593623479068502768e-02,5.332732439494175525e-02,-5.481896191584538502e-02,-1.047398677031394221e-01,-6.147284220279936040e-03,-2.488527912127774799e-02,-7.223280489716429886e-02,6.050345799434583838e-02,-2.248158864788019073e-03,-4.432188973336922966e-02,6.857280370499577171e-02
-7.513629288035456044e-02,9.826130117352513405e-02,-8.043410769817140038e-02,-1.060136687045933612e-01,-9.474968988656876090e-02,1.072591737785035526e-01,1.517013744130579767e-02,-2.605973964782480612e-02,1.241997268088160522e-01,1.006735015441807823e-01,1.109465968678050862e-01,-7.254292312929838671e-02,1.474800978782264682e-02,-1.355550347785804688e-01,-4.886968840942214343e-02,-1.586367344873731988e-02,-8.608410834267284095e-02,3.141469842450139716e-02,6.786452660132388792e-02,-1.392572718403882193e-01,-1.396153349460005355e-02,7.026481684283172879e-02,-3.075845665925999728e-02,-2.122895379705694308e-02,1.270592963515653484e-01,1.442526798691327328e-01,-1.105653007946880428e-01,-3.984568132561150389e-03,-1.034238074550396791e-01,-1.469177841986279154e-01,-5.207365142032426009e-02,6.579472638620423308e-02,6.285964735812749060e-03,8.398829278965205813e-02,3.694413307703009464e-03,7.971732820141602671e-02,8.825891623547343912e-02,1.262366757772522552e-01,-1.065758866738877320e-01,-1.159182735086246585e-01,-6.456070045485086395e-02,-1.046828740663180435e-02,1.446768325146325085e-01,-5.484479086684655724e-02,-1.398507844011378232e-01,1.121666388180534157e-01,-4.588297632851374985e-02,-1.389310464503842324e-01,-5.994947732221060643e-02,6.159883870085550162e-02
-1.354104220113921953e-02,6.331592593686036219e-02,-1.445119863320168119e-01,4.470190186461636683e-02,-5.748570244369127780e-02,-8.820401395025512237e-02,1.470243433517424425e-01,-3.965687142825492784e-02,6.929301080060568108e-04,-7.356962119055723837e-02,1.004071028123413034e-01,5.842419459736850063e-02,1.903046400984587105e-02,-1.171790310863331519e-01,-1.457442964259011153e-01,-1.395743027383388457e-01,7.806730607201350924e-02,-1.061439286778539937e-02,-1.641320998669765219e-02,8.258282647042530789e-02,-6.742247411835168569e-02,-1.044476129355010191e-01,-7.311185403697914587e-02,8.546114001916269021e-02,1.071492718993466153e-01,-1.360774928946579532e-01,1.399799435082380861e-01,4.398607911405336135e-02,8.920304861568931210e-02,-8.951079432903488731e-02,1.181847450012843692e-01,-8.277919625034019235e-03,1.079661228606577927e-01,9.243823491445524176e-02,-9.581009971874343556e-02,1.059247206316493439e-01,-1.098757944625308458e-01,1.000971860669420399e-01,6.617063885060894823e-02,1.340562140493860854e-01,-1.027042442168383252e-01,-1.226936493465604766e-01,-4.155804703771183439e-02,1.265549007725704500e-01,9.936974880018711875e-03,-4.443253144184554360e-02,-3.185276376808474086e-02,-8.210057484589555754e-03,5.011265926306157636e-02,4.000661012533746064e-02
-6.098047681030122069e-02,4.021614089851399676e-02,8.535186086184168297e-02,1.394084091709369699e-01,1.407793062223633151e-01,-1.398128467274875886e-01,1.090712752086928361e-01,5.123624728065884204e-02,3.849020474308839646e-02,-7.041331239928466657e-02,1.092782788593168186e-01,-3.883676774861427594e-02,2.012686009064007520e-02,1.272653466797387389e-01,1.052494540389772026e-01,3.381932082138749962e-02,-5.920478278113361359e-02,8.164749698496234775e-02,1.435992176024640521e-01,4.562609846103490852e-02,-1.218555952306606543e-01,-9.454106761629360589e-02,-8.360835465263921629e-03,6.949090924583900541e-02,1.240183766902044904e-02,5.493785229887637733e-03,7.238130847477558527e-02,1.385782474485355575e-01,-1.133944297651752475e-01,6.203130044719210034e-02,1.237621093659805604e-01,4.731469850601391358e-02,-1.250837217433591608e-01,7.084672920035003929e-02,-4.811972738438037578e-02,-1.825567332067509763e-02,-1.153621729297941712e-01,-1.377416097016700147e-01,2.585125983217445578e-02,-5.407422874021433623e-02,-3.026663945222829444e-04,2.580288186028953379e-02,-1.294869189568782497e-01,-8.936184151045006852e-02,7.989669419137365725e-02,-1.248549687172392231e-01,9.365907443974344493e-02,-1.278523532228350024e-01,-1.403808832700136899e-01,6.813493037169637834e-02
-5.288687128536463666e-02,4.568007783532201938e-02,5.429600319982072487e-02,-6.824915973124619228e-02,-1.078486363399415449e-01,1.489428195265397881e-01,3.991712804042296669e-02,-4.767732392817160270e-02,-1.419792239222266439e-01,-7.257613433921841772e-02,5.693099959104166996e-02,1.528534127434588719e-05,3.151813297849545559e-02,8.516312567487410723e-02,-6.272469192918496417e-02,2.784058174232856286e-03,1.240624744658311018e-01,-4.371752121700434035e-04,9.925248651075482820e-02,-1.009851557167666114e-01,-3.853259044831330860e-02,2.514031050367177000e-02,1.180053360804788898e-01,-2.447826990264476144e-02,-2.406681133294119590e-02,1.037363931364884972e-01,6.755798024275483371e-02,1.074186035212141010e-01,1.627903892945603559e-02,6.152593245458459759e-02,7.730128721256665503e-02,1.429182455949369046e-01,1.763555568362334958e-02,-1.386880926635786770e-01,1.394794050920080963e-01,8.479281489177029063e-02,-4.601283363553680672e-02,4.722980163302303858e-02,1.069284913987506858e-01,9.961607047122686409e-02,-1.138208028302519215e-01,-1.289399226333781401e-01,1.478737427788098524e-01,3.054059733090225270e-02,-1.050850638233163103e-01,-4.778764289531989284e-02,4.418582969370915547e-02,-3.884148620434943466e-02,7.655691845997547595e-02,6.456071350275788268e-02
-1.968567998519521467e-03,1.131528453180419558e-01,1.033388220031440652e-01,1.291849405745996993e-01,7.166339233521243357e-02,-1.076868945685436341e-01,1.392776425345698399e-01,1.044099017760025949e-01,9.013939372424814578e-02,-9.467597169271091406e-03,-1.270643322411042775e-01,1.096014834826302964e-01,-2.448675480205525501e-02,-1.186257888958183737e-02,1.238863259592893062e-01,1.238919691563852843e-02,3.615875137012941609e-02,7.180843657292232396e-02,-1.530760654617252525e-02,-3.004382026757720925e-02,-1.426977349102183934e-01,-8.093636794917598298e-02,7.106696402249612632e-02,-1.409262697419289001e-01,1.254264062081509035e-01,2.775130567670608395e-02,9.967210953694979891e-02,-7.993457711737167459e-02,4.623421010667178033e-03,3.514535603447960233e-02,1.402605966436204221e-01,-1.412255674240122938e-01,1.441181111561751493e-01,1.071518342052804329e-01,-5.630872030409572737e-03,-1.364430780658881792e-02,7.703699082338721915e-02,-1.057944782948429252e-01,9.233796165709845516e-02,-1.025473138598916867e-01,1.231536023649383582e-01,-8.242461697871639181e-02,1.082319729278841403e-01,-9.600928667282515594e-02,1.382760478198274134e-01,7.885765521587051463e-02,7.385313982656460663e-02,-9.573556588809037371e-02,-1.128531563040822971e-01,1.294467819863564240e-01
1.235519988055434060e-01,-7.211515789810636623e-02,7.204177304187051045e-02,-1.437559765483858720e-01,-4.714954574522665226e-02,1.043735826629926811e-02,-1.361152523191324903e-01,-8.339452099290585452e-02,8.514459313852748568e-02,1.258528441136871068e-01,-1.344747826077273278e-01,5.664841931024596280e-03,1.198469600851222172e-01,-1.294147045753620828e-01,-2.509451436612955555e-02,-1.213323399909252698e-01,-5.797674424052823294e-03,7.320369453012465222e-02,1.381798167165157465e-01,-1.465036648026801502e-01,5.795671772970815983e-02,-1.046400527464961955e-01,4.001627043488359403e-02,1.228200441062777676e-01,-8.983605430226604405e-02,4.998323949954307927e-02,-5.604713445895722485e-02,-5.036301133826095316e-02,-8.711504788703204605e-02,-1.464653544892645931e-01,-7.024355110706220762e-02,-6.121883491144138045e-02,2.788528589540879149e-02,8.339017362645195774e-02,-9.329111775778894944e-02,-3.077555891450711734e-02,-6.643739761792787080e-02,1.319536248885935514e-01,4.334465801071976654e-02,1.300729097812776125e-01,1.391263669665388503e-01,-2.199027448190699063e-03,-2.277695057752315844e-02,1.140946521423455151e-01,-6.607435170797311234e-03,-1.496949860677562749e-01,1.360626815795996369e-01,2.658451411535625586e-02,-1.031200133223909854e-01,-5.880616569459214127e-02
-1.491976222443558153e-01,3.652172888863908229e-02,-3.562457237581798108e-02,-1.194976236163030336e-01,-9.057173053293186837e-02,-2.109498389170494370e-02,-1.278803779362324144e-01,1.346742606755235994e-01,9.934461184631404596e-02,7.978066907262734708e-02,-3.668256878190695458e-03,9.800876002974054368e-02,6.662627678375510065e-02,9.640757370224481426e-02,-9.339554051431794846e-02,9.784759097873518829e-03,-1.347910035458009526e-01,-1.487739791995651428e-02,-1.403896217063147212e-01,-1.460111769330066644e-01,1.133575836154412098e-01,-4.038606748900537557e-02,1.268988666371490270e-01,1.951824692502751590e-02,-1.266302340438359431e-01,2.911461092141742757e-02,-3.599314595200743538e-02,-1.058428114690390665e-01,-5.458182764855587510e-02,-5.133751810214183531e-02,-9.192456058789627571e-03,-4.459954375431197937e-02,7.108502075265885067e-02,-3.843018184020388639e-02,-1.082478696903071969e-02,1.111045462992182042e-01,-1.191326299282378792e-01,9.561813062308291422e-02,8.259273376593642690e-02,9.870545516350337500e-02,-1.319047898016824649e-01,1.345848643820655999e-01,3.058882200356394243e-02,3.513229197245867907e-02,-6.056194192411150368e-02,-9.396399782855101301e-02,9.735841733752217952e-02,-1.132526903122900580e-01,4.870300664224846976e-02,-1.120123888758579461e-01
-1.301478186014682903e-01,-9.718519292322613801e-02,5.038188269352852217e-02,-3.866907700053882901e-02,-1.405780417778015323e-01,4.843740746054175927e-02,-9.470627427458991332e-02,8.629269898986163811e-02,1.295027596521124147e-01,-3.001056392785533822e-02,1.349926888699349015e-01,1.464879149152303363e-02,1.480952679862211074e-01,1.018458487999329420e-01,-4.783296979760350010e-02,-1.387046536418682641e-01,1.503721884456799274e-01,-1.561478120435964151e-02,9.227910598757604888e-02,-6.443643666584111807e-02,1.510144480469241546e-01,-4.570419997348387081e-02,1.401042286300079043e-01,6.732011240112802108e-02,-1.305496688948329653e-01,3.227025107934683446e-02,-4.486121071703984969e-02,-1.104204772581749150e-01,-3.812111314819349034e-02,-6.282311395036593860e-02,6.528698308434945086e-02,4.104443840838742363e-02,1.309289554951788559e-01,9.564496753366347193e-02,1.034784039320428978e-01,9.104603321549342709e-02,1.302946922185547474e-01,1.408161075102749571e-01,-1.000498865713076307e-01,-6.367832519355089149e-02,-2.286103525687748807e-03,1.392989907026943031e-01,2.670714069409307889e-02,-8.010706173567043453e-02,-3.831702646754699473e-03,-3.521099506629537385e-02,6.351872889170151470e-02,-6.676604885504672238e-02,1.369973341445499260e-01,-6.900381395046403799e-02
-3.466744199087756165e-03,8.556587611770487267e-02,-5.461205301236838651e-03,-6.284336575007973269e-02,-9.214764502683625569e-02,-3.059956192944046117e-03,-2.550969805861799666e-02,8.986136795339966232e-02,-1.463410887604965627e-01,-9.238963723268441008e-02,2.377465640855191617e-02,1.606072101309919675e-01,3.335731425346393636e-02,-1.258085122497534236e-01,-6.037587168249469727e-02,3.132477671527521268e-02,-1.047531201040215187e-01,-9.245937267167606000e-02,2.167228199277309794e-02,5.312617465615428886e-02,3.278245134981272631e-04,1.368638606039652983e-01,2.001502000711365137e-01,3.761073143545966974e-02,8.491738748516877711e-02,-2.222348801623130754e-02,1.440553005066897655e-03,4.432614040856145549e-02,-1.805626676009831899e-02,-9.009274450598225847e-02,9.806966837473486687e-02,1.242243546717133051e-01,-9.536411132609209917e-02,-4.459147852600715833e-02,-4.737341536990046648e-02,8.402221987900848621e-02,1.263950211550638782e-02,1.309763434006255278e-01,1.450442293639419566e-01,-3.158443781534855249e-02,-8.898346668579963648e-02,-1.340341630726751276e-01,7.037990914296909928e-02,-4.668456942658501252e-02,1.243846279875531896e-01,2.359978264087161243e-02,-1.141200193533943585e-01,1.013811334750295695e-01,-1.043594758049321974e-01,-1.183095594200195277e-01
-3.591971255813564134e-02,-1.547266544563405399e-02,8.419828762121898957e-02,-1.654304945583163090e-03,-8.985735272614539526e-02,1.065610624229680475e-01,9.947397736511247313e-02,1.384864584635581430e-01,5.005684806647055229e-02,-1.149987516005287619e-01,-1.513921017270585534e-01,-4.144485125775378836e-02,4.097918483803684314e-02,-1.154564510514253933e-01,4.079861665011572797e-02,6.478298518117106553e-02,-3.548937728242343870e-03,-4.606661067707120555e-02,1.412559569199633297e-02,2.071611394711410370e-02,1.300568005169101260e-01,-3.865468464047822073e-02,5.268969832416441762e-02,2.782355656751908310e-02,-1.457103873711042830e-01,-6.623065695128087238e-02,1.581869207754175166e-01,-8.515532559050986716e-02,-1.279649728509393847e-01,-6.843644470323355378e-02,4.171149166783019030e-02,-1.637205741602226414e-02,1.420685208276816769e-01,7.315827392330222570e-03,-1.662199038976093154e-02,-1.932660721762338024e-02,8.642498390649612505e-02,8.675637236355615567e-03,3.817220324648145507e-02,-8.795774956390203791e-02,-1.312870484674824312e-01,1.173977316826530816e-03,-6.012752588110196333e-02,-1.303768734075063107e-01,1.495584074836926259e-03,-9.146665577927751145e-02,6.479059921211575979e-02,1.387701824942383019e-02,-1.229671205665397588e-01,-2.318473522538849405e-02
1.210883987241055115e-01,-1.628853172012980147e-02,5.023054521127381239e-02,4.781131144085529194e-02,-1.141934838453495804e-01,8.830428944973685301e-02,4.986501710184292752e-02,-3.210227571586918294e-02,2.917303979790903529e-02,8.156129979667663121e-02,8.283229270539500810e-02,-3.900650650392944313e-02,6.310693478302030479e-02,9.453000441326463166e-02,-1.937223191612581427e-02,-9.792642439415882860e-02,1.363011098418403511e-01,-9.589310859364220951e-02,-6.756241979761663796e-03,-7.446257892077777496e-02,-5.477800151420177815e-02,2.822440141680876424e-02,-7.850725523286404550e-02,6.117631121632441382e-02,-1.368155768401027941e-02,-8.196167485130630148e-02,-1.401806230726228009e-01,2.100549899637539283e-02,1.237418429508860412e-01,-5.774441361897442171e-02,-3.345563548516055502e-02,-2.011267359567719612e-02,1.398796199990343658e-01,9.004008020274001378e-02,-2.433533018798865119e-02,-8.320569455329376862e-02,3.792096073022322572e-02,1.072573695235781721e-02,1.394913842139552940e-01,1.430011748205563260e-01,-4.186767215249157653e-02,-9.873252536268688206e-02,-5.782162730948757490e-02,2.533225700159318777e-02,-1.182782752886865768e-01,-9.006975353766856485e-02,-2.268502006477714130e-03,3.414415087434639201e-02,-1.130534253491743968e-01,1.149332181962683108e-01
-1.021737692523914109e-01,5.624928314857220030e-02,7.409886071209897951e-02,-1.086406181356817102e-01,3.051191208303538280e-02,9.068116003244210133e-02,7.777123698145901876e-02,-9.439079741062697537e-02,-6.363746856656118944e-02,-6.834743718936753254e-02,-1.444230627864494243e-01,2.370319774652371661e-02,-3.859419653534790218e-02,6.275046937808032022e-02,1.101348352558228494e-01,-3.090571615453672691e-02,-5.632794128636818207e-03,3.242413788001402564e-02,-1.037799359715625563e-01,1.475880141424608938e-01,4.699240275561303304e-02,-4.057503752596831881e-02,2.453890324243927779e-01,-8.035163569407770615e-03,1.239686654453452525e-01,3.085536971030404529e-02,1.796859133510166420e-02,-1.064234826291076963e-01,1.906956417496553924e-02,-7.761779845225936017e-03,7.811500362855207380e-02,-4.975921924036556809e-03,-7.921078678463536193e-02,7.765969310247650137e-02,-2.123334783723416705e-02,5.344881014858658685e-02,-1.535873100029674365e-01,2.789863923903875345e-02,-1.552350812736213725e-01,7.017950709481303451e-02,-8.856560613717510966e-02,-1.370719459585317823e-01,-2.131275281844593680e-02,-2.609130545314543997e-02,-1.272682754817099360e-01,-2.605179629665674637e-02,6.744375451409065358e-02,-1.363839052646609595e-01,5.164481556737249290e-02,1.295674745392141336e-01
-1.079471260336404420e-01,1.386640602950383813e-02,-1.564481492069599577e-01,-1.371467744150497471e-02,-1.696926503481185622e-01,-7.691622401733490266e-02,-1.488978031021659897e-02,-3.670823757460819209e-02,-9.724677676456017217e-02,1.243869378519400909e-01,1.247336391589404792e-01,1.233663078267499685e-01,-1.493636377688484229e-01,-3.091147023373938887e-02,-1.308094560054291478e-01,-1.875444996666560116e-02,1.352253337608027954e-02,4.043986985776985843e-02,-5.198205576434104802e-02,-1.160507199844786064e-01,1.083438137626257652e-01,5.184377422149469977e-02,3.339077274512698701e-02,6.038827502287941879e-02,-1.360174735925580303e-01,-2.478518107719515466e-03,5.580740165826910543e-02,5.632828004263082389e-02,-4.125940753408741113e-02,9.866460077732868827e-04,9.073556319751109600e-02,-1.634351034323986152e-01,1.246688128114990385e-01,6.335241967569070140e-03,1.009498335211932024e-01,-3.939334080362189017e-02,8.860520430893903399e-02,2.862467378724124767e-02,6.843913303737358955e-02,-6.767550558054405418e-02,-3.621763534815644614e-02,-1.328267829950716961e-01,-1.986476606583849683e-02,7.839611277300946590e-02,1.575334572862277238e-01,6.038895216975440766e-02,1.409252236251123599e-02,1.002114141490619698e-01,-6.139583779600755326e-02,3.047427264077749373e-02
-1.683660241593920859e-01,-1.432405720204799338e-01,-1.610168868634742900e-01,9.287520083410905070e-02,-2.336286004915277825e-02,4.277884013005467390e-03,-2.753203236565256867e-02,4.859178117709460343e-02,-7.832320239980931909e-02,-5.585676882313281993e-02,-1.388677931512421748e-01,1.706240852414462605e-01,-5.687541707311349198e-02,-1.005807181001585129e-02,1.587384402620726775e-01,1.338325322408097651e-01,-1.683471471464655644e-01,1.686024120048886313e-02,-7.756805604177123559e-02,3.324752794553295816e-03,9.611973519649601172e-02,-7.691488785233753511e-02,1.923294941801713953e-01,2.392732430631744692e-02,-5.952814398811204222e-02,5.157462838795214694e-02,-1.108011642835070006e-03,-1.054964019256077468e-01,1.298725018219070437e-01,6.345953296320187842e-02,1.768816446273718812e-01,-3.998458176096698902e-02,-4.947505345445400021e-02,-5.680544039162454401e-02,-1.174976592362848675e-02,1.083910927686534825e-01,-4.358794658825067975e-02,4.920549046576924712e-02,1.585288994865246548e-01,-5.866520273865841184e-02,4.156370497973307931e-02,8.152906537281052676e-03,-6.128647675826623398e-02,-3.496900313783034286e-02,-7.977084338402393171e-02,-7.868620957544870953e-02,-4.931230723545780570e-02,-1.161798568379052987e-01,-2.851038287856412154e-02,1.004336046130484689e-01
1.558765853480406638e-01,-9.448451244403124893e-02,2.677197239218976135e-02,1.411109122592161267e-03,4.975925209429877052e-03,9.505372381259164644e-03,-1.035802265272342537e-01,2.006464927609215299e-02,-1.352718395822826158e-01,6.259033325476930087e-02,-8.021844249526315085e-02,-2.733072331228984797e-02,-4.375213606020845331e-02,1.477592626274799870e-01,7.070297539432705836e-02,-5.107746162792455719e-02,-1.081484272078625936e-01,1.354222789016552297e-01,-1.322690158077231837e-01,-1.910073081634603154e-01,9.509439370011026071e-02,1.026550169141319524e-01,1.745038064139248779e-01,-1.285530501256443303e-01,5.911161307397853545e-03,1.435228466029545569e-01,2.329218965738431499e-02,1.137349798333604500e-01,4.824917496971158071e-02,-9.965001817888609337e-02,1.747254432656251411e-01,-4.847039409878843574e-02,6.689692432464362792e-02,-1.113554112561469800e-01,-5.562825260718688714e-02,1.094064967152662549e-01,2.870417852715841447e-02,-6.526467484018848297e-02,-9.616646392609740079e-02,1.036127181388211554e-01,-2.845527230184950740e-02,-8.496621315624107440e-02,2.416629947338390025e-02,1.378137499185325479e-02,1.469056670972011466e-02,1.076809471215550706e-01,5.988747077394888929e-02,1.034497003079774546e-01,-1.501748803285556655e-01,-1.196340386719389887e-01
-8.949296712242184315e-02,4.117737719305197656e-03,2.167743071042920258e-02,-1.269076167136997113e-01,-7.794263688447041621e-03,7.333852021649553410e-02,-1.493917125012774738e-01,3.378298765158575107e-02,-1.206945448097598156e-02,-3.572355195856607990e-02,-6.569452035598447037e-02,-7.357388396829159238e-02,-7.837543093710334918e-02,-3.778758463027429709e-02,2.698022642633239945e-02,2.152674828397359297e-02,-9.132158996966008302e-02,1.108483706761250603e-03,1.465201802193766001e-01,7.746285619639077524e-02,1.555312520032828272e-01,-6.375243011026211770e-02,9.633135163153096203e-02,-1.206924711880056900e-01,-1.107120170207153143e-01,1.376070420251871151e-01,3.847924167916730309e-02,1.125777587016356246e-01,-1.287331921025686443e-01,1.511312434672637817e-01,-1.025817741386208376e-01,2.224650859982032006e-02,1.816390088121825619e-01,-1.067526903146657075e-01,2.942806959176881218e-03,-7.097707926823380864e-02,1.963921678058839354e-02,-2.597327473703845563e-02,-1.381046111327806081e-01,7.238048331191584972e-02,2.089452161300486485e-02,-1.143653827171907111e-01,5.945898351358018530e-02,-8.587269362049780586e-02,7.333585346519216897e-02,-9.209916890669854472e-02,-9.059449337086374066e-02,-1.053406474041211904e-01,-9.085367632400706550e-02,-1.322777353007466294e-01
8.537662102738743930e-02,1.476236304358020252e-03,-9.201361197283185189e-02,3.175360808134988777e-02,-2.608456993813526234e-02,2.824905317062929161e-02,-1.013868777340871524e-01,2.178888397487400153e-01,1.071649578891135102e-01,-1.057599103138814473e-01,-9.571701353753495067e-02,2.038236689247650557e-01,1.850954326016874263e-01,1.458605111961729095e-01,7.409864808194202568e-02,1.662967174973644102e-01,-1.141614461454114049e-01,9.430367778727768990e-02,-1.605920366119578946e-01,1.354142435294918290e-01,6.162445433556823504e-02,8.608584061041447966e-02,-4.094244553322122504e-02,1.024245772762437251e-01,-1.168890135000661690e-01,-5.977089779041255130e-02,7.953801555413154978e-02,6.574848362616150799e-02,8.022090683286341173e-02,4.196867175023266672e-02,-1.521257994049324963e-02,-1.278851652849662124e-01,9.885622826260846707e-02,1.081605472187892047e-01,-8.008538198762808757e-02,-1.833608553224244653e-02,-8.738317082461614926e-02,8.026353434940743103e-03,-6.959783665384902673e-02,1.085040774589243751e-01,-2.675677226070122608e-02,1.308848107642614222e-01,-5.169795971120403483e-02,-8.817217479239172762e-02,-2.377050987126307080e-02,1.821158501613090799e-02,1.121422618758662615e-01,-1.252382375983108198e-01,-2.517687592672078131e-02,-6.701095078117651031e-03
8.763907514309590696e-02,-1.484048260410112396e-01,-3.096069989428588617e-02,3.965646845272532972e-02,-1.137284116565898812e-01,-2.553040307446300880e-02,-1.006106244441176412e-01,7.797000842044796154e-02,-4.017786215628899732e-02,-1.825090981311819627e-01,-1.249014647288182456e-01,2.628557680501319473e-03,7.716034650975499287e-02,1.598598799723364994e-02,2.366083909347552888e-02,2.241824258286274629e-01,-4.499436893764881956e-02,-1.317532084409043514e-01,-3.562404494449936815e-02,-1.027271180421735208e-01,5.907989377165030753e-02,2.029693063724270080e-02,-3.129915779159531120e-02,1.858499491568531281e-02,-1.398462574802233349e-01,7.660437905085566712e-02,3.008804871154056523e-02,-1.706055606613917086e-01,-1.784854026372897917e-01,1.405074318741289519e-01,2.256645037302535128e-01,-4.934502589033566006e-02,-8.553117859470726891e-02,4.378440944239734949e-03,1.350509073439809804e-01,5.730341035316526693e-02,-7.960438735725518938e-03,1.797693030708635148e-02,3.433647039470276441e-02,3.734601018300572756e-02,3.963150882521909030e-02,7.587153036667405870e-02,-1.129468922162315675e-01,-2.000142618326493094e-01,-1.271520278296569759e-02,-1.101638314616633710e-02,-7.323644633965691389e-03,1.338531718864728326e-01,1.501471690354140021e-01,-2.934550196231364150e-02
1.147769514218283798e-01,-3.221937140540042516e-02,1.971818313455179009e-02,5.716714562258920496e-02,-7.070379961775849487e-02,-1.356734230692610010e-01,-1.192233421297111268e-01,8.669082866652724761e-02,1.467818270492821930e-01,2.119229158949167968e-02,7.484789059386942611e-02,1.141957248863508106e-01,4.951402435979652267e-02,-1.190877976047586828e-01,-4.651777258577098617e-02,-4.891582102805656224e-02,-1.413719155572573660e-01,-6.044123414738015315e-02,-4.578339548664756703e-02,1.520634960024053461e-01,-1.782825905057455014e-03,1.889127197028885735e-02,2.794602206734062011e-02,9.718663674637353922e-02,-5.412296745854836694e-02,-1.590373316229898026e-01,-1.355550120980011583e-02,-1.080081451907255879e-01,-3.527412623035336425e-02,1.025961051626529327e-02,1.164531891088942117e-01,-4.696710927992542306e-02,-1.260934092430346098e-01,-7.844874807107031500e-02,1.027881037967308397e-01,-9.206561235387968056e-02,-1.146063660899494380e-01,8.532793187660718537e-02,-1.210354085229684296e-01,-1.037618603031143644e-01,1.701288738446967985e-01,1.061815525366456292e-01,-2.247574036798350924e-02,1.259927940634665011e-01,5.861590480783482326e-02,-2.449569921669628170e-02,-1.058170988097049819e-01,-3.655343066279229114e-02,4.088525196680967838e-02,9.430343390123458597e-03
-3.070054610609543669e-02,1.278684955657206739e-02,1.138265918324673359e-01,-1.181670836123733664e-01,-1.502446627289094894e-01,5.901860668165603147e-02,-8.533133090527610098e-02,-5.915130650754494429e-02,-4.993017257913109908e-02,4.012414860249547549e-02,1.014416974267891292e-02,4.578787834692592262e-02,1.667890500470814996e-01,-1.213803737864866256e-01,-1.082823232617604881e-01,2.032546010470790143e-01,-1.098341774251888198e-01,4.037903937575672980e-02,1.507797815422989296e-01,9.568780193393847111e-02,2.138761277952146416e-03,-6.088723677302156079e-02,-4.090323940678644576e-02,6.177301811729906528e-02,1.804232924508963887e-02,-8.540846397087623054e-02,1.548879446709872654e-01,-1.033282229493638106e-02,-8.389388106871542572e-02,-1.483274044486889431e-01,-2.456524452958594798e-02,-1.221553553039512602e-01,1.516296908797857834e-01,-5.533465452399621669e-03,-5.228930610395915446e-02,-4.326009001197703846e-02,-1.099740295770198217e-01,-9.369246245163417863e-02,4.312666883880586499e-02,-7.338369945104109004e-02,-1.048378771517538138e-01,-1.964302897455249414e-02,-4.400254085692661965e-02,7.358237553805712337e-03,1.005058031102746829e-01,-4.359076421307504084e-02,-1.570556912608119249e-01,-3.444434598026850647e-02,-1.036603377752974425e-01,-2.617234102397147585e-03
5.085958185023535527e-02,-4.789327622829956527e-02,4.495238936922014289e-02,1.174374629333342496e-01,-1.570054671602729990e-01,-1.616199030549916316e-01,-9.422479257990454271e-02,-8.985964944187149750e-02,1.237443417554855013e-01,1.493530016556265660e-01,-7.888560482633534543e-02,4.330923880313202953e-03,-9.442308052821735131e-02,-3.138221917367015057e-02,9.334594847440062793e-02,-3.284673487415046278e-02,5.488581865234037210e-02,-1.367199957256801934e-01,-8.079228569157387296e-02,9.139231333417381642e-03,1.063972202146020590e-01,-7.046559617588632474e-02,-2.152242977884100128e-02,-1.760777711544411067e-02,-1.259729013789285743e-02,-1.100727659597149632e-01,1.454650412956040306e-01,-6.821673549880766241e-02,3.514591497844375689e-02,9.842374042597986858e-03,6.078750813103348666e-02,-5.865888183960331348e-02,1.140610108635246311e-01,7.056424125662588698e-02,-7.955432762022680848e-02,-8.605230248798378945e-02,-4.553315955222088374e-02,1.140194164064840809e-01,-1.315975251923927891e-01,4.883220936595446954e-02,1.497290323185261063e-01,2.828985089031105932e-02,4.032023696079690966e-02,7.790235370668030512e-02,5.538755178086451209e-02,1.907167391113667385e-02,-1.640729147908602803e-01,7.535570146173047046e-02,1.397244932852222121e-01,-4.127664674824572943e-02
4.088526637175303458e-02,9.075538444241665337e-02,-7.013099236251112145e-02,-1.123054429515079194e-01,-1.964853398235731977e-02,-1.222199529200841406e-01,-7.617230940141814233e-02,-1.080260798188260457e-01,6.010874126953941882e-02,-1.268763111752050088e-01,1.829022207204884093e-02,8.988134787086912714e-02,3.930102958629331372e-02,-8.527057546323978110e-02,1.389614090432969851e-01,7.112607249737959436e-02,-6.109993345242739626e-02,1.491419306318694273e-02,4.338361107390690738e-03,1.627422077134613732e-01,8.566586765679094773e-02,-1.054403739870991424e-01,9.866948657430568703e-02,-1.327717558540404130e-01,-6.588104985058523821e-02,6.115759306524241184e-02,-1.338581532494749482e-02,7.456459831035396058e-02,3.526478186527487457e-02,-1.107185911884072393e-01,4.526181268501230925e-02,-1.005574068489321210e-01,7.921920702958949734e-02,-4.626526433811546657e-02,-4.695647440373832554e-02,1.010415253259522583e-01,3.747884552716140155e-02,-3.540501848650112748e-02,-6.454776451717128549e-02,3.092654964968626075e-02,-1.230487126634182554e-01,1.138972559834793008e-01,1.254898589714458224e-01,-1.352706596032267061e-01,8.926396905639186197e-02,1.095835604746438069e-01,-1.763916726812006786e-01,1.387388450338733759e-01,-8.841138775848204900e-02,4.643718081955008209e-02
-1.439916973201792738e-01,1.225474157461030472e-01,-2.689338733754105884e-02,-1.023042606332889848e-02,-1.218815824752854660e-01,-4.277049792922140575e-02,9.503606248764759346e-02,-1.044235713181901198e-01,-1.296262689059650974e-01,-1.193268863946675834e-01,-1.688224500485658031e-01,-1.208859791836464359e-01,-7.104303512697672475e-04,-1.402318216225656722e-01,1.006303536389321768e-01,1.251892660588355688e-01,8.499211905487794039e-02,-4.004410072487028099e-02,-1.127950065220529596e-01,4.593594291015133321e-03,5.064777327697029402e-02,-7.337664468432279763e-02,-4.724568711358852202e-02,1.277176781735900601e-01,-8.149810127773367274e-02,1.193198539539429420e-01,1.686149757877423994e-01,-8.696538155353607247e-02,-6.643897737701257022e-02,-2.889797144236102427e-02,-4.699605831533765210e-02,1.701565476839459606e-02,5.499577175745377217e-02,-7.386852513059090353e-02,1.520403876525131259e-01,-8.061649583145784337e-02,-1.389052972646762640e-01,8.962834479194196902e-02,9.659885412578815556e-02,-1.444647910622005593e-01,-1.017279686775369729e-01,-1.241110481447175728e-01,-6.485552770892726027e-02,-9.202518968927821119e-02,9.710480639269863934e-02,6.017829865843193904e-02,9.785486239333243685e-03,9.683709297543349748e-02,-1.133677640390410996e-01,-1.479207910509606205e-01
