-2.946105546828038158e+00,3.431633603546273559e-01,-1.817016950245897045e+00,6.168160008588435161e+00,1.134610709694604813e-01,-6.718288489264065966e-01,-4.298468544130615854e-01,6.832286691696553005e-01,-1.842048510766595593e+00,6.690962894283393192e-01
-4.084171310035538127e-01,-9.195901032925931640e-01,-1.308161775398975823e+00,-4.296800714146343791e-01,-1.403716051176487900e+00,3.514396179934249353e-01,3.238580106589911800e+00,-6.908852594188341634e-01,1.349294356631186131e+00,1.095300664812498721e-02
9.149446455221152963e-01,-5.296375893957060849e-02,-1.057099972249525344e+00,-7.027430068381457229e-01,-5.641312824520143820e-01,3.016453282563257954e+00,1.093474139344669860e+00,2.269304328814592542e-01,-2.892016357792893011e+00,1.107088283009019375e-01
-1.216628117243307994e-01,-4.055504710610873809e-01,6.960702879296908063e-02,-5.714500483270399528e-02,-2.805011588314948456e-01,6.320814298905237383e-01,-3.967319695728410145e-01,7.737922556273143515e-01,9.223772976481507679e-02,-1.458394507038556498e-01
4.960837569532579594e-01,-1.138447594129246898e+00,6.295634463020917337e+00,-1.738035818525777598e+00,-1.601725473086721419e+00,-7.437869557198533155e-01,-1.680693745480956292e+00,2.282898359133738175e+00,-7.364997604176791723e-01,-1.219560643470209094e+00
3.469657381769173377e+00,-1.011230187897857874e-01,7.346899223554377301e-01,4.329865658441148235e-02,-5.666882022628513260e-01,-1.690232850946090881e+00,-1.251957548319841962e+00,-2.526875412538228671e-01,-6.466508840524232138e-02,-2.677536419187473427e-01
1.017688172069583397e+00,2.563535760143381137e-01,-3.832806314219526778e-01,-1.425433002677780614e+00,-2.299091435675517658e+00,6.111797593864628730e+00,-8.390668417291308190e-01,-1.320212702249225600e+00,-1.379523987694359022e+00,3.765606916739868693e-01
1.189412620856899472e-01,5.218795223939569627e-01,5.219594790751533875e-01,-4.905657462033888860e-01,-5.605589938322649290e-01,-4.482886280825918585e-02,1.361575532584904824e+00,-7.914211524411939314e-01,-8.517307550680996986e-01,2.573581212489065712e-02
-3.760608957299669819e-01,-8.647911157315633091e-01,-5.322589518076527026e-01,5.851001608827492984e-01,4.350315590137709409e-01,6.822696672664613216e-01,-1.452163332343867630e-01,7.384082965893916217e+00,1.103999412207035125e-01,-6.540161052268660846e+00
3.200621688130368403e-01,-2.331220001726121982e-01,1.307720964481012382e+00,-6.122572835631298060e-01,-4.312812596773061835e-01,-7.523942656010078334e-02,3.021013466465140573e-01,-1.704472989278024986e-01,1.350402502512345893e-01,-8.885538940097617022e-01
-1.129868067636280865e-01,-2.489500078091367585e-01,-9.155335859632894868e-01,-7.449648196598577243e-01,1.399499295500374441e+00,-3.393357797001621962e-02,-1.325863583399528922e+00,-3.101024222306958844e+00,-1.502231977016233122e+00,6.562425580919525991e+00
-1.761068320300139267e-01,-2.312544889354099520e-01,-2.951408647764416915e-01,6.240217096592326484e-01,4.203048692670369735e-01,3.082549114381142319e-01,4.707056188085820825e-01,-4.546925604117418307e-01,4.029563891184949342e-02,-3.732785450303101604e-01
-1.237956573147109385e+00,2.908916354272906291e-01,4.758157714022991591e+00,1.110927480696448644e+00,-1.099444337096168178e+00,1.491899999832154156e-01,-1.177947327443818609e-01,-1.745052139361963794e+00,-8.436959234909338079e-01,-8.655952843076935022e-01
-1.548422676434191569e-01,-1.724343577506274872e-01,-5.869318644941178276e-01,-1.838238911417641175e+00,6.946336400675438227e+00,1.759367109373811966e-01,9.654560339883261344e-01,-1.425869242205163756e+00,-7.364592471468197621e-01,-3.459338111905829294e+00
-7.971785196705681864e-01,8.041460016411317469e+00,-1.085067716412665861e+00,-1.373158216404112064e+00,-8.969173075220617797e-01,-1.303549618514134867e+00,-1.052698451425458481e+00,-9.882379046541618361e-01,-1.591164966969346173e+00,8.326852892596651179e-01
2.578263803449645231e+00,-1.383524839380820548e-01,5.926322857604816863e-02,-3.134577071759720446e-01,8.000329547352323656e-02,-1.550209109129272900e+00,7.661562230677847474e-01,-7.335479929454550296e-01,-5.890423911023405790e-01,3.306540974390955734e-01
-1.626977823838141601e+00,-7.710879169830920921e-01,-1.827254176920606765e+00,-4.515460271421012362e-01,-3.367470386830546114e-01,1.185284634718568597e+00,9.425716500617549176e-01,6.277362148789708662e+00,-5.585085533063914864e-01,-3.136722323147383751e+00
-2.663253588954551665e-01,-1.172966469268812567e-01,2.573034479758545823e-01,8.185531799107824691e-01,-1.867812301029470609e-03,-3.651822481303517165e-01,1.289033328638521936e-01,-3.034874792161407556e-02,-1.941242003827084173e-01,-1.072614185205557763e-01
-1.480396404608352867e+00,-1.016106856629843541e-01,-5.039623356108278163e-01,6.231411433389953958e-01,-5.247206147629591699e-01,4.266415110565488611e+00,-2.723475599276892756e-01,-1.081380184870954775e+00,-1.034565094677030173e+00,4.153318319854501506e-01
-2.317649252714960514e-02,1.631311682448817468e-01,-7.232428354555348049e-02,-2.508594545318574287e+00,-9.614274050527865656e-01,9.370613652296539087e+00,-1.745931573178848062e+00,-1.005218313214309322e+00,-3.175116321706856759e+00,7.594157777354271222e-02
7.205200189850736736e-01,-1.073380416758208611e+00,-2.192671388518076192e+00,-3.416423746020686575e-02,-1.973908097057682776e+00,2.381719048798600358e-01,-3.716643100219942930e-01,7.387476399348543055e+00,-1.069877060972031391e+00,-1.575789346097168586e+00
5.914591446929341467e-01,9.874509768718974234e-01,-4.696493306770716525e-01,6.897017909068190455e+00,6.661126394606862178e-01,-2.292481476901948145e+00,-1.416156260931664024e+00,-4.393199324093637892e-01,-3.553817094463548543e+00,-8.053325474919401650e-01
-2.204170997620268913e-01,-4.781010007009574986e-02,-7.122570857306560754e-02,1.760364303605326669e-02,-1.189188827497800333e-01,1.426069058132585499e-01,-3.856735237390192528e-01,1.289599594996849452e-01,3.011853217659818394e-01,2.112066099032009481e-01
-1.113107126022131466e+00,-3.481538635837727047e-01,-7.910879886795812999e-01,-4.932222609568937544e-01,1.526865483168527438e-01,-2.712786831651048391e-01,2.531217385590001645e-01,-1.279956402769368180e-02,-2.152219065653860619e-01,2.858445580008928122e+00
-1.716532907211919978e+00,-7.337108565042894659e-01,-7.691718379075844769e-01,-8.861113922004556498e-01,6.310674917226488212e+00,1.497191643784884896e+00,-2.941753262053340978e-01,-2.829956865285739309e-01,-4.092163865942170520e-01,-2.727729884063761379e+00
1.669469948379688762e-01,-4.944074871333293264e-01,-2.021641362214919191e+00,2.264433219452405055e+00,1.008191272126165716e-01,2.712166085623851294e-02,1.124475993333305321e-02,1.398867981821520390e+00,-1.351755877112262860e+00,-2.269222846546238292e-01
-1.972248938390611661e-01,2.079931026855737775e-01,1.235210683889216732e+00,-5.179717077134977643e-01,-3.244572416942015924e-01,-1.752481594311350033e-01,2.669924964376648585e-02,-3.735903501849432429e-01,-2.459330778784076244e-01,-1.003230711782275852e-01
-1.231283397898002147e-01,-1.746016722110840913e+00,-9.343069737719151835e-01,1.360596659842406853e+00,4.113365720349657195e+00,-8.905511642735380873e-01,-1.301256933708289543e+00,-5.877836619363843162e-01,-4.691729417695712279e+00,4.506106524576337868e+00
-5.096637385179704216e-01,-8.047681311120913339e-02,-2.244836226708460114e-01,-2.174643140669122732e-01,2.368986056149171848e-01,1.253871119520155952e+00,-3.185158405834008777e-01,-1.885213903407756131e-01,1.268641377527049974e-01,-2.527036022032405974e-02
-9.782374737997619196e-02,-8.158815634428753794e-02,4.110736976023589284e-02,-4.358829735909557079e-02,3.293843606637480298e-02,6.493925807285676199e-02,7.398049516323093600e-02,-4.337416819784351701e-02,1.412634332911309465e-01,2.386591989011881410e-01
-3.210330347493478564e-01,7.221552181912120894e+00,-1.938984202552361147e+00,-2.922368248455679218e+00,-2.696529809943652434e-01,4.803061225217636343e-02,-1.290744397041255098e+00,2.512546667084970542e-01,-8.099161085592042619e-01,-4.215714018862636303e-01
-6.945053156880254264e-01,-1.092571235633452709e+00,-1.078766669179667792e+00,-1.067710175174795273e+00,-3.146756638323343847e+00,8.689766932027978896e+00,5.290099339320915306e-02,-1.025274160142850777e+00,4.425958771198163638e-02,-7.320024653886982868e-01
2.958431963883292326e-01,-1.082487761482041178e+00,3.924804970026324558e+00,-7.524572889923961672e-01,1.443983625742399357e-01,7.612989493122028772e-01,-7.209659040371675376e-01,-7.700252791659988327e-01,-1.154894772047287299e+00,-7.558202313655112414e-01
2.012341346267961795e-01,-1.451201462900791328e-01,5.389212521479968404e-02,1.171769621576566611e-01,-2.812394061089217856e-01,-5.885466624488930876e-01,6.108429886351368632e-02,-1.356922342133093096e-01,5.910323516547321132e-01,1.052141289347185010e-01
9.925532351042744006e-01,-4.719071842990353316e-01,-8.106600056119966924e-01,-6.327582609349864384e-01,-2.308631696855253379e-01,4.311453966827522716e-02,3.731343077896766558e-01,-1.457901831924109382e-01,5.814094090600763209e-01,1.593881398180846398e-01
-1.228834926989332693e-01,3.595399956363767746e+00,-9.699798261088228291e-01,-6.863811629590782504e-01,-3.440709892120732971e-01,-4.365141339877500748e-01,-7.061180710643122360e-01,7.424437631540042881e-02,-6.512338088345582809e-01,3.029604840574192659e-01
-2.109002572280885002e-01,7.242422828232944809e+00,-1.666194405723273819e+00,-8.273418392868832072e-01,3.122963972088927398e-01,9.171599024822109369e-02,5.756616220563136321e-02,8.652312520859692935e-01,-5.297357524138256224e+00,-4.921057789234475344e-01
-4.191065040810731945e-01,-1.533114665039631674e+00,-3.655593270963845010e-01,-2.219328879499745888e+00,2.819543529199215470e+00,-4.433423144316907261e-02,-7.876759447303151029e-01,1.217718617076989807e+00,-1.995770486533693822e+00,3.749692787393346993e+00
-9.333319313741075818e-02,5.872199229032434076e+00,6.952367846390882233e-01,-1.793961099655419833e+00,-4.371394373165699565e-01,1.737362032800864389e-02,-1.776656615501980563e-01,-9.892878678191132646e-01,-3.590894072019904293e+00,-1.274009293920871089e-01
9.136341155726900309e-01,5.831099016954979231e-01,-2.788302794154594588e-01,2.059927338988375656e+00,-1.526763499247465239e+00,1.072247117443178910e+00,-1.101681195929096191e+00,2.727898209724753942e-01,-5.310818862926022232e-01,-1.445503053369662005e+00
-9.927562532717995047e-01,-7.347204012651359362e-01,-7.079663349576420517e-01,5.053100657978784049e+00,-1.432746139303239907e+00,-6.211247750307716253e-02,1.841870565457240372e-01,4.198162981365198831e-01,-1.200093821701221364e+00,-1.012027430187325550e+00
-1.662200530329960291e+00,-1.471274335704577663e+00,-2.953718341482356013e+00,-2.493228377013086305e+00,-5.575576979386519527e-01,-6.586378072943438466e-01,4.277318594765472382e-01,6.573617627400944130e+00,6.976731472688598723e-01,1.712654385939077484e+00
7.458080215575008109e-01,-1.406288789800262118e-01,-2.292549802799479508e-01,-2.316164852156137599e-01,-2.853768746833745817e-01,1.883721151514735348e-01,8.219374971454298517e-01,-2.286221175699176822e-01,9.390231039188330284e-03,-4.412918483562727756e-01
8.010709671924364228e-01,3.676571107799122551e-01,-1.000569147334255060e+00,-5.415265819234484912e-01,-1.625508936064912424e+00,9.055219665177238753e-01,3.887510341032898720e-02,-2.163001796513464914e+00,3.619243026021571996e+00,-3.783819335062287292e-01
7.767152615927199744e-01,-1.786712343619604182e-01,-3.920694682313422774e+00,-1.067003058126187121e+00,-4.051634012848529309e+00,2.108766690508295238e-01,1.314139197400112202e+01,-1.140203169051204224e+00,-3.283813499817397563e+00,-4.385455223161814908e-01
2.034806114710315139e+00,-8.239308912474871960e-01,-5.605709073858227143e-01,-4.882592150199630554e-01,-5.817014274364472326e-02,-3.162358047189058330e-01,3.956172433299680602e-01,-2.122400016540682277e-01,-4.131831499614359582e-01,6.094287537486757778e-01
1.012355942936305198e+01,2.076192263063672272e-01,-1.185674119123756864e-01,-2.143306600957882946e+00,4.308257651230748553e-01,-1.625975412645951135e+00,-3.658802284992234366e+00,1.885520591405150714e+00,-4.611101066632326884e+00,-5.996637735106952194e-01
-1.660970763672692918e+00,-7.401904467417337319e-01,5.155505876833188950e+00,3.797882660123431675e-01,-7.322703136146495595e-01,-2.315615990711850647e-01,2.827332710790456671e-01,-1.369264583568015725e+00,-1.630854234655648050e+00,2.609592588268662694e-01
-2.270005072812598002e+00,-6.525485170315515893e-01,8.767550932945955111e+00,-6.329374838671811832e-01,-1.159880593168817642e+00,1.347822493204707150e+00,-8.095219395256105788e-01,-8.224536918804180585e-01,-1.556191979552742133e+00,-2.210006109187105938e+00
-2.968278713907167354e+00,-4.059111361203384116e-01,-8.779010331731440520e-02,1.387450885247491161e+00,7.803508327933192490e+00,2.712553955505938141e+00,-6.378048017025991223e-01,-4.465450141788105953e-01,3.365465329754049190e-02,-7.669822318575169717e+00
