-4.388065236635352306e-01,-4.032363391959371129e-02,8.326447987468517109e-01,-3.450384848950227568e-01,-9.942599097162032606e-01,-5.156185723224577799e-01,1.452870853147715004e-02,-1.070381727762517610e+00,8.444681174778384536e-02,-1.085156984015894555e+00
-1.082949316301196507e+00,-1.258397145050620169e+00,-1.047838809042320518e+00,-1.038146851158905593e+00,-1.499093723436473624e+00,-1.061221103955998446e+00,-7.328254876449437072e-01,1.092569700322193471e-02,-1.546649977081846705e+00,1.040142837938972997e+00
-1.497311494251705177e+00,-1.681566764083312293e+00,-6.462826808936713574e-01,-1.016659180115429217e+00,8.317183634307839801e-01,-8.876678782654769950e-01,-2.099381407038667657e-01,-5.739684050936979531e-01,-1.488344964362117828e+00,-2.091646118238336793e+00
-1.305914804089217951e-01,-3.774904665231715861e-01,-4.425930495822029132e-01,1.055412522114590468e-01,-3.543439113380535410e-01,-8.356437495570032681e-01,-4.082559173909120487e-01,-2.159101819548760182e-01,2.427542360994158419e-02,-5.790045107646880213e-02
1.196750153127910388e-01,-1.404456747415552542e-01,5.161958708171957705e-02,9.844249395474011233e-02,-4.771278451143943361e-02,-9.280238937708125413e-02,1.489356086324862549e-01,-5.843026550186463525e-02,-2.991730559565616496e-02,1.680822646997563036e-02
-3.239432086353171147e-01,-2.468589672170706240e-01,-4.874748443011692745e-01,-2.292111195678805668e-01,9.357189885584535904e-01,6.784595415278468766e-02,-1.678781809194931918e-02,-2.707197713313061471e-01,-2.213361919742693196e-01,-5.601149650676165992e-01
-3.480141604389119236e-01,-4.070646500577704829e-01,-1.369613764339038031e+00,-9.868299786859053846e-01,-9.487886500126674338e-01,-2.644100577027820934e-02,-5.987971223465099468e-01,-2.838005864984646243e-01,-5.746146415935985408e-01,4.555676639746689127e-01
5.949446631668473540e-01,-3.710730543321399399e-01,2.202640749880083459e-01,-2.930471880476465119e-01,-1.027418866016975407e+00,-5.639679000625745786e-01,-7.642961895418868279e-01,-2.441546401423655865e+00,-7.362389660345285414e-01,-9.334111542126642957e-01
-1.465714656939568927e+00,-4.298193907109421064e-01,1.306378769326602018e+00,-9.277550580712889960e-01,4.760652355355721871e-02,-5.405780913924806974e-01,-4.694954839084957143e-01,-1.464886728753399980e+00,-8.074176305546182375e-01,4.519381125432058166e-01
-7.906199920727914332e-01,-4.045859436948216481e-01,-3.736740483741787244e-01,-8.221807983414376464e-01,-7.350185109139896478e-02,-8.596623680977756310e-01,6.263729200976103639e-01,1.042384964511892248e-02,-2.291634929658369624e-01,-8.371370818669651159e-01
5.404476374492234170e-01,-6.640998436411943429e-01,-4.897436128440332270e-01,-4.844941122946213041e-01,-6.510879146508038451e-01,-9.881509507074115461e-01,-1.120122334002002562e+00,7.131631767074101402e-01,-9.805875194332824840e-01,-7.454559789570743833e-01
-8.285033224341068481e-01,-8.865014077494441924e-01,-4.659924024294357370e-01,-5.920342719121270969e-01,-7.209422974655250727e-01,-4.509521717239137195e-01,-7.985002423513573033e-01,-1.225995958323056634e+00,4.810484180946626720e-02,-1.090773661051316068e-01
-7.416741338320048671e-01,-5.299455454428577683e-01,-7.664512338493867372e-01,-4.064575848580554429e-01,-1.198721986510641768e+00,-8.640254614967644020e-01,-3.007026602853336006e-01,-1.376801695617535071e+00,5.701986676679009491e-01,-1.378012010947001320e+00
-1.726880615524142293e+00,-1.252011707393034801e+00,1.903347835126911969e+00,-1.410478608819559998e+00,-6.917763101100402601e-01,-1.907170772123467639e-01,-6.243190596250397517e-01,-1.067382598742881550e+00,-1.734598300455173714e+00,-8.483320287078918165e-01
-5.219545551664087624e-01,-2.068048600793174485e-01,-1.355224616293297935e+00,-1.530122017873412510e+00,-2.137974172139597062e+00,2.478765492186764785e+00,-2.986219593211117754e-02,-8.437947101622079726e-01,-5.031188053742701172e-01,-5.553342221065011852e-01
2.357571389943275419e-01,-1.160624866897297380e-01,1.927648106541819395e-01,-4.100900639669520509e-02,2.112036165234409610e-02,1.397156739050862129e-01,1.594258672445032429e-02,-5.499476965526343963e-02,-1.122411549155768185e-01,-9.732268861056075915e-03
-7.446405368227132504e-01,8.359670093757476383e-01,-1.140374984119685964e+00,1.298993691902828873e+00,-5.310119445506706892e-01,-1.317157064075863193e+00,-1.201933788959774985e+00,-5.328472490054079191e-01,-7.225409820334012245e-01,-6.895407159601987246e-01
1.994912123295042028e-01,-7.281495710651726405e-01,-1.784033832218596682e+00,1.124107813154919949e-01,-1.009075405216827814e+00,-1.527444235779553128e-01,-7.404280280030327566e-01,1.300095521299253321e+00,-1.626665829192884605e+00,-1.959152364051888195e+00
-1.205466749923392644e+00,-1.777773423096616068e-01,-5.012497574014188606e-01,7.921696478493795990e-01,-3.289858528584248543e-01,-1.026533183237846591e+00,-8.138996812234113865e-01,-8.752449613028467912e-01,7.857508639946702012e-01,-4.343698501748666785e-01
2.577880745108672156e-01,-4.917364308149778721e-03,5.930417969337909573e-02,-1.019290253020932041e-01,-1.918681739954481921e-02,-2.682681793659395519e-01,-2.089484546784243363e-02,-1.879435921714344426e-01,-8.780622661952755537e-02,-8.180858945847711838e-02
-8.529630907799636841e-01,-7.755493702555454893e-01,-1.092055058720976746e+00,-8.265262888170603617e-01,-8.000287689143830150e-01,-9.842276988493575685e-01,1.380980199682470211e+00,-4.723946864757207487e-01,-1.112090698771479591e+00,-6.180994090386379147e-01
-5.358260028647935380e-01,-3.825664515515310171e-01,-1.210834259692882137e-01,-2.106156435736786126e+00,-9.297089714622722156e-02,-1.486221885614757099e+00,-7.881977562658110115e-01,-9.207160547827697439e-01,-1.049670853960239070e+00,8.689307086553132997e-01
-6.507178974542370264e-01,-7.520543695461215927e-01,1.082021299266990422e+00,1.771998722828206918e-01,-1.003712527584535552e+00,-1.135984314333760681e+00,-1.494045423242015280e+00,8.705594857910496920e-01,-1.005374248254788272e+00,-2.303582375097802615e+00
-4.769062705715809702e-02,3.877793630197798325e-02,2.913137387081175811e-02,-1.105318452624796666e-01,-5.208633586417173861e-02,-5.863059667658607199e-02,3.176635036640710480e-02,5.213383554931445840e-02,-7.866069477850139158e-02,8.109471142722997350e-02
-1.729421652763462880e-01,1.992683411031641316e-01,4.054258384623605355e-02,-6.984636339788947990e-02,2.014900707773018274e-01,-3.906871196314731093e-02,-1.505829322406843085e-01,-2.923359464079076236e-02,1.180830518480034674e-01,-6.137145786018526061e-02
-2.087280353009016709e-01,3.256644496833870084e-02,-6.575890850090451156e-01,-6.688244501922138152e-01,-9.686381299131914258e-01,1.503450183800926765e-01,2.092282072929007031e-01,-8.454771717957433319e-01,-1.168649588156075003e+00,-2.385498871683133237e-01
1.850005754888666365e+00,-4.670108867913512762e-01,-1.379269170703891545e+00,-1.358401767615795785e+00,-7.540437058819664529e-01,-1.701162610626103744e+00,-7.612601259648427154e-01,-1.551787243514051728e-01,-1.184650229065457028e+00,2.981749338353562595e-01
6.576495202057482947e-01,-6.200402083768534744e-01,-5.067486500500694158e-01,-1.181883665588240317e+00,-3.764420308513283797e-01,-1.042134701519190410e+00,-2.274300756848180172e-01,-1.013426325031665964e+00,1.555650725665722156e+00,-1.175336578488222816e+00
-4.637925504621170925e-01,1.863806312112779168e-02,1.130566011654361713e-02,-1.074013633001732027e+00,-4.017854640096699681e-01,-1.250965871066723523e+00,-2.361056006365085669e-01,-3.615647984303933526e-01,-1.364787508575272978e+00,-1.411034178712589293e+00
-9.734203947714887839e-01,-1.023036672594716201e+00,-2.965118379903011192e-01,7.636994348615985251e-01,-5.824994923603099561e-01,-5.829966270145060525e-01,-1.384186511729578406e+00,-9.358973448254983563e-01,-1.161636018777113089e+00,-8.996298495481682700e-01
-1.201035935776809671e+00,-8.116667190875205273e-01,-9.406185272665437136e-01,1.093805563208206377e-01,3.334204351006991307e-01,6.830928243807244948e-01,-1.456407312645661589e+00,-9.686292215772605019e-01,-9.476548104609353596e-01,-3.056925968272146688e-01
-8.288784284312021855e-01,-1.630948654012580601e-01,-1.227656568749950772e+00,7.967750945074871805e-01,-4.083112800728729286e-01,-1.077695778153427542e+00,-6.803782082594518332e-01,-5.798094585020787672e-01,-7.570840357264426723e-01,1.315207828095049658e-01
-1.973164678874234912e-01,9.169954052659106125e-01,-1.267452559904290954e+00,-1.588540806306323772e+00,3.174128878335679554e-02,-1.173270426933829658e+00,-8.614194495377525129e-01,1.449380275560450126e-01,-7.227039623655083789e-01,-1.275497616881118068e+00
-4.413343993994154890e-01,-1.123052688585510106e+00,-9.120186645353637322e-01,-7.927840471655867027e-01,-2.487410600450540299e-01,-8.809271054399399337e-02,-4.865771977139709929e-03,-1.257420703390699501e-01,4.069132257689108134e-01,-8.208425791947767669e-01
-1.833437376668068941e-01,4.162470638324215488e-01,-2.030632930564584826e-01,-2.546090092071314759e-01,-7.010633619564672625e-02,-1.134770102376308210e-01,-1.344137198499229524e-01,3.865255604237456677e-02,-3.688650784223267975e-01,-3.090349445825531505e-01
2.905691964703095709e-02,-6.205014563517137205e-01,-9.395027291502496825e-01,-6.875779377748865162e-01,1.520570172779124318e-01,6.535863349919123211e-01,1.196193724216354060e+00,-2.172050519053852491e-01,-4.549287895373622104e-01,-4.454304182246620059e-01
-2.314673097285562253e-01,2.075192379291478151e+00,-1.461884337533567280e+00,-5.870475039625523417e-01,-8.173982527626950934e-02,-7.348200209280760786e-01,-8.515276806234429730e-01,-8.064613653946074434e-01,-1.726031344576917537e+00,1.711822684324953436e-01
1.871237579647033966e+00,-9.437730380874017611e-01,-3.875404134198804917e-01,-1.612320450626661517e+00,-7.745023674259676749e-01,-1.927940257627497322e+00,6.659359778076240355e-02,-1.613822588203767561e+00,-1.130253159788595196e+00,-1.247455906188201652e-01
-1.323052795351869815e+00,-8.217544932145796066e-01,-1.534328935144091854e+00,-5.038318979095447459e-01,4.028104087003169659e-02,-1.354260812787368318e+00,-8.607223508729016093e-01,2.369156814709115488e-01,-1.002160941649664405e+00,9.303434291427069291e-02
-8.976942332034774930e-02,8.344431139682731424e-02,8.189812215182357136e-02,5.596706078393857715e-04,3.506770677018899995e-02,-7.482175762954809684e-02,4.431136948815023180e-02,5.953539427925146066e-02,2.695201903708612304e-02,1.150420262948309014e-01
-1.749602604307697540e+00,-1.079075208323227120e+00,-7.891064773939377996e-01,-1.250237259623480091e+00,-1.230432639142720275e+00,-5.752276824649972253e-01,-3.440465002876215150e-01,1.237336896721883628e+00,-1.161527449462345318e+00,-2.167318551147809913e+00
5.170304826333096404e-01,-4.187720928996431224e-01,-2.952064525491099878e-01,-7.966130930315171721e-01,4.763853723047016819e-01,-3.306682628215300568e-01,-7.528548173707010349e-01,6.246403481197177615e-02,-6.314661299663165694e-01,-4.138453983357521238e-01
-1.313117969874365798e+00,-7.804269523209421688e-01,-1.656182121407606012e+00,-2.914524721904360738e-01,-2.230373208101332327e+00,-1.248569286341156825e+00,1.704216335139637106e+00,-3.305319590942722430e-01,-1.330375200719099649e+00,-1.030902401510592981e+00
-4.437846753447054482e-01,-2.878603754634233014e-01,-6.771437348619953056e-01,-1.993606112606540304e+00,-9.787820846018330245e-01,2.665083603924269351e+00,-1.396552044518421187e+00,-6.586195788836960441e-01,-1.485048248834333062e+00,-9.103291464465450566e-01
1.707354606461068680e-01,1.324524681744202015e+00,-7.290881916564418974e-01,-1.060059735792663882e-01,-3.784236419566439774e-02,-9.359444189225467337e-02,-2.352723029099796151e-02,-1.443641010101162359e-01,-7.394465761882735855e-01,-1.484788830640512702e-01
-1.079653925057735553e-01,-7.785048502658128422e-01,-3.830597797153373896e-01,-2.167282732342575846e-01,-7.583707297049796514e-01,8.319391183208026952e-01,-1.023739979945967216e+00,-2.798691847211737804e-01,-1.294099055153070665e+00,-1.019379801402037350e-01
-1.142145313501398141e+00,-1.011244806808578423e+00,-7.983842867046463398e-01,-1.467813046266811305e+00,-4.827291938666504190e-01,-1.013949891133860470e+00,-1.259136235217234390e+00,-1.373497416058381937e+00,7.703041593474875270e-01,8.841455187460492415e-02
-1.324003847707527326e+00,-1.053859326240748073e+00,-9.051838853896541082e-01,1.272797487415086692e+00,-3.239268888129744339e-01,2.491099677719833816e-02,-1.179532778299664297e+00,-1.274266626783342682e+00,-1.711285883794587015e+00,-8.368024765349876271e-01
-5.965549728121760653e-01,-1.281634550552090301e+00,1.177532546443014638e+00,-1.100370608147077434e+00,-1.521864684711712545e+00,-5.739848340154377615e-01,4.510054303513751361e-01,-1.318726255591170071e+00,-4.424881693568485375e-01,-1.031246426844348196e+00
-1.943729245383074844e-01,1.285664466151222318e-01,-8.312155303365598158e-01,-5.296252453856463704e-01,1.257906753522926691e+00,-3.846274121888507147e-01,-5.298003386953643590e-01,-3.837450428715181161e-01,-5.658023885102834161e-01,-1.078608294934483958e+00
