-7.282237164059517376e-01,2.813375724468529793e-01,2.002251014318620737e+00,-1.240865679836807400e+00,-1.699736448325535276e+00,-7.103720379007657515e-01,-9.472156661015233015e-01,-1.778984172102131334e+00,3.332292244022500571e-01,-1.935360134911135344e+00
-1.940308474936430772e+00,-1.288592719456368663e+00,-2.860435502756824011e+00,-1.134710408929086256e+00,-1.703173984491322512e+00,-9.755268302101970379e-01,-1.362567398178236688e+00,4.097688097434744603e-01,-9.455760550666442166e-01,1.475462169069004181e+00
-1.835555504008697936e+00,-1.951090974249050758e+00,-6.807528791676644708e-01,-1.267415023947852326e+00,2.787252955020686151e+00,-5.760212572252870755e-01,-8.553095335030529434e-01,-2.528421651208955789e-01,-1.577849603484047458e+00,-3.520608793254270008e+00
-4.349337785414519875e-02,-6.361953690562937025e-01,-9.348928272639984716e-01,-7.064448952437559770e-01,-9.554565072178180518e-01,-1.029979199417938363e+00,-1.335783220760924594e+00,-7.671699572595633843e-01,-2.049243268236738413e-01,4.571416436090933871e-02
2.759308805279854782e-01,-1.957922836957466106e-01,8.596298113766626114e-02,5.947381168592028727e-02,-1.714982507172140846e-01,-1.873614742673899713e-01,1.216981995678433487e-01,-1.562499887423426936e-01,-1.039390900697825110e-01,4.026280871804745198e-02
-7.049603568267277520e-01,-3.062978119604745642e-01,-6.732471491060100233e-01,-3.374703913586450943e-01,2.083833671034629464e+00,-2.616359042109772659e-01,-2.756286618390090259e-01,-2.523009048671021604e-01,-4.984471078474863592e-01,-1.082103112227999375e+00
-6.953491105474673972e-01,-4.822835165625051213e-01,-2.019689452449226597e+00,-1.394724609345801669e+00,-1.328859365440311358e+00,-1.789090900737982104e-01,-9.212316483224766706e-02,-3.538778510208938077e-01,-8.449739260846472755e-01,1.347478827943065838e+00
-1.640552813558110723e-01,-2.243481248405257145e-01,6.269185804950690999e-01,7.201430174112524174e-01,-1.055965660065580680e+00,-5.200581806726675138e-01,-4.762585162517159465e-01,-3.819615430528097377e+00,-1.823544940543654569e+00,-8.581330685920887102e-01
-2.021988593707654935e+00,-8.972525592483602264e-01,9.282506377613548576e-01,-1.067072850900299574e+00,-1.795827947275814018e-01,-1.315368710864318613e+00,-1.011281919686078279e+00,-3.366844441345063110e+00,-1.916729315009893631e+00,9.112872923647473700e-01
-2.174302341715649067e+00,-1.092058898274224088e+00,-1.096967061651731967e+00,-1.194339629783592649e+00,4.681591959774947243e-01,-8.880396228989736462e-01,1.087155125053046012e+00,-1.556649714617456826e-01,-1.263458348762123373e+00,-1.093812573842415370e+00
1.080111929332195464e+00,-9.257543211182783782e-01,-1.878161264573100064e+00,-3.893705405514872320e-01,-7.980908714451247221e-02,-4.242435466824993617e-01,-1.631201658768088647e+00,-1.731661237633407568e-01,-1.540823147806926086e+00,-1.837102069839452012e+00
-1.667950664295670515e+00,-4.182428351231653463e-01,6.740811304013419325e-02,-1.197315353332964349e+00,-5.470300214088638091e-01,6.918372306555277129e-01,-3.507203763639040739e-01,-1.379910308010719122e+00,3.185277670344451306e-01,-1.078586340966466439e+00
-4.010931897039829441e-01,-9.967704988841640246e-01,-4.732750630192811281e-01,-1.992217212855493358e+00,-1.314587627162949302e+00,-1.189751524040440822e+00,-1.152842045639245472e-01,-2.292364015334430238e+00,7.714349184038638008e-01,-1.770934926475573823e+00
-2.647217948625674833e+00,-1.476733456596844851e+00,2.425233307628672286e+00,-1.487162102958825560e+00,-7.149714815780217059e-01,-8.492935511565237461e-02,-1.634387200502117166e+00,-2.566088158405066988e+00,-3.447576498429790082e+00,-5.698026861048852698e-01
-7.421753284337462286e-01,-7.147883776104263509e-01,-1.590585843614870321e+00,-2.422594574511470977e+00,-2.694157718159431614e+00,3.044734061368817191e+00,-2.965180498394353603e-01,-1.366170121614719513e+00,-1.374765426272206881e+00,-4.189386123949532387e-02
1.212403726054024355e-01,-2.564579120479253960e-01,4.357618010120095087e-01,-7.089157100027309033e-01,4.127983174362288843e-02,-2.529292941292874408e-01,-2.257215172403095604e-01,-3.746952606418998966e-01,7.213860855854470518e-03,-3.927533368939209457e-02
-1.298481290301829016e+00,6.534583051086559902e-01,-5.778740699890755339e-01,2.412403897356622196e+00,-4.579981287074752494e-01,-2.548297005629356793e+00,-1.596556559531173258e+00,-1.428712892959884684e+00,-1.337867743576391044e+00,-1.106429640060211383e+00
-4.684597329451676284e-01,-6.209627753590640786e-01,-2.295139501842955898e+00,7.869526629437306742e-01,-1.906133598235016491e+00,-1.139783711616379147e+00,-9.382733768424740273e-01,3.422588425707273174e+00,-1.670620804730091447e+00,-2.424309180511730943e+00
-1.776215458997038255e+00,-6.351474487068705654e-01,2.021491937109605799e-02,5.166809603575038823e-01,-1.248232905518576130e+00,-1.890318483888495438e+00,-9.276969844781893793e-01,-1.335947298912222303e+00,7.177031251177081739e-01,-1.402132583992602211e+00
1.230472379151488493e-01,-9.098661126725841874e-02,1.777081114958826147e-01,1.099073728791764293e-01,-3.262918540756250541e-01,-4.259323044643186229e-01,-2.318495763549620337e-01,-6.373244547241365687e-01,-5.297212692380947469e-02,-7.658964797078969544e-02
-1.224537391125837038e+00,-1.587946415163431046e+00,-1.653058047030545819e+00,-1.018504679432244098e+00,-1.150628963010375205e+00,-1.555559750223894255e+00,2.301796521050953892e+00,-1.008218616754561703e+00,-1.479903678142729495e+00,-6.789382191442749903e-01
-6.730903271589011583e-01,-5.594444036126309250e-01,-2.474842148898497296e-01,-2.460716665204313536e+00,2.046041652836410804e-02,-1.824589292987971900e+00,-6.048643599102145885e-01,-1.502481227258116503e+00,-1.915953284530984790e+00,1.790642458318714825e+00
-1.293566370146050026e+00,-1.135763913407474623e+00,1.109164272851323130e+00,-8.840472756720555436e-01,-2.398175299678469763e+00,-8.648956899247182140e-01,-2.534029518078851684e+00,1.911328195004440733e+00,-2.251687067282638566e+00,-2.857410053753492107e+00
-4.804572727899222850e-02,3.881308312838091523e-02,2.913133661825538165e-02,-1.074441975397714272e-01,-5.018414459693992108e-02,-5.469864560464093167e-02,3.187946769275108727e-02,4.582251888303120330e-02,-7.882126997772261057e-02,8.566593518322536405e-02
-1.833686415381129697e-01,2.591311447620091024e-01,-1.083629741139077590e-01,-2.169982183290151967e-01,2.104006565625141933e-01,-6.391072752632362408e-02,-2.869890157959520960e-01,-1.487754880089002807e-01,2.067003003946126516e-01,-1.727369884576103187e-01
2.233200797231195689e-01,-2.125117359691502950e-01,-1.511471422566398770e+00,-4.184460111417004913e-01,-1.364309836059368175e+00,1.667092892191729181e+00,1.832742841756413998e-01,-3.875982661166209042e-01,-2.361477903839095838e+00,-4.718168693720407036e-01
3.028328242255159175e+00,-4.670880369210915206e-01,-2.108160403062024457e+00,-1.232746041667282855e+00,-9.650919002439481975e-01,-2.858443560978591425e+00,-1.683901336746155053e+00,-5.167865565983710274e-01,-1.719177588609232199e+00,1.192527558631461919e-02
4.724387355171779657e-01,-1.229716374030872084e+00,-6.621365485985084565e-01,-1.028764931539115191e+00,-1.049176430715804909e+00,-1.311660745365803571e+00,-2.717295037866910845e-01,-1.412331686780835316e+00,2.135561012791320490e+00,-1.594183915527541684e+00
-7.062220175242365228e-01,2.619458316701656631e-01,7.933166437169585361e-01,-1.844225523195763827e+00,-9.967873472863832962e-01,-1.515905055967165405e+00,-3.778807272292961095e-01,-1.395762395988868754e+00,-1.328431137309397991e+00,-9.488179435021371066e-01
-1.662147763053427818e+00,-2.034568114232542690e+00,-2.500297360102794464e+00,1.673018891703720090e+00,-1.040343598020392557e+00,-4.428553228432831612e-01,-1.930189225304245859e+00,-1.510961636850602474e+00,-2.107295470275865057e+00,-1.091686056690502227e+00
-1.852384897314584444e+00,-1.527839121284483070e+00,-3.377157348828014327e-01,-2.610750054051228508e-01,1.299714373017069935e+00,6.698451794365430922e-01,-1.891728901089743342e+00,-9.835409407378588043e-01,-1.189721867143885392e+00,-1.128746868504741041e+00
-1.029595163444240180e+00,-6.214881836649809310e-01,-2.129378461761493480e+00,2.071082448012899313e+00,-7.841531822795979600e-01,-1.997631356167395067e+00,-6.811156021466063804e-01,-5.338913024256149997e-01,-1.316776550736835638e+00,-3.705925852179088875e-01
-1.718756205267950032e-01,1.685267782089137301e+00,-1.603797970624306624e+00,-3.312535235828738323e+00,4.336509458791916738e-01,-1.198111777480792339e+00,-9.401813191201853215e-01,-2.009966319862709905e-01,-1.390504914679781878e+00,-2.059523800620850054e+00
-1.747322512482342161e-01,-1.114098608878957064e+00,-1.448544423821349847e+00,-1.479624696181487620e+00,8.082989910778913822e-01,5.961941715308164413e-01,4.133805910229161606e-02,4.413252932942988149e-01,1.041811083649227365e+00,-1.447982538894442062e+00
-5.148701541289404937e-02,6.098219171697789598e-01,-3.580765588867056981e-01,-3.573894361410457909e-01,3.569414688104482342e-02,-1.351880631879442130e-01,-2.599207406129343534e-01,-1.875205292616430874e-01,-4.684521868662481214e-01,-6.880147234308517934e-01
1.228423984662452284e-01,-1.376449916979937793e+00,-1.531312790362554743e+00,-1.648542814005923951e+00,1.052702093142865031e-01,4.728408677949436090e-02,1.705430159254959221e+00,-1.194598118769849143e-01,-1.312379690415945266e+00,-2.294018051997547825e-01
-2.316418671914068639e-01,3.131360298852101209e+00,-2.758989371078548913e+00,-1.215923070173125398e+00,-6.010931606671227057e-01,-4.762728356730868695e-01,-1.024299454904313400e+00,-1.457561395132237925e+00,-2.049588535959492308e+00,6.467991739333459611e-01
2.789683466413760637e+00,-1.049607436896558443e+00,-1.482216805727296194e+00,-1.220174352252153760e+00,-8.139073304281371213e-01,-2.723022815884298620e+00,-7.805462867673973459e-01,-1.921005292515061136e+00,-1.919720374378701244e+00,-7.886128889206641679e-01
-2.625804954589967544e+00,-9.433994900601836431e-01,-1.559225289783406465e+00,1.959552253827696877e-02,-3.023414626894294424e-02,-1.531148476902611355e+00,-1.567966370714410917e+00,9.472565586748933342e-01,-1.162209250814837835e+00,3.733931139337564042e-01
-1.010897646820124590e-01,8.344428438020976002e-02,8.586108483319977724e-02,2.823172730645913397e-02,3.506758057205652812e-02,-6.107003302570425396e-02,3.720219543849744709e-02,5.759743053638725907e-02,2.628193569335116747e-02,1.150420262945817396e-01
-1.693113663892900744e+00,-1.763750210408033148e+00,-1.564379961689287279e+00,-2.875113382430541709e+00,-1.983725910212187138e+00,-1.114105873157724025e+00,-1.771223104042355112e-01,3.305829830070495579e+00,-1.214401479522584149e+00,-4.326966063973617160e+00
1.754414141123144255e-01,-5.070068359253707690e-01,-1.412427072920581672e+00,-1.240401688387938961e+00,7.272057493099655101e-01,-9.771019822889385198e-01,-1.260034941336144021e+00,4.996988888864631329e-01,-2.514209155992511713e-01,-5.216725991027378884e-01
-1.938792717276659250e+00,-1.362734856840024600e+00,-2.818271124437264685e+00,-1.198751704095194492e+00,-3.726194006059444064e+00,-2.454693097329475382e+00,2.397627728839430539e+00,-2.284904028427150735e-01,-2.291142475723816574e+00,-1.358853688787338143e+00
-9.084048227807236531e-01,-2.755084948284132196e-01,-9.981674587477471494e-01,-4.064369002096006156e+00,-1.010846479416630972e+00,4.463984645302895515e+00,-1.237030056448581661e+00,-8.840661548021839788e-01,-3.325129983522484345e+00,-1.450348707176896346e+00
1.470782987056567237e-01,2.172491723162759403e+00,-6.180742965084001783e-01,-1.740395921054563866e-01,-1.083733956334037019e-01,-1.471709502929083035e-01,-2.353079531035977279e-02,-2.649873169981852294e-01,-1.668601690403429538e+00,-2.215970304605451302e-01
3.077073879575157322e-01,-1.106383363391429953e+00,-5.840932992352518838e-01,-7.338285230707045637e-01,-1.133326572448448033e+00,2.556852592813330105e+00,-1.421445296548861537e+00,-1.306871659761456028e-01,-1.257171447829620980e+00,-1.207392822524884224e+00
-1.370785079504314830e+00,-9.713935313335282373e-01,-2.066607757228684228e-01,-1.757225337849550595e+00,-5.539416748765936260e-01,-7.458107314488204853e-01,-2.074190009758639874e+00,-1.885547954503114854e+00,1.209909253664871231e+00,-6.910182309566126335e-01
-2.199962062777986116e+00,-1.429421416032588432e+00,-1.326473015265304589e+00,2.130636763112499832e+00,-1.033918948894975154e+00,3.249747139305432797e-01,-2.258730413961014261e+00,-1.891292426613618627e+00,-2.502895473284838079e+00,-9.796801853701403440e-01
-1.026732078719926999e+00,-1.515764497883901329e+00,2.324810163787025985e+00,-1.454331736903363481e+00,-2.420179079105182485e+00,-4.360857248652406093e-01,-8.761040482909848714e-01,-1.788777520710254088e+00,-1.264003902206008778e+00,-1.310391571061404248e+00
-3.860250439498175701e-01,2.544603180792516239e-01,-1.083161457507538561e+00,-8.041156045960274890e-01,2.636801570014148055e+00,-7.702814189529796352e-01,-6.055002269037940144e-01,-6.751889072444102746e-01,-1.352034653738480641e+00,-2.404108500586163988e+00
