-1.414109309441117901e+00,1.126199214280899641e-01,-3.271044187231421374e-02,2.446472518365029547e+00,-6.169907246452241423e-02,-1.476925304030727526e+00,-4.790476530242042674e-01,1.172881786682318905e+00,-2.737048005984770715e-01,2.764850422864311708e-01
-1.084011936382028030e-01,-3.629371207207221506e-01,-4.472588139891877645e-01,-1.120680285900291340e+00,-3.730713078332658639e-01,1.090731666731218130e+00,-4.271290031835691114e-01,8.925638804182790820e-02,1.594116668336690301e+00,-1.448103016869298487e-01
-7.103192555133416852e-02,3.008372511377380848e-02,-9.998798902288592583e-01,-8.903376099122251031e-01,4.446350854242296924e-01,1.806090746155812887e+00,1.502660065939530831e+00,2.102613361145498072e-01,-1.520448449778588618e+00,-4.184761329366353810e-01
-8.059816810053699321e-02,-4.055540128927465626e-01,6.960606347016333462e-02,-5.492385331792364739e-02,-2.805011665552293310e-01,6.077424200100207674e-01,-4.117261333735723894e-01,7.264378623817745462e-01,9.212347348244344369e-02,-1.023189077550851755e-01
-3.701534095781049138e-03,-3.397241935288439207e-01,2.911226445561068132e+00,-9.757296875198442354e-01,-3.229462331178969414e-01,-6.729357925135301954e-01,-1.403077953333457195e+00,2.462865813901299550e+00,-8.290816591204205332e-01,-6.110286179551314145e-01
1.469899674289251390e+00,-1.066388673012432370e-01,4.478506183551994591e-01,-3.519469916477444612e-03,-4.391319702521810919e-01,-1.973572671983296223e+00,-1.505229382084547207e-01,4.712586066152669173e-01,5.089585924814428453e-02,2.860192279664340864e-01
-9.114021159102951575e-02,9.671134832411951154e-02,-3.500230425074805640e-01,-1.605768194577382180e-01,-5.716012677524919816e-01,3.601484473152922305e+00,-4.534183976515356873e-01,-3.419370625697731869e-01,-1.313536364430220260e+00,-3.001712233422144105e-01
1.189412621148263211e-01,5.219480093955202182e-01,5.119337506945996763e-01,-4.905657462033884975e-01,-5.605554792964145827e-01,-4.482850456169246850e-02,1.351605970231405607e+00,-7.814607090226461938e-01,-8.517378305904923508e-01,3.570537514967139781e-02
-5.817660577677971068e-01,-8.767008473357708054e-01,-3.759647798037864530e-01,3.913016302466563179e-01,-1.234192271281125519e+00,5.255930771113875855e-01,-3.811060735200493682e-02,4.319160879995886049e+00,2.412189021580632975e-01,-1.632143980466139066e+00
3.200621688130368403e-01,-2.331220001726010127e-01,1.306310052226892893e+00,-6.122572739652302198e-01,-4.312812596773061835e-01,-7.523942656010078334e-02,3.021015348052567551e-01,-1.704472989278024986e-01,1.364509647487006649e-01,-8.885538940097617022e-01
-4.073217448362116411e-01,4.400566456779536617e-01,-5.928970054839856063e-01,-4.349782682861718097e-01,-1.674789826987666264e-01,-6.892042490050277470e-01,-2.704899595799629686e-01,7.224177398215585189e-02,-1.121740421876676885e+00,3.148248507637945171e+00
-1.727244584280003825e-01,-1.872326445802553196e-01,-2.893083805326072122e-01,5.287695240888493631e-01,4.047028679413877672e-01,4.522577897429541638e-01,2.703196036982050132e-01,-4.605146558121093747e-01,7.210998552929381855e-02,-2.852701747468202043e-01
-4.347495427788709010e-01,8.169925790149843436e-01,1.354966481518724564e+00,1.261087564847350184e-01,-7.853652199870543305e-01,5.310915873044773881e-03,-2.475560853969971387e-01,-2.446927663787674678e-01,-4.000153334140660877e-01,2.086280550459662930e-01
-1.454555023586199813e-01,1.523934191491587986e-01,-4.431524359629640530e-01,-7.005509401562183269e-01,3.342100888401307479e+00,-2.029254413948114108e-02,-2.587748603477542098e-01,-7.271048810443626609e-01,4.256554918102682661e-02,-1.528113549684561034e+00
-4.109746080122663736e-01,2.655909873409927346e+00,2.406722665514510473e-01,-7.178235306699761731e-01,5.434411599505877682e-02,-2.713023367643292993e-01,8.367771652640795810e-02,-4.287472941077059008e-01,-1.067404976608254952e+00,-3.521786222218447060e-01
1.349008688121936972e+00,-1.607883449386908747e-01,1.364549371157807611e+00,-4.388030119177061539e-01,5.467555333307241167e-02,-1.520782020680097713e+00,2.307322908965510899e-01,-7.140314706848880366e-01,-3.120230988113388282e-01,6.371930072383261701e-01
-1.152257691588630450e+00,-7.951890175506853842e-02,-4.539922724782419761e-01,-3.710316467073253022e-01,-1.517739949302492786e+00,7.633944829487473438e-01,9.423080158089173208e-01,2.150182611412870592e+00,-2.780687290948810064e-01,-3.069013456946270701e-01
-1.070159603198029968e-01,-2.400470740949350867e-01,2.004818241046696370e-01,2.831272340648769426e-01,8.483876509133461696e-02,-9.099590954122865893e-02,1.179204649384280185e-01,-9.858509572376743246e-02,8.083385069797822953e-02,-1.082045715456596835e-01
-4.641533723928140676e-01,-7.673779361091831452e-02,-3.970329914273947325e-01,2.502856706993090707e-01,-2.056139682672649127e-01,1.807432186191609169e+00,-2.215290157353063949e-01,-5.510195328823205285e-01,-1.162120566323626009e-01,2.804860798266000654e-01
1.509717461536889349e+00,6.582512984362922336e-03,-3.070037273695909175e-01,-1.241920372084146074e+00,-7.399551769666914969e-02,2.453383145881068206e+00,-7.691447688936455807e-01,-4.278005157327644491e-03,-9.968240682081912496e-01,-4.586191972218721102e-01
9.067508131429009577e-01,-4.221379148025715677e-01,-1.261732891073489515e+00,-1.378713882401028379e-01,-5.097605217067213701e-01,1.590431930277714234e-01,-3.479633437551856168e-01,2.511035527372796228e+00,-8.153593003779407988e-01,-2.729070725934238870e-02
-8.177688448608868566e-01,6.802025670458698714e-02,-1.119513579835992090e+00,3.096433273778978812e+00,2.482146733290797047e-01,4.841137288751338336e-02,-4.895621992370404185e-01,-4.088729300209156814e-01,-3.866824529663330789e-01,-7.339554256081542993e-02
-2.204658580903322285e-01,-4.659234968038859087e-02,-7.175711482987866263e-02,3.410003412040692183e-02,-1.194195340852232667e-01,1.131469908990392625e-01,-3.876713261248644904e-01,1.310062352247093054e-01,3.139634377875384907e-01,2.112066099031850719e-01
-6.975800704324662815e-01,-1.938240994192444722e-01,-1.036603982809093605e+00,-1.103300886734791320e+00,5.426637491824525261e-01,-3.115864405234919365e-01,-5.518597450057611403e-02,-2.258638190590444572e-01,-1.127697209715782800e-01,3.213433719152049228e+00
-2.630547697270293472e-01,6.206282527799527049e-01,4.609610651722531593e-01,-6.515138058370437690e-01,1.125270435870785013e+00,1.305683703341650626e+00,2.674087775956001112e-01,-3.380182341787481559e-01,-1.426069444359927108e+00,-1.113073696862247441e+00
-7.906365803074575371e-01,-3.346995280399066575e-01,7.667345713350597058e-02,1.134621751530958456e+00,-1.203397693307096949e-01,5.317430816510948510e-01,-4.620373095878508307e-01,1.973479476530417553e-01,-5.535160250404324023e-01,1.955497073366993521e-01
-1.986389037542129754e-01,2.126357889807516666e-01,1.063183245288904288e+00,-5.699868953092864787e-01,-1.943002741394785071e-01,-3.073702891834979023e-01,2.406794431148931435e-01,-3.834605209302607287e-01,-2.250879344025615569e-01,-1.024991253661681756e-01
-3.208523605367131770e-01,-4.091499483580447460e-01,-7.152878172215945130e-01,-3.028410287660072142e-01,3.033926539104583320e-01,-5.398895387501663201e-01,-2.958401685376331747e-01,-1.887948427907400362e+00,-7.624317135338321005e-01,4.636144041182853393e+00
-4.649650004289388461e-01,-8.671016864469464902e-02,-2.301170974529016255e-01,-3.625331781586812324e-02,1.888446432545026199e-01,9.798701194707062356e-01,-1.608211300642806152e-01,5.154346679168471217e-03,2.052579352996186934e-01,-3.470225469209731184e-01
-9.782377353780952189e-02,-8.149790492999969826e-02,4.099059956527584259e-02,-4.358871186728374009e-02,6.590811111684161117e-02,3.270904301631515076e-02,7.486409682976259694e-02,-4.327239402024873893e-02,1.411882929820023891e-01,2.370364628189588763e-01
-2.084833409294131468e-01,2.102795537672500270e+00,1.114840845314619910e+00,-1.693653847596116258e+00,-2.108341398432882902e-02,-1.255766224738528482e-02,-5.624247200409876468e-01,-1.867830069211493665e-02,-5.836988339073568843e-01,-5.704891769551083680e-01
1.053898120534916272e-01,-8.235754278773991244e-01,-4.692539747151565077e-01,-6.331835238815830547e-01,-9.580476819530320265e-01,4.083753770448713460e+00,5.781980305989831148e-02,-6.538200721089630907e-01,-1.800916932602800447e-01,-5.796501581633544120e-01
-1.145372728972744447e-01,-2.476278119125525923e-01,1.480629344665439273e+00,-6.379001317608660182e-01,1.166701461163672932e-01,2.870507804062087942e-01,-1.718225224009568564e-01,-3.125643895769268932e-01,-9.657685156856631037e-02,-4.136270498601793966e-01
2.263356929342944246e-01,1.334108268653018126e-01,-7.544826077151803312e-02,-1.364914027108505290e-01,-1.632515569948841949e-01,-5.947679436058309760e-02,-8.471541997568872440e-02,-1.610764205324344278e-01,1.630438723774197129e-01,1.367050155599573158e-01
5.953690568389730098e-01,-2.211601574232454348e-01,-8.734848890480670369e-02,-5.676313308621361298e-01,2.826054459263502641e-02,2.912501896593333583e-01,-7.129964257580899412e-02,-2.078463025200093239e-01,1.006666265841116119e-02,8.796029625308639244e-02
-1.397067764055388572e-01,1.282144327912841275e+00,3.746684158375072904e-02,2.623881133697292950e-02,-1.234453877566127067e-01,-4.209806843681106470e-01,-4.844494755987023837e-01,2.231744319103005081e-01,-3.904293765771560398e-01,4.541061983331380614e-02
-2.437438933126181984e-01,3.034824634446286140e+00,-1.296475148965304802e+00,-9.682807514258955361e-01,1.754554485990942048e-01,-8.334626460796555614e-02,-1.233554367188298834e-01,1.514073319431994857e+00,-2.133644590400025187e+00,1.998255076349704229e-01
-9.827476721526465786e-01,-1.528653859477608068e-01,-1.493144586613642799e+00,-8.408617387631623918e-01,6.785425572758273516e-01,4.922208158123552724e-01,-6.976081353360547022e-02,-1.018920084402510084e-01,5.807043000612304058e-03,2.886766684607807054e+00
-1.085008289723192604e-01,2.113332407932546619e+00,-6.836113836532203836e-01,-4.930131370670237656e-01,3.650097501140524003e-01,3.570599557483518649e-01,-2.510277358807698200e-01,-7.524568521472637661e-01,-1.025618674162694255e+00,-1.460461288028262472e-01
3.663188144536213414e-02,-4.923232378179536600e-02,-1.076899505059788265e+00,1.498922545575267939e+00,2.065589745750674722e-01,3.628009703454528889e-01,-3.032703257441451972e-01,-3.334831064176344562e-01,-3.732162243538478252e-01,4.903549383399424116e-02
-1.234382032871885304e+00,-3.753145349425624500e-01,-4.186092062257328328e-01,3.556165371152997245e+00,-2.530448568524963360e-01,-4.732928773170660408e-01,-1.127360180763902431e+00,1.208060268227579420e-01,-1.865017044289743464e-01,-9.378485010154255508e-02
-1.342146050309113159e+00,-6.229290637112970819e-01,-1.115521299508260400e+00,-1.205562326414441721e+00,4.517694420758826546e-01,-1.508067759991203738e-01,3.496272544124500725e-01,1.675742115411127164e+00,1.049661926753024943e+00,5.252247076122097402e-01
7.457495238726380427e-01,-1.406288789814636175e-01,-2.292549809516508663e-01,-2.316164852156137599e-01,-2.853768746854212779e-01,1.889377031223500036e-01,8.212428539466590793e-01,-2.285604672942802285e-01,9.516422208355189080e-03,-4.412921362131332348e-01
-1.981331820584307790e+00,4.553840548278825784e-01,1.731482879700280808e+00,-1.137816524652924155e+00,-2.638779371451971945e-01,9.752573264316967139e-01,-4.263478582761229818e-01,-1.679533111861660100e+00,2.552335147536458848e+00,-2.021723773964338722e-01
-1.251074832485137733e+00,-7.751933302213239729e-01,-7.055089107355011491e-01,-3.337692872080323947e-01,-1.009164948832284026e+00,1.678036077613322685e-01,5.277045332533758071e+00,-5.357755860695897487e-01,-3.492513271983210266e-01,-4.366919917351065883e-01
1.054108920889022194e+00,-2.189671080383530921e-01,2.358288989777423961e-02,-2.342711107412143723e-01,-4.978048288315650022e-02,-1.907959637777785766e-01,-1.776579095832475641e-01,-2.589840106256878771e-01,-1.944307570941323782e-01,4.144575310143989721e-01
3.420125022178174490e+00,2.044557352588626808e-01,-6.542226974358277269e-01,-1.502559326484039559e+00,-4.787398807665866340e-01,-2.434281562989180969e+00,-2.564199262118777578e-01,1.535145139822241545e+00,-3.871348332729614428e-01,4.437407914473689430e-01
-7.571391674265106619e-01,-2.640803301961614502e-01,1.486342815644481563e+00,5.581715994113040091e-01,-2.303836875236389137e-01,2.608971398289013921e-01,9.746861857628236550e-03,-6.523016304811084520e-01,-6.697672150733861018e-01,-2.761165461398611479e-02
-7.169283610965254683e-01,-8.974888471627152642e-01,2.369757747695786065e+00,8.412859045766343247e-01,-7.355420676019278625e-01,6.888718273638264611e-01,-7.303133885115565826e-01,2.154797094359090781e-01,-1.143729663623338055e+00,1.104351780485444551e-01
-7.356100337156072921e-01,-1.670308130845876982e-01,-3.702647673125821215e-01,3.350328596891451460e-01,2.343877936729516165e+00,1.765437236128689913e-01,5.116455353573680087e-01,6.795935288557691800e-01,-9.720403864300776187e-01,-2.080731849519040555e+00
