-2.880344569258416754e-01,5.026109996180847528e-01,5.263057134939993498e-01,4.323480373284430134e-01,-8.462482742471780783e-01,4.825904228312903887e-01,-2.822789337679364463e-01,-2.136373734956772130e-01,5.765928838425756764e-01,-9.956871090908954169e-01
-1.113114735758228419e-01,1.541324397600079832e-01,-1.335879265061464538e-01,-7.008735303564120334e-02,2.365751516041726676e-02,3.583356780425426824e-01,1.540176869361868373e-01,-4.645245059668427767e-02,-2.226843052833618886e-01,1.577852320836566069e-01
3.078339743515725035e-01,1.920665358264200817e-01,8.458828484685488869e-01,6.027369949437947350e-01,-1.060391270370698136e+00,3.382212575894311124e-01,-4.838718423936760327e-01,-1.865089593823884492e-02,3.153393226804398486e-01,-8.224462479171977813e-01
-3.726609459084013753e-01,9.327943042359335690e-01,6.018657527245064864e-01,-8.563607754140062367e-01,-1.688574881866387600e-01,6.563728295648142419e-01,-1.295252653045472491e-01,-1.934221255599795908e-01,-3.534243690417970818e-01,6.869712345483888760e-02
-7.053467467585831097e-01,-2.922142583711696551e-01,5.079528332537969204e-01,3.231328405782060154e-01,7.132837856425087164e-01,3.967802236652466785e-01,-8.246561564425057833e-01,-3.206940493947532667e-01,-4.372928455997129316e-01,9.847539967003458017e-01
-1.833055517634116505e-01,-3.467160523537783385e-03,4.946014108206350235e-01,8.428944692641152647e-01,-2.516465718676368368e-01,-2.161491589082501774e-01,-4.118498519197852925e-01,1.271859863335589758e+00,-3.122135120884876325e-01,-1.018863142210260309e+00
-4.632864472923755028e-01,3.479682133261712274e-01,4.565324817905811461e-01,-5.232933104678282321e-01,8.242514459742226185e-01,-9.522902966375619283e-01,-1.256534936884713627e+00,8.768451406268752413e-01,4.102554283115986689e-01,1.526601609987441877e-01
-5.238746984451680966e-01,6.013423919480378466e-01,1.063155716064355660e+00,1.513387762239063017e+00,-1.460494362987878381e+00,-3.769054426133021662e-01,-7.723857104213432967e-01,1.308382250021971727e+00,-4.392867976540613117e-01,-8.341753981766663051e-01
-6.891568763696382938e-01,3.681391447284130258e-01,-1.372803409043439060e-01,-7.960289209328627047e-01,1.033163023371736156e+00,-8.315518284523808479e-01,-3.722140798816717111e-01,1.245328766073852345e+00,-7.283208093996621502e-01,8.449369433020926801e-01
4.450266559188463811e-01,-1.164769764849034051e-01,-6.736591540125731470e-01,-5.181145493973085547e-02,-1.578107300904743604e-01,1.274553228245525416e+00,-9.372161913737953043e-02,-4.594722323745529802e-01,-2.230955447965802807e-01,2.879411219917711873e-01
2.374962468629085721e-01,-4.935634961503302942e-01,1.017164645292638614e+00,8.164869542924301227e-01,-7.534531558958061648e-02,-2.602541594312743345e-01,-5.338894041830184456e-01,-2.083144993924947175e-01,-4.155154732472298718e-01,-3.410380229305949307e-01
1.265535159839183410e-01,2.460238246752111391e-01,-5.673708843048340666e-01,-4.328861401896184624e-01,2.850261213745806654e-01,-1.043854930437735362e+00,1.383902971978295593e+00,8.304633241609613581e-01,-7.484546786208597924e-01,6.895337881170232608e-01
7.219646407891211481e-01,-2.706977429434344606e-01,4.118901042845296567e-01,-5.553726443669206869e-01,-8.329256749782368296e-02,1.568337283605873711e-01,8.918728330152639883e-01,-7.157415162349751725e-01,8.091451054680678379e-01,-1.325027950870760751e+00
1.553683497568378868e-01,4.330003875448900086e-01,1.362691851059104176e+00,-7.010329320413055676e-01,-1.755742808592666293e-01,1.283919024085657667e-01,1.336843903451074012e-01,6.668368335250820511e-01,-1.303759089551003392e+00,-3.427528534729215037e-01
9.415274041125032412e-01,-2.404054621183827345e-01,-8.540464015233939499e-01,-6.482416808843858291e-01,9.163561822212066277e-01,-1.163663168731289721e+00,5.119891402164199468e-01,4.300222564061897401e-01,-8.156371318649898727e-01,6.572660798520407743e-01
-1.978325929199376276e-01,6.543762116043830845e-01,-3.654355419973007169e-01,-1.207764784174289785e+00,-2.710559177461189240e-01,-7.273883934712082992e-03,9.769080924415878275e-01,-3.090176829911386314e-01,3.466184497396546105e-01,3.285591696979420773e-01
3.741511096298162919e-01,-2.096758681442019434e-01,7.174116765535553109e-01,9.360802077877619087e-01,-1.516894014102597055e+00,-2.293003372077692115e-01,-1.093601678826353840e+00,3.943230443040863786e-01,8.697909939554081260e-02,4.879178555979180598e-01
-9.983263765412502266e-01,-3.557824951683842829e-01,-2.277434724908438540e-02,9.858995286987818352e-01,4.369529321622878659e-01,2.934207255376044543e-01,-7.416667907196786702e-01,8.149887123778848386e-01,-3.404474283385455768e-01,1.880648834816850135e-01
-5.992837154039202252e-01,-1.116108056727935782e+00,-6.024259230796810138e-01,-8.235767595100798033e-01,8.653238388420295690e-01,4.123177811126601533e-01,-2.644273424154688912e-01,4.602382325282888820e-02,1.024222267068270353e+00,8.734223457771603805e-01
-4.261372740694117089e-01,4.552774341708781258e-01,-1.405773579157297282e-01,9.183468918524904101e-01,3.751699231544080582e-01,-8.301579583210477731e-01,3.990502050544542656e-01,1.203581773313000119e-01,-3.349691161165166409e-01,-6.248681014656530808e-01
6.568881018977363873e-01,-6.063982874298475684e-02,-1.001216223312140219e+00,-3.182552160658015938e-01,-2.574707813349774721e-01,5.055256750061879467e-01,1.303306729232877936e+00,-2.590181953204181986e-01,-2.061471929164646610e-01,-4.784386659115766327e-01
9.841881496406981178e-01,-8.631625802847188444e-02,-3.771406298602162366e-01,-8.108502904682723944e-01,-2.036571040941924926e-01,1.083689318750772346e+00,3.547381021561381020e-01,1.738863103748752859e-01,-1.058257936210037942e+00,-4.687873070931509734e-01
-2.435648346811259413e-01,5.058545575596011812e-01,6.795225183503983413e-01,-1.107644204111582487e-01,-6.697443569317368395e-01,-7.526619854360939998e-02,1.135543679680097284e+00,-1.444932343870557016e-02,-6.683465785508629908e-01,-1.062360012668351228e+00
-3.281499398578870963e-01,8.079623248939926672e-01,-5.704044024008521063e-01,-2.681387610871721061e-01,1.407987087751976230e+00,-2.146730449741250379e-01,7.632056469730136294e-02,4.703524031424766161e-02,-2.769881248743380486e-01,-9.255935984667491567e-01
1.355836322111884318e+00,-9.450524114927820740e-01,6.917729000527681471e-01,-8.668107953075486483e-02,-5.536923134119577927e-01,-4.485809725099291767e-01,-7.876387774157403987e-01,2.761550094603574812e-01,-2.838811364348785560e-01,5.276330150224857185e-01
-8.039903755001889252e-01,-6.156795180587174565e-01,-1.296070995262460779e-01,3.266845180016349492e-01,-1.387431409592937426e+00,1.243524658167520336e+00,-6.716460267658408423e-01,6.051568636719522054e-01,5.607036686541336801e-01,5.244587870383030648e-01
7.136765634282513648e-01,-6.253125199061003725e-01,-4.737858787123107596e-01,8.482996046576872784e-01,-1.073846414901841628e+00,1.140103947920140026e+00,5.650862644806174950e-01,-2.783697999546233537e-01,-1.631171896129383903e-02,-4.338331144123209748e-01
-1.221122075292675468e-01,5.051645940259872347e-01,-7.726802976341087259e-01,-8.326249182492659329e-02,5.093167159868844385e-01,1.073656334382428745e-01,3.294436879507059990e-01,-8.210990474784810589e-01,6.477454005649768698e-01,1.985913654302413067e-01
-2.129647166363236588e-01,8.242372465237244317e-01,-7.177913822444572656e-01,2.682654066755445488e-01,1.126715444656906540e+00,-4.020849383793518861e-01,6.235458808374774176e-01,1.385889048380148925e-01,-2.746510451380897444e-01,-1.097466422282518117e+00
-1.013000530653830555e+00,1.188878055404251066e+00,-4.387679947334707231e-01,1.133524812732951803e+00,4.412340441795361556e-01,1.045848252712972437e+00,-1.054977017289119967e+00,-6.890327451062153719e-01,-1.082322142535903309e+00,4.606457555324889319e-01
-4.697982886216671705e-01,-3.243419433431770638e-01,1.491400897177376450e+00,-9.362895223751484253e-02,-7.420461895789264017e-02,3.698337531659673383e-02,9.549070655623392856e-01,-5.076603842485722939e-01,-6.485976386077785261e-01,-7.515280954238294786e-01
-1.537811000022449304e-01,-5.982789286799080619e-01,-3.073920270220698026e-01,-1.933274257389373807e-02,-1.507998640620576092e+00,1.557425468253320178e+00,-8.623719473203145247e-02,8.878274907966086094e-01,5.239191520847756578e-02,2.146988242757865706e-01
-2.058086390405186317e-01,-2.274934560601210853e-01,2.462273461517896014e-02,1.005880306960696829e-01,-6.606069480931736279e-03,7.129496496048882692e-01,6.537695319766568813e-01,-6.878956891611216484e-01,9.646869145992268413e-01,-1.066732158671501285e+00
5.698761103601337474e-01,6.036595348678083228e-01,9.920624518905682976e-01,-2.683840389403571169e-01,-1.985020386795412206e-01,-2.413499475854564702e-01,2.673031580123974016e-01,7.476209871417760500e-01,-6.953716665776362715e-01,-1.454002121375707501e+00
2.636183912232728521e-01,-8.435385613772896640e-01,5.407037515071989597e-01,-8.183658955062416140e-01,1.373959188584691793e+00,1.257282597047981731e-01,5.630425329343476948e-01,-3.721230370991048808e-01,-1.069378586169266621e+00,2.102363202732724368e-01
-4.814566438620526689e-01,5.406345330018378359e-01,-1.567510075431569616e+00,-4.033783739842238258e-01,8.602989172677597551e-01,-5.188553584392876505e-01,-3.846598850189956176e-01,3.054483399318964620e-01,1.213780194820751623e-04,1.134777212600348362e+00
-3.542720323697500784e-01,3.718002460096448414e-01,-1.469025200969309164e-01,4.807288147553953062e-01,1.275646762873314577e+00,3.604587470844544117e-01,-4.661228130659980096e-01,-4.309630964758627281e-01,-4.691303812601583800e-01,-6.196306156281421451e-01
-6.050836081966420865e-01,-1.456417444123449256e-01,-6.090508828027502153e-01,6.532959805712036383e-01,2.283980770311492825e-01,-2.259465840731582631e-01,-4.729128116055157371e-01,-6.954407682720545880e-01,7.638164612739423154e-01,7.906267827159437767e-01
-3.163333891324284219e-01,6.009518715715900239e-01,-1.483523454428080646e-01,-3.907648765276465208e-01,6.741289513599711958e-01,8.234190718439390322e-01,-8.027504071465751956e-01,-2.732710067162681389e-01,-3.310426732183827658e-01,8.394140686553251685e-02
8.404304144732178961e-02,-3.628981534045671031e-01,-3.018960737852413034e-01,-4.901199470720012386e-01,-9.152011896920307643e-02,7.918793311845289118e-01,-4.899636899096936754e-02,3.284437140351986750e-01,-1.545106055138975032e-01,1.379549895579658680e-01
-8.977862841176390551e-01,-1.003561503995485493e+00,6.380348180385628232e-02,1.404190096759662387e-01,-6.384404046938364496e-01,9.736875587323327030e-01,9.685297716890944875e-02,1.387253297215899628e-01,3.009919812376668502e-01,6.610017641114040998e-01
1.827615872513763395e-01,-4.142763789075837866e-01,-1.860888948945929044e-01,-2.321880930706687052e-01,-3.266944877775322387e-01,7.142134209033138559e-01,-5.852143348213246776e-01,-3.308849257465035221e-01,7.665628040740859461e-01,4.538517730164914332e-01
1.729076639744420718e-01,-1.435075916055398859e-01,-1.021387371230283003e+00,-1.827981427350125199e-01,-5.042330772045389153e-01,3.934692516869967571e-01,2.827593689340583971e-01,-9.466694283361616613e-02,9.862589542781611263e-01,-2.096300164354895357e-01
-2.469092885324153941e-01,5.365798651354328902e-02,5.563651977361951800e-02,6.278930380286762425e-01,2.813287418562736009e-01,-1.512107696326715267e+00,-9.000093034684322202e-01,4.809824879145195853e-01,5.004434311313021855e-01,7.126651603567185633e-01
1.014495247580561310e+00,-3.778835071593455996e-01,7.949608221809139064e-01,-6.184134284447845298e-01,-3.262049561597011871e-01,-4.063023957493905880e-01,3.080848912408619689e-01,-7.038319192056841089e-01,9.404805366420304624e-01,-4.746006769030817751e-01
-1.357103364890317465e-01,8.067358133878704818e-01,-3.193160530378063577e-01,-8.616192702988497709e-01,2.220054599385185290e-01,3.956155064576189484e-01,2.296813745801958018e-01,-5.113564663232622598e-02,-7.821141561738045311e-01,6.474744439736879187e-02
1.332013896327151725e+00,-4.077641154713533833e-01,-4.283925308358488837e-01,-2.907279555914698849e-03,-7.837340592285894081e-01,4.325895568964270854e-01,-1.555374526515192757e-01,7.925024811830380100e-01,-4.661164044069644463e-01,-5.754972523510467619e-01
-4.977100445123319727e-01,-2.192335483750809666e-01,4.141673380409983951e-02,-1.908605191911300902e-01,-3.959198439702824035e-01,1.547280628329089913e-01,-1.865191549381290670e-01,1.694051876701670123e+00,-3.117389235316024299e-01,-6.057362784930382382e-01
2.121819918439792618e-01,-4.235102788042281463e-01,2.877843158522888634e-01,7.401334948347468301e-02,-7.188940274638146999e-01,1.409652108456537878e+00,1.024159892726940857e+00,-2.870302939083921867e-01,-7.319101551368514258e-01,-5.409114791559911373e-01
-3.131798604388959517e-01,-6.032409833777166996e-01,-8.943248577550035883e-01,1.361718213003725086e+00,-1.441924477232047266e-02,1.265669638534291153e+00,-8.902262647594796352e-01,-4.059878039496511160e-01,-4.278927198205019211e-01,8.844431665506627960e-01
