-4.882557887242952588e-01,6.169554292170971281e-03,1.120836498665711778e+00,-8.140796025708803008e-01,-1.172272814294996301e+00,-5.187363048934301446e-01,-4.297447830525161772e-01,-1.463561856885968737e+00,-1.131970624808196352e-02,-1.421146037690838027e+00
-1.318832613966779643e+00,-1.605943553984739314e+00,-2.389866833041512262e+00,-1.249336839127148879e+00,-1.655314828545136896e+00,-7.873398849819990275e-01,-9.035548753321497317e-01,-1.227758159431762697e-01,-1.397239360072386249e+00,1.146404283994932660e+00
-1.644351421282709724e+00,-1.672920398698133138e+00,-6.129787919395991436e-01,-1.072667883182317095e+00,1.159244711589977106e+00,-8.766804837011593632e-01,-3.882452305488995337e-01,-5.799552655325033168e-01,-1.531748142266698531e+00,-2.650773278545756728e+00
7.546949027644671293e-02,-2.343283735141111213e-01,-7.164924565095278641e-01,9.440994515862555225e-02,-2.298507537743172402e-01,-5.716877876003668701e-01,-8.704248451375203866e-01,5.989590361647029182e-02,2.925892679445837863e-01,1.347180748123474603e-01
1.332170099694105214e-01,-1.379395530119963964e-01,4.927426635047769954e-02,8.598251526171070414e-02,-3.820941070612295792e-02,-1.299185799996073476e-01,1.132238293346196356e-01,-2.313352767649793501e-02,-7.741762965521652336e-03,4.877277601597795192e-02
-5.421171436485769934e-01,-2.665395512764694441e-01,-5.127718449709129933e-01,-3.523950817579962758e-01,1.543813359395487916e+00,-1.012283789560939305e-02,3.564716735089975413e-02,-7.329432592402345126e-01,-1.774728679150534005e-01,-7.084147929489861273e-01
-3.519395060924196406e-01,-2.816298659252419734e-01,-1.548967297669640031e+00,-9.837591127788510859e-01,-7.932663075312053058e-01,2.571552571099910978e-01,-5.357543609106998339e-01,-1.171017078500184438e-01,-4.750329490633097285e-01,8.015629798764224434e-01
3.932322604750909112e-01,-6.186504458945188967e-01,-1.468243880926007050e-01,-4.751240803398995016e-01,-1.064749801622282277e+00,-7.853561345257732418e-01,-8.817816320354029402e-01,-2.922680813790006660e+00,-8.661593319004693425e-01,-7.990959773930582655e-01
-2.306209475900444339e+00,-4.127196392124169999e-01,4.847150493618788691e-01,-9.891009324722043194e-01,2.992955676675276844e-01,-8.245531372940951842e-01,-2.261868950572724635e-01,-2.063048934828034309e+00,-7.886762478110250774e-01,3.748416856097427363e-01
-9.805532607500420106e-01,-7.286897049575936647e-01,-3.306732554270860325e-01,-7.729219587881255293e-01,2.011218196995964713e-01,-8.998993457277196795e-01,9.925748857307490347e-01,-4.470857321235707088e-02,-2.141666944129765604e-01,-8.939338381325593330e-01
7.901252211991945940e-01,-7.354054868125878830e-01,-1.026650246565157465e+00,-6.614211429342945481e-01,-5.012998802466415160e-01,-5.603676895358555843e-01,-1.133246613489945487e+00,-1.539862908026921363e-02,-1.557743990616089480e+00,-1.239571472331379542e+00
-1.208469877567158512e+00,-7.168172910600777437e-01,-5.211249900934841195e-01,-7.028176641154172399e-01,-3.405954510130104196e-01,7.583058678322261714e-02,-9.274538043182599667e-01,-1.306083371603234511e+00,5.149920764969072584e-01,-1.026979636080180003e-01
-4.261140324652474831e-01,-5.411051187221816994e-01,-3.524213711721122522e-01,-1.825965891287497422e+00,-1.415980057036435813e+00,-1.348682071282256256e+00,-5.513068626480852608e-01,-1.706230810587913593e+00,1.149671259104495524e+00,-1.504681350309496235e+00
-1.764470984571749002e+00,-1.605949567147866963e+00,2.485179806913772715e+00,-2.246987795325876114e+00,-8.593949998100866017e-01,-2.911348831763526518e-02,-9.832967466265518652e-01,-9.516878229345121509e-01,-2.637269947367312906e+00,-1.005859254089197075e+00
-8.600503335811927608e-01,-5.655958978960011763e-01,-1.477198835044505998e+00,-2.108631059978604227e+00,-2.103392645777329317e+00,2.408400460046549174e+00,-3.932576385165699184e-01,-6.364099291703584349e-01,-8.614497717745529526e-01,-1.032287879351979215e-01
7.290991419387207739e-02,-1.732110029717134625e-01,3.504714408669748482e-01,-2.324384019465646489e-01,-6.634089040078343380e-02,4.773736658892820811e-02,-9.564769616426631316e-02,-1.279453973575826464e-01,-8.670083328425427782e-02,-4.137038060313154297e-02
-9.380987646557046311e-01,5.404619704024611337e-01,-6.479745751265628684e-01,1.683497004249915108e+00,-4.910672938364609164e-01,-1.701153074013046496e+00,-1.500266246218100674e+00,-8.126924959097431289e-01,-7.808988118332226280e-01,-6.255376840052833121e-01
3.584161570558321297e-01,-7.281476314592472132e-01,-2.105248997836994374e+00,3.352756470475928285e-01,-1.222655038187899335e+00,-4.568144747830640284e-01,-5.499569930487152591e-01,1.882246943896450642e+00,-1.546365607911667217e+00,-1.478506961203355896e+00
-1.384331252994835282e+00,-1.548276905437745155e-01,-9.567441196388689617e-01,3.972070598148586540e-01,-8.614278895965290506e-01,-1.305566862981951681e+00,-7.929718247183213942e-01,-1.141353178121565781e+00,3.748078611650594860e-01,-3.208017567126686398e-01
1.376074753616765567e-01,-2.191691406363562716e-02,-3.992292871268186133e-02,1.516581298873019784e-03,-1.287338888103190249e-01,-3.758251838830814484e-01,-1.137492062082470917e-01,-2.390914844284201535e-01,-4.082792951852525637e-02,-1.075614258879106777e-01
-1.304861214256645363e+00,-1.172401057494518950e+00,-1.256423755863190106e+00,-6.486914046640714915e-01,-8.705906015778187568e-01,-1.528323446771190364e+00,1.922750216475988427e+00,-6.450231258542240553e-01,-9.571872460000134808e-01,-5.823615256727983081e-01
-5.922617262417528838e-01,-4.826615122349033338e-01,-3.537371683660530119e-01,-2.145434952054378730e+00,-3.993833597595498053e-01,-1.217096935283135783e+00,-7.762870800059938903e-01,-1.365325662582174582e+00,-1.232001900733954880e+00,1.335335460712402611e+00
-7.371791896030479574e-01,-1.057431710115831258e+00,-1.905973854382649602e-01,-3.042183555767014602e-01,-1.331180105908256861e+00,-1.129491107527863303e+00,-1.735297073490457809e+00,1.157571981635615588e+00,-2.264733976465155507e+00,-2.667542055349166219e+00
-4.804572727684478656e-02,3.881207919063696388e-02,2.913133681089437668e-02,-1.081367848796241232e-01,-5.021442014517064900e-02,-5.860316197814839645e-02,3.187946769583625828e-02,5.209291037380171796e-02,-7.882126997755070641e-02,8.553649903150684075e-02
-1.831185627748699862e-01,2.245537424256631998e-01,6.183562850554157574e-03,-1.006945157777749261e-01,1.590873562029056776e-01,2.809127950178082547e-02,-1.402395791269765435e-01,-7.376341876578186574e-02,1.062453810148701883e-01,-1.310823718153280859e-01
3.052322437774216413e-01,-1.082154154540751617e-01,-1.048716974633448595e+00,-5.292337140795613237e-01,-1.120007896065610131e+00,1.236072429883293022e+00,4.916576167432845090e-01,-7.810761039907301306e-01,-1.748843797071663930e+00,-1.652162210364273298e-01
1.413780121258937594e+00,-4.670473336606716375e-01,-1.940428359792167878e+00,-1.286248876415928333e+00,-7.787786130803165952e-01,-2.779013663463868244e+00,-1.061494190162109552e+00,-2.621433255698853437e-01,-9.798046210420234825e-01,3.090328565123618976e-01
7.367583667591217633e-01,-7.540766954689215318e-01,-6.838228504963466126e-01,-1.324840072378906886e+00,-7.734373229162243568e-01,-1.677485855057017750e+00,-1.210957441215327612e-01,-1.266755381526439850e+00,1.550490591888189273e+00,-1.375298397325678268e+00
-6.421625846958349815e-01,4.361236510198863159e-01,6.508348347988777149e-01,-1.307130960196901670e+00,-8.959524884787468668e-01,-1.477293876608524403e+00,-5.079351738393256266e-01,-9.703121476842611060e-01,-1.367191289825797185e+00,-1.292033408784149850e+00
-1.459374009124789984e+00,-1.413470735089202401e+00,-8.672696002337253462e-01,1.219565218423103392e+00,-7.618178633568223335e-01,-4.684842753759654310e-01,-1.823958530123657606e+00,-1.010611174215885200e+00,-1.416345804891234517e+00,-9.018348020353075256e-01
-1.595402171912113864e+00,-1.073139880251903655e+00,-5.786864303251559871e-01,-2.155669758264715935e-02,8.261596655837832870e-01,5.348142865830561865e-01,-1.466649092121016684e+00,-9.667696249302342171e-01,-8.099909843147713451e-01,-5.022765330586828059e-01
-8.370762662411603827e-01,-2.145463863901571622e-01,-1.696180797191627843e+00,1.351772817926822245e+00,-7.386892590691679361e-01,-1.566640506558246049e+00,-6.811104797803235744e-01,-6.537082486619076871e-01,-9.772878943856760925e-01,1.016599675544536119e+00
-2.059327081448129315e-01,1.303159579639291188e+00,-1.033676165756485243e+00,-2.525110766199329060e+00,3.916880625219473222e-01,-1.179585517811246875e+00,-7.003817306090057704e-01,1.389193441465360612e-01,-1.216207939631711366e+00,-1.360518283055391686e+00
-3.128569670080328380e-01,-1.166672804719645073e+00,-1.276127739172401521e+00,-8.797266980575174644e-01,-5.162645517478688106e-02,5.629803484988905593e-01,1.339735428834917808e-01,1.515139035432513381e-01,9.059655573455431821e-01,-1.036149351861948009e+00
-1.758473965226858005e-01,5.069600231756624664e-01,-1.791739590057881693e-01,-4.219466795775831391e-01,4.363611122125120659e-03,-8.923960056265412000e-02,-1.359271845982935878e-01,1.142044247211001090e-01,-3.663278798893767618e-01,-3.609056730018166959e-01
2.182794798591492502e-01,-9.470420977101152715e-01,-1.264476942531495229e+00,-1.243838257697367000e+00,5.600508444300835720e-01,2.839141483217812456e-01,1.022340818179571897e+00,-2.836567013733009013e-01,-6.667484078879594156e-01,-3.197905394326984729e-01
-2.316413741731337406e-01,2.299199168116754066e+00,-2.065325377152397834e+00,-7.290775146711255816e-01,-4.515370744765964672e-01,-6.830888750216177474e-01,-7.416096176747750679e-01,-6.943402141600724109e-01,-2.197089730761949244e+00,2.647166723514807751e-01
1.263265592957647288e+00,-9.438359917386973663e-01,-1.004754158973127254e+00,-1.438096306863383411e+00,-8.465474409455218119e-01,-2.395865675959814478e+00,-2.410205545060334631e-01,-1.790640879314049805e+00,-1.338373704922308338e+00,-3.112619008264499443e-01
-2.078770783797982080e+00,-9.234577292780441482e-01,-1.691513720811195221e+00,-5.614483326036892041e-01,-1.706287357809518623e-01,-1.406144182950357369e+00,-1.149059205584529897e+00,5.082120187868546246e-01,-7.635000374521736521e-01,-1.054047354058481878e-01
-1.010890896334772499e-01,8.344431138006710991e-02,8.338749417842099276e-02,1.323849924589124566e-02,3.506761239793702162e-02,-6.362414736920556091e-02,4.101476859543797676e-02,5.953512555803327361e-02,2.628179437448971076e-02,1.150420262945876099e-01
-1.670630659813467256e+00,-1.210813388187028217e+00,-9.002024862287755225e-01,-1.637353542803937856e+00,-1.382524466467065283e+00,-5.275441805211945612e-01,-3.576597311283514213e-01,2.173726522113643700e+00,-9.778432329643185206e-01,-3.675432833957225753e+00
2.270342626183326495e-01,-4.463949929103217529e-01,-1.005560906988707037e+00,-5.855921373111276917e-01,2.840864447407314697e-01,-9.137400446981085445e-01,-9.413183811780445609e-01,-1.997995654558565592e-01,-1.665106637126490818e-01,-9.189581684479782020e-02
-2.044457924749757183e+00,-8.914733488299665387e-01,-2.271842713616876619e+00,-4.495314942454662899e-01,-2.692866617655131911e+00,-1.769334222618639485e+00,2.042232340995757234e+00,-4.570973239110587283e-01,-1.535452622679959855e+00,-1.195147615252605933e+00
-3.938248576224701591e-01,-2.743881551496685778e-01,-9.655965156027471741e-01,-2.797035804392310698e+00,-9.763983795406901978e-01,2.923981113823201916e+00,-1.095047372588551227e+00,-9.187020997903174724e-01,-2.397197928329550809e+00,-1.087015165090733371e+00
1.470979834382732110e-01,1.471354104533866503e+00,-6.849478058641026434e-01,-4.798668872868107338e-02,-1.356524611700578031e-01,-9.736988568667315214e-02,-2.353078735674428087e-02,-6.372236524589991458e-02,-1.333918097897511590e+00,-2.555376804956746017e-01
-4.688087521421655662e-02,-7.803124411476931588e-01,-5.843313731261553512e-01,-3.879495507845364677e-01,-8.561976813544014409e-01,1.656132108431874750e+00,-1.386041594949558586e+00,-1.137277719778900936e-01,-1.572407966563380111e+00,-2.592022423124484276e-01
-1.384286829546148789e+00,-7.275848466489738264e-01,-4.546662225676415536e-01,-1.557260282740645430e+00,-8.408500612311062827e-01,-1.088998124635254916e+00,-1.419101620454677581e+00,-1.362950242083409202e+00,1.242763762848235531e+00,-5.054155614558237808e-01
-1.164160315868888462e+00,-1.417412189508463483e+00,-1.186891751827370500e+00,1.280438463332822074e+00,-4.922502929257995818e-01,9.986230280527954584e-01,-1.296816791684715531e+00,-1.906632466515960411e+00,-1.807919024112704331e+00,-7.310177163209475859e-01
-8.765073468533762790e-01,-1.100603187907989167e+00,1.286266452515847147e+00,-8.529728490766589344e-01,-1.931463592197306012e+00,-7.193123435492437823e-01,8.973021416589282984e-02,-1.642944782467081311e+00,-4.587465817901760223e-01,-1.235672262225098850e+00
-2.685863793506410580e-01,2.108657717842146173e-01,-5.584058170420403977e-01,-7.314843479150713312e-01,1.532802098352628928e+00,-4.131568850838612250e-01,-4.396237882418561616e-01,-8.938351517837044291e-01,-1.108748330258031656e+00,-1.604579569678404205e+00
